{"learner":{"attributes":{"scikit_learn":"{\"_estimator_type\": \"regressor\"}"},"feature_names":[],"feature_types":[],"gradient_booster":{"model":{"cats":{"enc":[],"feature_segments":[],"sorted_idx":[]},"gbtree_model_param":{"num_parallel_tree":"1","num_trees":"100"},"iteration_indptr":[0,1,2,3,4,5,6,7,8,9,10,11,12,13,14,15,16,17,18,19,20,21,22,23,24,25,26,27,28,29,30,31,32,33,34,35,36,37,38,39,40,41,42,43,44,45,46,47,48,49,50,51,52,53,54,55,56,57,58,59,60,61,62,63,64,65,66,67,68,69,70,71,72,73,74,75,76,77,78,79,80,81,82,83,84,85,86,87,88,89,90,91,92,93,94,95,96,97,98,99,100],"tree_info":[0,0,0,0,0,0,0,0,0,0,0,0,0,0,0,0,0,0,0,0,0,0,0,0,0,0,0,0,0,0,0,0,0,0,0,0,0,0,0,0,0,0,0,0,0,0,0,0,0,0,0,0,0,0,0,0,0,0,0,0,0,0,0,0,0,0,0,0,0,0,0,0,0,0,0,0,0,0,0,0,0,0,0,0,0,0,0,0,0,0,0,0,0,0,0,0,0,0,0,0],"trees":[{"base_weights":[-1.7591648E-9,-1.4855006E-2,1.9187711E-2,-1.5916215E-2,8.490637E-4,7.6255994E-3,1.3391004E-2,-4.69115E-4,-1.6550465E-3,-5.8467174E-4,1.4531206E-3],"categories":[],"categories_nodes":[],"categories_segments":[],"categories_sizes":[],"default_left":[0,0,0,0,0,0,0,0,0,0,0],"id":0,"left_children":[1,3,5,7,-1,-1,9,-1,-1,-1,-1],"loss_changes":[1.5676845E-2,9.0315146E-4,6.9182515E-3,1.3594376E-4,0E0,0E0,5.8946246E-4,0E0,0E0,0E0,0E0],"parents":[2147483647,0,0,1,1,2,2,3,3,6,6],"right_children":[2,4,6,8,-1,-1,10,-1,-1,-1,-1],"split_conditions":[1.1877474E2,5.085196E-2,1.9072888E-2,4.848769E1,8.490637E-4,7.6255994E-3,4.848769E1,-4.69115E-4,-1.6550465E-3,-5.8467174E-4,1.4531206E-3],"split_indices":[5,10,0,29,0,0,1,0,0,0,0],"split_type":[0,0,0,0,0,0,0,0,0,0,0],"sum_hessian":[5.3E1,3E1,2.3E1,2.9E1,1E0,1E0,2.2E1,2E0,2.7E1,1E0,2.1E1],"tree_param":{"num_deleted":"0","num_feature":"30","num_nodes":"11","size_leaf_vector":"1"}},{"base_weights":[1.3368262E-4,-1.3412041E-2,1.762467E-2,-1.4324706E-2,6.9839734E-4,1.2091553E-2,7.2443197E-3,-2.0288547E-4,-1.4678742E-3,-6.61477E-4,1.3242512E-2,1.4419829E-3,7.699694E-4],"categories":[],"categories_nodes":[],"categories_segments":[],"categories_sizes":[],"default_left":[0,0,0,0,0,0,0,0,0,0,0,0,0],"id":1,"left_children":[1,3,5,7,-1,9,-1,-1,-1,-1,11,-1,-1],"loss_changes":[1.3030499E-2,6.7710085E-4,6.4036665E-3,1.00813806E-4,0E0,5.8279093E-4,0E0,0E0,0E0,0E0,3.253622E-5,0E0,0E0],"parents":[2147483647,0,0,1,1,2,2,3,3,5,5,10,10],"right_children":[2,4,6,8,-1,10,-1,-1,-1,-1,12,-1,-1],"split_conditions":[1.1851107E2,5.085196E-2,6.5611556E-2,1.8708147E-2,6.9839734E-4,1.9013599E-2,7.2443197E-3,-2.0288547E-4,-1.4678742E-3,-6.61477E-4,5.3632714E-2,1.4419829E-3,7.699694E-4],"split_indices":[3,10,6,14,0,0,0,0,0,0,10,0,0],"split_type":[0,0,0,0,0,0,0,0,0,0,0,0,0],"sum_hessian":[5.3E1,3E1,2.3E1,2.9E1,1E0,2.2E1,1E0,1E0,2.8E1,1E0,2.1E1,1.6E1,5E0],"tree_param":{"num_deleted":"0","num_feature":"30","num_nodes":"13","size_leaf_vector":"1"}},{"base_weights":[2.651738E-4,-1.2150801E-2,1.6291425E-2,-1.3045502E-2,7.345114E-4,6.8821036E-3,1.101531E-2,-3.8214875E-4,-1.3567879E-3,-4.8204447E-4,1.1954228E-2,1.220802E-2,3.3123046E-4,1.2470552E-3,3.47868E-4],"categories":[],"categories_nodes":[],"categories_segments":[],"categories_sizes":[],"default_left":[0,0,0,0,0,0,0,0,0,0,0,0,0,0,0],"id":2,"left_children":[1,3,5,7,-1,-1,9,-1,-1,-1,11,13,-1,-1,-1],"loss_changes":[1.0942957E-2,6.3655386E-4,5.89357E-3,9.270245E-5,0E0,0E0,3.9960002E-4,0E0,0E0,0E0,7.814728E-6,4.7453213E-6,0E0,0E0,0E0],"parents":[2147483647,0,0,1,1,2,2,3,3,6,6,10,10,11,11],"right_children":[2,4,6,8,-1,-1,10,-1,-1,-1,12,14,-1,-1,-1],"split_conditions":[1.1877474E2,5.085196E-2,1.9072888E-2,4.848769E1,7.345114E-4,6.8821036E-3,4.848769E1,-3.8214875E-4,-1.3567879E-3,-4.8204447E-4,1.9157025E-1,1.24230576E2,3.3123046E-4,1.2470552E-3,3.47868E-4],"split_indices":[5,10,0,29,0,0,1,0,0,0,18,1,0,0,0],"split_type":[0,0,0,0,0,0,0,0,0,0,0,0,0,0,0],"sum_hessian":[5.3E1,3E1,2.3E1,2.9E1,1E0,1E0,2.2E1,2E0,2.7E1,1E0,2.1E1,2E1,1E0,1.9E1,1E0],"tree_param":{"num_deleted":"0","num_feature":"30","num_nodes":"15","size_leaf_vector":"1"}},{"base_weights":[3.742447E-4,-1.0968122E-2,1.5009208E-2,-1.1798916E-2,6.977858E-4,6.5379976E-3,9.976566E-3,-3.5667222E-4,-1.2259547E-2,-4.5794222E-4,1.0846358E-2,-1.2460781E-2,-3.413114E-4,5.4547936E-4,1.1410563E-2,-1.2821874E-3,-5.298078E-4,1.1677289E-3,3.304746E-4],"categories":[],"categories_nodes":[],"categories_segments":[],"categories_sizes":[],"default_left":[0,0,0,0,0,0,0,0,0,0,0,0,0,0,0,0,0,0,0],"id":3,"left_children":[1,3,5,7,-1,-1,9,-1,11,-1,13,15,-1,-1,17,-1,-1,-1,-1],"loss_changes":[9.128358E-3,5.445229E-4,5.4316856E-3,7.003406E-5,0E0,0E0,3.4086523E-4,0E0,7.3160045E-6,0E0,4.6805944E-6,1.901295E-6,0E0,0E0,2.488261E-6,0E0,0E0,0E0,0E0],"parents":[2147483647,0,0,1,1,2,2,3,3,6,6,8,8,10,10,11,11,14,14],"right_children":[2,4,6,8,-1,-1,10,-1,12,-1,14,16,-1,-1,18,-1,-1,-1,-1],"split_conditions":[1.1877474E2,5.085196E-2,1.9072888E-2,4.848769E1,6.977858E-4,6.5379976E-3,4.848769E1,-3.5667222E-4,3.4531444E-2,-4.5794222E-4,1.10899666E2,1.19360214E2,-3.413114E-4,5.4547936E-4,1.24230576E2,-1.2821874E-3,-5.298078E-4,1.1677289E-3,3.304746E-4],"split_indices":[5,10,0,29,0,0,1,0,6,0,23,21,0,0,1,0,0,0,0],"split_type":[0,0,0,0,0,0,0,0,0,0,0,0,0,0,0,0,0,0,0],"sum_hessian":[5.3E1,3E1,2.3E1,2.9E1,1E0,1E0,2.2E1,2E0,2.7E1,1E0,2.1E1,2.6E1,1E0,3E0,1.8E1,2.4E1,2E0,1.7E1,1E0],"tree_param":{"num_deleted":"0","num_feature":"30","num_nodes":"19","size_leaf_vector":"1"}},{"base_weights":[4.5370136E-4,-9.967669E-3,1.3895733E-2,-1.066175E-2,5.427381E-4,9.0989405E-3,6.2110983E-3,-1.5580021E-4,-1.0921948E-2,-4.9645425E-4,9.963851E-3,-1.109452E-2,-3.044973E-4,1.0884327E-3,5.6951935E-4,-1.1265245E-3,-3.2424583E-4],"categories":[],"categories_nodes":[],"categories_segments":[],"categories_sizes":[],"default_left":[0,0,0,0,0,0,0,0,0,0,0,0,0,0,0,0,0],"id":4,"left_children":[1,3,5,7,-1,9,-1,-1,11,-1,13,15,-1,-1,-1,-1,-1],"loss_changes":[7.703065E-3,3.891131E-4,4.9855416E-3,5.4046744E-5,0E0,3.2922986E-4,0E0,0E0,5.6386925E-6,0E0,2.4453737E-5,1.0083895E-6,0E0,0E0,0E0,0E0,0E0],"parents":[2147483647,0,0,1,1,2,2,3,3,5,5,8,8,10,10,11,11],"right_children":[2,4,6,8,-1,10,-1,-1,12,-1,14,16,-1,-1,-1,-1,-1],"split_conditions":[1.1851107E2,5.085196E-2,6.5611556E-2,1.8708147E-2,5.427381E-4,1.9013599E-2,6.2110983E-3,-1.5580021E-4,1.1945516E2,-4.9645425E-4,5.3632714E-2,5.085196E-2,-3.044973E-4,1.0884327E-3,5.6951935E-4,-1.1265245E-3,-3.2424583E-4],"split_indices":[3,10,6,14,0,0,0,0,15,0,10,6,0,0,0,0,0],"split_type":[0,0,0,0,0,0,0,0,0,0,0,0,0,0,0,0,0],"sum_hessian":[5.3E1,3E1,2.3E1,2.9E1,1E0,2.2E1,1E0,1E0,2.8E1,1E0,2.1E1,2.7E1,1E0,1.6E1,5E0,2.6E1,1E0],"tree_param":{"num_deleted":"0","num_feature":"30","num_nodes":"17","size_leaf_vector":"1"}},{"base_weights":[5.19521E-4,-9.048878E-3,1.2857057E-2,-9.603465E-3,3.7943572E-4,5.900543E-3,8.285153E-3,-2.9015008E-4,-9.978551E-3,9.166614E-3,-5.5535015E-4,-7.249399E-3,-1.131804E-3,1.0890449E-2,6.4527383E-4,-7.595026E-4,-1.7237542E-4,5.755262E-4,1.2738636E-3],"categories":[],"categories_nodes":[],"categories_segments":[],"categories_sizes":[],"default_left":[0,0,0,0,0,0,0,0,0,0,0,0,0,0,0,0,0,0,0],"id":5,"left_children":[1,3,5,7,-1,-1,9,-1,11,13,-1,15,-1,17,-1,-1,-1,-1,-1],"loss_changes":[6.4910674E-3,2.5724224E-4,4.574794E-3,4.646182E-5,0E0,0E0,3.3146644E-4,0E0,2.0309584E-5,3.2648793E-5,0E0,9.825744E-6,0E0,4.057528E-5,0E0,0E0,0E0,0E0,0E0],"parents":[2147483647,0,0,1,1,2,2,3,3,6,6,8,8,9,9,11,11,13,13],"right_children":[2,4,6,8,-1,-1,10,-1,12,14,-1,16,-1,18,-1,-1,-1,-1,-1],"split_conditions":[1.18417534E2,5.085196E-2,1.9072888E-2,4.848769E1,3.7943572E-4,5.900543E-3,1.3570975E2,-2.9015008E-4,2.1062845E-2,5.30196E-2,-5.5535015E-4,2.9474722E-2,-1.131804E-3,2.292583E-2,6.4527383E-4,-7.595026E-4,-1.7237542E-4,5.755262E-4,1.2738636E-3],"split_indices":[1,10,0,29,0,0,1,0,10,26,0,0,0,2,0,0,0,0,0],"split_type":[0,0,0,0,0,0,0,0,0,0,0,0,0,0,0,0,0,0,0],"sum_hessian":[5.3E1,3E1,2.3E1,2.9E1,1E0,1E0,2.2E1,2E0,2.7E1,2.1E1,1E0,1.1E1,1.6E1,1.1E1,1E1,1E1,1E0,4E0,7E0],"tree_param":{"num_deleted":"0","num_feature":"30","num_nodes":"19","size_leaf_vector":"1"}},{"base_weights":[5.761887E-4,-8.221317E-3,1.1915626E-2,-8.858549E-3,5.447818E-4,5.605516E-3,7.559335E-3,-2.7080663E-4,-9.201152E-3,-3.2212873E-4,8.195786E-3,-6.9059273E-3,-1.0490952E-3,9.870055E-3,5.9780566E-4,-7.208494E-4,-1.6375659E-4,5.29484E-4,1.1728058E-3],"categories":[],"categories_nodes":[],"categories_segments":[],"categories_sizes":[],"default_left":[0,0,0,0,0,0,0,0,0,0,0,0,0,0,0,0,0,0,0],"id":6,"left_children":[1,3,5,7,-1,-1,9,-1,11,-1,13,15,-1,17,-1,-1,-1,-1,-1],"loss_changes":[5.4849354E-3,3.1828228E-4,4.1910917E-3,3.829808E-5,0E0,0E0,1.8421165E-4,0E0,1.0440825E-5,0E0,2.2683991E-5,8.917996E-6,0E0,3.1410134E-5,0E0,0E0,0E0,0E0,0E0],"parents":[2147483647,0,0,1,1,2,2,3,3,6,6,8,8,10,10,11,11,13,13],"right_children":[2,4,6,8,-1,-1,10,-1,12,-1,14,16,-1,18,-1,-1,-1,-1,-1],"split_conditions":[1.1877474E2,5.085196E-2,1.9072888E-2,4.848769E1,5.447818E-4,5.605516E-3,4.848769E1,-2.7080663E-4,2.1062845E-2,-3.2212873E-4,5.30196E-2,3.4531444E-2,-1.0490952E-3,2.292583E-2,5.9780566E-4,-7.208494E-4,-1.6375659E-4,5.29484E-4,1.1728058E-3],"split_indices":[5,10,0,29,0,0,1,0,10,0,26,0,0,2,0,0,0,0,0],"split_type":[0,0,0,0,0,0,0,0,0,0,0,0,0,0,0,0,0,0,0],"sum_hessian":[5.3E1,3E1,2.3E1,2.9E1,1E0,1E0,2.2E1,2E0,2.7E1,1E0,2.1E1,1.2E1,1.5E1,1E1,1.1E1,1.1E1,1E0,4E0,6E0],"tree_param":{"num_deleted":"0","num_feature":"30","num_nodes":"19","size_leaf_vector":"1"}},{"base_weights":[6.282693E-4,-7.4964087E-3,1.1096467E-2,-8.008468E-3,3.9326772E-4,6.948279E-3,5.32524E-3,-1.1996236E-4,-8.201889E-3,-3.625867E-4,7.593734E-3,-8.34106E-3,-2.1525483E-4,9.263758E-3,5.4300687E-4,-8.476643E-4,-2.3401594E-4,4.871254E-4,1.1077867E-3],"categories":[],"categories_nodes":[],"categories_segments":[],"categories_sizes":[],"default_left":[0,0,0,0,0,0,0,0,0,0,0,0,0,0,0,0,0,0,0],"id":7,"left_children":[1,3,5,7,-1,9,-1,-1,11,-1,13,15,-1,17,-1,-1,-1,-1,-1],"loss_changes":[4.675924E-3,2.129178E-4,3.8268855E-3,2.9670075E-5,0E0,1.84512E-4,0E0,0E0,6.4604683E-6,0E0,2.9191258E-5,2.9447256E-6,0E0,3.3690245E-5,0E0,0E0,0E0,0E0,0E0],"parents":[2147483647,0,0,1,1,2,2,3,3,5,5,8,8,10,10,11,11,13,13],"right_children":[2,4,6,8,-1,10,-1,-1,12,-1,14,16,-1,18,-1,-1,-1,-1,-1],"split_conditions":[1.1851107E2,5.085196E-2,6.5611556E-2,1.8708147E-2,3.9326772E-4,1.9013599E-2,5.32524E-3,-1.1996236E-4,1.1945516E2,-3.625867E-4,5.30196E-2,5.085196E-2,-2.1525483E-4,2.292583E-2,5.4300687E-4,-8.476643E-4,-2.3401594E-4,4.871254E-4,1.1077867E-3],"split_indices":[3,10,6,14,0,0,0,0,15,0,26,6,0,2,0,0,0,0,0],"split_type":[0,0,0,0,0,0,0,0,0,0,0,0,0,0,0,0,0,0,0],"sum_hessian":[5.3E1,3E1,2.3E1,2.9E1,1E0,2.2E1,1E0,1E0,2.8E1,1E0,2.1E1,2.7E1,1E0,1E1,1.1E1,2.6E1,1E0,4E0,6E0],"tree_param":{"num_deleted":"0","num_feature":"30","num_nodes":"19","size_leaf_vector":"1"}},{"base_weights":[6.7797815E-4,-6.779789E-3,1.02826785E-2,-7.2548515E-3,3.7360433E-4,6.33064E-3,5.0589778E-3,-2.204987E-4,-7.5368066E-3,-3.444574E-4,6.9315396E-3,-5.5967723E-3,-8.642034E-4,8.482373E-3,4.9323135E-4,-5.874528E-4,-1.1318559E-4,2.9051874E-4,9.3989493E-4],"categories":[],"categories_nodes":[],"categories_segments":[],"categories_sizes":[],"default_left":[0,0,0,0,0,0,0,0,0,0,0,0,0,0,0,0,0,0,0],"id":8,"left_children":[1,3,5,7,-1,9,-1,-1,11,-1,13,15,-1,17,-1,-1,-1,-1,-1],"loss_changes":[3.937714E-3,1.8197054E-4,3.502819E-3,2.6096473E-5,0E0,1.5897636E-4,0E0,0E0,1.1669472E-5,0E0,2.637261E-5,9.47286E-6,0E0,2.8925308E-5,0E0,0E0,0E0,0E0,0E0],"parents":[2147483647,0,0,1,1,2,2,3,3,5,5,8,8,10,10,11,11,13,13],"right_children":[2,4,6,8,-1,10,-1,-1,12,-1,14,16,-1,18,-1,-1,-1,-1,-1],"split_conditions":[1.1851107E2,5.085196E-2,6.5611556E-2,4.848769E1,3.7360433E-4,1.9013599E-2,5.0589778E-3,-2.204987E-4,2.1062845E-2,-3.444574E-4,5.30196E-2,3.4531444E-2,-8.642034E-4,2.1212908E-2,4.9323135E-4,-5.874528E-4,-1.1318559E-4,2.9051874E-4,9.3989493E-4],"split_indices":[3,10,6,29,0,0,0,0,10,0,26,0,0,18,0,0,0,0,0],"split_type":[0,0,0,0,0,0,0,0,0,0,0,0,0,0,0,0,0,0,0],"sum_hessian":[5.3E1,3E1,2.3E1,2.9E1,1E0,2.2E1,1E0,2E0,2.7E1,1E0,2.1E1,1.2E1,1.5E1,1E1,1.1E1,1.1E1,1E0,2E0,8E0],"tree_param":{"num_deleted":"0","num_feature":"30","num_nodes":"19","size_leaf_vector":"1"}},{"base_weights":[7.032624E-4,-6.1773956E-3,9.561476E-3,-6.660081E-3,4.1515866E-4,4.806029E-3,5.7980367E-3,-7.2247684E-3,-3.772571E-3,-2.2042888E-4,6.261974E-3,-2.643357E-4,-7.521108E-3,-4.4397367E-4,-1.403104E-4,7.87223E-3,4.5416248E-4,-2.0575877E-4,-7.683295E-4,3.0916382E-4,8.680924E-4],"categories":[],"categories_nodes":[],"categories_segments":[],"categories_sizes":[],"default_left":[0,0,0,0,0,0,0,0,0,0,0,0,0,0,0,0,0,0,0,0,0],"id":9,"left_children":[1,3,5,7,-1,-1,9,11,13,-1,15,-1,17,-1,-1,19,-1,-1,-1,-1,-1],"loss_changes":[3.3503831E-3,1.8220511E-4,3.1986553E-3,2.1660351E-5,0E0,0E0,9.919249E-5,1.2702541E-5,4.83638E-6,0E0,2.5191752E-5,0E0,3.6854763E-6,0E0,0E0,1.1822034E-5,0E0,0E0,0E0,0E0,0E0],"parents":[2147483647,0,0,1,1,2,2,3,3,6,6,7,7,8,8,10,10,12,12,15,15],"right_children":[2,4,6,8,-1,-1,10,12,14,-1,16,-1,18,-1,-1,20,-1,-1,-1,-1,-1],"split_conditions":[1.1877474E2,5.085196E-2,1.9072888E-2,2.4826702E-2,4.1515866E-4,4.806029E-3,4.848769E1,4.8245583E1,5.5278065E1,-2.2042888E-4,1.19371704E2,-2.643357E-4,1.8708147E-2,-4.4397367E-4,-1.403104E-4,2.0076778E-2,4.5416248E-4,-2.0575877E-4,-7.683295E-4,3.0916382E-4,8.680924E-4],"split_indices":[5,10,0,18,0,0,1,9,7,0,7,0,16,0,0,0,0,0,0,0,0],"split_type":[0,0,0,0,0,0,0,0,0,0,0,0,0,0,0,0,0,0,0,0,0],"sum_hessian":[5.3E1,3E1,2.3E1,2.9E1,1E0,1E0,2.2E1,2.3E1,6E0,1E0,2.1E1,2E0,2.1E1,4E0,2E0,9E0,1.2E1,1E0,2E1,2E0,7E0],"tree_param":{"num_deleted":"0","num_feature":"30","num_nodes":"21","size_leaf_vector":"1"}},{"base_weights":[7.220007E-4,-5.6072995E-3,8.867264E-3,-6.0018892E-3,3.115194E-4,5.282599E-3,4.565728E-3,-9.59238E-5,-6.1426964E-3,-2.8881803E-4,5.785279E-3,-4.607412E-3,-6.955403E-3,7.3684948E-3,4.122399E-4,-4.823845E-4,-1.0051085E-4,-1.9547083E-4,-7.145777E-4,4.1394657E-4,8.8312704E-4],"categories":[],"categories_nodes":[],"categories_segments":[],"categories_sizes":[],"default_left":[0,0,0,0,0,0,0,0,0,0,0,0,0,0,0,0,0,0,0,0,0],"id":10,"left_children":[1,3,5,7,-1,9,-1,-1,11,-1,13,15,17,19,-1,-1,-1,-1,-1,-1,-1],"loss_changes":[2.8336274E-3,1.253931E-4,2.9239277E-3,1.5408965E-5,0E0,1.11176516E-4,0E0,0E0,4.137866E-6,0E0,2.7543574E-5,5.28706E-6,2.2161403E-6,1.0676682E-5,0E0,0E0,0E0,0E0,0E0,0E0,0E0],"parents":[2147483647,0,0,1,1,2,2,3,3,5,5,8,8,10,10,11,11,12,12,13,13],"right_children":[2,4,6,8,-1,10,-1,-1,12,-1,14,16,18,20,-1,-1,-1,-1,-1,-1,-1],"split_conditions":[1.1851107E2,5.085196E-2,6.5611556E-2,1.8708147E-2,3.115194E-4,1.9013599E-2,4.565728E-3,-9.59238E-5,2.1062845E-2,-2.8881803E-4,1.19371704E2,3.4531444E-2,1.8708147E-2,2.2201015E-2,4.122399E-4,-4.823845E-4,-1.0051085E-4,-1.9547083E-4,-7.145777E-4,4.1394657E-4,8.8312704E-4],"split_indices":[3,10,6,14,0,0,0,0,10,0,7,0,16,2,0,0,0,0,0,0,0],"split_type":[0,0,0,0,0,0,0,0,0,0,0,0,0,0,0,0,0,0,0,0,0],"sum_hessian":[5.3E1,3E1,2.3E1,2.9E1,1E0,2.2E1,1E0,1E0,2.8E1,1E0,2.1E1,1.2E1,1.6E1,9E0,1.2E1,1.1E1,1E0,1E0,1.5E1,4E0,5E0],"tree_param":{"num_deleted":"0","num_feature":"30","num_nodes":"21","size_leaf_vector":"1"}},{"base_weights":[7.370016E-4,-5.1177084E-3,8.268627E-3,-5.5217952E-3,3.5024434E-4,4.337441E-3,4.8564444E-3,-4.022298E-3,-6.431864E-4,-1.7367853E-4,5.2350815E-3,-2.3578713E-4,-4.6849935E-4,6.911643E-3,3.783358E-3,8.6893264E-4,3.7516313E-4,4.1691572E-4,1.7765704E-4],"categories":[],"categories_nodes":[],"categories_segments":[],"categories_sizes":[],"default_left":[0,0,0,0,0,0,0,0,0,0,0,0,0,0,0,0,0,0,0],"id":11,"left_children":[1,3,5,7,-1,-1,9,11,-1,-1,13,-1,-1,15,17,-1,-1,-1,-1],"loss_changes":[2.4234725E-3,1.2732169E-4,2.6642508E-3,1.5068566E-5,0E0,0E0,6.651046E-5,4.395508E-6,0E0,0E0,2.73966E-5,0E0,0E0,1.7958344E-5,3.4322293E-6,0E0,0E0,0E0,0E0],"parents":[2147483647,0,0,1,1,2,2,3,3,6,6,7,7,10,10,13,13,14,14],"right_children":[2,4,6,8,-1,-1,10,12,-1,-1,14,-1,-1,16,18,-1,-1,-1,-1],"split_conditions":[1.1877474E2,5.085196E-2,1.9072888E-2,2.1062845E-2,3.5024434E-4,4.337441E-3,4.848769E1,1.9877255E-2,-6.431864E-4,-1.7367853E-4,1.1925979E2,-2.3578713E-4,-4.6849935E-4,5.0647594E-2,5.1961053E-2,8.6893264E-4,3.7516313E-4,4.1691572E-4,1.7765704E-4],"split_indices":[5,10,0,10,0,0,1,24,0,0,3,0,0,22,8,0,0,0,0],"split_type":[0,0,0,0,0,0,0,0,0,0,0,0,0,0,0,0,0,0,0],"sum_hessian":[5.3E1,3E1,2.3E1,2.9E1,1E0,1E0,2.2E1,1.3E1,1.6E1,1E0,2.1E1,5E0,8E0,8E0,1.3E1,4E0,4E0,1E1,3E0],"tree_param":{"num_deleted":"0","num_feature":"30","num_nodes":"19","size_leaf_vector":"1"}},{"base_weights":[7.559905E-4,-7.479074E-4,2.6571557E-2,-4.7028195E-3,4.4431915E-3,4.120569E-3,-1.348353E-4,-5.0944565E-3,3.3273213E-4,-1.649946E-4,4.79515E-3,-1.5525086E-4,-5.2993223E-3,6.358712E-3,3.447492E-3,-1.9107816E-4,-5.4939743E-4,7.994181E-4,3.451501E-4,3.790143E-4,1.643329E-4],"categories":[],"categories_nodes":[],"categories_segments":[],"categories_sizes":[],"default_left":[0,0,0,0,0,0,0,0,0,0,0,0,0,0,0,0,0,0,0,0,0],"id":12,"left_children":[1,3,5,7,9,-1,-1,11,-1,-1,13,-1,15,17,19,-1,-1,-1,-1,-1,-1],"loss_changes":[2.116368E-3,1.0884734E-3,1.2813108E-3,1.1129776E-4,5.7235942E-5,0E0,0E0,1.2815872E-5,0E0,0E0,2.4435634E-5,0E0,7.3111732E-6,1.5199912E-5,2.4263427E-6,0E0,0E0,0E0,0E0,0E0,0E0],"parents":[2147483647,0,0,1,1,2,2,3,3,4,4,7,7,10,10,12,12,13,13,14,14],"right_children":[2,4,6,8,10,-1,-1,12,-1,-1,14,-1,16,18,20,-1,-1,-1,-1,-1,-1],"split_conditions":[6.5611556E-2,1.1877474E2,1.9072888E-2,3.4531444E-2,4.848769E1,4.120569E-3,-1.348353E-4,4.848769E1,3.3273213E-4,-1.649946E-4,1.1925979E2,-1.5525086E-4,4.8245583E1,5.0647594E-2,5.1961053E-2,-1.9107816E-4,-5.4939743E-4,7.994181E-4,3.451501E-4,3.790143E-4,1.643329E-4],"split_indices":[6,5,0,6,1,0,0,29,0,0,3,0,9,22,8,0,0,0,0,0,0],"split_type":[0,0,0,0,0,0,0,0,0,0,0,0,0,0,0,0,0,0,0,0,0],"sum_hessian":[5.3E1,5.1E1,2E0,2.9E1,2.2E1,1E0,1E0,2.8E1,1E0,1E0,2.1E1,2E0,2.6E1,8E0,1.3E1,2E0,2.4E1,4E0,4E0,1E1,3E0],"tree_param":{"num_deleted":"0","num_feature":"30","num_nodes":"21","size_leaf_vector":"1"}},{"base_weights":[7.719778E-4,-6.546565E-4,2.524298E-2,-4.255408E-3,4.070439E-3,3.9145406E-3,-1.2809355E-4,-4.5102173E-3,1.5670322E-4,-3.0998103E-4,4.5372597E-3,-7.157568E-5,-4.6201707E-3,5.921353E-3,3.1235528E-3,-4.839887E-4,-2.0919029E-4,6.8990997E-4,2.729958E-4,3.7232725E-4,1.8033343E-4],"categories":[],"categories_nodes":[],"categories_segments":[],"categories_sizes":[],"default_left":[0,0,0,0,0,0,0,0,0,0,0,0,0,0,0,0,0,0,0,0,0],"id":13,"left_children":[1,3,5,7,9,-1,-1,11,-1,-1,13,-1,15,17,19,-1,-1,-1,-1,-1,-1],"loss_changes":[1.9017288E-3,9.0204383E-4,1.1563831E-3,5.1576004E-5,9.105072E-5,0E0,0E0,8.792384E-6,0E0,0E0,2.4551817E-5,0E0,5.429436E-6,1.2369506E-5,3.578578E-6,0E0,0E0,0E0,0E0,0E0,0E0],"parents":[2147483647,0,0,1,1,2,2,3,3,4,4,7,7,10,10,12,12,13,13,14,14],"right_children":[2,4,6,8,10,-1,-1,12,-1,-1,14,-1,16,18,20,-1,-1,-1,-1,-1,-1],"split_conditions":[6.5611556E-2,1.1883117E2,1.9072888E-2,5.085196E-2,4.8245583E1,3.9145406E-3,-1.2809355E-4,1.8708147E-2,1.5670322E-4,-3.0998103E-4,1.19371704E2,-7.157568E-5,1.1930942E2,1.2409416E2,5.3632714E-2,-4.839887E-4,-2.0919029E-4,6.8990997E-4,2.729958E-4,3.7232725E-4,1.8033343E-4],"split_indices":[6,7,0,6,1,0,0,14,0,0,7,0,19,19,28,0,0,0,0,0,0],"split_type":[0,0,0,0,0,0,0,0,0,0,0,0,0,0,0,0,0,0,0,0,0],"sum_hessian":[5.3E1,5.1E1,2E0,2.9E1,2.2E1,1E0,1E0,2.8E1,1E0,1E0,2.1E1,1E0,2.7E1,9E0,1.2E1,2.4E1,3E0,6E0,3E0,7E0,5E0],"tree_param":{"num_deleted":"0","num_feature":"30","num_nodes":"21","size_leaf_vector":"1"}},{"base_weights":[7.759644E-4,-5.7770027E-4,2.3980832E-2,-3.8696057E-3,3.7412068E-3,3.7188136E-3,-1.2168884E-4,-4.1972473E-3,2.816001E-4,-1.3254547E-4,4.0317574E-3,-2.9508232E-3,-4.9034986E-3,5.1454296E-3,2.6749118E-4,-3.2364138E-4,-9.2004986E-5,-1.2157597E-4,-5.057997E-4,2.4637044E-4,6.3258864E-4],"categories":[],"categories_nodes":[],"categories_segments":[],"categories_sizes":[],"default_left":[0,0,0,0,0,0,0,0,0,0,0,0,0,0,0,0,0,0,0,0,0],"id":14,"left_children":[1,3,5,7,9,-1,-1,11,-1,-1,13,15,17,19,-1,-1,-1,-1,-1,-1,-1],"loss_changes":[1.7100805E-3,7.537835E-4,1.0436358E-3,7.753394E-5,3.9202743E-5,0E0,0E0,1.105899E-5,0E0,0E0,1.9480183E-5,4.5619454E-6,3.5364355E-6,1.9237137E-5,0E0,0E0,0E0,0E0,0E0,0E0,0E0],"parents":[2147483647,0,0,1,1,2,2,3,3,4,4,7,7,10,10,11,11,12,12,13,13],"right_children":[2,4,6,8,10,-1,-1,12,-1,-1,14,16,18,20,-1,-1,-1,-1,-1,-1,-1],"split_conditions":[6.5611556E-2,1.1877474E2,1.9072888E-2,3.4531444E-2,4.848769E1,3.7188136E-3,-1.2168884E-4,2.1062845E-2,2.816001E-4,-1.3254547E-4,5.30196E-2,1.1877474E2,1.8708147E-2,2.292583E-2,2.6749118E-4,-3.2364138E-4,-9.2004986E-5,-1.2157597E-4,-5.057997E-4,2.4637044E-4,6.3258864E-4],"split_indices":[6,5,0,6,1,0,0,10,0,0,26,15,16,2,0,0,0,0,0,0,0],"split_type":[0,0,0,0,0,0,0,0,0,0,0,0,0,0,0,0,0,0,0,0,0],"sum_hessian":[5.3E1,5.1E1,2E0,2.9E1,2.2E1,1E0,1E0,2.8E1,1E0,1E0,2.1E1,1.2E1,1.6E1,1E1,1.1E1,1E1,2E0,1E0,1.5E1,4E0,6E0],"tree_param":{"num_deleted":"0","num_feature":"30","num_nodes":"21","size_leaf_vector":"1"}},{"base_weights":[7.696571E-4,-5.150747E-4,2.278179E-2,-3.5309438E-3,3.441062E-3,3.5328728E-3,-1.1560442E-4,-3.7863576E-3,1.9380283E-4,-1.6525864E-4,3.747709E-3,-1.4310842E-4,-4.003078E-3,4.8448234E-3,2.4297119E-4,-4.2287583E-4,-1.7046486E-4,2.2666068E-4,5.9942895E-4],"categories":[],"categories_nodes":[],"categories_segments":[],"categories_sizes":[],"default_left":[0,0,0,0,0,0,0,0,0,0,0,0,0,0,0,0,0,0,0],"id":15,"left_children":[1,3,5,7,9,-1,-1,11,-1,-1,13,-1,15,17,-1,-1,-1,-1,-1],"loss_changes":[1.5388372E-3,6.325721E-4,9.418811E-4,4.9243565E-5,4.2118307E-5,0E0,0E0,9.073905E-6,0E0,0E0,2.0040345E-5,0E0,6.277929E-6,1.9012601E-5,0E0,0E0,0E0,0E0,0E0],"parents":[2147483647,0,0,1,1,2,2,3,3,4,4,7,7,10,10,12,12,13,13],"right_children":[2,4,6,8,10,-1,-1,12,-1,-1,14,-1,16,18,-1,-1,-1,-1,-1],"split_conditions":[6.5611556E-2,1.1851107E2,1.9072888E-2,5.085196E-2,1.9013599E-2,3.5328728E-3,-1.1560442E-4,5.000275E1,1.9380283E-4,-1.6525864E-4,5.30196E-2,-1.4310842E-4,1.1930942E2,2.292583E-2,2.4297119E-4,-4.2287583E-4,-1.7046486E-4,2.2666068E-4,5.9942895E-4],"split_indices":[6,3,0,6,0,0,0,25,0,0,26,0,19,2,0,0,0,0,0],"split_type":[0,0,0,0,0,0,0,0,0,0,0,0,0,0,0,0,0,0,0],"sum_hessian":[5.3E1,5.1E1,2E0,2.9E1,2.2E1,1E0,1E0,2.8E1,1E0,1E0,2.1E1,3E0,2.5E1,1E1,1.1E1,2.2E1,3E0,4E0,6E0],"tree_param":{"num_deleted":"0","num_feature":"30","num_nodes":"19","size_leaf_vector":"1"}},{"base_weights":[7.6266244E-4,-4.566217E-4,2.16427E-2,-3.1959373E-3,3.1362516E-3,3.3562293E-3,-1.0982417E-4,-3.433116E-3,1.841126E-4,-1.5699565E-4,3.4215318E-3,-2.4007598E-3,-4.020617E-3,4.4354396E-3,2.2069886E-3,-1.1174206E-4,-2.846975E-4,-9.435341E-5,-4.1539638E-4,5.2902196E-4,1.61702E-4,2.3167259E-4,4.9993956E-5],"categories":[],"categories_nodes":[],"categories_segments":[],"categories_sizes":[],"default_left":[0,0,0,0,0,0,0,0,0,0,0,0,0,0,0,0,0,0,0,0,0,0,0],"id":16,"left_children":[1,3,5,7,9,-1,-1,11,-1,-1,13,15,17,19,21,-1,-1,-1,-1,-1,-1,-1,-1],"loss_changes":[1.3846523E-3,5.21808E-4,8.500478E-4,4.2161322E-5,3.6251164E-5,0E0,0E0,7.936294E-6,0E0,0E0,1.7302606E-5,4.263122E-6,3.0560186E-6,1.7946018E-5,1.0896983E-6,0E0,0E0,0E0,0E0,0E0,0E0,0E0,0E0],"parents":[2147483647,0,0,1,1,2,2,3,3,4,4,7,7,10,10,11,11,12,12,13,13,14,14],"right_children":[2,4,6,8,10,-1,-1,12,-1,-1,14,16,18,20,22,-1,-1,-1,-1,-1,-1,-1,-1],"split_conditions":[6.5611556E-2,1.1851107E2,1.9072888E-2,5.085196E-2,1.9013599E-2,3.3562293E-3,-1.0982417E-4,2.1062845E-2,1.841126E-4,-1.5699565E-4,5.30196E-2,1.9877255E-2,1.8708147E-2,1.2030654E2,5.6229137E-2,-1.1174206E-4,-2.846975E-4,-9.435341E-5,-4.1539638E-4,5.2902196E-4,1.61702E-4,2.3167259E-4,4.9993956E-5],"split_indices":[6,3,0,6,0,0,0,10,0,0,26,24,16,17,12,0,0,0,0,0,0,0,0],"split_type":[0,0,0,0,0,0,0,0,0,0,0,0,0,0,0,0,0,0,0,0,0,0,0],"sum_hessian":[5.3E1,5.1E1,2E0,2.9E1,2.2E1,1E0,1E0,2.8E1,1E0,1E0,2.1E1,1.2E1,1.6E1,1E1,1.1E1,4E0,8E0,1E0,1.5E1,7E0,3E0,1E1,1E0],"tree_param":{"num_deleted":"0","num_feature":"30","num_nodes":"23","size_leaf_vector":"1"}},{"base_weights":[7.4824307E-4,-4.0916482E-4,2.0560566E-2,-2.9197133E-3,2.8832532E-3,3.188418E-3,-1.04333E-4,-3.1659775E-3,2.1109768E-4,1.5610363E-4,3.2845205E-3,-2.191179E-3,-3.7251778E-3,-8.4004554E-5,7.6816854E-5,4.2872587E-3,2.0743476E-4,-2.4296377E-4,-5.864377E-5,-8.96357E-5,-3.8459568E-4,5.269945E-4,1.4957423E-4],"categories":[],"categories_nodes":[],"categories_segments":[],"categories_sizes":[],"default_left":[0,0,0,0,0,0,0,0,0,0,0,0,0,0,0,0,0,0,0,0,0,0,0],"id":17,"left_children":[1,3,5,7,9,-1,-1,11,-1,13,15,17,19,-1,-1,21,-1,-1,-1,-1,-1,-1,-1],"loss_changes":[1.2466834E-3,4.3823858E-4,7.671681E-4,4.3849694E-5,2.4656547E-5,0E0,0E0,7.645576E-6,0E0,3.0841284E-6,1.5376441E-5,3.5498088E-6,2.3609027E-6,0E0,0E0,1.9549378E-5,0E0,0E0,0E0,0E0,0E0,0E0,0E0],"parents":[2147483647,0,0,1,1,2,2,3,3,4,4,7,7,9,9,10,10,11,11,12,12,15,15],"right_children":[2,4,6,8,10,-1,-1,12,-1,14,16,18,20,-1,-1,22,-1,-1,-1,-1,-1,-1,-1],"split_conditions":[6.5611556E-2,1.1877474E2,1.9072888E-2,3.4531444E-2,1.190396E2,3.188418E-3,-1.04333E-4,2.1062845E-2,2.1109768E-4,2.1062845E-2,5.30196E-2,1.1877474E2,1.8708147E-2,-8.4004554E-5,7.6816854E-5,1.2030654E2,2.0743476E-4,-2.4296377E-4,-5.864377E-5,-8.96357E-5,-3.8459568E-4,5.269945E-4,1.4957423E-4],"split_indices":[6,5,0,6,13,0,0,10,0,0,26,15,16,0,0,17,0,0,0,0,0,0,0],"split_type":[0,0,0,0,0,0,0,0,0,0,0,0,0,0,0,0,0,0,0,0,0,0,0],"sum_hessian":[5.3E1,5.1E1,2E0,2.9E1,2.2E1,1E0,1E0,2.8E1,1E0,3E0,1.9E1,1.2E1,1.6E1,1E0,2E0,9E0,1E1,1E1,2E0,1E0,1.5E1,6E0,3E0],"tree_param":{"num_deleted":"0","num_feature":"30","num_nodes":"23","size_leaf_vector":"1"}},{"base_weights":[7.3631044E-4,-3.622471E-4,1.9532537E-2,-2.647816E-3,2.6346794E-3,3.028997E-3,-9.9116376E-5,-2.8415732E-3,1.4855732E-4,-1.11862086E-4,3.0522537E-3,-9.712456E-5,-3.0200246E-3,-1.2991615E-4,7.1695824E-5,1.2083246E-4,3.5863419E-3,-8.0758895E-5,-3.1707447E-4,1.4848255E-4,4.2155455E-4],"categories":[],"categories_nodes":[],"categories_segments":[],"categories_sizes":[],"default_left":[0,0,0,0,0,0,0,0,0,0,0,0,0,0,0,0,0,0,0,0,0],"id":18,"left_children":[1,3,5,7,9,-1,-1,11,-1,13,15,-1,17,-1,-1,-1,19,-1,-1,-1,-1],"loss_changes":[1.1221074E-3,3.631596E-4,6.923694E-4,2.824761E-5,2.6719805E-5,0E0,0E0,6.745933E-6,0E0,4.8676757E-6,1.5362937E-5,0E0,6.1092724E-6,0E0,0E0,0E0,1.35748705E-5,0E0,0E0,0E0,0E0],"parents":[2147483647,0,0,1,1,2,2,3,3,4,4,7,7,9,9,10,10,12,12,16,16],"right_children":[2,4,6,8,10,-1,-1,12,-1,14,16,-1,18,-1,-1,-1,20,-1,-1,-1,-1],"split_conditions":[6.5611556E-2,1.1851107E2,1.9072888E-2,5.085196E-2,1.190396E2,3.028997E-3,-9.9116376E-5,5.000275E1,1.4855732E-4,1.9013599E-2,1.190396E2,-9.712456E-5,4.8245583E1,-1.2991615E-4,7.1695824E-5,1.2083246E-4,1.19159615E2,-8.0758895E-5,-3.1707447E-4,1.4848255E-4,4.2155455E-4],"split_indices":[6,3,0,6,13,0,0,25,0,0,23,0,9,0,0,0,9,0,0,0,0],"split_type":[0,0,0,0,0,0,0,0,0,0,0,0,0,0,0,0,0,0,0,0,0],"sum_hessian":[5.3E1,5.1E1,2E0,2.9E1,2.2E1,1E0,1E0,2.8E1,1E0,3E0,1.9E1,3E0,2.5E1,1E0,2E0,5E0,1.4E1,2E0,2.3E1,4E0,1E1],"tree_param":{"num_deleted":"0","num_feature":"30","num_nodes":"21","size_leaf_vector":"1"}},{"base_weights":[7.2223716E-4,-3.2051772E-4,1.855591E-2,-2.4086705E-3,2.4170955E-3,2.877547E-3,-9.416053E-5,-2.6154972E-3,1.7946512E-4,1.8211734E-4,2.7432363E-3,-1.5008327E-3,-2.9686631E-3,-6.395057E-5,6.691602E-5,3.6287052E-3,1.6888797E-3,-7.0262635E-5,-2.3229342E-4,-5.912287E-5,-3.0579735E-4,4.4959036E-4,1.2039319E-4,1.7956061E-4,3.1080843E-5],"categories":[],"categories_nodes":[],"categories_segments":[],"categories_sizes":[],"default_left":[0,0,0,0,0,0,0,0,0,0,0,0,0,0,0,0,0,0,0,0,0,0,0,0,0],"id":19,"left_children":[1,3,5,7,9,-1,-1,11,-1,13,15,17,19,-1,-1,21,23,-1,-1,-1,-1,-1,-1,-1,-1],"loss_changes":[1.0101395E-3,3.0308284E-4,6.248632E-4,3.0774667E-5,1.626552E-5,0E0,0E0,6.960705E-6,0E0,2.0285945E-6,1.2543562E-5,4.2737047E-6,2.650966E-6,0E0,0E0,1.5614816E-5,1.0597505E-6,0E0,0E0,0E0,0E0,0E0,0E0,0E0,0E0],"parents":[2147483647,0,0,1,1,2,2,3,3,4,4,7,7,9,9,10,10,11,11,12,12,15,15,16,16],"right_children":[2,4,6,8,10,-1,-1,12,-1,14,16,18,20,-1,-1,22,24,-1,-1,-1,-1,-1,-1,-1,-1],"split_conditions":[6.5611556E-2,1.1877474E2,1.9072888E-2,3.4531444E-2,1.190396E2,2.877547E-3,-9.416053E-5,1.9877255E-2,1.7946512E-4,2.1062845E-2,5.30196E-2,2.398406E-2,4.227759E1,-6.395057E-5,6.691602E-5,1.2030654E2,5.6229137E-2,-7.0262635E-5,-2.3229342E-4,-5.912287E-5,-3.0579735E-4,4.4959036E-4,1.2039319E-4,1.7956061E-4,3.1080843E-5],"split_indices":[6,5,0,6,13,0,0,24,0,0,26,12,1,0,0,17,12,0,0,0,0,0,0,0,0],"split_type":[0,0,0,0,0,0,0,0,0,0,0,0,0,0,0,0,0,0,0,0,0,0,0,0,0],"sum_hessian":[5.3E1,5.1E1,2E0,2.9E1,2.2E1,1E0,1E0,2.8E1,1E0,3E0,1.9E1,8E0,2E1,1E0,2E0,9E0,1E1,5E0,3E0,1E0,1.9E1,6E0,3E0,9E0,1E0],"tree_param":{"num_deleted":"0","num_feature":"30","num_nodes":"25","size_leaf_vector":"1"}},{"base_weights":[7.070317E-4,-2.8278132E-4,1.7628113E-2,-2.1870465E-3,2.2133377E-3,2.7336695E-3,-8.945251E-5,-2.4563079E-3,1.7722929E-4,3.564897E-3,1.3992244E-3,-1.5683075E-3,-2.9687888E-3,-5.5469387E-5,1.18649936E-4,4.5970778E-4,1.3834471E-4,-5.792479E-4,1.7232382E-3,-1.8751237E-4,-7.6374E-5,-3.095112E-4,-5.369708E-5,-1.08130465E-4,2.1243282E-5,2.04501E-4,7.350467E-5],"categories":[],"categories_nodes":[],"categories_segments":[],"categories_sizes":[],"default_left":[0,0,0,0,0,0,0,0,0,0,0,0,0,0,0,0,0,0,0,0,0,0,0,0,0,0,0],"id":20,"left_children":[1,3,5,7,9,-1,-1,11,13,15,17,19,21,-1,-1,-1,-1,23,25,-1,-1,-1,-1,-1,-1,-1,-1],"loss_changes":[9.09415E-4,2.5201085E-4,5.63939E-4,1.9533574E-5,2.031932E-5,0E0,0E0,7.631286E-6,3.6129768E-6,1.1653392E-5,1.1255015E-5,1.5301448E-6,3.2531389E-6,0E0,0E0,0E0,0E0,1.4221104E-6,2.9484327E-6,0E0,0E0,0E0,0E0,0E0,0E0,0E0,0E0],"parents":[2147483647,0,0,1,1,2,2,3,3,4,4,7,7,8,8,9,9,10,10,11,11,12,12,17,17,18,18],"right_children":[2,4,6,8,10,-1,-1,12,14,16,18,20,22,-1,-1,-1,-1,24,26,-1,-1,-1,-1,-1,-1,-1,-1],"split_conditions":[6.5611556E-2,1.1851107E2,1.9072888E-2,1.19360214E2,1.1925979E2,2.7336695E-3,-8.945251E-5,5.265939E1,5.085196E-2,5.0647594E-2,1.1883117E2,5.058456E1,1.1930942E2,-5.5469387E-5,1.18649936E-4,4.5970778E-4,1.3834471E-4,1.9013599E-2,2.7752334E-2,-1.8751237E-4,-7.6374E-5,-3.095112E-4,-5.369708E-5,-1.08130465E-4,2.1243282E-5,2.04501E-4,7.350467E-5],"split_indices":[6,3,0,21,3,0,0,13,0,22,1,13,19,0,0,0,0,0,0,0,0,0,0,0,0,0,0],"split_type":[0,0,0,0,0,0,0,0,0,0,0,0,0,0,0,0,0,0,0,0,0,0,0,0,0,0,0],"sum_hessian":[5.3E1,5.1E1,2E0,2.9E1,2.2E1,1E0,1E0,2.6E1,3E0,7E0,1.5E1,1.1E1,1.5E1,2E0,1E0,4E0,3E0,2E0,1.3E1,7E0,4E0,1.4E1,1E0,1E0,1E0,9E0,4E0],"tree_param":{"num_deleted":"0","num_feature":"30","num_nodes":"27","size_leaf_vector":"1"}},{"base_weights":[6.8946736E-4,-2.5017094E-4,1.674671E-2,-1.9937367E-3,2.0349224E-3,2.5969862E-3,-8.4979925E-5,-2.1730151E-3,1.6026683E-4,8.1681577E-4,2.5167929E-3,-6.150883E-5,-2.3291185E-3,-4.527746E-5,1.06286796E-4,1.3946241E-3,3.4646336E-3,-2.4974847E-4,-7.7873374E-5,4.9981663E-5,1.7587251E-4,1.9696653E-4,4.4671856E-4],"categories":[],"categories_nodes":[],"categories_segments":[],"categories_sizes":[],"default_left":[0,0,0,0,0,0,0,0,0,0,0,0,0,0,0,0,0,0,0,0,0,0,0],"id":21,"left_children":[1,3,5,7,9,-1,-1,11,-1,13,15,-1,17,-1,-1,19,21,-1,-1,-1,-1,-1,-1],"loss_changes":[8.189415E-4,2.1123602E-4,5.089551E-4,2.2825341E-5,1.144455E-5,0E0,0E0,5.620139E-6,0E0,2.9803227E-6,1.2186334E-5,0E0,4.8419606E-6,0E0,0E0,2.0531643E-6,3.1914096E-6,0E0,0E0,0E0,0E0,0E0,0E0],"parents":[2147483647,0,0,1,1,2,2,3,3,4,4,7,7,9,9,10,10,12,12,15,15,16,16],"right_children":[2,4,6,8,10,-1,-1,12,-1,14,16,-1,18,-1,-1,20,22,-1,-1,-1,-1,-1,-1],"split_conditions":[6.5611556E-2,1.1877474E2,1.9072888E-2,3.4531444E-2,1.1930942E2,2.5969862E-3,-8.4979925E-5,5.000275E1,1.6026683E-4,4.848769E1,2.292583E-2,-6.150883E-5,1.1930942E2,-4.527746E-5,1.06286796E-4,1.19159615E2,1.19417305E2,-2.4974847E-4,-7.7873374E-5,4.9981663E-5,1.7587251E-4,1.9696653E-4,4.4671856E-4],"split_indices":[6,5,0,6,23,0,0,25,0,1,2,0,19,0,0,13,11,0,0,0,0,0,0],"split_type":[0,0,0,0,0,0,0,0,0,0,0,0,0,0,0,0,0,0,0,0,0,0,0],"sum_hessian":[5.3E1,5.1E1,2E0,2.9E1,2.2E1,1E0,1E0,2.8E1,1E0,7E0,1.5E1,3E0,2.5E1,1E0,6E0,8E0,7E0,2.2E1,3E0,3E0,5E0,4E0,3E0],"tree_param":{"num_deleted":"0","num_feature":"30","num_nodes":"23","size_leaf_vector":"1"}},{"base_weights":[6.8003376E-4,-2.1165953E-4,1.5909372E-2,-1.8034325E-3,1.8737686E-3,2.4671368E-3,-8.0730955E-5,-2.0346234E-3,2.0796526E-4,3.0649882E-3,1.1610483E-3,-1.2659138E-3,-2.483992E-3,-4.0850664E-5,1.0286905E-4,3.976056E-4,1.1599064E-4,-4.8369602E-5,1.4305615E-3,-1.5610646E-4,-5.404901E-5,-2.5922398E-4,-4.30136E-5,2.008532E-4,8.862966E-5],"categories":[],"categories_nodes":[],"categories_segments":[],"categories_sizes":[],"default_left":[0,0,0,0,0,0,0,0,0,0,0,0,0,0,0,0,0,0,0,0,0,0,0,0,0],"id":22,"left_children":[1,3,5,7,9,-1,-1,11,13,15,17,19,21,-1,-1,-1,-1,-1,23,-1,-1,-1,-1,-1,-1],"loss_changes":[7.3668186E-4,1.7599468E-4,4.5933196E-4,1.4373647E-5,1.5968544E-5,0E0,0E0,6.1821993E-6,2.444043E-6,9.273419E-6,7.784443E-6,1.7255716E-6,2.442197E-6,0E0,0E0,0E0,0E0,0E0,2.6238122E-6,0E0,0E0,0E0,0E0,0E0,0E0],"parents":[2147483647,0,0,1,1,2,2,3,3,4,4,7,7,8,8,9,9,10,10,11,11,12,12,18,18],"right_children":[2,4,6,8,10,-1,-1,12,14,16,18,20,22,-1,-1,-1,-1,-1,24,-1,-1,-1,-1,-1,-1],"split_conditions":[6.5611556E-2,1.1851107E2,1.9072888E-2,1.19360214E2,1.1925979E2,2.4671368E-3,-8.0730955E-5,5.265939E1,5.085196E-2,5.0647594E-2,1.1883117E2,5.058456E1,1.1877474E2,-4.0850664E-5,1.0286905E-4,3.976056E-4,1.1599064E-4,-4.8369602E-5,5.30196E-2,-1.5610646E-4,-5.404901E-5,-2.5922398E-4,-4.30136E-5,2.008532E-4,8.862966E-5],"split_indices":[6,3,0,21,3,0,0,13,0,22,1,13,5,0,0,0,0,0,28,0,0,0,0,0,0],"split_type":[0,0,0,0,0,0,0,0,0,0,0,0,0,0,0,0,0,0,0,0,0,0,0,0,0],"sum_hessian":[5.3E1,5.1E1,2E0,2.9E1,2.2E1,1E0,1E0,2.6E1,3E0,7E0,1.5E1,1.1E1,1.5E1,2E0,1E0,4E0,3E0,2E0,1.3E1,7E0,4E0,1.4E1,1E0,5E0,8E0],"tree_param":{"num_deleted":"0","num_feature":"30","num_nodes":"25","size_leaf_vector":"1"}},{"base_weights":[6.6185923E-4,-1.8464054E-4,1.5113902E-2,-1.6397481E-3,1.7213536E-3,2.34378E-3,-7.6694414E-5,-1.7943676E-3,1.422109E-4,6.6421786E-4,2.142337E-3,-9.679664E-4,-2.0630935E-3,-1.650465E-5,9.681471E-5,1.1543888E-3,2.9859864E-3,-3.9119706E-5,-1.5911288E-4,-5.7680038E-5,-2.1891874E-4,4.3010805E-5,1.4448445E-4,1.6710728E-4,3.8831317E-4],"categories":[],"categories_nodes":[],"categories_segments":[],"categories_sizes":[],"default_left":[0,0,0,0,0,0,0,0,0,0,0,0,0,0,0,0,0,0,0,0,0,0,0,0,0],"id":23,"left_children":[1,3,5,7,9,-1,-1,11,-1,13,15,17,19,-1,-1,21,23,-1,-1,-1,-1,-1,-1,-1,-1],"loss_changes":[6.634078E-4,1.4704077E-4,4.14547E-4,1.6754464E-5,8.812865E-6,0E0,0E0,4.44318E-6,0E0,2.1760907E-6,9.888718E-6,2.6123444E-6,2.6729394E-6,0E0,0E0,1.2719038E-6,2.9483563E-6,0E0,0E0,0E0,0E0,0E0,0E0,0E0,0E0],"parents":[2147483647,0,0,1,1,2,2,3,3,4,4,7,7,9,9,10,10,11,11,12,12,15,15,16,16],"right_children":[2,4,6,8,10,-1,-1,12,-1,14,16,18,20,-1,-1,22,24,-1,-1,-1,-1,-1,-1,-1,-1],"split_conditions":[6.5611556E-2,1.1877474E2,1.9072888E-2,3.4531444E-2,1.1930942E2,2.34378E-3,-7.6694414E-5,1.9877255E-2,1.422109E-4,1.1973968E2,2.292583E-2,2.398406E-2,5.000275E1,-1.650465E-5,9.681471E-5,1.19159615E2,1.19417305E2,-3.9119706E-5,-1.5911288E-4,-5.7680038E-5,-2.1891874E-4,4.3010805E-5,1.4448445E-4,1.6710728E-4,3.8831317E-4],"split_indices":[6,5,0,6,23,0,0,24,0,13,2,12,23,0,0,13,11,0,0,0,0,0,0,0,0],"split_type":[0,0,0,0,0,0,0,0,0,0,0,0,0,0,0,0,0,0,0,0,0,0,0,0,0],"sum_hessian":[5.3E1,5.1E1,2E0,2.9E1,2.2E1,1E0,1E0,2.8E1,1E0,7E0,1.5E1,8E0,2E1,2E0,5E0,8E0,7E0,5E0,3E0,2E0,1.8E1,3E0,5E0,4E0,3E0],"tree_param":{"num_deleted":"0","num_feature":"30","num_nodes":"25","size_leaf_vector":"1"}},{"base_weights":[6.467414E-4,-1.5674213E-4,1.4358209E-2,-1.4927913E-3,1.5927457E-3,2.226591E-3,-7.285969E-5,-1.6920505E-3,2.2540567E-4,2.6356112E-3,9.717662E-4,-1.0329668E-3,-2.08061E-3,-2.9525967E-5,8.9370085E-5,4.1393266E-4,1.4444851E-4,-7.6872115E-5,1.1390467E-3,-1.2807029E-4,-4.2999574E-5,-2.1763821E-4,-3.220141E-5,3.3922774E-5,1.3107326E-4],"categories":[],"categories_nodes":[],"categories_segments":[],"categories_sizes":[],"default_left":[0,0,0,0,0,0,0,0,0,0,0,0,0,0,0,0,0,0,0,0,0,0,0,0,0],"id":24,"left_children":[1,3,5,7,9,-1,-1,11,13,15,17,19,21,-1,-1,-1,-1,-1,23,-1,-1,-1,-1,-1,-1],"loss_changes":[5.971652E-4,1.2392252E-4,3.7412875E-4,1.0652388E-5,1.2333552E-5,0E0,0E0,4.7653157E-6,1.6557065E-6,8.349718E-6,5.534005E-6,1.2418359E-6,1.993969E-6,0E0,0E0,0E0,0E0,0E0,1.6151262E-6,0E0,0E0,0E0,0E0,0E0,0E0],"parents":[2147483647,0,0,1,1,2,2,3,3,4,4,7,7,8,8,9,9,10,10,11,11,12,12,18,18],"right_children":[2,4,6,8,10,-1,-1,12,14,16,18,20,22,-1,-1,-1,-1,-1,24,-1,-1,-1,-1,-1,-1],"split_conditions":[6.5611556E-2,1.1851107E2,1.9072888E-2,1.19360214E2,1.1925979E2,2.226591E-3,-7.285969E-5,5.265939E1,5.085196E-2,1.1973968E2,1.9013599E-2,5.058456E1,1.1930942E2,-2.9525967E-5,8.9370085E-5,4.1393266E-4,1.4444851E-4,-7.6872115E-5,1.1925979E2,-1.2807029E-4,-4.2999574E-5,-2.1763821E-4,-3.220141E-5,3.3922774E-5,1.3107326E-4],"split_indices":[6,3,0,21,3,0,0,13,0,19,0,13,19,0,0,0,0,0,1,0,0,0,0,0,0],"split_type":[0,0,0,0,0,0,0,0,0,0,0,0,0,0,0,0,0,0,0,0,0,0,0,0,0],"sum_hessian":[5.3E1,5.1E1,2E0,2.9E1,2.2E1,1E0,1E0,2.6E1,3E0,7E0,1.5E1,1.1E1,1.5E1,2E0,1E0,2E0,5E0,1E0,1.4E1,7E0,4E0,1.4E1,1E0,3E0,1.1E1],"tree_param":{"num_deleted":"0","num_feature":"30","num_nodes":"25","size_leaf_vector":"1"}},{"base_weights":[6.2723714E-4,-1.3557868E-4,1.36402985E-2,-1.3566334E-3,1.4629961E-3,2.1152615E-3,-6.921673E-5,-1.5079719E-3,4.060101E-7,2.3786672E-3,7.044456E-4,-3.63986E-5,-1.6358041E-3,3.5402627E-4,1.3750888E-4,-1.1415286E-4,9.342535E-4,-3.4249515E-5,-1.7378097E-4,1.2546792E-4,3.513104E-5],"categories":[],"categories_nodes":[],"categories_segments":[],"categories_sizes":[],"default_left":[0,0,0,0,0,0,0,0,0,0,0,0,0,0,0,0,0,0,0,0,0],"id":25,"left_children":[1,3,5,7,9,-1,-1,11,-1,13,15,-1,17,-1,-1,-1,19,-1,-1,-1,-1],"loss_changes":[5.37884E-4,1.03486E-4,3.376513E-4,6.18388E-6,1.4299763E-5,0E0,0E0,3.3530232E-6,0E0,6.7893416E-6,7.0055494E-6,0E0,2.5710033E-6,0E0,0E0,0E0,1.9874878E-6,0E0,0E0,0E0,0E0],"parents":[2147483647,0,0,1,1,2,2,3,3,4,4,7,7,9,9,10,10,12,12,16,16],"right_children":[2,4,6,8,10,-1,-1,12,-1,14,16,-1,18,-1,-1,-1,20,-1,-1,-1,-1],"split_conditions":[6.5611556E-2,1.1883117E2,1.9072888E-2,1.19360214E2,1.19371704E2,2.1152615E-3,-6.921673E-5,5.000275E1,4.060101E-7,1.1973968E2,4.8245583E1,-3.63986E-5,4.8245583E1,3.5402627E-4,1.3750888E-4,-1.1415286E-4,5.3632714E-2,-3.4249515E-5,-1.7378097E-4,1.2546792E-4,3.513104E-5],"split_indices":[6,7,0,21,7,0,0,25,0,19,1,0,9,0,0,0,28,0,0,0,0],"split_type":[0,0,0,0,0,0,0,0,0,0,0,0,0,0,0,0,0,0,0,0,0],"sum_hessian":[5.3E1,5.1E1,2E0,2.9E1,2.2E1,1E0,1E0,2.6E1,3E0,9E0,1.3E1,3E0,2.3E1,3E0,6E0,1E0,1.2E1,2E0,2.1E1,7E0,5E0],"tree_param":{"num_deleted":"0","num_feature":"30","num_nodes":"21","size_leaf_vector":"1"}},{"base_weights":[6.078471E-4,-1.16367395E-4,1.2958283E-2,-1.2419448E-3,1.3568365E-3,2.0094984E-3,-6.5755936E-5,-1.3612156E-3,1.1084545E-4,6.7322346E-4,1.8309063E-3,-8.523384E-4,-1.6702855E-3,-3.5356109E-6,8.3461404E-5,9.3216266E-5,2.72408E-3,-2.3560933E-5,-1.10026136E-4,-1.7473006E-4,-2.1902286E-5,3.3147968E-4,1.028431E-4],"categories":[],"categories_nodes":[],"categories_segments":[],"categories_sizes":[],"default_left":[0,0,0,0,0,0,0,0,0,0,0,0,0,0,0,0,0,0,0,0,0,0,0],"id":26,"left_children":[1,3,5,7,9,-1,-1,11,-1,13,15,17,19,-1,-1,-1,21,-1,-1,-1,-1,-1,-1],"loss_changes":[4.845036E-4,8.791177E-5,3.047302E-4,9.9188655E-6,6.221242E-6,0E0,0E0,3.1374366E-6,0E0,1.2874475E-6,7.896255E-6,1.7284838E-6,1.5173719E-6,0E0,0E0,0E0,2.6008565E-6,0E0,0E0,0E0,0E0,0E0,0E0],"parents":[2147483647,0,0,1,1,2,2,3,3,4,4,7,7,9,9,10,10,11,11,12,12,16,16],"right_children":[2,4,6,8,10,-1,-1,12,-1,14,16,18,20,-1,-1,-1,22,-1,-1,-1,-1,-1,-1],"split_conditions":[6.5611556E-2,1.1877474E2,1.9072888E-2,3.4531444E-2,1.1941441E2,2.0094984E-3,-6.5755936E-5,2.1062845E-2,1.1084545E-4,1.19417305E2,2.2450335E-2,1.9877255E-2,1.19159615E2,-3.5356109E-6,8.3461404E-5,9.3216266E-5,1.190396E2,-2.3560933E-5,-1.10026136E-4,-1.7473006E-4,-2.1902286E-5,3.3147968E-4,1.028431E-4],"split_indices":[6,5,0,6,23,0,0,10,0,7,2,24,19,0,0,0,1,0,0,0,0,0,0],"split_type":[0,0,0,0,0,0,0,0,0,0,0,0,0,0,0,0,0,0,0,0,0,0,0],"sum_hessian":[5.3E1,5.1E1,2E0,2.9E1,2.2E1,1E0,1E0,2.8E1,1E0,1E1,1.2E1,1.2E1,1.6E1,2E0,8E0,7E0,5E0,4E0,8E0,1.5E1,1E0,3E0,2E0],"tree_param":{"num_deleted":"0","num_feature":"30","num_nodes":"23","size_leaf_vector":"1"}},{"base_weights":[5.90244E-4,-9.726787E-5,1.2310369E-2,-1.1250632E-3,1.2475636E-3,1.9090235E-3,-6.2468185E-5,-1.2364812E-3,1.0530315E-4,6.13167E-4,1.6883945E-3,-7.558874E-5,-1.5312601E-3,-4.02797E-6,7.6285294E-5,8.505969E-5,2.5240586E-3,-1.7190758E-4,-8.1762055E-6,1.2313119E-4,3.4063682E-4],"categories":[],"categories_nodes":[],"categories_segments":[],"categories_sizes":[],"default_left":[0,0,0,0,0,0,0,0,0,0,0,0,0,0,0,0,0,0,0,0,0],"id":27,"left_children":[1,3,5,7,9,-1,-1,11,-1,13,15,-1,17,-1,-1,-1,19,-1,-1,-1,-1],"loss_changes":[4.3631459E-4,7.3278585E-5,2.7501906E-4,8.582436E-6,5.396949E-6,0E0,0E0,2.9509356E-6,0E0,1.1066568E-6,6.9545713E-6,0E0,4.4875014E-6,0E0,0E0,0E0,2.6493144E-6,0E0,0E0,0E0,0E0],"parents":[2147483647,0,0,1,1,2,2,3,3,4,4,7,7,9,9,10,10,12,12,16,16],"right_children":[2,4,6,8,10,-1,-1,12,-1,14,16,-1,18,-1,-1,-1,20,-1,-1,-1,-1],"split_conditions":[6.5611556E-2,1.1877474E2,1.9072888E-2,3.4531444E-2,1.1941441E2,1.9090235E-3,-6.2468185E-5,5.265939E1,1.0530315E-4,1.1841398E2,2.2450335E-2,-7.558874E-5,1.1930942E2,-4.02797E-6,7.6285294E-5,8.505969E-5,1.1935687E2,-1.7190758E-4,-8.1762055E-6,1.2313119E-4,3.4063682E-4],"split_indices":[6,5,0,6,23,0,0,13,0,13,2,0,19,0,0,0,11,0,0,0,0],"split_type":[0,0,0,0,0,0,0,0,0,0,0,0,0,0,0,0,0,0,0,0,0],"sum_hessian":[5.3E1,5.1E1,2E0,2.9E1,2.2E1,1E0,1E0,2.8E1,1E0,1E1,1.2E1,1.2E1,1.6E1,2E0,8E0,7E0,5E0,1.4E1,2E0,3E0,2E0],"tree_param":{"num_deleted":"0","num_feature":"30","num_nodes":"21","size_leaf_vector":"1"}},{"base_weights":[5.741317E-4,-7.848929E-5,1.1694852E-2,-1.0218305E-3,1.1553683E-3,1.8135727E-3,-5.9344806E-5,-1.1621953E-3,1.8109056E-5,1.9610473E-3,6.803182E-4,-6.775215E-4,-1.4530636E-3,3.179277E-4,1.02509126E-4,-5.8302658E-6,9.3138375E-4,-9.375938E-5,-2.611835E-5,-1.5231498E-4,-2.0088535E-5,1.2973574E-4,3.491839E-5],"categories":[],"categories_nodes":[],"categories_segments":[],"categories_sizes":[],"default_left":[0,0,0,0,0,0,0,0,0,0,0,0,0,0,0,0,0,0,0,0,0,0,0],"id":28,"left_children":[1,3,5,7,9,-1,-1,11,-1,13,15,17,19,-1,-1,-1,21,-1,-1,-1,-1,-1,-1],"loss_changes":[3.9282918E-4,6.170591E-5,2.482048E-4,5.2759024E-6,7.4688323E-6,0E0,0E0,2.8218747E-6,0E0,5.8626283E-6,3.0213778E-6,1.0544518E-6,1.0981857E-6,0E0,0E0,0E0,2.1038213E-6,0E0,0E0,0E0,0E0,0E0,0E0],"parents":[2147483647,0,0,1,1,2,2,3,3,4,4,7,7,9,9,10,10,11,11,12,12,16,16],"right_children":[2,4,6,8,10,-1,-1,12,-1,14,16,18,20,-1,-1,-1,22,-1,-1,-1,-1,-1,-1],"split_conditions":[6.5611556E-2,1.1851107E2,1.9072888E-2,1.19360214E2,1.1925979E2,1.8135727E-3,-5.9344806E-5,5.265939E1,1.8109056E-5,1.1973968E2,1.1925979E2,5.041865E1,1.1877474E2,3.179277E-4,1.02509126E-4,-5.8302658E-6,5.3632714E-2,-9.375938E-5,-2.611835E-5,-1.5231498E-4,-2.0088535E-5,1.2973574E-4,3.491839E-5],"split_indices":[6,3,0,21,3,0,0,13,0,19,1,11,5,0,0,0,10,0,0,0,0,0,0],"split_type":[0,0,0,0,0,0,0,0,0,0,0,0,0,0,0,0,0,0,0,0,0,0,0],"sum_hessian":[5.3E1,5.1E1,2E0,2.9E1,2.2E1,1E0,1E0,2.6E1,3E0,7E0,1.5E1,1.1E1,1.5E1,2E0,5E0,4E0,1.1E1,6E0,5E0,1.4E1,1E0,6E0,5E0],"tree_param":{"num_deleted":"0","num_feature":"30","num_nodes":"23","size_leaf_vector":"1"}},{"base_weights":[5.548538E-4,-6.477345E-5,1.1110109E-2,-9.2878676E-4,1.0650167E-3,1.7228939E-3,-5.637752E-5,-1.0337421E-3,3.6039204E-5,1.8174974E-3,6.2221277E-4,-4.848991E-4,-1.2290344E-3,2.9673253E-4,9.396672E-5,-6.694384E-6,8.575103E-4,-1.25402585E-5,-9.029191E-5,-3.3213666E-5,-1.367773E-4,3.502976E-5,1.3063401E-4],"categories":[],"categories_nodes":[],"categories_segments":[],"categories_sizes":[],"default_left":[0,0,0,0,0,0,0,0,0,0,0,0,0,0,0,0,0,0,0,0,0,0,0],"id":29,"left_children":[1,3,5,7,9,-1,-1,11,-1,13,15,17,19,-1,-1,-1,21,-1,-1,-1,-1,-1,-1],"loss_changes":[3.538971E-4,5.174917E-5,2.2400482E-4,4.4317403E-6,6.532762E-6,0E0,0E0,2.4052151E-6,0E0,5.2865307E-6,2.6519142E-6,1.2392625E-6,2.034396E-6,0E0,0E0,0E0,2.2742188E-6,0E0,0E0,0E0,0E0,0E0,0E0],"parents":[2147483647,0,0,1,1,2,2,3,3,4,4,7,7,9,9,10,10,11,11,12,12,16,16],"right_children":[2,4,6,8,10,-1,-1,12,-1,14,16,18,20,-1,-1,-1,22,-1,-1,-1,-1,-1,-1],"split_conditions":[6.5611556E-2,1.1851107E2,1.9072888E-2,5.085196E-2,1.1925979E2,1.7228939E-3,-5.637752E-5,1.9877255E-2,3.6039204E-5,1.1973968E2,1.19159615E2,2.398406E-2,1.9010752E-2,2.9673253E-4,9.396672E-5,-6.694384E-6,1.19371704E2,-1.25402585E-5,-9.029191E-5,-3.3213666E-5,-1.367773E-4,3.502976E-5,1.3063401E-4],"split_indices":[6,3,0,8,3,0,0,24,0,19,13,12,20,0,0,0,29,0,0,0,0,0,0],"split_type":[0,0,0,0,0,0,0,0,0,0,0,0,0,0,0,0,0,0,0,0,0,0,0],"sum_hessian":[5.3E1,5.1E1,2E0,2.9E1,2.2E1,1E0,1E0,2.7E1,2E0,7E0,1.5E1,8E0,1.9E1,2E0,5E0,4E0,1.1E1,5E0,3E0,3E0,1.6E1,6E0,5E0],"tree_param":{"num_deleted":"0","num_feature":"30","num_nodes":"23","size_leaf_vector":"1"}},{"base_weights":[5.360242E-4,-5.2279003E-5,1.0554605E-2,-8.512252E-4,9.920978E-4,1.6367495E-3,-5.3558684E-5,-9.405912E-4,8.701943E-5,7.8320625E-4,2.123639E-4,-4.4783496E-4,-1.1069825E-3,5.9557E-4,1.7105007E-4,-9.570972E-5,-1.6560325E-5,-3.0722702E-5,-1.223207E-4,7.4956565E-6,7.294032E-5],"categories":[],"categories_nodes":[],"categories_segments":[],"categories_sizes":[],"default_left":[0,0,0,0,0,0,0,0,0,0,0,0,0,0,0,0,0,0,0,0,0],"id":30,"left_children":[1,3,5,7,9,-1,-1,11,-1,13,-1,15,17,19,-1,-1,-1,-1,-1,-1,-1],"loss_changes":[3.188258E-4,4.4233348E-5,2.0216437E-4,5.433587E-6,3.7732461E-6,0E0,0E0,1.8819737E-6,0E0,2.6351518E-6,0E0,1.1350712E-6,1.5761689E-6,1.2691576E-6,0E0,0E0,0E0,0E0,0E0,0E0,0E0],"parents":[2147483647,0,0,1,1,2,2,3,3,4,4,7,7,9,9,11,11,12,12,13,13],"right_children":[2,4,6,8,10,-1,-1,12,-1,14,-1,16,18,20,-1,-1,-1,-1,-1,-1,-1],"split_conditions":[6.5611556E-2,1.1877474E2,1.9072888E-2,3.4531444E-2,1.2415509E2,1.6367495E-3,-5.3558684E-5,1.9877255E-2,8.701943E-5,6.5611556E-2,2.123639E-4,4.808192E1,1.9010752E-2,1.19159615E2,1.7105007E-4,-9.570972E-5,-1.6560325E-5,-3.0722702E-5,-1.223207E-4,7.4956565E-6,7.294032E-5],"split_indices":[6,5,0,6,25,0,0,24,0,24,0,1,20,13,0,0,0,0,0,0,0],"split_type":[0,0,0,0,0,0,0,0,0,0,0,0,0,0,0,0,0,0,0,0,0],"sum_hessian":[5.3E1,5.1E1,2E0,2.9E1,2.2E1,1E0,1E0,2.8E1,1E0,2E1,2E0,8E0,2E1,1.8E1,2E0,2E0,6E0,3E0,1.7E1,4E0,1.4E1],"tree_param":{"num_deleted":"0","num_feature":"30","num_nodes":"21","size_leaf_vector":"1"}},{"base_weights":[5.170279E-4,-4.156009E-5,1.0026877E-2,-7.720462E-4,9.1305486E-4,1.5549123E-3,-5.088076E-5,-8.5568125E-4,8.266848E-5,4.1461262E-5,1.2645788E-3,-5.0312643E-5,-1.0749479E-3,6.034775E-5,1.935284E-3,-1.21583944E-4,-1.2174249E-6,9.216527E-5,2.6416976E-4],"categories":[],"categories_nodes":[],"categories_segments":[],"categories_sizes":[],"default_left":[0,0,0,0,0,0,0,0,0,0,0,0,0,0,0,0,0,0,0],"id":31,"left_children":[1,3,5,7,9,-1,-1,11,-1,-1,13,-1,15,-1,17,-1,-1,-1,-1],"loss_changes":[2.8726945E-4,3.6966234E-5,1.8245346E-4,4.718677E-6,3.50562E-6,0E0,0E0,1.7009679E-6,0E0,0E0,4.5963516E-6,0E0,2.5307054E-6,0E0,1.8615319E-6,0E0,0E0,0E0,0E0],"parents":[2147483647,0,0,1,1,2,2,3,3,4,4,7,7,10,10,12,12,14,14],"right_children":[2,4,6,8,10,-1,-1,12,-1,-1,14,-1,16,-1,18,-1,-1,-1,-1],"split_conditions":[6.5611556E-2,1.1877474E2,1.9072888E-2,3.4531444E-2,1.1941441E2,1.5549123E-3,-5.088076E-5,5.265939E1,8.266848E-5,4.1461262E-5,2.2450335E-2,-5.0312643E-5,1.1930942E2,6.034775E-5,1.1935687E2,-1.21583944E-4,-1.2174249E-6,9.216527E-5,2.6416976E-4],"split_indices":[6,5,0,6,23,0,0,13,0,0,2,0,19,0,11,0,0,0,0],"split_type":[0,0,0,0,0,0,0,0,0,0,0,0,0,0,0,0,0,0,0],"sum_hessian":[5.3E1,5.1E1,2E0,2.9E1,2.2E1,1E0,1E0,2.8E1,1E0,1E1,1.2E1,1.2E1,1.6E1,7E0,5E0,1.4E1,2E0,3E0,2E0],"tree_param":{"num_deleted":"0","num_feature":"30","num_nodes":"19","size_leaf_vector":"1"}},{"base_weights":[4.999869E-4,-3.0332925E-5,9.525535E-3,-7.0166454E-4,8.466358E-4,1.477167E-3,-4.833676E-5,-7.8534486E-4,3.8594007E-6,1.4125209E-3,3.8195815E-4,-2.1461305E-5,-9.053015E-4,2.241863E-4,7.368225E-5,-2.905517E-6,7.971222E-5,-1.0271552E-4,-2.8556771E-5],"categories":[],"categories_nodes":[],"categories_segments":[],"categories_sizes":[],"default_left":[0,0,0,0,0,0,0,0,0,0,0,0,0,0,0,0,0,0,0],"id":32,"left_children":[1,3,5,7,9,-1,-1,11,-1,13,15,-1,17,-1,-1,-1,-1,-1,-1],"loss_changes":[2.5875602E-4,3.120837E-5,1.6466432E-4,1.8886622E-6,5.508424E-6,0E0,0E0,1.6542126E-6,0E0,3.9519964E-6,2.4120918E-6,0E0,1.3680492E-6,0E0,0E0,0E0,0E0,0E0,0E0],"parents":[2147483647,0,0,1,1,2,2,3,3,4,4,7,7,9,9,10,10,12,12],"right_children":[2,4,6,8,10,-1,-1,12,-1,14,16,-1,18,-1,-1,-1,-1,-1,-1],"split_conditions":[6.5611556E-2,1.1883117E2,1.9072888E-2,1.19360214E2,1.19371704E2,1.477167E-3,-4.833676E-5,5.027288E1,3.8594007E-6,1.1973968E2,1.1986061E2,-2.1461305E-5,2.436072E-2,2.241863E-4,7.368225E-5,-2.905517E-6,7.971222E-5,-1.0271552E-4,-2.8556771E-5],"split_indices":[6,7,0,21,7,0,0,25,0,19,13,0,6,0,0,0,0,0,0],"split_type":[0,0,0,0,0,0,0,0,0,0,0,0,0,0,0,0,0,0,0],"sum_hessian":[5.3E1,5.1E1,2E0,2.9E1,2.2E1,1E0,1E0,2.6E1,3E0,9E0,1.3E1,5E0,2.1E1,3E0,6E0,7E0,6E0,1.7E1,4E0],"tree_param":{"num_deleted":"0","num_feature":"30","num_nodes":"19","size_leaf_vector":"1"}},{"base_weights":[4.8062927E-4,-2.2957604E-5,9.049258E-3,-6.4085185E-4,7.839896E-4,1.4033087E-3,-4.5919885E-5,-7.3221273E-4,4.2546668E-5,6.066561E-4,1.7639945E-4,-3.1271058E-5,-8.8437804E-4,4.5119814E-5,1.3890043E-4,-2.1253712E-5,-9.904361E-5],"categories":[],"categories_nodes":[],"categories_segments":[],"categories_sizes":[],"default_left":[0,0,0,0,0,0,0,0,0,0,0,0,0,0,0,0,0],"id":33,"left_children":[1,3,5,7,9,-1,-1,11,-1,13,-1,-1,15,-1,-1,-1,-1],"loss_changes":[2.3322042E-4,2.6430042E-5,1.4860951E-4,3.234125E-6,2.9269786E-6,0E0,0E0,1.510788E-6,0E0,1.9273511E-6,0E0,0E0,1.2145774E-6,0E0,0E0,0E0,0E0],"parents":[2147483647,0,0,1,1,2,2,3,3,4,4,7,7,9,9,12,12],"right_children":[2,4,6,8,10,-1,-1,12,-1,14,-1,-1,16,-1,-1,-1,-1],"split_conditions":[6.5611556E-2,1.1877474E2,1.9072888E-2,5.085196E-2,1.2415509E2,1.4033087E-3,-4.5919885E-5,1.9877255E-2,4.2546668E-5,6.5611556E-2,1.7639945E-4,-3.1271058E-5,1.9010752E-2,4.5119814E-5,1.3890043E-4,-2.1253712E-5,-9.904361E-5],"split_indices":[6,5,0,8,25,0,0,24,0,24,0,0,20,0,0,0,0],"split_type":[0,0,0,0,0,0,0,0,0,0,0,0,0,0,0,0,0],"sum_hessian":[5.3E1,5.1E1,2E0,2.9E1,2.2E1,1E0,1E0,2.7E1,2E0,2E1,2E0,8E0,1.9E1,1.8E1,2E0,3E0,1.6E1],"tree_param":{"num_deleted":"0","num_feature":"30","num_nodes":"17","size_leaf_vector":"1"}},{"base_weights":[4.623587E-4,-1.5827361E-5,8.5967975E-3,-5.849314E-4,7.2717044E-4,1.3331436E-3,-4.3623895E-5,-6.800133E-4,2.0310423E-5,1.2693382E-3,4.106384E-4,-3.545106E-5,-8.816396E-5,2.2110243E-4,5.8693877E-5,1.7400565E-6,6.4484106E-4,7.710048E-6,8.771441E-5],"categories":[],"categories_nodes":[],"categories_segments":[],"categories_sizes":[],"default_left":[0,0,0,0,0,0,0,0,0,0,0,0,0,0,0,0,0,0,0],"id":34,"left_children":[1,3,5,7,9,-1,-1,11,-1,13,15,-1,-1,-1,-1,-1,17,-1,-1],"loss_changes":[2.1018393E-4,2.2413184E-5,1.3412019E-4,2.3859511E-6,3.425872E-6,0E0,0E0,1.459457E-6,0E0,3.8431135E-6,1.462337E-6,0E0,0E0,0E0,0E0,0E0,1.2512501E-6,0E0,0E0],"parents":[2147483647,0,0,1,1,2,2,3,3,4,4,7,7,9,9,10,10,16,16],"right_children":[2,4,6,8,10,-1,-1,12,-1,14,16,-1,-1,-1,-1,-1,18,-1,-1],"split_conditions":[6.5611556E-2,1.1851107E2,1.9072888E-2,1.19360214E2,1.1925979E2,1.3331436E-3,-4.3623895E-5,5.265939E1,2.0310423E-5,1.1973968E2,1.1935687E2,-3.545106E-5,-8.816396E-5,2.2110243E-4,5.8693877E-5,1.7400565E-6,1.19159615E2,7.710048E-6,8.771441E-5],"split_indices":[6,3,0,21,3,0,0,13,0,19,29,0,0,0,0,0,13,0,0],"split_type":[0,0,0,0,0,0,0,0,0,0,0,0,0,0,0,0,0,0,0],"sum_hessian":[5.3E1,5.1E1,2E0,2.9E1,2.2E1,1E0,1E0,2.6E1,3E0,7E0,1.5E1,1.1E1,1.5E1,2E0,5E0,6E0,9E0,3E0,6E0],"tree_param":{"num_deleted":"0","num_feature":"30","num_nodes":"19","size_leaf_vector":"1"}},{"base_weights":[4.4507036E-4,-8.982105E-6,8.166957E-3,-5.310938E-4,6.7242363E-4,1.2664862E-3,-4.1442738E-5,-6.116884E-4,-5.7827685E-7,-2.4660358E-6,9.199039E-4,-3.1156404E-5,-8.110087E-5,3.6421185E-5,1.2724672E-3,5.221285E-5,1.6856716E-4],"categories":[],"categories_nodes":[],"categories_segments":[],"categories_sizes":[],"default_left":[0,0,0,0,0,0,0,0,0,0,0,0,0,0,0,0,0],"id":35,"left_children":[1,3,5,7,9,-1,-1,11,-1,-1,13,-1,-1,-1,15,-1,-1],"loss_changes":[1.8940498E-4,1.8857156E-5,1.2104346E-4,1.2665805E-6,3.99052E-6,0E0,0E0,1.3026611E-6,0E0,0E0,2.8671348E-6,0E0,0E0,0E0,2.2202948E-6,0E0,0E0],"parents":[2147483647,0,0,1,1,2,2,3,3,4,4,7,7,10,10,14,14],"right_children":[2,4,6,8,10,-1,-1,12,-1,-1,14,-1,-1,-1,16,-1,-1],"split_conditions":[6.5611556E-2,1.1883117E2,1.9072888E-2,1.1930942E2,1.190396E2,1.2664862E-3,-4.1442738E-5,5.265939E1,-5.7827685E-7,-2.4660358E-6,2.2201015E-2,-3.1156404E-5,-8.110087E-5,3.6421185E-5,1.19417305E2,5.221285E-5,1.6856716E-4],"split_indices":[6,7,0,19,23,0,0,13,0,0,4,0,0,0,11,0,0],"split_type":[0,0,0,0,0,0,0,0,0,0,0,0,0,0,0,0,0],"sum_hessian":[5.3E1,5.1E1,2E0,2.9E1,2.2E1,1E0,1E0,2.5E1,4E0,6E0,1.6E1,1.1E1,1.4E1,7E0,9E0,4E0,5E0],"tree_param":{"num_deleted":"0","num_feature":"30","num_nodes":"17","size_leaf_vector":"1"}},{"base_weights":[4.2587722E-4,-5.355033E-6,7.7586104E-3,-4.895048E-4,6.263774E-4,1.2031622E-3,-3.937064E-5,-5.915882E-4,1.3923012E-5,4.746703E-4,1.479535E-4,-8.595301E-6,-7.0788455E-4,3.454554E-5,1.1348078E-4,-3.604359E-5,-8.939733E-5],"categories":[],"categories_nodes":[],"categories_segments":[],"categories_sizes":[],"default_left":[0,0,0,0,0,0,0,0,0,0,0,0,0,0,0,0,0],"id":36,"left_children":[1,3,5,7,9,-1,-1,11,-1,13,-1,-1,15,-1,-1,-1,-1],"loss_changes":[1.7079555E-4,1.6210975E-5,1.09241766E-4,2.0078692E-6,2.2746017E-6,0E0,0E0,1.4680472E-6,0E0,1.3992662E-6,0E0,0E0,1.0355616E-6,0E0,0E0,0E0,0E0],"parents":[2147483647,0,0,1,1,2,2,3,3,4,4,7,7,9,9,12,12],"right_children":[2,4,6,8,10,-1,-1,12,-1,14,-1,-1,16,-1,-1,-1,-1],"split_conditions":[6.5611556E-2,1.1877474E2,1.9072888E-2,1.1930942E2,1.2415509E2,1.2031622E-3,-3.937064E-5,5.027288E1,1.3923012E-5,6.5611556E-2,1.479535E-4,-8.595301E-6,5.265939E1,3.454554E-5,1.1348078E-4,-3.604359E-5,-8.939733E-5],"split_indices":[6,5,0,19,25,0,0,25,0,24,0,0,13,0,0,0,0],"split_type":[0,0,0,0,0,0,0,0,0,0,0,0,0,0,0,0,0],"sum_hessian":[5.3E1,5.1E1,2E0,2.9E1,2.2E1,1E0,1E0,2.5E1,4E0,2E1,2E0,5E0,2E1,1.8E1,2E0,8E0,1.2E1],"tree_param":{"num_deleted":"0","num_feature":"30","num_nodes":"17","size_leaf_vector":"1"}},{"base_weights":[4.0809848E-4,-1.4369233E-6,7.370679E-3,-4.4478563E-4,5.769065E-4,1.143004E-3,-3.74021E-5,-5.233854E-4,1.9695935E-5,1.0350728E-3,3.1176663E-5,-3.7230182E-6,-6.0631544E-5,1.8641005E-4,4.480469E-5],"categories":[],"categories_nodes":[],"categories_segments":[],"categories_sizes":[],"default_left":[0,0,0,0,0,0,0,0,0,0,0,0,0,0,0],"id":37,"left_children":[1,3,5,7,9,-1,-1,11,-1,13,-1,-1,-1,-1,-1],"loss_changes":[1.5398744E-4,1.3589805E-5,9.8590666E-5,1.6163162E-6,2.4712963E-6,0E0,0E0,1.0659824E-6,0E0,3.0580823E-6,0E0,0E0,0E0,0E0,0E0],"parents":[2147483647,0,0,1,1,2,2,3,3,4,4,7,7,9,9],"right_children":[2,4,6,8,10,-1,-1,12,-1,14,-1,-1,-1,-1,-1],"split_conditions":[6.5611556E-2,1.1851107E2,1.9072888E-2,3.4531444E-2,1.1925979E2,1.143004E-3,-3.74021E-5,5.027288E1,1.9695935E-5,1.1973968E2,3.1176663E-5,-3.7230182E-6,-6.0631544E-5,1.8641005E-4,4.480469E-5],"split_indices":[6,3,0,0,3,0,0,25,0,19,0,0,0,0,0],"split_type":[0,0,0,0,0,0,0,0,0,0,0,0,0,0,0],"sum_hessian":[5.3E1,5.1E1,2E0,2.9E1,2.2E1,1E0,1E0,2.6E1,3E0,7E0,1.5E1,4E0,2.2E1,2E0,5E0],"tree_param":{"num_deleted":"0","num_feature":"30","num_nodes":"15","size_leaf_vector":"1"}},{"base_weights":[3.917945E-4,2.8936909E-6,7.0021437E-3,-4.0501115E-4,5.3481763E-4,1.0858536E-3,-3.5532004E-5,-4.7180445E-5,3.5339657E-5,1.521863E-4,4.2077637E-4,3.1057978E-5,1.01516154E-4],"categories":[],"categories_nodes":[],"categories_segments":[],"categories_sizes":[],"default_left":[0,0,0,0,0,0,0,0,0,0,0,0,0],"id":38,"left_children":[1,3,5,7,9,-1,-1,-1,-1,-1,11,-1,-1],"loss_changes":[1.3880132E-4,1.1499274E-5,8.897805E-5,1.6864306E-6,1.948607E-6,0E0,0E0,0E0,0E0,0E0,1.1256943E-6,0E0,0E0],"parents":[2147483647,0,0,1,1,2,2,3,3,4,4,10,10],"right_children":[2,4,6,8,10,-1,-1,-1,-1,-1,12,-1,-1],"split_conditions":[6.5611556E-2,1.1877474E2,1.9072888E-2,3.4531444E-2,1.1883117E2,1.0858536E-3,-3.5532004E-5,-4.7180445E-5,3.5339657E-5,1.521863E-4,5.7033814E-2,3.1057978E-5,1.01516154E-4],"split_indices":[6,5,0,16,5,0,0,0,0,0,2,0,0],"split_type":[0,0,0,0,0,0,0,0,0,0,0,0,0],"sum_hessian":[5.3E1,5.1E1,2E0,2.9E1,2.2E1,1E0,1E0,2.7E1,2E0,1E0,2.1E1,1.9E1,2E0],"tree_param":{"num_deleted":"0","num_feature":"30","num_nodes":"13","size_leaf_vector":"1"}},{"base_weights":[3.7711993E-4,7.853091E-6,6.6520385E-3,-3.6650326E-4,4.9580255E-4,1.0315612E-3,-3.3755416E-5,-4.5927928E-4,8.114738E-6,9.093443E-4,2.58044E-5,-1.4672466E-5,-6.2592095E-5,1.6552607E-4,3.848287E-5],"categories":[],"categories_nodes":[],"categories_segments":[],"categories_sizes":[],"default_left":[0,0,0,0,0,0,0,0,0,0,0,0,0,0,0],"id":39,"left_children":[1,3,5,7,9,-1,-1,11,-1,13,-1,-1,-1,-1,-1],"loss_changes":[1.250722E-4,9.680396E-6,8.0302736E-5,1.2832061E-6,2.0267803E-6,0E0,0E0,1.2102778E-6,0E0,2.4929664E-6,0E0,0E0,0E0,0E0,0E0],"parents":[2147483647,0,0,1,1,2,2,3,3,4,4,7,7,9,9],"right_children":[2,4,6,8,10,-1,-1,12,-1,14,-1,-1,-1,-1,-1],"split_conditions":[6.5611556E-2,1.1851107E2,1.9072888E-2,2.7752334E-2,1.1925979E2,1.0315612E-3,-3.3755416E-5,2.0279922E-2,8.114738E-6,1.1973968E2,2.58044E-5,-1.4672466E-5,-6.2592095E-5,1.6552607E-4,3.848287E-5],"split_indices":[6,3,0,20,3,0,0,8,0,19,0,0,0,0,0],"split_type":[0,0,0,0,0,0,0,0,0,0,0,0,0,0,0],"sum_hessian":[5.3E1,5.1E1,2E0,2.9E1,2.2E1,1E0,1E0,2.4E1,5E0,7E0,1.5E1,9E0,1.5E1,2E0,5E0],"tree_param":{"num_deleted":"0","num_feature":"30","num_nodes":"15","size_leaf_vector":"1"}},{"base_weights":[3.6086075E-4,1.0157183E-5,6.319436E-3,-3.3409533E-4,4.587406E-4,9.799831E-4,-3.2067674E-5,-3.9478546E-5,3.437108E-5,1.3630056E-4,3.5568282E-5],"categories":[],"categories_nodes":[],"categories_segments":[],"categories_sizes":[],"default_left":[0,0,0,0,0,0,0,0,0,0,0],"id":40,"left_children":[1,3,5,7,9,-1,-1,-1,-1,-1,-1],"loss_changes":[1.12779264E-4,8.183412E-6,7.2473216E-5,1.3697759E-6,1.6586073E-6,0E0,0E0,0E0,0E0,0E0,0E0],"parents":[2147483647,0,0,1,1,2,2,3,3,4,4],"right_children":[2,4,6,8,10,-1,-1,-1,-1,-1,-1],"split_conditions":[6.5611556E-2,1.1877474E2,1.9072888E-2,5.085196E-2,1.1883117E2,9.799831E-4,-3.2067674E-5,-3.9478546E-5,3.437108E-5,1.3630056E-4,3.5568282E-5],"split_indices":[6,5,0,8,5,0,0,0,0,0,0],"split_type":[0,0,0,0,0,0,0,0,0,0,0],"sum_hessian":[5.3E1,5.1E1,2E0,2.9E1,2.2E1,1E0,1E0,2.7E1,2E0,1E0,2.1E1],"tree_param":{"num_deleted":"0","num_feature":"30","num_nodes":"11","size_leaf_vector":"1"}},{"base_weights":[3.454165E-4,1.2348191E-5,6.003462E-3,-3.029223E-5,4.230337E-4,9.309836E-4,-3.0464307E-5,-9.651669E-6,6.1208184E-4,8.0229144E-4,-4.8793856E-7,9.499781E-5,-6.6570936E-7],"categories":[],"categories_nodes":[],"categories_segments":[],"categories_sizes":[],"default_left":[0,0,0,0,0,0,0,0,0,0,0,0,0],"id":41,"left_children":[1,3,5,-1,7,-1,-1,-1,9,11,-1,-1,-1],"loss_changes":[1.01689715E-4,6.8609506E-6,6.540703E-5,0E0,2.3181374E-6,0E0,0E0,0E0,1.9988975E-6,1.5594469E-6,0E0,0E0,0E0],"parents":[2147483647,0,0,1,1,2,2,4,4,8,8,9,9],"right_children":[2,4,6,-1,8,-1,-1,-1,10,12,-1,-1,-1],"split_conditions":[6.5611556E-2,1.1883117E2,1.9072888E-2,-3.029223E-5,1.190396E2,9.309836E-4,-3.0464307E-5,-9.651669E-6,1.2409416E2,1.2415509E2,-4.8793856E-7,9.499781E-5,-6.6570936E-7],"split_indices":[6,7,0,0,23,0,0,0,19,1,0,0,0],"split_type":[0,0,0,0,0,0,0,0,0,0,0,0,0],"sum_hessian":[5.3E1,5.1E1,2E0,2.9E1,2.2E1,1E0,1E0,6E0,1.6E1,1.2E1,4E0,1E1,2E0],"tree_param":{"num_deleted":"0","num_feature":"30","num_nodes":"13","size_leaf_vector":"1"}},{"base_weights":[3.285495E-4,1.215007E-5,5.7032895E-3,-2.7704189E-5,3.8882872E-4,8.844346E-4,-2.894113E-5,1.2473576E-4,2.931066E-4,1.9290606E-5,8.6340806E-5],"categories":[],"categories_nodes":[],"categories_segments":[],"categories_sizes":[],"default_left":[0,0,0,0,0,0,0,0,0,0,0],"id":42,"left_children":[1,3,5,-1,7,-1,-1,-1,9,-1,-1],"loss_changes":[9.1761205E-5,5.7722086E-6,5.902988E-5,0E0,1.5245357E-6,0E0,0E0,0E0,1.0906228E-6,0E0,0E0],"parents":[2147483647,0,0,1,1,2,2,4,4,8,8],"right_children":[2,4,6,-1,8,-1,-1,-1,10,-1,-1],"split_conditions":[6.5611556E-2,1.1851107E2,1.9072888E-2,-2.7704189E-5,1.1877474E2,8.844346E-4,-2.894113E-5,1.2473576E-4,5.7033814E-2,1.9290606E-5,8.6340806E-5],"split_indices":[6,3,0,0,3,0,0,0,2,0,0],"split_type":[0,0,0,0,0,0,0,0,0,0,0],"sum_hessian":[5.3E1,5.1E1,2E0,2.9E1,2.2E1,1E0,1E0,1E0,2.1E1,1.9E1,2E0],"tree_param":{"num_deleted":"0","num_feature":"30","num_nodes":"11","size_leaf_vector":"1"}},{"base_weights":[3.1529093E-4,1.48332465E-5,5.4181274E-3,-2.5502432E-4,3.6617645E-4,8.4021315E-4,-2.749404E-5,-3.2845864E-4,1.7783903E-5,1.1849888E-4,2.7509455E-5,-9.707877E-6,-5.1985E-5],"categories":[],"categories_nodes":[],"categories_segments":[],"categories_sizes":[],"default_left":[0,0,0,0,0,0,0,0,0,0,0,0,0],"id":43,"left_children":[1,3,5,7,9,-1,-1,11,-1,-1,-1,-1,-1],"loss_changes":[8.27117E-5,5.0236395E-6,5.3274496E-5,1.0120234E-6,1.3893323E-6,0E0,0E0,1.1009206E-6,0E0,0E0,0E0,0E0,0E0],"parents":[2147483647,0,0,1,1,2,2,3,3,4,4,7,7],"right_children":[2,4,6,8,10,-1,-1,12,-1,-1,-1,-1,-1],"split_conditions":[6.5611556E-2,1.1877474E2,1.9072888E-2,1.1930942E2,1.1883117E2,8.4021315E-4,-2.749404E-5,5.5278065E1,1.7783903E-5,1.1849888E-4,2.7509455E-5,-9.707877E-6,-5.1985E-5],"split_indices":[6,5,0,19,5,0,0,17,0,0,0,0,0],"split_type":[0,0,0,0,0,0,0,0,0,0,0,0,0],"sum_hessian":[5.3E1,5.1E1,2E0,2.9E1,2.2E1,1E0,1E0,2.5E1,4E0,1E0,2.1E1,1.2E1,1.3E1],"tree_param":{"num_deleted":"0","num_feature":"30","num_nodes":"13","size_leaf_vector":"1"}},{"base_weights":[3.0070212E-4,1.5312591E-5,5.14722E-3,-1.8028097E-4,4.2861E-4,7.982023E-4,-2.6119314E-5,-3.0724096E-4,1.3619544E-5,9.7900975E-6,8.870656E-4,-6.4218884E-6,-4.811759E-5,2.5031995E-5,1.3020448E-4],"categories":[],"categories_nodes":[],"categories_segments":[],"categories_sizes":[],"default_left":[0,0,0,0,0,0,0,0,0,0,0,0,0,0,0],"id":44,"left_children":[1,3,5,7,9,-1,-1,11,-1,-1,13,-1,-1,-1,-1],"loss_changes":[7.461104E-5,4.2808624E-6,4.8080205E-5,1.4883188E-6,2.4906174E-6,0E0,0E0,1.0681199E-6,0E0,0E0,1.5237256E-6,0E0,0E0,0E0,0E0],"parents":[2147483647,0,0,1,1,2,2,3,3,4,4,7,7,10,10],"right_children":[2,4,6,8,10,-1,-1,12,-1,-1,14,-1,-1,-1,-1],"split_conditions":[6.5611556E-2,1.19371704E2,1.9072888E-2,1.1930942E2,1.1941441E2,7.982023E-4,-2.6119314E-5,5.265939E1,1.3619544E-5,9.7900975E-6,1.1926312E2,-6.4218884E-6,-4.811759E-5,2.5031995E-5,1.3020448E-4],"split_indices":[6,11,0,19,23,0,0,13,0,0,7,0,0,0,0],"split_type":[0,0,0,0,0,0,0,0,0,0,0,0,0,0,0],"sum_hessian":[5.3E1,5.1E1,2E0,3.5E1,1.6E1,1E0,1E0,2.5E1,1E1,1E1,6E0,1.1E1,1.4E1,3E0,3E0],"tree_param":{"num_deleted":"0","num_feature":"30","num_nodes":"15","size_leaf_vector":"1"}},{"base_weights":[2.8722832E-4,1.616819E-5,4.889861E-3,-1.6338937E-4,3.9545665E-4,7.5829256E-4,-2.481332E-5,-2.7131158E-5,1.4433955E-5,8.900091E-6,8.2053617E-4,8.108964E-6,1.10009685E-4],"categories":[],"categories_nodes":[],"categories_segments":[],"categories_sizes":[],"default_left":[0,0,0,0,0,0,0,0,0,0,0,0,0],"id":45,"left_children":[1,3,5,7,9,-1,-1,-1,-1,-1,11,-1,-1],"loss_changes":[6.729082E-5,3.6060273E-6,4.3392414E-5,1.2347494E-6,2.1415287E-6,0E0,0E0,0E0,0E0,0E0,1.3578347E-6,0E0,0E0],"parents":[2147483647,0,0,1,1,2,2,3,3,4,4,10,10],"right_children":[2,4,6,8,10,-1,-1,-1,-1,-1,12,-1,-1],"split_conditions":[6.5611556E-2,1.19371704E2,1.9072888E-2,1.19360214E2,1.1941441E2,7.5829256E-4,-2.481332E-5,-2.7131158E-5,1.4433955E-5,8.900091E-6,2.0076778E-2,8.108964E-6,1.10009685E-4],"split_indices":[6,11,0,21,23,0,0,0,0,0,2,0,0],"split_type":[0,0,0,0,0,0,0,0,0,0,0,0,0],"sum_hessian":[5.3E1,5.1E1,2E0,3.5E1,1.6E1,1E0,1E0,2.6E1,9E0,1E1,6E0,2E0,4E0],"tree_param":{"num_deleted":"0","num_feature":"30","num_nodes":"13","size_leaf_vector":"1"}},{"base_weights":[2.742056E-4,1.6749907E-5,4.6453695E-3,-1.9261888E-5,2.8911137E-4,7.20378E-4,-2.3572613E-5,8.709766E-5,1.9222054E-5],"categories":[],"categories_nodes":[],"categories_segments":[],"categories_sizes":[],"default_left":[0,0,0,0,0,0,0,0,0],"id":46,"left_children":[1,3,5,-1,7,-1,-1,-1,-1],"loss_changes":[6.069276E-5,3.0209355E-6,3.9161663E-5,0E0,1.1292602E-6,0E0,0E0,0E0,0E0],"parents":[2147483647,0,0,1,1,2,2,4,4],"right_children":[2,4,6,-1,8,-1,-1,-1,-1],"split_conditions":[6.5611556E-2,1.1877474E2,1.9072888E-2,-1.9261888E-5,1.190396E2,7.20378E-4,-2.3572613E-5,8.709766E-5,1.9222054E-5],"split_indices":[6,5,0,0,5,0,0,0,0],"split_type":[0,0,0,0,0,0,0,0,0],"sum_hessian":[5.3E1,5.1E1,2E0,2.9E1,2.2E1,1E0,1E0,2E0,2E1],"tree_param":{"num_deleted":"0","num_feature":"30","num_nodes":"9","size_leaf_vector":"1"}},{"base_weights":[2.6130074E-4,1.6748869E-5,4.4130995E-3,-1.3911414E-4,3.4582647E-4,6.8435894E-4,-2.2394024E-5,-4.600487E-5,-4.5783432E-5,6.6933812E-6,7.346826E-4,-1.8526558E-5,2.3775921E-5,-1.4130957E-5,9.0423295E-5],"categories":[],"categories_nodes":[],"categories_segments":[],"categories_sizes":[],"default_left":[0,0,0,0,0,0,0,0,0,0,0,0,0,0,0],"id":47,"left_children":[1,3,5,7,9,-1,-1,-1,11,-1,13,-1,-1,-1,-1],"loss_changes":[5.475391E-5,2.7152423E-6,3.534339E-5,1.057247E-6,1.7944601E-6,0E0,0E0,0E0,1.1909735E-6,0E0,1.1674497E-6,0E0,0E0,0E0,0E0],"parents":[2147483647,0,0,1,1,2,2,3,3,4,4,8,8,10,10],"right_children":[2,4,6,8,10,-1,-1,-1,12,-1,14,-1,-1,-1,-1],"split_conditions":[6.5611556E-2,1.19371704E2,1.9072888E-2,5.027288E1,1.1941441E2,6.8435894E-4,-2.2394024E-5,-4.600487E-5,2.4008539E-2,6.6933812E-6,1.9095922E-2,-1.8526558E-5,2.3775921E-5,-1.4130957E-5,9.0423295E-5],"split_indices":[6,11,0,3,23,0,0,0,18,0,2,0,0,0,0],"split_type":[0,0,0,0,0,0,0,0,0,0,0,0,0,0,0],"sum_hessian":[5.3E1,5.1E1,2E0,3.5E1,1.6E1,1E0,1E0,7E0,2.8E1,1E1,6E0,1.9E1,9E0,1E0,5E0],"tree_param":{"num_deleted":"0","num_feature":"30","num_nodes":"15","size_leaf_vector":"1"}},{"base_weights":[2.4821103E-4,1.5885927E-5,4.192442E-3,-1.2633494E-5,3.1612508E-4,6.5014063E-4,-2.1274294E-5,6.0848215E-6,6.721137E-4,1.5351548E-5,1.0226835E-4],"categories":[],"categories_nodes":[],"categories_segments":[],"categories_sizes":[],"default_left":[0,0,0,0,0,0,0,0,0,0,0],"id":48,"left_children":[1,3,5,-1,7,-1,-1,-1,9,-1,-1],"loss_changes":[4.9415972E-5,2.2603517E-6,3.1897373E-5,0E0,1.5039894E-6,0E0,0E0,0E0,1.1156365E-6,0E0,0E0],"parents":[2147483647,0,0,1,1,2,2,4,4,8,8],"right_children":[2,4,6,-1,8,-1,-1,-1,10,-1,-1],"split_conditions":[6.5611556E-2,1.19371704E2,1.9072888E-2,-1.2633494E-5,1.1941441E2,6.5014063E-4,-2.1274294E-5,6.0848215E-6,1.1926312E2,1.5351548E-5,1.0226835E-4],"split_indices":[6,11,0,0,23,0,0,0,7,0,0],"split_type":[0,0,0,0,0,0,0,0,0,0,0],"sum_hessian":[5.3E1,5.1E1,2E0,3.5E1,1.6E1,1E0,1E0,1E1,6E0,3E0,3E0],"tree_param":{"num_deleted":"0","num_feature":"30","num_nodes":"11","size_leaf_vector":"1"}},{"base_weights":[2.370931E-4,1.6433904E-5,3.9828215E-3,-1.315825E-4,2.8044044E-4,6.1763375E-4,-2.0210538E-5,1.8586425E-5,-2.3640707E-5,-2.4960893E-6,5.048197E-5],"categories":[],"categories_nodes":[],"categories_segments":[],"categories_sizes":[],"default_left":[0,0,0,0,0,0,0,0,0,0,0],"id":49,"left_children":[1,3,5,7,9,-1,-1,-1,-1,-1,-1],"loss_changes":[4.4567132E-5,2.0689208E-6,2.8787388E-5,1.1753309E-6,1.3145896E-6,0E0,0E0,0E0,0E0,0E0,0E0],"parents":[2147483647,0,0,1,1,2,2,3,3,4,4],"right_children":[2,4,6,8,10,-1,-1,-1,-1,-1,-1],"split_conditions":[6.5611556E-2,1.19360214E2,1.9072888E-2,1.9772656E-2,2.2450335E-2,6.1763375E-4,-2.0210538E-5,1.8586425E-5,-2.3640707E-5,-2.4960893E-6,5.048197E-5],"split_indices":[6,21,0,10,2,0,0,0,0,0,0],"split_type":[0,0,0,0,0,0,0,0,0,0,0],"sum_hessian":[5.3E1,5.1E1,2E0,3.3E1,1.8E1,1E0,1E0,8E0,2.5E1,8E0,1E1],"tree_param":{"num_deleted":"0","num_feature":"30","num_nodes":"11","size_leaf_vector":"1"}},{"base_weights":[2.2524202E-4,1.5616022E-5,3.7836786E-3,-1.092785E-5,2.7917995E-4,5.8675185E-4,-1.9200053E-5,5.083311E-6,5.9812784E-5],"categories":[],"categories_nodes":[],"categories_segments":[],"categories_sizes":[],"default_left":[0,0,0,0,0,0,0,0,0],"id":50,"left_children":[1,3,5,-1,7,-1,-1,-1,-1],"loss_changes":[4.022172E-5,1.742228E-6,2.59806E-5,0E0,1.207718E-6,0E0,0E0,0E0,0E0],"parents":[2147483647,0,0,1,1,2,2,4,4],"right_children":[2,4,6,-1,8,-1,-1,-1,-1],"split_conditions":[6.5611556E-2,1.19371704E2,1.9072888E-2,-1.092785E-5,1.1941441E2,5.8675185E-4,-1.9200053E-5,5.083311E-6,5.9812784E-5],"split_indices":[6,11,0,0,23,0,0,0,0],"split_type":[0,0,0,0,0,0,0,0,0],"sum_hessian":[5.3E1,5.1E1,2E0,3.5E1,1.6E1,1E0,1E0,1E1,6E0],"tree_param":{"num_deleted":"0","num_feature":"30","num_nodes":"9","size_leaf_vector":"1"}},{"base_weights":[2.142271E-4,1.5091831E-5,3.594496E-3,-2.366415E-5,1.335467E-4,5.5741443E-4,-1.8240045E-5,-6.955385E-6,2.8193058E-4,4.6455443E-5,-1.3185044E-6],"categories":[],"categories_nodes":[],"categories_segments":[],"categories_sizes":[],"default_left":[0,0,0,0,0,0,0,0,0,0,0],"id":51,"left_children":[1,3,5,-1,7,-1,-1,-1,9,-1,-1],"loss_changes":[3.6294816E-5,1.5821926E-6,2.3447505E-5,0E0,1.104536E-6,0E0,0E0,0E0,1.1379236E-6,0E0,0E0],"parents":[2147483647,0,0,1,1,2,2,4,4,8,8],"right_children":[2,4,6,-1,8,-1,-1,-1,10,-1,-1],"split_conditions":[6.5611556E-2,5.265939E1,1.9072888E-2,-2.366415E-5,2.3276862E-2,5.5741443E-4,-1.8240045E-5,-6.955385E-6,5.30196E-2,4.6455443E-5,-1.3185044E-6],"split_indices":[6,3,0,0,18,0,0,0,26,0,0],"split_type":[0,0,0,0,0,0,0,0,0,0,0],"sum_hessian":[5.3E1,5.1E1,2E0,1.6E1,3.5E1,1E0,1E0,1.5E1,2E1,1.2E1,8E0],"tree_param":{"num_deleted":"0","num_feature":"30","num_nodes":"11","size_leaf_vector":"1"}},{"base_weights":[2.0305843E-4,1.3862199E-5,3.4147736E-3,-1.05696845E-5,2.2708036E-5,5.295441E-4,-1.7328002E-5],"categories":[],"categories_nodes":[],"categories_segments":[],"categories_sizes":[],"default_left":[0,0,0,0,0,0,0],"id":52,"left_children":[1,3,5,-1,-1,-1,-1],"loss_changes":[3.2765463E-5,1.349594E-6,2.1161395E-5,0E0,0E0,0E0,0E0],"parents":[2147483647,0,0,1,1,2,2],"right_children":[2,4,6,-1,-1,-1,-1],"split_conditions":[6.5611556E-2,1.19360214E2,1.9072888E-2,-1.05696845E-5,2.2708036E-5,5.295441E-4,-1.7328002E-5],"split_indices":[6,21,0,0,0,0,0],"split_type":[0,0,0,0,0,0,0],"sum_hessian":[5.3E1,5.1E1,2E0,3.3E1,1.8E1,1E0,1E0],"tree_param":{"num_deleted":"0","num_feature":"30","num_nodes":"7","size_leaf_vector":"1"}},{"base_weights":[1.9246277E-4,1.27092935E-5,3.2440356E-3,-9.218785E-6,2.340968E-4,5.030669E-4,-1.6461592E-5,6.1394276E-5,6.999476E-6],"categories":[],"categories_nodes":[],"categories_segments":[],"categories_sizes":[],"default_left":[0,0,0,0,0,0,0,0,0],"id":53,"left_children":[1,3,5,-1,7,-1,-1,-1,-1],"loss_changes":[2.9579436E-5,1.2291724E-6,1.9098166E-5,0E0,1.0166966E-6,0E0,0E0,0E0,0E0],"parents":[2147483647,0,0,1,1,2,2,4,4],"right_children":[2,4,6,-1,8,-1,-1,-1,-1],"split_conditions":[6.5611556E-2,1.19371704E2,1.9072888E-2,-9.218785E-6,5.0647594E-2,5.030669E-4,-1.6461592E-5,6.1394276E-5,6.999476E-6],"split_indices":[6,11,0,0,22,0,0,0,0],"split_type":[0,0,0,0,0,0,0,0,0],"sum_hessian":[5.3E1,5.1E1,2E0,3.5E1,1.6E1,1E0,1E0,4E0,1.2E1],"tree_param":{"num_deleted":"0","num_feature":"30","num_nodes":"9","size_leaf_vector":"1"}},{"base_weights":[1.8332353E-4,1.2576258E-5,3.081835E-3,-2.018552E-5,1.1348621E-5,4.7791377E-4,-1.563849E-5],"categories":[],"categories_nodes":[],"categories_segments":[],"categories_sizes":[],"default_left":[0,0,0,0,0,0,0],"id":54,"left_children":[1,3,5,-1,-1,-1,-1],"loss_changes":[2.6686543E-5,1.1480976E-6,1.7236101E-5,0E0,0E0,0E0,0E0],"parents":[2147483647,0,0,1,1,2,2],"right_children":[2,4,6,-1,-1,-1,-1],"split_conditions":[6.5611556E-2,5.265939E1,1.9072888E-2,-2.018552E-5,1.1348621E-5,4.7791377E-4,-1.563849E-5],"split_indices":[6,3,0,0,0,0,0],"split_type":[0,0,0,0,0,0,0],"sum_hessian":[5.3E1,5.1E1,2E0,1.6E1,3.5E1,1E0,1E0],"tree_param":{"num_deleted":"0","num_feature":"30","num_nodes":"7","size_leaf_vector":"1"}},{"base_weights":[1.7338873E-4,1.11491845E-5,2.9277448E-3,-1.4620585E-5,1.4098958E-4,4.5401827E-4,-1.4856551E-5,-2.1371711E-6,4.5161323E-5],"categories":[],"categories_nodes":[],"categories_segments":[],"categories_sizes":[],"default_left":[0,0,0,0,0,0,0,0,0],"id":55,"left_children":[1,3,5,-1,7,-1,-1,-1,-1],"loss_changes":[2.4098095E-5,1.0830277E-6,1.5555594E-5,0E0,1.4722161E-6,0E0,0E0,0E0,0E0],"parents":[2147483647,0,0,1,1,2,2,4,4],"right_children":[2,4,6,-1,8,-1,-1,-1,-1],"split_conditions":[6.5611556E-2,2.3276862E-2,1.9072888E-2,-1.4620585E-5,1.1941441E2,4.5401827E-4,-1.4856551E-5,-2.1371711E-6,4.5161323E-5],"split_indices":[6,18,0,0,23,0,0,0,0],"split_type":[0,0,0,0,0,0,0,0,0],"sum_hessian":[5.3E1,5.1E1,2E0,2.3E1,2.8E1,1E0,1E0,1.9E1,9E0],"tree_param":{"num_deleted":"0","num_feature":"30","num_nodes":"9","size_leaf_vector":"1"}},{"base_weights":[1.647084E-4,1.0580505E-6,2.7813558E-3,4.313171E-4,-1.4113728E-5],"categories":[],"categories_nodes":[],"categories_segments":[],"categories_sizes":[],"default_left":[0,0,0,0,0],"id":56,"left_children":[1,-1,3,-1,-1],"loss_changes":[2.1748681E-5,0E0,1.40389075E-5,0E0,0E0],"parents":[2147483647,0,0,2,2],"right_children":[2,-1,4,-1,-1],"split_conditions":[6.5611556E-2,1.0580505E-6,1.9072888E-2,4.313171E-4,-1.4113728E-5],"split_indices":[6,0,0,0,0],"split_type":[0,0,0,0,0],"sum_hessian":[5.3E1,5.1E1,2E0,1E0,1E0],"tree_param":{"num_deleted":"0","num_feature":"30","num_nodes":"5","size_leaf_vector":"1"}},{"base_weights":[1.5598325E-4,9.542869E-7,2.6422888E-3,4.097514E-4,-1.3408065E-5],"categories":[],"categories_nodes":[],"categories_segments":[],"categories_sizes":[],"default_left":[0,0,0,0,0],"id":57,"left_children":[1,-1,3,-1,-1],"loss_changes":[1.9635945E-5,0E0,1.2670122E-5,0E0,0E0],"parents":[2147483647,0,0,2,2],"right_children":[2,-1,4,-1,-1],"split_conditions":[6.5611556E-2,9.542869E-7,1.9072888E-2,4.097514E-4,-1.3408065E-5],"split_indices":[6,0,0,0,0],"split_type":[0,0,0,0,0],"sum_hessian":[5.3E1,5.1E1,2E0,1E0,1E0],"tree_param":{"num_deleted":"0","num_feature":"30","num_nodes":"5","size_leaf_vector":"1"}},{"base_weights":[1.4774285E-4,8.6075346E-7,2.510174E-3,3.892638E-4,-1.2737699E-5],"categories":[],"categories_nodes":[],"categories_segments":[],"categories_sizes":[],"default_left":[0,0,0,0,0],"id":58,"left_children":[1,-1,3,-1,-1],"loss_changes":[1.7728062E-5,0E0,1.14347895E-5,0E0,0E0],"parents":[2147483647,0,0,2,2],"right_children":[2,-1,4,-1,-1],"split_conditions":[6.5611556E-2,8.6075346E-7,1.9072888E-2,3.892638E-4,-1.2737699E-5],"split_indices":[6,0,0,0,0],"split_type":[0,0,0,0,0],"sum_hessian":[5.3E1,5.1E1,2E0,1E0,1E0],"tree_param":{"num_deleted":"0","num_feature":"30","num_nodes":"5","size_leaf_vector":"1"}},{"base_weights":[1.399573E-4,7.763398E-7,2.3846657E-3,3.6980063E-4,-1.2100768E-5],"categories":[],"categories_nodes":[],"categories_segments":[],"categories_sizes":[],"default_left":[0,0,0,0,0],"id":59,"left_children":[1,-1,3,-1,-1],"loss_changes":[1.6005271E-5,0E0,1.03198945E-5,0E0,0E0],"parents":[2147483647,0,0,2,2],"right_children":[2,-1,4,-1,-1],"split_conditions":[6.5611556E-2,7.763398E-7,1.9072888E-2,3.6980063E-4,-1.2100768E-5],"split_indices":[6,0,0,0,0],"split_type":[0,0,0,0,0],"sum_hessian":[5.3E1,5.1E1,2E0,1E0,1E0],"tree_param":{"num_deleted":"0","num_feature":"30","num_nodes":"5","size_leaf_vector":"1"}},{"base_weights":[1.3260043E-4,7.0024356E-7,2.2654322E-3,3.5131053E-4,-1.1495687E-5],"categories":[],"categories_nodes":[],"categories_segments":[],"categories_sizes":[],"default_left":[0,0,0,0,0],"id":60,"left_children":[1,-1,3,-1,-1],"loss_changes":[1.4449625E-5,0E0,9.313697E-6,0E0,0E0],"parents":[2147483647,0,0,2,2],"right_children":[2,-1,4,-1,-1],"split_conditions":[6.5611556E-2,7.0024356E-7,1.9072888E-2,3.5131053E-4,-1.1495687E-5],"split_indices":[6,0,0,0,0],"split_type":[0,0,0,0,0],"sum_hessian":[5.3E1,5.1E1,2E0,1E0,1E0],"tree_param":{"num_deleted":"0","num_feature":"30","num_nodes":"5","size_leaf_vector":"1"}},{"base_weights":[1.2564614E-4,6.315549E-7,2.152161E-3,3.3374503E-4,-1.0920875E-5],"categories":[],"categories_nodes":[],"categories_segments":[],"categories_sizes":[],"default_left":[0,0,0,0,0],"id":61,"left_children":[1,-1,3,-1,-1],"loss_changes":[1.3044969E-5,0E0,8.40561E-6,0E0,0E0],"parents":[2147483647,0,0,2,2],"right_children":[2,-1,4,-1,-1],"split_conditions":[6.5611556E-2,6.315549E-7,1.9072888E-2,3.3374503E-4,-1.0920875E-5],"split_indices":[6,0,0,0,0],"split_type":[0,0,0,0,0],"sum_hessian":[5.3E1,5.1E1,2E0,1E0,1E0],"tree_param":{"num_deleted":"0","num_feature":"30","num_nodes":"5","size_leaf_vector":"1"}},{"base_weights":[1.19070835E-4,5.6954315E-7,2.044554E-3,3.1705797E-4,-1.0374841E-5],"categories":[],"categories_nodes":[],"categories_segments":[],"categories_sizes":[],"default_left":[0,0,0,0,0],"id":62,"left_children":[1,-1,3,-1,-1],"loss_changes":[1.1776688E-5,0E0,7.5860744E-6,0E0,0E0],"parents":[2147483647,0,0,2,2],"right_children":[2,-1,4,-1,-1],"split_conditions":[6.5611556E-2,5.6954315E-7,1.9072888E-2,3.1705797E-4,-1.0374841E-5],"split_indices":[6,0,0,0,0],"split_type":[0,0,0,0,0],"sum_hessian":[5.3E1,5.1E1,2E0,1E0,1E0],"tree_param":{"num_deleted":"0","num_feature":"30","num_nodes":"5","size_leaf_vector":"1"}},{"base_weights":[1.12853464E-4,5.1365663E-7,1.9423285E-3,3.0120538E-4,-9.856094E-6],"categories":[],"categories_nodes":[],"categories_segments":[],"categories_sizes":[],"default_left":[0,0,0,0,0],"id":63,"left_children":[1,-1,3,-1,-1],"loss_changes":[1.0631553E-5,0E0,6.8464433E-6,0E0,0E0],"parents":[2147483647,0,0,2,2],"right_children":[2,-1,4,-1,-1],"split_conditions":[6.5611556E-2,5.1365663E-7,1.9072888E-2,3.0120538E-4,-9.856094E-6],"split_indices":[6,0,0,0,0],"split_type":[0,0,0,0,0],"sum_hessian":[5.3E1,5.1E1,2E0,1E0,1E0],"tree_param":{"num_deleted":"0","num_feature":"30","num_nodes":"5","size_leaf_vector":"1"}},{"base_weights":[1.0697244E-4,4.6323626E-7,1.8452095E-3,2.8614476E-4,-9.363331E-6],"categories":[],"categories_nodes":[],"categories_segments":[],"categories_sizes":[],"default_left":[0,0,0,0,0],"id":64,"left_children":[1,-1,3,-1,-1],"loss_changes":[9.597583E-6,0E0,6.178906E-6,0E0,0E0],"parents":[2147483647,0,0,2,2],"right_children":[2,-1,4,-1,-1],"split_conditions":[6.5611556E-2,4.6323626E-7,1.9072888E-2,2.8614476E-4,-9.363331E-6],"split_indices":[6,0,0,0,0],"split_type":[0,0,0,0,0],"sum_hessian":[5.3E1,5.1E1,2E0,1E0,1E0],"tree_param":{"num_deleted":"0","num_feature":"30","num_nodes":"5","size_leaf_vector":"1"}},{"base_weights":[1.01409576E-4,4.178307E-7,1.7529484E-3,2.7183743E-4,-8.895156E-6],"categories":[],"categories_nodes":[],"categories_segments":[],"categories_sizes":[],"default_left":[0,0,0,0,0],"id":65,"left_children":[1,-1,3,-1,-1],"loss_changes":[8.664061E-6,0E0,5.5764567E-6,0E0,0E0],"parents":[2147483647,0,0,2,2],"right_children":[2,-1,4,-1,-1],"split_conditions":[6.5611556E-2,4.178307E-7,1.9072888E-2,2.7183743E-4,-8.895156E-6],"split_indices":[6,0,0,0,0],"split_type":[0,0,0,0,0],"sum_hessian":[5.3E1,5.1E1,2E0,1E0,1E0],"tree_param":{"num_deleted":"0","num_feature":"30","num_nodes":"5","size_leaf_vector":"1"}},{"base_weights":[9.6146156E-5,3.7690984E-7,1.6652998E-3,2.5824533E-4,-8.450355E-6],"categories":[],"categories_nodes":[],"categories_segments":[],"categories_sizes":[],"default_left":[0,0,0,0,0],"id":66,"left_children":[1,-1,3,-1,-1],"loss_changes":[7.821228E-6,0E0,5.032741E-6,0E0,0E0],"parents":[2147483647,0,0,2,2],"right_children":[2,-1,4,-1,-1],"split_conditions":[6.5611556E-2,3.7690984E-7,1.9072888E-2,2.5824533E-4,-8.450355E-6],"split_indices":[6,0,0,0,0],"split_type":[0,0,0,0,0],"sum_hessian":[5.3E1,5.1E1,2E0,1E0,1E0],"tree_param":{"num_deleted":"0","num_feature":"30","num_nodes":"5","size_leaf_vector":"1"}},{"base_weights":[9.1164715E-5,3.3999365E-7,1.5820327E-3,2.4533272E-4,-8.027814E-6],"categories":[],"categories_nodes":[],"categories_segments":[],"categories_sizes":[],"default_left":[0,0,0,0,0],"id":67,"left_children":[1,-1,3,-1,-1],"loss_changes":[7.060289E-6,0E0,4.542035E-6,0E0,0E0],"parents":[2147483647,0,0,2,2],"right_children":[2,-1,4,-1,-1],"split_conditions":[6.5611556E-2,3.3999365E-7,1.9072888E-2,2.4533272E-4,-8.027814E-6],"split_indices":[6,0,0,0,0],"split_type":[0,0,0,0,0],"sum_hessian":[5.3E1,5.1E1,2E0,1E0,1E0],"tree_param":{"num_deleted":"0","num_feature":"30","num_nodes":"5","size_leaf_vector":"1"}},{"base_weights":[8.644891E-5,3.066308E-7,1.5029311E-3,2.3306608E-4,-7.6264146E-6],"categories":[],"categories_nodes":[],"categories_segments":[],"categories_sizes":[],"default_left":[0,0,0,0,0],"id":68,"left_children":[1,-1,3,-1,-1],"loss_changes":[6.3733305E-6,0E0,4.099186E-6,0E0,0E0],"parents":[2147483647,0,0,2,2],"right_children":[2,-1,4,-1,-1],"split_conditions":[6.5611556E-2,3.066308E-7,1.9072888E-2,2.3306608E-4,-7.6264146E-6],"split_indices":[6,0,0,0,0],"split_type":[0,0,0,0,0],"sum_hessian":[5.3E1,5.1E1,2E0,1E0,1E0],"tree_param":{"num_deleted":"0","num_feature":"30","num_nodes":"5","size_leaf_vector":"1"}},{"base_weights":[8.1984566E-5,2.7657057E-7,1.4277833E-3,2.2141263E-4,-7.2451307E-6],"categories":[],"categories_nodes":[],"categories_segments":[],"categories_sizes":[],"default_left":[0,0,0,0,0],"id":69,"left_children":[1,-1,3,-1,-1],"loss_changes":[5.7531342E-6,0E0,3.699513E-6,0E0,0E0],"parents":[2147483647,0,0,2,2],"right_children":[2,-1,4,-1,-1],"split_conditions":[6.5611556E-2,2.7657057E-7,1.9072888E-2,2.2141263E-4,-7.2451307E-6],"split_indices":[6,0,0,0,0],"split_type":[0,0,0,0,0],"sum_hessian":[5.3E1,5.1E1,2E0,1E0,1E0],"tree_param":{"num_deleted":"0","num_feature":"30","num_nodes":"5","size_leaf_vector":"1"}},{"base_weights":[7.7758086E-5,2.4953357E-7,1.3563931E-3,2.1034181E-4,-6.8828463E-6],"categories":[],"categories_nodes":[],"categories_segments":[],"categories_sizes":[],"default_left":[0,0,0,0,0],"id":70,"left_children":[1,-1,3,-1,-1],"loss_changes":[5.1932293E-6,0E0,3.3388042E-6,0E0,0E0],"parents":[2147483647,0,0,2,2],"right_children":[2,-1,4,-1,-1],"split_conditions":[6.5611556E-2,2.4953357E-7,1.9072888E-2,2.1034181E-4,-6.8828463E-6],"split_indices":[6,0,0,0,0],"split_type":[0,0,0,0,0],"sum_hessian":[5.3E1,5.1E1,2E0,1E0,1E0],"tree_param":{"num_deleted":"0","num_feature":"30","num_nodes":"5","size_leaf_vector":"1"}},{"base_weights":[7.375468E-5,-2.071008E-6,1.0036513E-3,1.9982457E-4,2.554413E-5],"categories":[],"categories_nodes":[],"categories_segments":[],"categories_sizes":[],"default_left":[0,0,0,0,0],"id":71,"left_children":[1,-1,3,-1,-1],"loss_changes":[4.7642784E-6,0E0,3.2103935E-6,0E0,0E0],"parents":[2147483647,0,0,2,2],"right_children":[2,-1,4,-1,-1],"split_conditions":[1.2412175E2,-2.071008E-6,1.9072888E-2,1.9982457E-4,2.554413E-5],"split_indices":[5,0,0,0,0],"split_type":[0,0,0,0,0],"sum_hessian":[5.3E1,4.9E1,4E0,1E0,3E0],"tree_param":{"num_deleted":"0","num_feature":"30","num_nodes":"5","size_leaf_vector":"1"}},{"base_weights":[7.051457E-5,-1.8680245E-6,9.4835984E-4,1.8983334E-4,2.3628307E-5],"categories":[],"categories_nodes":[],"categories_segments":[],"categories_sizes":[],"default_left":[0,0,0,0,0],"id":72,"left_children":[1,-1,3,-1,-1],"loss_changes":[4.245875E-6,0E0,2.9337261E-6,0E0,0E0],"parents":[2147483647,0,0,2,2],"right_children":[2,-1,4,-1,-1],"split_conditions":[1.2412175E2,-1.8680245E-6,1.9072888E-2,1.8983334E-4,2.3628307E-5],"split_indices":[5,0,0,0,0],"split_type":[0,0,0,0,0],"sum_hessian":[5.3E1,4.9E1,4E0,1E0,3E0],"tree_param":{"num_deleted":"0","num_feature":"30","num_nodes":"5","size_leaf_vector":"1"}},{"base_weights":[6.738095E-5,3.049616E-7,1.1599971E-3,1.803413E-4,-6.341748E-6],"categories":[],"categories_nodes":[],"categories_segments":[],"categories_sizes":[],"default_left":[0,0,0,0,0],"id":73,"left_children":[1,-1,3,-1,-1],"loss_changes":[3.7920925E-6,0E0,2.475861E-6,0E0,0E0],"parents":[2147483647,0,0,2,2],"right_children":[2,-1,4,-1,-1],"split_conditions":[6.5611556E-2,3.049616E-7,1.9072888E-2,1.803413E-4,-6.341748E-6],"split_indices":[6,0,0,0,0],"split_type":[0,0,0,0,0],"sum_hessian":[5.3E1,5.1E1,2E0,1E0,1E0],"tree_param":{"num_deleted":"0","num_feature":"30","num_nodes":"5","size_leaf_vector":"1"}},{"base_weights":[6.387038E-5,-1.7016418E-6,8.599643E-4,1.7132462E-4,2.1833228E-5],"categories":[],"categories_nodes":[],"categories_segments":[],"categories_sizes":[],"default_left":[0,0,0,0,0],"id":74,"left_children":[1,-1,3,-1,-1],"loss_changes":[3.4918817E-6,0E0,2.363408E-6,0E0,0E0],"parents":[2147483647,0,0,2,2],"right_children":[2,-1,4,-1,-1],"split_conditions":[1.2412175E2,-1.7016418E-6,1.9072888E-2,1.7132462E-4,2.1833228E-5],"split_indices":[5,0,0,0,0],"split_type":[0,0,0,0,0],"sum_hessian":[5.3E1,4.9E1,4E0,1E0,3E0],"tree_param":{"num_deleted":"0","num_feature":"30","num_nodes":"5","size_leaf_vector":"1"}},{"base_weights":[6.10295E-5,-1.534816E-6,8.126002E-4,1.6275868E-4,2.0195685E-5],"categories":[],"categories_nodes":[],"categories_segments":[],"categories_sizes":[],"default_left":[0,0,0,0,0],"id":75,"left_children":[1,-1,3,-1,-1],"loss_changes":[3.1122454E-6,0E0,2.1596284E-6,0E0,0E0],"parents":[2147483647,0,0,2,2],"right_children":[2,-1,4,-1,-1],"split_conditions":[1.2412175E2,-1.534816E-6,1.9072888E-2,1.6275868E-4,2.0195685E-5],"split_indices":[5,0,0,0,0],"split_type":[0,0,0,0,0],"sum_hessian":[5.3E1,4.9E1,4E0,1E0,3E0],"tree_param":{"num_deleted":"0","num_feature":"30","num_nodes":"5","size_leaf_vector":"1"}},{"base_weights":[5.82861E-5,-2.2891263E-6,7.115202E-4,6.587943E-6,1.3352012E-4],"categories":[],"categories_nodes":[],"categories_segments":[],"categories_sizes":[],"default_left":[0,0,0,0,0],"id":76,"left_children":[1,-1,3,-1,-1],"loss_changes":[2.8797897E-6,0E0,2.3280813E-6,0E0,0E0],"parents":[2147483647,0,0,2,2],"right_children":[2,-1,4,-1,-1],"split_conditions":[5.6229137E-2,-2.2891263E-6,1.1925979E2,6.587943E-6,1.3352012E-4],"split_indices":[6,0,7,0,0],"split_type":[0,0,0,0,0],"sum_hessian":[5.3E1,4.8E1,5E0,3E0,2E0],"tree_param":{"num_deleted":"0","num_feature":"30","num_nodes":"5","size_leaf_vector":"1"}},{"base_weights":[5.500919E-5,-1.4850087E-6,7.426001E-4,1.479447E-4,1.885267E-5],"categories":[],"categories_nodes":[],"categories_segments":[],"categories_sizes":[],"default_left":[0,0,0,0,0],"id":77,"left_children":[1,-1,3,-1,-1],"loss_changes":[2.6048963E-6,0E0,1.7624211E-6,0E0,0E0],"parents":[2147483647,0,0,2,2],"right_children":[2,-1,4,-1,-1],"split_conditions":[1.2412175E2,-1.4850087E-6,1.9072888E-2,1.479447E-4,1.885267E-5],"split_indices":[5,0,0,0,0],"split_type":[0,0,0,0,0],"sum_hessian":[5.3E1,4.9E1,4E0,1E0,3E0],"tree_param":{"num_deleted":"0","num_feature":"30","num_nodes":"5","size_leaf_vector":"1"}},{"base_weights":[5.256985E-5,-2.043987E-6,6.4005423E-4,6.205356E-6,1.1973704E-4],"categories":[],"categories_nodes":[],"categories_segments":[],"categories_sizes":[],"default_left":[0,0,0,0,0],"id":78,"left_children":[1,-1,3,-1,-1],"loss_changes":[2.3292544E-6,0E0,1.8584735E-6,0E0,0E0],"parents":[2147483647,0,0,2,2],"right_children":[2,-1,4,-1,-1],"split_conditions":[5.6229137E-2,-2.043987E-6,1.1925979E2,6.205356E-6,1.1973704E-4],"split_indices":[6,0,7,0,0],"split_type":[0,0,0,0,0],"sum_hessian":[5.3E1,4.8E1,5E0,3E0,2E0],"tree_param":{"num_deleted":"0","num_feature":"30","num_nodes":"5","size_leaf_vector":"1"}},{"base_weights":[4.960738E-5,-1.4322139E-6,6.789811E-4,1.3456121E-4,1.7592032E-5],"categories":[],"categories_nodes":[],"categories_segments":[],"categories_sizes":[],"default_left":[0,0,0,0,0],"id":79,"left_children":[1,-1,3,-1,-1],"loss_changes":[2.1824446E-6,0E0,1.4400591E-6,0E0,0E0],"parents":[2147483647,0,0,2,2],"right_children":[2,-1,4,-1,-1],"split_conditions":[1.2412175E2,-1.4322139E-6,1.9072888E-2,1.3456121E-4,1.7592032E-5],"split_indices":[5,0,0,0,0],"split_type":[0,0,0,0,0],"sum_hessian":[5.3E1,4.9E1,4E0,1E0,3E0],"tree_param":{"num_deleted":"0","num_feature":"30","num_nodes":"5","size_leaf_vector":"1"}},{"base_weights":[4.7437294E-5,-1.2919195E-6,6.415147E-4,1.2783334E-4,1.6272674E-5],"categories":[],"categories_nodes":[],"categories_segments":[],"categories_sizes":[],"default_left":[0,0,0,0,0],"id":80,"left_children":[1,-1,3,-1,-1],"loss_changes":[1.9445351E-6,0E0,1.3164865E-6,0E0,0E0],"parents":[2147483647,0,0,2,2],"right_children":[2,-1,4,-1,-1],"split_conditions":[1.2412175E2,-1.2919195E-6,1.9072888E-2,1.2783334E-4,1.6272674E-5],"split_indices":[5,0,0,0,0],"split_type":[0,0,0,0,0],"sum_hessian":[5.3E1,4.9E1,4E0,1E0,3E0],"tree_param":{"num_deleted":"0","num_feature":"30","num_nodes":"5","size_leaf_vector":"1"}},{"base_weights":[4.5338784E-5,-1.8009003E-6,5.5512256E-4,5.944213E-6,1.030989E-4],"categories":[],"categories_nodes":[],"categories_segments":[],"categories_sizes":[],"default_left":[0,0,0,0,0],"id":81,"left_children":[1,-1,3,-1,-1],"loss_changes":[1.7538557E-6,0E0,1.3539819E-6,0E0,0E0],"parents":[2147483647,0,0,2,2],"right_children":[2,-1,4,-1,-1],"split_conditions":[5.6229137E-2,-1.8009003E-6,1.1925979E2,5.944213E-6,1.030989E-4],"split_indices":[6,0,7,0,0],"split_type":[0,0,0,0,0],"sum_hessian":[5.3E1,4.8E1,5E0,3E0,2E0],"tree_param":{"num_deleted":"0","num_feature":"30","num_nodes":"5","size_leaf_vector":"1"}},{"base_weights":[4.2790376E-5,-7.346425E-6,3.0013657E-4,1.1628643E-4,1.7353706E-5],"categories":[],"categories_nodes":[],"categories_segments":[],"categories_sizes":[],"default_left":[0,0,0,0,0],"id":82,"left_children":[1,-1,3,-1,-1],"loss_changes":[1.6376042E-6,0E0,1.654955E-6,0E0,0E0],"parents":[2147483647,0,0,2,2],"right_children":[2,-1,4,-1,-1],"split_conditions":[1.19417305E2,-7.346425E-6,1.9072888E-2,1.1628643E-4,1.7353706E-5],"split_indices":[21,0,0,0,0],"split_type":[0,0,0,0,0],"sum_hessian":[5.3E1,3.7E1,1.6E1,1E0,1.5E1],"tree_param":{"num_deleted":"0","num_feature":"30","num_nodes":"5","size_leaf_vector":"1"}},{"base_weights":[4.0850256E-5,-1.2167134E-6,5.628541E-5],"categories":[],"categories_nodes":[],"categories_segments":[],"categories_sizes":[],"default_left":[0,0,0],"id":83,"left_children":[1,-1,-1],"loss_changes":[1.5013136E-6,0E0,0E0],"parents":[2147483647,0,0],"right_children":[2,-1,-1],"split_conditions":[1.2412175E2,-1.2167134E-6,5.628541E-5],"split_indices":[5,0,0],"split_type":[0,0,0],"sum_hessian":[5.3E1,4.9E1,4E0],"tree_param":{"num_deleted":"0","num_feature":"30","num_nodes":"3","size_leaf_vector":"1"}},{"base_weights":[3.778531E-5,-6.472286E-6,2.852874E-4,6.823459E-4,4.27748E-6,1.1932826E-4,1.2855698E-5],"categories":[],"categories_nodes":[],"categories_segments":[],"categories_sizes":[],"default_left":[0,0,0,0,0,0,0],"id":84,"left_children":[1,-1,3,5,-1,-1,-1],"loss_changes":[1.3884977E-6,0E0,1.5114797E-6,1.5443013E-6,0E0,0E0,0E0],"parents":[2147483647,0,0,2,2,3,3],"right_children":[2,-1,4,6,-1,-1,-1],"split_conditions":[1.1942417E2,-6.472286E-6,1.1935687E2,2.0146826E-2,4.27748E-6,1.1932826E-4,1.2855698E-5],"split_indices":[21,0,17,0,0,0,0],"split_type":[0,0,0,0,0,0,0],"sum_hessian":[5.3E1,3.8E1,1.5E1,5E0,1E1,2E0,3E0],"tree_param":{"num_deleted":"0","num_feature":"30","num_nodes":"7","size_leaf_vector":"1"}},{"base_weights":[3.641409E-5,-1.7095662E-6,4.673414E-5],"categories":[],"categories_nodes":[],"categories_segments":[],"categories_sizes":[],"default_left":[0,0,0],"id":85,"left_children":[1,-1,-1],"loss_changes":[1.2531654E-6,0E0,0E0],"parents":[2147483647,0,0],"right_children":[2,-1,-1],"split_conditions":[5.6229137E-2,-1.7095662E-6,4.673414E-5],"split_indices":[6,0,0],"split_type":[0,0,0],"sum_hessian":[5.3E1,4.8E1,5E0],"tree_param":{"num_deleted":"0","num_feature":"30","num_nodes":"3","size_leaf_vector":"1"}},{"base_weights":[3.3606742E-5,-2.251581E-6,4.1364614E-4,-2.4013223E-6,7.4789394E-5],"categories":[],"categories_nodes":[],"categories_segments":[],"categories_sizes":[],"default_left":[0,0,0,0,0],"id":86,"left_children":[1,-1,3,-1,-1],"loss_changes":[1.1610676E-6,0E0,1.041966E-6,0E0,0E0],"parents":[2147483647,0,0,2,2],"right_children":[2,-1,4,-1,-1],"split_conditions":[5.595113E-2,-2.251581E-6,1.1941441E2,-2.4013223E-6,7.4789394E-5],"split_indices":[16,0,23,0,0],"split_type":[0,0,0,0,0],"sum_hessian":[5.3E1,4.7E1,6E0,3E0,3E0],"tree_param":{"num_deleted":"0","num_feature":"30","num_nodes":"5","size_leaf_vector":"1"}},{"base_weights":[3.154469E-5,-6.0980183E-6,2.5510252E-4,6.185286E-4,3.3678996E-6,1.0745427E-4,1.2188591E-5],"categories":[],"categories_nodes":[],"categories_segments":[],"categories_sizes":[],"default_left":[0,0,0,0,0,0,0],"id":87,"left_children":[1,-1,3,5,-1,-1,-1],"loss_changes":[1.1325278E-6,0E0,1.2667061E-6,1.2278845E-6,0E0,0E0,0E0],"parents":[2147483647,0,0,2,2,3,3],"right_children":[2,-1,4,6,-1,-1,-1],"split_conditions":[1.1942417E2,-6.0980183E-6,1.1935687E2,2.0146826E-2,3.3678996E-6,1.0745427E-4,1.2188591E-5],"split_indices":[21,0,17,0,0,0,0],"split_type":[0,0,0,0,0,0,0],"sum_hessian":[5.3E1,3.8E1,1.5E1,5E0,1E1,2E0,3E0],"tree_param":{"num_deleted":"0","num_feature":"30","num_nodes":"7","size_leaf_vector":"1"}},{"base_weights":[3.0555486E-5],"categories":[],"categories_nodes":[],"categories_segments":[],"categories_sizes":[],"default_left":[0],"id":88,"left_children":[-1],"loss_changes":[0E0],"parents":[2147483647],"right_children":[-1],"split_conditions":[3.0555486E-6],"split_indices":[0],"split_type":[0],"sum_hessian":[5.3E1],"tree_param":{"num_deleted":"0","num_feature":"30","num_nodes":"1","size_leaf_vector":"1"}},{"base_weights":[2.7557318E-5],"categories":[],"categories_nodes":[],"categories_segments":[],"categories_sizes":[],"default_left":[0],"id":89,"left_children":[-1],"loss_changes":[0E0],"parents":[2147483647],"right_children":[-1],"split_conditions":[2.7557319E-6],"split_indices":[0],"split_type":[0],"sum_hessian":[5.3E1],"tree_param":{"num_deleted":"0","num_feature":"30","num_nodes":"1","size_leaf_vector":"1"}},{"base_weights":[2.4852654E-5],"categories":[],"categories_nodes":[],"categories_segments":[],"categories_sizes":[],"default_left":[0],"id":90,"left_children":[-1],"loss_changes":[0E0],"parents":[2147483647],"right_children":[-1],"split_conditions":[2.4852654E-6],"split_indices":[0],"split_type":[0],"sum_hessian":[5.3E1],"tree_param":{"num_deleted":"0","num_feature":"30","num_nodes":"1","size_leaf_vector":"1"}},{"base_weights":[2.2413691E-5],"categories":[],"categories_nodes":[],"categories_segments":[],"categories_sizes":[],"default_left":[0],"id":91,"left_children":[-1],"loss_changes":[0E0],"parents":[2147483647],"right_children":[-1],"split_conditions":[2.2413692E-6],"split_indices":[0],"split_type":[0],"sum_hessian":[5.3E1],"tree_param":{"num_deleted":"0","num_feature":"30","num_nodes":"1","size_leaf_vector":"1"}},{"base_weights":[2.0213736E-5],"categories":[],"categories_nodes":[],"categories_segments":[],"categories_sizes":[],"default_left":[0],"id":92,"left_children":[-1],"loss_changes":[0E0],"parents":[2147483647],"right_children":[-1],"split_conditions":[2.0213736E-6],"split_indices":[0],"split_type":[0],"sum_hessian":[5.3E1],"tree_param":{"num_deleted":"0","num_feature":"30","num_nodes":"1","size_leaf_vector":"1"}},{"base_weights":[1.8229432E-5],"categories":[],"categories_nodes":[],"categories_segments":[],"categories_sizes":[],"default_left":[0],"id":93,"left_children":[-1],"loss_changes":[0E0],"parents":[2147483647],"right_children":[-1],"split_conditions":[1.8229432E-6],"split_indices":[0],"split_type":[0],"sum_hessian":[5.3E1],"tree_param":{"num_deleted":"0","num_feature":"30","num_nodes":"1","size_leaf_vector":"1"}},{"base_weights":[1.644043E-5],"categories":[],"categories_nodes":[],"categories_segments":[],"categories_sizes":[],"default_left":[0],"id":94,"left_children":[-1],"loss_changes":[0E0],"parents":[2147483647],"right_children":[-1],"split_conditions":[1.644043E-6],"split_indices":[0],"split_type":[0],"sum_hessian":[5.3E1],"tree_param":{"num_deleted":"0","num_feature":"30","num_nodes":"1","size_leaf_vector":"1"}},{"base_weights":[1.4826931E-5],"categories":[],"categories_nodes":[],"categories_segments":[],"categories_sizes":[],"default_left":[0],"id":95,"left_children":[-1],"loss_changes":[0E0],"parents":[2147483647],"right_children":[-1],"split_conditions":[1.4826932E-6],"split_indices":[0],"split_type":[0],"sum_hessian":[5.3E1],"tree_param":{"num_deleted":"0","num_feature":"30","num_nodes":"1","size_leaf_vector":"1"}},{"base_weights":[1.3371585E-5],"categories":[],"categories_nodes":[],"categories_segments":[],"categories_sizes":[],"default_left":[0],"id":96,"left_children":[-1],"loss_changes":[0E0],"parents":[2147483647],"right_children":[-1],"split_conditions":[1.3371586E-6],"split_indices":[0],"split_type":[0],"sum_hessian":[5.3E1],"tree_param":{"num_deleted":"0","num_feature":"30","num_nodes":"1","size_leaf_vector":"1"}},{"base_weights":[1.205904E-5],"categories":[],"categories_nodes":[],"categories_segments":[],"categories_sizes":[],"default_left":[0],"id":97,"left_children":[-1],"loss_changes":[0E0],"parents":[2147483647],"right_children":[-1],"split_conditions":[1.205904E-6],"split_indices":[0],"split_type":[0],"sum_hessian":[5.3E1],"tree_param":{"num_deleted":"0","num_feature":"30","num_nodes":"1","size_leaf_vector":"1"}},{"base_weights":[1.0875398E-5],"categories":[],"categories_nodes":[],"categories_segments":[],"categories_sizes":[],"default_left":[0],"id":98,"left_children":[-1],"loss_changes":[0E0],"parents":[2147483647],"right_children":[-1],"split_conditions":[1.0875399E-6],"split_indices":[0],"split_type":[0],"sum_hessian":[5.3E1],"tree_param":{"num_deleted":"0","num_feature":"30","num_nodes":"1","size_leaf_vector":"1"}},{"base_weights":[9.807758E-6],"categories":[],"categories_nodes":[],"categories_segments":[],"categories_sizes":[],"default_left":[0],"id":99,"left_children":[-1],"loss_changes":[0E0],"parents":[2147483647],"right_children":[-1],"split_conditions":[9.807758E-7],"split_indices":[0],"split_type":[0],"sum_hessian":[5.3E1],"tree_param":{"num_deleted":"0","num_feature":"30","num_nodes":"1","size_leaf_vector":"1"}}]},"name":"gbtree"},"learner_model_param":{"base_score":"[3.9058268E-2]","boost_from_average":"1","num_class":"0","num_feature":"30","num_target":"1"},"objective":{"name":"reg:squarederror","reg_loss_param":{"scale_pos_weight":"1"}}},"version":[3,2,0]}