{"learner":{"attributes":{"scikit_learn":"{\"_estimator_type\": \"regressor\"}"},"feature_names":[],"feature_types":[],"gradient_booster":{"model":{"cats":{"enc":[],"feature_segments":[],"sorted_idx":[]},"gbtree_model_param":{"num_parallel_tree":"1","num_trees":"100"},"iteration_indptr":[0,1,2,3,4,5,6,7,8,9,10,11,12,13,14,15,16,17,18,19,20,21,22,23,24,25,26,27,28,29,30,31,32,33,34,35,36,37,38,39,40,41,42,43,44,45,46,47,48,49,50,51,52,53,54,55,56,57,58,59,60,61,62,63,64,65,66,67,68,69,70,71,72,73,74,75,76,77,78,79,80,81,82,83,84,85,86,87,88,89,90,91,92,93,94,95,96,97,98,99,100],"tree_info":[0,0,0,0,0,0,0,0,0,0,0,0,0,0,0,0,0,0,0,0,0,0,0,0,0,0,0,0,0,0,0,0,0,0,0,0,0,0,0,0,0,0,0,0,0,0,0,0,0,0,0,0,0,0,0,0,0,0,0,0,0,0,0,0,0,0,0,0,0,0,0,0,0,0,0,0,0,0,0,0,0,0,0,0,0,0,0,0,0,0,0,0,0,0,0,0,0,0,0,0],"trees":[{"base_weights":[-7.6293945E-6,-1.4211192E2,3.552797E1,2.4248505E0,-2.0752813E1,-2.2218842E1,3.880684E1,-2.7839966E0,-5.488297E-1,2.8606085E1,4.964954E0,1.583667E0,3.1982744E0],"categories":[],"categories_nodes":[],"categories_segments":[],"categories_sizes":[],"default_left":[0,0,0,0,0,0,0,0,0,0,0,0,0],"id":0,"left_children":[1,3,5,-1,-1,7,9,-1,-1,11,-1,-1,-1],"loss_changes":[2.776922E5,1.2474164E5,9.193387E3,0E0,0E0,1.2933948E2,3.2250742E3,0E0,0E0,5.2833203E2,0E0,0E0,0E0],"parents":[2147483647,0,0,1,1,2,2,5,5,6,6,9,9],"right_children":[2,4,6,-1,-1,8,10,-1,-1,12,-1,-1,-1],"split_conditions":[1.7832365E2,1.7718864E2,7.263072E-1,2.4248505E0,-2.0752813E1,8.0634177E-1,8.5137844E-1,-2.7839966E0,-5.488297E-1,7.8430474E-1,4.964954E0,1.583667E0,3.1982744E0],"split_indices":[25,9,14,0,0,0,28,0,0,18,0,0,0],"split_type":[0,0,0,0,0,0,0,0,0,0,0,0,0],"sum_hessian":[5.3E1,1E1,4.3E1,3E0,7E0,2E0,4.1E1,1E0,1E0,2.3E1,1.8E1,6E0,1.7E1],"tree_param":{"num_deleted":"0","num_feature":"30","num_nodes":"13","size_leaf_vector":"1"}},{"base_weights":[-2.2064124E-1,-1.2956691E2,3.212094E1,2.2429855E0,-1.8936943E1,-2.11079E1,3.515822E1,-2.6447968E0,-5.2138823E-1,2.2048334E1,4.162488E1,1.5120846E0,2.5756288E0,2.4590852E0,4.4378486E0],"categories":[],"categories_nodes":[],"categories_segments":[],"categories_sizes":[],"default_left":[0,0,0,0,0,0,0,0,0,0,0,0,0,0,0],"id":1,"left_children":[1,3,5,-1,-1,7,9,-1,-1,11,13,-1,-1,-1,-1],"loss_changes":[2.3005803E5,1.0423522E5,7.855621E3,0E0,0E0,1.1672888E2,2.6428867E3,0E0,0E0,2.1532227E1,1.751289E2,0E0,0E0,0E0,0E0],"parents":[2147483647,0,0,1,1,2,2,5,5,6,6,9,9,10,10],"right_children":[2,4,6,-1,-1,8,10,-1,-1,12,14,-1,-1,-1,-1],"split_conditions":[1.7832365E2,1.7718864E2,7.263072E-1,2.2429855E0,-1.8936943E1,8.0634177E-1,8.021217E-1,-2.6447968E0,-5.2138823E-1,4.4344714E2,8.0299145E-1,1.5120846E0,2.5756288E0,2.4590852E0,4.4378486E0],"split_indices":[25,9,14,0,0,0,28,0,0,9,26,0,0,0,0],"split_type":[0,0,0,0,0,0,0,0,0,0,0,0,0,0,0],"sum_hessian":[5.3E1,1E1,4.3E1,3E0,7E0,2E0,4.1E1,1E0,1E0,1.5E1,2.6E1,7E0,8E0,5E0,2.1E1],"tree_param":{"num_deleted":"0","num_feature":"30","num_nodes":"15","size_leaf_vector":"1"}},{"base_weights":[-3.6293003E-1,-1.18127846E2,2.9086548E1,2.074762E0,-1.727996E1,-2.00525E1,3.1903942E1,-2.5125566E0,-4.9531862E-1,2.1544226E1,3.8776054E1,1.3782414E0,2.4923418E0,6.4172473E0,3.4881756E0],"categories":[],"categories_nodes":[],"categories_segments":[],"categories_sizes":[],"default_left":[0,0,0,0,0,0,0,0,0,0,0,0,0,0,0],"id":2,"left_children":[1,3,5,-1,-1,7,9,-1,-1,11,13,-1,-1,-1,-1],"loss_changes":[1.9071416E5,8.710341E4,6.731297E3,0E0,0E0,1.0534778E2,2.154711E3,0E0,0E0,1.5483887E2,1.351836E2,0E0,0E0,0E0,0E0],"parents":[2147483647,0,0,1,1,2,2,5,5,6,6,9,9,10,10],"right_children":[2,4,6,-1,-1,8,10,-1,-1,12,14,-1,-1,-1,-1],"split_conditions":[1.7832365E2,1.7718864E2,7.263072E-1,2.074762E0,-1.727996E1,8.0634177E-1,8.135305E-1,-2.5125566E0,-4.9531862E-1,8.611795E-1,8.017664E-1,1.3782414E0,2.4923418E0,6.4172473E0,3.4881756E0],"split_indices":[25,9,14,0,0,0,28,0,0,0,6,0,0,0,0],"split_type":[0,0,0,0,0,0,0,0,0,0,0,0,0,0,0],"sum_hessian":[5.3E1,1E1,4.3E1,3E0,7E0,2E0,4.1E1,1E0,1E0,1.8E1,2.3E1,7E0,1.1E1,1E0,2.2E1],"tree_param":{"num_deleted":"0","num_feature":"30","num_nodes":"15","size_leaf_vector":"1"}},{"base_weights":[-4.0880868E-1,-1.0769735E2,2.6422617E1,1.9191544E0,-1.5767962E1,-1.9049875E1,2.9041544E1,-2.3869293E0,-4.7055206E-1,2.1307106E1,3.7282856E1,1.1842656E0,2.3803997E0,6.0963855E0,3.2580364E0],"categories":[],"categories_nodes":[],"categories_segments":[],"categories_sizes":[],"default_left":[0,0,0,0,0,0,0,0,0,0,0,0,0,0,0],"id":3,"left_children":[1,3,5,-1,-1,7,9,-1,-1,11,13,-1,-1,-1,-1],"loss_changes":[1.5829569E5,7.279028E4,5.7931504E3,0E0,0E0,9.5076904E1,1.8827695E3,0E0,0E0,2.852588E2,1.2960938E2,0E0,0E0,0E0,0E0],"parents":[2147483647,0,0,1,1,2,2,5,5,6,6,9,9,10,10],"right_children":[2,4,6,-1,-1,8,10,-1,-1,12,14,-1,-1,-1,-1],"split_conditions":[1.7832365E2,1.7718864E2,7.263072E-1,1.9191544E0,-1.5767962E1,8.0634177E-1,8.5137844E-1,-2.3869293E0,-4.7055206E-1,7.8430474E-1,8.017664E-1,1.1842656E0,2.3803997E0,6.0963855E0,3.2580364E0],"split_indices":[25,9,14,0,0,0,28,0,0,18,6,0,0,0,0],"split_type":[0,0,0,0,0,0,0,0,0,0,0,0,0,0,0],"sum_hessian":[5.3E1,1E1,4.3E1,3E0,7E0,2E0,4.1E1,1E0,1E0,2.3E1,1.8E1,6E0,1.7E1,1E0,1.7E1],"tree_param":{"num_deleted":"0","num_feature":"30","num_nodes":"15","size_leaf_vector":"1"}},{"base_weights":[-4.3805695E-1,-9.818659E1,2.4009033E1,1.7752174E0,-1.4388265E1,-1.8097382E1,2.644499E1,-2.2675827E0,-4.4702455E-1,3.654249E1,2.065844E1,4.322147E0,2.3689013E0,1.0827571E0,2.275225E1,2.4143784E0,1.2913971E0],"categories":[],"categories_nodes":[],"categories_segments":[],"categories_sizes":[],"default_left":[0,0,0,0,0,0,0,0,0,0,0,0,0,0,0,0,0],"id":4,"left_children":[1,3,5,-1,-1,7,9,-1,-1,11,13,-1,-1,-1,15,-1,-1],"loss_changes":[1.3139939E5,6.0831625E4,4.9916406E3,0E0,0E0,8.580676E1,1.6991348E3,0E0,0E0,1.7799805E2,3.50583E2,0E0,0E0,0E0,3.084961E0,0E0,0E0],"parents":[2147483647,0,0,1,1,2,2,5,5,6,6,9,9,10,10,14,14],"right_children":[2,4,6,-1,-1,8,10,-1,-1,12,14,-1,-1,-1,16,-1,-1],"split_conditions":[1.7832365E2,1.7718864E2,7.263072E-1,1.7752174E0,-1.4388265E1,8.0634177E-1,1.8535493E2,-2.2675827E0,-4.4702455E-1,4.6370435E2,7.8430474E-1,4.322147E0,2.3689013E0,1.0827571E0,4.639543E2,2.4143784E0,1.2913971E0],"split_indices":[25,9,14,0,0,0,1,0,0,25,18,0,0,0,5,0,0],"split_type":[0,0,0,0,0,0,0,0,0,0,0,0,0,0,0,0,0],"sum_hessian":[5.3E1,1E1,4.3E1,3E0,7E0,2E0,4.1E1,1E0,1E0,1.3E1,2.8E1,7E0,6E0,6E0,2.2E1,1.8E1,4E0],"tree_param":{"num_deleted":"0","num_feature":"30","num_nodes":"17","size_leaf_vector":"1"}},{"base_weights":[-4.655058E-1,-8.9514565E1,2.1807339E1,1.6420768E0,-1.3129291E1,-1.7192514E1,2.407382E1,-2.154204E0,-4.2467347E-1,5.5754595E0,2.194125E1,1.0715046E0,2.3937378E1,2.427227E0,6.442978E-1],"categories":[],"categories_nodes":[],"categories_segments":[],"categories_sizes":[],"default_left":[0,0,0,0,0,0,0,0,0,0,0,0,0,0,0],"id":5,"left_children":[1,3,5,-1,-1,7,9,-1,-1,-1,11,-1,13,-1,-1],"loss_changes":[1.0905437E5,5.0839758E4,4.3031562E3,0E0,0E0,7.744055E1,1.6142559E3,0E0,0E0,0E0,6.6227734E2,0E0,4.2810547E1,0E0,0E0],"parents":[2147483647,0,0,1,1,2,2,5,5,6,6,10,10,12,12],"right_children":[2,4,6,-1,-1,8,10,-1,-1,-1,12,-1,14,-1,-1],"split_conditions":[1.7832365E2,1.7718864E2,7.263072E-1,1.6420768E0,-1.3129291E1,8.0634177E-1,1.7474448E2,-2.154204E0,-4.2467347E-1,5.5754595E0,7.874597E-1,1.0715046E0,9.634167E-1,2.427227E0,6.442978E-1],"split_indices":[25,9,14,0,0,0,27,0,0,0,20,0,4,0,0],"split_type":[0,0,0,0,0,0,0,0,0,0,0,0,0,0,0],"sum_hessian":[5.3E1,1E1,4.3E1,3E0,7E0,2E0,4.1E1,1E0,1E0,1E0,4E1,7E0,3.3E1,3.2E1,1E0],"tree_param":{"num_deleted":"0","num_feature":"30","num_nodes":"15","size_leaf_vector":"1"}},{"base_weights":[-4.994583E-1,-8.16074E1,1.9788877E1,1.5189202E0,-1.1980477E1,-1.6332886E1,2.1897839E1,-2.0464935E0,-4.0343934E-1,5.2966857E0,1.9848185E1,1.3178171E0,2.3189415E1,2.3627326E0,6.1208344E-1],"categories":[],"categories_nodes":[],"categories_segments":[],"categories_sizes":[],"default_left":[0,0,0,0,0,0,0,0,0,0,0,0,0,0,0],"id":6,"left_children":[1,3,5,-1,-1,7,9,-1,-1,-1,11,-1,13,-1,-1],"loss_changes":[9.047435E4,4.2490867E4,3.7095508E3,0E0,0E0,6.989032E1,1.6232969E3,0E0,0E0,0E0,6.0813477E2,0E0,4.971875E1,0E0,0E0],"parents":[2147483647,0,0,1,1,2,2,5,5,6,6,10,10,12,12],"right_children":[2,4,6,-1,-1,8,10,-1,-1,-1,12,-1,14,-1,-1],"split_conditions":[1.7832365E2,1.7718864E2,7.263072E-1,1.5189202E0,-1.1980477E1,8.0634177E-1,1.7474448E2,-2.0464935E0,-4.0343934E-1,5.2966857E0,8.0299145E-1,1.3178171E0,9.634167E-1,2.3627326E0,6.1208344E-1],"split_indices":[25,9,14,0,0,0,27,0,0,0,26,0,4,0,0],"split_type":[0,0,0,0,0,0,0,0,0,0,0,0,0,0,0],"sum_hessian":[5.3E1,1E1,4.3E1,3E0,7E0,2E0,4.1E1,1E0,1E0,1E0,4E1,1.5E1,2.5E1,2.4E1,1E0],"tree_param":{"num_deleted":"0","num_feature":"30","num_nodes":"15","size_leaf_vector":"1"}},{"base_weights":[-5.1103294E-1,-7.439771E1,1.7972252E1,1.405001E0,-1.0932186E1,-1.5516235E1,1.9936375E1,-1.9441681E0,-3.8326722E-1,5.0318513E0,1.7968067E1,1.1275773E0,2.1020523E1,2.1381714E0,5.814789E-1],"categories":[],"categories_nodes":[],"categories_segments":[],"categories_sizes":[],"default_left":[0,0,0,0,0,0,0,0,0,0,0,0,0,0,0],"id":7,"left_children":[1,3,5,-1,-1,7,9,-1,-1,-1,11,-1,13,-1,-1],"loss_changes":[7.5083195E4,3.5514543E4,3.20346E3,0E0,0E0,6.3075928E1,1.6075332E3,0E0,0E0,0E0,6.0052246E2,0E0,2.3958984E1,0E0,0E0],"parents":[2147483647,0,0,1,1,2,2,5,5,6,6,10,10,12,12],"right_children":[2,4,6,-1,-1,8,10,-1,-1,-1,12,-1,14,-1,-1],"split_conditions":[1.7832365E2,1.7718864E2,7.263072E-1,1.405001E0,-1.0932186E1,8.0634177E-1,1.7474448E2,-1.9441681E0,-3.8326722E-1,5.0318513E0,8.0299145E-1,1.1275773E0,9.634167E-1,2.1381714E0,5.814789E-1],"split_indices":[25,9,14,0,0,0,27,0,0,0,24,0,4,0,0],"split_type":[0,0,0,0,0,0,0,0,0,0,0,0,0,0,0],"sum_hessian":[5.3E1,1E1,4.3E1,3E0,7E0,2E0,4.1E1,1E0,1E0,1E0,4E1,1.4E1,2.6E1,2.5E1,1E0],"tree_param":{"num_deleted":"0","num_feature":"30","num_nodes":"15","size_leaf_vector":"1"}},{"base_weights":[-5.1503414E-1,-6.782404E1,1.6323923E1,1.2996262E0,-9.975619E0,-1.4740428E1,1.815414E1,-1.8469604E0,-3.641037E-1,4.780258E0,1.6265093E1,1.0971943E1,1.9557241E1,6.69135E-1,1.2554626E0,2.030685E0,7.541046E-1],"categories":[],"categories_nodes":[],"categories_segments":[],"categories_sizes":[],"default_left":[0,0,0,0,0,0,0,0,0,0,0,0,0,0,0,0,0],"id":8,"left_children":[1,3,5,-1,-1,7,9,-1,-1,-1,11,13,15,-1,-1,-1,-1],"loss_changes":[6.2311492E4,2.9684879E4,2.7691982E3,0E0,0E0,5.692621E1,1.5747969E3,0E0,0E0,0E0,4.9987793E2,3.7939697E1,6.304297E1,0E0,0E0,0E0,0E0],"parents":[2147483647,0,0,1,1,2,2,5,5,6,6,10,10,11,11,12,12],"right_children":[2,4,6,-1,-1,8,10,-1,-1,-1,12,14,16,-1,-1,-1,-1],"split_conditions":[1.7832365E2,1.7718864E2,7.263072E-1,1.2996262E0,-9.975619E0,8.0634177E-1,1.7474448E2,-1.8469604E0,-3.641037E-1,4.780258E0,8.06088E-1,7.8430474E-1,4.6370435E2,6.69135E-1,1.2554626E0,2.030685E0,7.541046E-1],"split_indices":[25,9,14,0,0,0,27,0,0,0,26,18,1,0,0,0,0],"split_type":[0,0,0,0,0,0,0,0,0,0,0,0,0,0,0,0,0],"sum_hessian":[5.3E1,1E1,4.3E1,3E0,7E0,2E0,4.1E1,1E0,1E0,1E0,4E1,1.7E1,2.3E1,6E0,1.1E1,2.1E1,2E0],"tree_param":{"num_deleted":"0","num_feature":"30","num_nodes":"17","size_leaf_vector":"1"}},{"base_weights":[-4.8940334E-1,-6.1830368E1,1.485696E1,1.2021545E0,-9.102753E0,-1.40034075E1,1.6564678E1,-1.7546128E0,-3.4589845E-1,4.5412445E0,1.4753453E1,9.164531E0,1.7311987E1,5.150653E-1,1.0155882E0,1.7637945E0,4.4185334E-1],"categories":[],"categories_nodes":[],"categories_segments":[],"categories_sizes":[],"default_left":[0,0,0,0,0,0,0,0,0,0,0,0,0,0,0,0,0],"id":9,"left_children":[1,3,5,-1,-1,7,9,-1,-1,-1,11,13,15,-1,-1,-1,-1],"loss_changes":[5.175209E4,2.4813219E4,2.4005186E3,0E0,0E0,5.1375977E1,1.5245E3,0E0,0E0,0E0,4.276211E2,7.3778076E0,3.5540527E1,0E0,0E0,0E0,0E0],"parents":[2147483647,0,0,1,1,2,2,5,5,6,6,10,10,11,11,12,12],"right_children":[2,4,6,-1,-1,8,10,-1,-1,-1,12,14,16,-1,-1,-1,-1],"split_conditions":[1.7832365E2,1.7718864E2,7.263072E-1,1.2021545E0,-9.102753E0,8.0634177E-1,1.7474448E2,-1.7546128E0,-3.4589845E-1,4.5412445E0,8.0299145E-1,4.3368478E2,9.634167E-1,5.150653E-1,1.0155882E0,1.7637945E0,4.4185334E-1],"split_indices":[25,9,14,0,0,0,27,0,0,0,24,29,2,0,0,0,0],"split_type":[0,0,0,0,0,0,0,0,0,0,0,0,0,0,0,0,0],"sum_hessian":[5.3E1,1E1,4.3E1,3E0,7E0,2E0,4.1E1,1E0,1E0,1E0,4E1,1.4E1,2.6E1,4E0,1E1,2.5E1,1E0],"tree_param":{"num_deleted":"0","num_feature":"30","num_nodes":"17","size_leaf_vector":"1"}},{"base_weights":[-4.72383E-1,-5.6365566E1,1.3511649E1,1.1119934E0,-8.306262E0,-1.3303243E1,1.5105292E1,-1.6668824E0,-3.2860413E-1,4.314182E0,1.3369235E1,8.916201E0,1.615196E1,5.1591796E-1,9.9643487E-1,1.7273556E0,8.435187E-1],"categories":[],"categories_nodes":[],"categories_segments":[],"categories_sizes":[],"default_left":[0,0,0,0,0,0,0,0,0,0,0,0,0,0,0,0,0],"id":10,"left_children":[1,3,5,-1,-1,7,9,-1,-1,-1,11,13,15,-1,-1,-1,-1],"loss_changes":[4.296864E4,2.0741957E4,2.0812183E3,0E0,0E0,4.636664E1,1.4674932E3,0E0,0E0,0E0,3.6404004E2,1.947461E1,6.20166E1,0E0,0E0,0E0,0E0],"parents":[2147483647,0,0,1,1,2,2,5,5,6,6,10,10,11,11,12,12],"right_children":[2,4,6,-1,-1,8,10,-1,-1,-1,12,14,16,-1,-1,-1,-1],"split_conditions":[1.7832365E2,1.7718864E2,7.263072E-1,1.1119934E0,-8.306262E0,8.0634177E-1,1.7474448E2,-1.6668824E0,-3.2860413E-1,4.314182E0,8.06088E-1,7.8430474E-1,9.415937E-1,5.1591796E-1,9.9643487E-1,1.7273556E0,8.435187E-1],"split_indices":[25,9,14,0,0,0,27,0,0,0,26,16,4,0,0,0,0],"split_type":[0,0,0,0,0,0,0,0,0,0,0,0,0,0,0,0,0],"sum_hessian":[5.3E1,1E1,4.3E1,3E0,7E0,2E0,4.1E1,1E0,1E0,1E0,4E1,1.7E1,2.3E1,5E0,1.2E1,1.9E1,4E0],"tree_param":{"num_deleted":"0","num_feature":"30","num_nodes":"17","size_leaf_vector":"1"}},{"base_weights":[-4.3981567E-1,-5.1383026E1,1.2305984E1,1.0285934E0,-7.5794635E0,-1.2638082E1,1.3794703E1,-1.5835389E0,-3.1217346E-1,4.0984726E0,1.2131904E1,8.261094E0,1.4802055E1,4.9538007E-1,9.4064754E-1,1.6568861E0,9.4181865E-1],"categories":[],"categories_nodes":[],"categories_segments":[],"categories_sizes":[],"default_left":[0,0,0,0,0,0,0,0,0,0,0,0,0,0,0,0,0],"id":11,"left_children":[1,3,5,-1,-1,7,9,-1,-1,-1,11,13,15,-1,-1,-1,-1],"loss_changes":[3.569516E4,1.7339443E4,1.8082651E3,0E0,0E0,4.184619E1,1.4016621E3,0E0,0E0,0E0,3.0148096E2,2.5376465E1,6.273291E1,0E0,0E0,0E0,0E0],"parents":[2147483647,0,0,1,1,2,2,5,5,6,6,10,10,11,11,12,12],"right_children":[2,4,6,-1,-1,8,10,-1,-1,-1,12,14,16,-1,-1,-1,-1],"split_conditions":[1.7832365E2,1.7718864E2,7.263072E-1,1.0285934E0,-7.5794635E0,8.0634177E-1,1.7474448E2,-1.5835389E0,-3.1217346E-1,4.0984726E0,8.135305E-1,7.8430474E-1,9.2367977E-1,4.9538007E-1,9.4064754E-1,1.6568861E0,9.4181865E-1],"split_indices":[25,9,14,0,0,0,27,0,0,0,26,18,4,0,0,0,0],"split_type":[0,0,0,0,0,0,0,0,0,0,0,0,0,0,0,0,0],"sum_hessian":[5.3E1,1E1,4.3E1,3E0,7E0,2E0,4.1E1,1E0,1E0,1E0,4E1,1.8E1,2.2E1,6E0,1.2E1,1.5E1,7E0],"tree_param":{"num_deleted":"0","num_feature":"30","num_nodes":"17","size_leaf_vector":"1"}},{"base_weights":[-4.01641E-1,-4.6840256E1,1.1217141E1,9.5144886E-1,-6.91626E0,-1.2006185E1,1.2608875E1,-1.5043625E0,-2.9656526E-1,3.8935487E0,1.1017117E1,6.7553916E0,1.2976701E1,3.8679627E-1,7.4537325E-1,1.5674833E0,9.3516606E-1],"categories":[],"categories_nodes":[],"categories_segments":[],"categories_sizes":[],"default_left":[0,0,0,0,0,0,0,0,0,0,0,0,0,0,0,0,0],"id":12,"left_children":[1,3,5,-1,-1,7,9,-1,-1,-1,11,13,15,-1,-1,-1,-1],"loss_changes":[2.9661662E4,1.4495715E4,1.5734951E3,0E0,0E0,3.7766052E1,1.3310786E3,0E0,0E0,0E0,2.5473682E2,1.4154053E0,1.1749707E2,0E0,0E0,0E0,0E0],"parents":[2147483647,0,0,1,1,2,2,5,5,6,6,10,10,11,11,12,12],"right_children":[2,4,6,-1,-1,8,10,-1,-1,-1,12,14,16,-1,-1,-1,-1],"split_conditions":[1.7832365E2,1.7718864E2,7.263072E-1,9.5144886E-1,-6.91626E0,8.0634177E-1,1.7474448E2,-1.5043625E0,-2.9656526E-1,3.8935487E0,8.0299145E-1,7.6558155E-1,9.0544724E-1,3.8679627E-1,7.4537325E-1,1.5674833E0,9.3516606E-1],"split_indices":[25,9,14,0,0,0,27,0,0,0,24,18,2,0,0,0,0],"split_type":[0,0,0,0,0,0,0,0,0,0,0,0,0,0,0,0,0],"sum_hessian":[5.3E1,1E1,4.3E1,3E0,7E0,2E0,4.1E1,1E0,1E0,1E0,4E1,1.4E1,2.6E1,4E0,1E1,1.3E1,1.3E1],"tree_param":{"num_deleted":"0","num_feature":"30","num_nodes":"17","size_leaf_vector":"1"}},{"base_weights":[-3.658727E-1,-4.2698486E1,1.0225595E1,8.8009036E-1,-6.311087E0,3.698871E0,8.742995E0,-1.1405873E1,1.0004059E1,-1.4291443E0,-2.8173676E-1,6.7001567E0,1.229841E1,3.800344E-1,7.464351E-1,1.3834511E0,7.688908E-1],"categories":[],"categories_nodes":[],"categories_segments":[],"categories_sizes":[],"default_left":[0,0,0,0,0,0,0,0,0,0,0,0,0,0,0,0,0],"id":13,"left_children":[1,3,5,-1,-1,-1,7,9,11,-1,-1,13,15,-1,-1,-1,-1],"loss_changes":[2.4648303E4,1.211891E4,1.4224844E3,0E0,0E0,0E0,1.2066921E3,3.4083954E1,2.2839111E2,0E0,0E0,1.3737366E1,5.6483154E1,0E0,0E0,0E0,0E0],"parents":[2147483647,0,0,1,1,2,2,6,6,7,7,8,8,11,11,12,12],"right_children":[2,4,6,-1,-1,-1,8,10,12,-1,-1,14,16,-1,-1,-1,-1],"split_conditions":[1.7832365E2,1.7718864E2,1.7474448E2,8.8009036E-1,-6.311087E0,3.698871E0,7.263072E-1,8.0634177E-1,8.135305E-1,-1.4291443E0,-2.8173676E-1,7.8430474E-1,9.2367977E-1,3.800344E-1,7.464351E-1,1.3834511E0,7.688908E-1],"split_indices":[25,9,27,0,0,0,14,0,26,0,0,16,4,0,0,0,0],"split_type":[0,0,0,0,0,0,0,0,0,0,0,0,0,0,0,0,0],"sum_hessian":[5.3E1,1E1,4.3E1,3E0,7E0,1E0,4.2E1,2E0,4E1,1E0,1E0,1.8E1,2.2E1,5E0,1.3E1,1.5E1,7E0],"tree_param":{"num_deleted":"0","num_feature":"30","num_nodes":"17","size_leaf_vector":"1"}},{"base_weights":[-3.3232683E-1,-3.8922367E1,9.322737E0,8.140831E-1,-5.7588673E0,3.5139267E0,7.90516E0,-1.0835582E1,9.083625E0,-1.3576874E0,-2.6764986E-1,6.0485725E0,1.1195902E1,3.6647555E-1,6.866892E-1,1.2971644E0,7.590271E-1],"categories":[],"categories_nodes":[],"categories_segments":[],"categories_sizes":[],"default_left":[0,0,0,0,0,0,0,0,0,0,0,0,0,0,0,0,0],"id":14,"left_children":[1,3,5,-1,-1,-1,7,9,11,-1,-1,13,15,-1,-1,-1,-1],"loss_changes":[2.0482686E4,1.0132275E4,1.3324824E3,0E0,0E0,0E0,1.0480947E3,3.0760803E1,1.9512622E2,0E0,0E0,1.1898315E1,4.8803223E1,0E0,0E0,0E0,0E0],"parents":[2147483647,0,0,1,1,2,2,6,6,7,7,8,8,11,11,12,12],"right_children":[2,4,6,-1,-1,-1,8,10,12,-1,-1,14,16,-1,-1,-1,-1],"split_conditions":[1.7832365E2,1.7718864E2,1.7474448E2,8.140831E-1,-5.7588673E0,3.5139267E0,7.263072E-1,8.0634177E-1,8.135305E-1,-1.3576874E0,-2.6764986E-1,7.8430474E-1,9.0544724E-1,3.6647555E-1,6.866892E-1,1.2971644E0,7.590271E-1],"split_indices":[25,9,27,0,0,0,14,0,28,0,0,18,2,0,0,0,0],"split_type":[0,0,0,0,0,0,0,0,0,0,0,0,0,0,0,0,0],"sum_hessian":[5.3E1,1E1,4.3E1,3E0,7E0,1E0,4.2E1,2E0,4E1,1E0,1E0,1.8E1,2.2E1,6E0,1.2E1,1.3E1,9E0],"tree_param":{"num_deleted":"0","num_feature":"30","num_nodes":"17","size_leaf_vector":"1"}},{"base_weights":[-2.981056E-1,-3.547966E1,8.504058E0,7.530266E-1,-5.2549667E0,3.3382308E0,7.1491613E0,-1.0293803E1,8.251106E0,-1.2898026E0,-2.542679E-1,5.436003E0,1.0217882E1,3.0606487E-1,6.065726E-1,1.1105964E0,4.7995973E-1],"categories":[],"categories_nodes":[],"categories_segments":[],"categories_sizes":[],"default_left":[0,0,0,0,0,0,0,0,0,0,0,0,0,0,0,0,0],"id":15,"left_children":[1,3,5,-1,-1,-1,7,9,11,-1,-1,13,15,-1,-1,-1,-1],"loss_changes":[1.7024107E4,8.471689E3,1.2444727E3,0E0,0E0,0E0,9.114463E2,2.7761414E1,1.7145947E2,0E0,0E0,9.855469E0,5.7368652E1,0E0,0E0,0E0,0E0],"parents":[2147483647,0,0,1,1,2,2,6,6,7,7,8,8,11,11,12,12],"right_children":[2,4,6,-1,-1,-1,8,10,12,-1,-1,14,16,-1,-1,-1,-1],"split_conditions":[1.7832365E2,1.7718864E2,1.7474448E2,7.530266E-1,-5.2549667E0,3.3382308E0,7.263072E-1,8.0634177E-1,8.135305E-1,-1.2898026E0,-2.542679E-1,4.5258133E2,9.415937E-1,3.0606487E-1,6.065726E-1,1.1105964E0,4.7995973E-1],"split_indices":[25,9,27,0,0,0,14,0,26,0,0,1,4,0,0,0,0],"split_type":[0,0,0,0,0,0,0,0,0,0,0,0,0,0,0,0,0],"sum_hessian":[5.3E1,1E1,4.3E1,3E0,7E0,1E0,4.2E1,2E0,4E1,1E0,1E0,1.8E1,2.2E1,5E0,1.3E1,1.8E1,4E0],"tree_param":{"num_deleted":"0","num_feature":"30","num_nodes":"17","size_leaf_vector":"1"}},{"base_weights":[-2.7207974E-1,-3.2340954E1,7.7513227E0,6.9655E-1,-4.795156E0,3.1713197E0,6.4565535E0,-9.779114E0,7.4870524E0,-1.2253128E0,-2.4155426E-1,4.628883E0,9.131125E0,3.0504876E-1,5.428711E-1,1.1225721E0,5.4447573E-1],"categories":[],"categories_nodes":[],"categories_segments":[],"categories_sizes":[],"default_left":[0,0,0,0,0,0,0,0,0,0,0,0,0,0,0,0,0],"id":16,"left_children":[1,3,5,-1,-1,-1,7,9,11,-1,-1,13,15,-1,-1,-1,-1],"loss_changes":[1.4144967E4,7.083579E3,1.1603462E3,0E0,0E0,0E0,7.9264233E2,2.505478E1,1.503938E2,0E0,0E0,4.901367E0,1.319148E2,0E0,0E0,0E0,0E0],"parents":[2147483647,0,0,1,1,2,2,6,6,7,7,8,8,11,11,12,12],"right_children":[2,4,6,-1,-1,-1,8,10,12,-1,-1,14,16,-1,-1,-1,-1],"split_conditions":[1.7832365E2,1.7718864E2,1.7474448E2,6.9655E-1,-4.795156E0,3.1713197E0,7.263072E-1,8.0634177E-1,8.06088E-1,-1.2253128E0,-2.4155426E-1,8.4202915E-1,9.131416E-1,3.0504876E-1,5.428711E-1,1.1225721E0,5.4447573E-1],"split_indices":[25,9,27,0,0,0,14,0,24,0,0,6,2,0,0,0,0],"split_type":[0,0,0,0,0,0,0,0,0,0,0,0,0,0,0,0,0],"sum_hessian":[5.3E1,1E1,4.3E1,3E0,7E0,1E0,4.2E1,2E0,4E1,1E0,1E0,1.6E1,2.4E1,7E0,9E0,1.4E1,1E1],"tree_param":{"num_deleted":"0","num_feature":"30","num_nodes":"17","size_leaf_vector":"1"}},{"base_weights":[-2.4263227E-1,-2.9479467E1,7.0720906E0,6.4430773E-1,-4.375581E0,3.0127532E0,5.8352776E0,-9.290161E0,6.799693E0,-1.1640472E0,-2.2947693E-1,4.3038855E0,8.388228E0,2.6373467E-1,4.917376E-1,1.0272797E0,5.647593E-1],"categories":[],"categories_nodes":[],"categories_segments":[],"categories_sizes":[],"default_left":[0,0,0,0,0,0,0,0,0,0,0,0,0,0,0,0,0],"id":17,"left_children":[1,3,5,-1,-1,-1,7,9,11,-1,-1,13,15,-1,-1,-1,-1],"loss_changes":[1.1756887E4,5.9231885E3,1.0788696E3,0E0,0E0,0E0,6.9042017E2,2.2611816E1,1.2644983E2,0E0,0E0,5.4345093E0,6.5941284E1,0E0,0E0,0E0,0E0],"parents":[2147483647,0,0,1,1,2,2,6,6,7,7,8,8,11,11,12,12],"right_children":[2,4,6,-1,-1,-1,8,10,12,-1,-1,14,16,-1,-1,-1,-1],"split_conditions":[1.7832365E2,1.7718864E2,1.7474448E2,6.4430773E-1,-4.375581E0,3.0127532E0,7.263072E-1,8.0634177E-1,8.06088E-1,-1.1640472E0,-2.2947693E-1,4.3940552E2,4.5334915E2,2.6373467E-1,4.917376E-1,1.0272797E0,5.647593E-1],"split_indices":[25,9,27,0,0,0,14,0,26,0,0,29,17,0,0,0,0],"split_type":[0,0,0,0,0,0,0,0,0,0,0,0,0,0,0,0,0],"sum_hessian":[5.3E1,1E1,4.3E1,3E0,7E0,1E0,4.2E1,2E0,4E1,1E0,1E0,1.7E1,2.3E1,6E0,1.1E1,1.2E1,1.1E1],"tree_param":{"num_deleted":"0","num_feature":"30","num_nodes":"17","size_leaf_vector":"1"}},{"base_weights":[-2.1400791E-1,-2.687073E1,6.4550366E0,5.959839E-1,-3.9927175E0,2.8621156E0,5.273937E0,-8.825653E0,6.176982E0,-1.1058441E0,-2.1800385E-1,3.7442267E0,7.584176E0,2.4673004E-1,4.391345E-1,9.8645586E-1,4.7203955E-1],"categories":[],"categories_nodes":[],"categories_segments":[],"categories_sizes":[],"default_left":[0,0,0,0,0,0,0,0,0,0,0,0,0,0,0,0,0],"id":18,"left_children":[1,3,5,-1,-1,-1,7,9,11,-1,-1,13,15,-1,-1,-1,-1],"loss_changes":[9.773294E3,4.9531147E3,1.0009907E3,0E0,0E0,0E0,6.02016E2,2.0406937E1,1.1196094E2,0E0,0E0,3.2127228E0,1.1669812E2,0E0,0E0,0E0,0E0],"parents":[2147483647,0,0,1,1,2,2,6,6,7,7,8,8,11,11,12,12],"right_children":[2,4,6,-1,-1,-1,8,10,12,-1,-1,14,16,-1,-1,-1,-1],"split_conditions":[1.7832365E2,1.7718864E2,1.7474448E2,5.959839E-1,-3.9927175E0,2.8621156E0,7.263072E-1,8.0634177E-1,8.06088E-1,-1.1058441E0,-2.1800385E-1,8.4202915E-1,9.0544724E-1,2.4673004E-1,4.391345E-1,9.8645586E-1,4.7203955E-1],"split_indices":[25,9,27,0,0,0,14,0,24,0,0,6,2,0,0,0,0],"split_type":[0,0,0,0,0,0,0,0,0,0,0,0,0,0,0,0,0],"sum_hessian":[5.3E1,1E1,4.3E1,3E0,7E0,1E0,4.2E1,2E0,4E1,1E0,1E0,1.6E1,2.4E1,7E0,9E0,1.2E1,1.2E1],"tree_param":{"num_deleted":"0","num_feature":"30","num_nodes":"17","size_leaf_vector":"1"}},{"base_weights":[-1.8731491E-1,-2.4492447E1,5.893225E0,5.5128556E-1,-3.6433542E0,2.7190094E0,4.7656217E0,-8.384369E0,5.6115813E0,-1.0505524E0,-2.0710297E-1,3.5074277E0,6.9558806E0,1.9725443E-1,3.9460334E-1,8.6564445E-1,4.5339456E-1],"categories":[],"categories_nodes":[],"categories_segments":[],"categories_sizes":[],"default_left":[0,0,0,0,0,0,0,0,0,0,0,0,0,0,0,0,0],"id":19,"left_children":[1,3,5,-1,-1,-1,7,9,11,-1,-1,13,15,-1,-1,-1,-1],"loss_changes":[8.1249097E3,4.1421104E3,9.2705725E2,0E0,0E0,0E0,5.2539703E2,1.841745E1,9.157593E1,0E0,0E0,4.334015E0,5.9599976E1,0E0,0E0,0E0,0E0],"parents":[2147483647,0,0,1,1,2,2,6,6,7,7,8,8,11,11,12,12],"right_children":[2,4,6,-1,-1,-1,8,10,12,-1,-1,14,16,-1,-1,-1,-1],"split_conditions":[1.7832365E2,1.7718864E2,1.7474448E2,5.5128556E-1,-3.6433542E0,2.7190094E0,7.263072E-1,8.0634177E-1,8.06088E-1,-1.0505524E0,-2.0710297E-1,4.5258133E2,4.5334915E2,1.9725443E-1,3.9460334E-1,8.6564445E-1,4.5339456E-1],"split_indices":[25,9,27,0,0,0,14,0,26,0,0,1,17,0,0,0,0],"split_type":[0,0,0,0,0,0,0,0,0,0,0,0,0,0,0,0,0],"sum_hessian":[5.3E1,1E1,4.3E1,3E0,7E0,1E0,4.2E1,2E0,4E1,1E0,1E0,1.7E1,2.3E1,5E0,1.2E1,1.2E1,1.1E1],"tree_param":{"num_deleted":"0","num_feature":"30","num_nodes":"17","size_leaf_vector":"1"}},{"base_weights":[-1.6339225E-1,-2.2324303E1,5.3805485E0,5.0993806E-1,-3.3245606E0,2.5830598E0,4.3042545E0,-7.965159E0,5.097035E0,-9.9802554E-1,-1.9674836E-1,3.0193949E0,6.3059483E0,2.3916343E-1,4.461708E-1,8.052083E-1,3.3515877E-1],"categories":[],"categories_nodes":[],"categories_segments":[],"categories_sizes":[],"default_left":[0,0,0,0,0,0,0,0,0,0,0,0,0,0,0,0,0],"id":20,"left_children":[1,3,5,-1,-1,-1,7,9,11,-1,-1,13,15,-1,-1,-1,-1],"loss_changes":[6.754491E3,3.4640576E3,8.5727014E2,0E0,0E0,0E0,4.5885748E2,1.6621689E1,8.393909E1,0E0,0E0,4.7214966E0,1.0198053E2,0E0,0E0,0E0,0E0],"parents":[2147483647,0,0,1,1,2,2,6,6,7,7,8,8,11,11,12,12],"right_children":[2,4,6,-1,-1,-1,8,10,12,-1,-1,14,16,-1,-1,-1,-1],"split_conditions":[1.7832365E2,1.7718864E2,1.7474448E2,5.0993806E-1,-3.3245606E0,2.5830598E0,7.263072E-1,8.0634177E-1,8.06088E-1,-9.9802554E-1,-1.9674836E-1,4.547414E2,9.131416E-1,2.3916343E-1,4.461708E-1,8.052083E-1,3.3515877E-1],"split_indices":[25,9,27,0,0,0,14,0,24,0,0,13,2,0,0,0,0],"split_type":[0,0,0,0,0,0,0,0,0,0,0,0,0,0,0,0,0],"sum_hessian":[5.3E1,1E1,4.3E1,3E0,7E0,1E0,4.2E1,2E0,4E1,1E0,1E0,1.6E1,2.4E1,1.3E1,3E0,1.4E1,1E1],"tree_param":{"num_deleted":"0","num_feature":"30","num_nodes":"17","size_leaf_vector":"1"}},{"base_weights":[-1.3965635E-1,-2.0347754E1,4.915542E0,4.716919E-1,-3.033662E0,2.4539063E0,3.888505E0,-7.5669045E0,4.631864E0,-9.481247E-1,-1.8691102E-1,7.1829863E0,3.6898928E0,8.506325E-1,1.2597555E-1,3.134013E-1,8.0187273E-1],"categories":[],"categories_nodes":[],"categories_segments":[],"categories_sizes":[],"default_left":[0,0,0,0,0,0,0,0,0,0,0,0,0,0,0,0,0],"id":21,"left_children":[1,3,5,-1,-1,-1,7,9,11,-1,-1,13,15,-1,-1,-1,-1],"loss_changes":[5.616441E3,2.8971396E3,7.9135913E2,0E0,0E0,0E0,4.012146E2,1.5001083E1,7.202203E1,0E0,0E0,6.766846E1,5.1871216E1,0E0,0E0,0E0,0E0],"parents":[2147483647,0,0,1,1,2,2,6,6,7,7,8,8,11,11,12,12],"right_children":[2,4,6,-1,-1,-1,8,10,12,-1,-1,14,16,-1,-1,-1,-1],"split_conditions":[1.7832365E2,1.7718864E2,1.7474448E2,4.716919E-1,-3.033662E0,2.4539063E0,7.263072E-1,8.0634177E-1,1.8328323E2,-9.481247E-1,-1.8691102E-1,9.1512215E-1,4.6486093E2,8.506325E-1,1.2597555E-1,3.134013E-1,8.0187273E-1],"split_indices":[25,9,27,0,0,0,14,0,9,0,0,20,11,0,0,0,0],"split_type":[0,0,0,0,0,0,0,0,0,0,0,0,0,0,0,0,0],"sum_hessian":[5.3E1,1E1,4.3E1,3E0,7E0,1E0,4.2E1,2E0,4E1,1E0,1E0,9E0,3.1E1,7E0,2E0,2.9E1,2E0],"tree_param":{"num_deleted":"0","num_feature":"30","num_nodes":"17","size_leaf_vector":"1"}},{"base_weights":[-1.0998196E-1,-1.8545881E1,4.5014925E0,4.3631592E-1,-2.7682168E0,2.3312104E0,3.5218947E0,-7.188558E0,4.2196865E0,-9.007187E-1,-1.7756501E-1,1.6430908E-1,4.8930073E0,5.511007E-1,1.2965088E-1],"categories":[],"categories_nodes":[],"categories_segments":[],"categories_sizes":[],"default_left":[0,0,0,0,0,0,0,0,0,0,0,0,0,0,0],"id":22,"left_children":[1,3,5,-1,-1,-1,7,9,11,-1,-1,-1,13,-1,-1],"loss_changes":[4.674385E3,2.4231204E3,7.286781E2,0E0,0E0,0E0,3.517011E2,1.3538605E1,6.309027E1,0E0,0E0,0E0,6.3979248E1,0E0,0E0],"parents":[2147483647,0,0,1,1,2,2,6,6,7,7,8,8,12,12],"right_children":[2,4,6,-1,-1,-1,8,10,12,-1,-1,-1,14,-1,-1],"split_conditions":[1.7832365E2,1.7718864E2,1.7474448E2,4.3631592E-1,-2.7682168E0,2.3312104E0,7.263072E-1,8.0634177E-1,4.4065366E2,-9.007187E-1,-1.7756501E-1,1.6430908E-1,4.639543E2,5.511007E-1,1.2965088E-1],"split_indices":[25,9,27,0,0,0,14,0,29,0,0,0,5,0,0],"split_type":[0,0,0,0,0,0,0,0,0,0,0,0,0,0,0],"sum_hessian":[5.3E1,1E1,4.3E1,3E0,7E0,1E0,4.2E1,2E0,4E1,1E0,1E0,9E0,3.1E1,2.6E1,5E0],"tree_param":{"num_deleted":"0","num_feature":"30","num_nodes":"15","size_leaf_vector":"1"}},{"base_weights":[-1.03306524E-1,-1.6903282E1,4.0990353E0,4.0359268E-1,-2.5259976E0,2.21465E0,3.1642916E0,-6.829132E0,3.81834E0,-8.556824E-1,-1.6868745E-1,6.0663605E0,2.9965105E0,7.279808E-1,8.083802E-2,2.5567952E-1,8.313843E-1],"categories":[],"categories_nodes":[],"categories_segments":[],"categories_sizes":[],"default_left":[0,0,0,0,0,0,0,0,0,0,0,0,0,0,0,0,0],"id":23,"left_children":[1,3,5,-1,-1,-1,7,9,11,-1,-1,13,15,-1,-1,-1,-1],"loss_changes":[3.8816455E3,2.0267556E3,6.7219086E2,0E0,0E0,0E0,3.0713177E2,1.2218414E1,5.7569153E1,0E0,0E0,5.7918E1,5.3562805E1,0E0,0E0,0E0,0E0],"parents":[2147483647,0,0,1,1,2,2,6,6,7,7,8,8,11,11,12,12],"right_children":[2,4,6,-1,-1,-1,8,10,12,-1,-1,14,16,-1,-1,-1,-1],"split_conditions":[1.7832365E2,1.7718864E2,1.7474448E2,4.0359268E-1,-2.5259976E0,2.21465E0,7.263072E-1,8.0634177E-1,1.8328323E2,-8.556824E-1,-1.6868745E-1,9.1512215E-1,9.634167E-1,7.279808E-1,8.083802E-2,2.5567952E-1,8.313843E-1],"split_indices":[25,9,27,0,0,0,14,0,9,0,0,20,6,0,0,0,0],"split_type":[0,0,0,0,0,0,0,0,0,0,0,0,0,0,0,0,0],"sum_hessian":[5.3E1,1E1,4.3E1,3E0,7E0,1E0,4.2E1,2E0,4E1,1E0,1E0,9E0,3.1E1,7E0,2E0,3E1,1E0],"tree_param":{"num_deleted":"0","num_feature":"30","num_nodes":"17","size_leaf_vector":"1"}},{"base_weights":[-7.512467E-2,-1.5405898E1,3.759276E0,3.7332305E-1,-2.3049724E0,2.103917E0,2.868135E0,-6.487671E0,3.4827516E0,-8.128983E-1,-1.6025238E-1,1.9956275E0,4.45298E0,1.6009808E-1,3.435201E-1,5.406476E-1,1.8701783E-1],"categories":[],"categories_nodes":[],"categories_segments":[],"categories_sizes":[],"default_left":[0,0,0,0,0,0,0,0,0,0,0,0,0,0,0,0,0],"id":24,"left_children":[1,3,5,-1,-1,-1,7,9,11,-1,-1,13,15,-1,-1,-1,-1],"loss_changes":[3.2322688E3,1.6953079E3,6.172049E2,0E0,0E0,0E0,2.69855E2,1.1027267E1,5.0270355E1,0E0,0E0,4.7265244E0,4.899356E1,0E0,0E0,0E0,0E0],"parents":[2147483647,0,0,1,1,2,2,6,6,7,7,8,8,11,11,12,12],"right_children":[2,4,6,-1,-1,-1,8,10,12,-1,-1,14,16,-1,-1,-1,-1],"split_conditions":[1.7832365E2,1.7718864E2,1.7474448E2,3.7332305E-1,-2.3049724E0,2.103917E0,7.263072E-1,8.0634177E-1,8.06088E-1,-8.128983E-1,-1.6025238E-1,4.5750705E2,9.2367977E-1,1.6009808E-1,3.435201E-1,5.406476E-1,1.8701783E-1],"split_indices":[25,9,27,0,0,0,14,0,26,0,0,15,4,0,0,0,0],"split_type":[0,0,0,0,0,0,0,0,0,0,0,0,0,0,0,0,0],"sum_hessian":[5.3E1,1E1,4.3E1,3E0,7E0,1E0,4.2E1,2E0,4E1,1E0,1E0,1.7E1,2.3E1,1.5E1,2E0,1.6E1,7E0],"tree_param":{"num_deleted":"0","num_feature":"30","num_nodes":"17","size_leaf_vector":"1"}},{"base_weights":[-5.9639543E-2,-1.4040909E1,3.4370332E0,3.4532395E-1,-2.103287E0,1.9987214E0,2.5873263E0,-6.1632895E0,3.1645098E0,-7.7225345E-1,-1.5224E-1,5.3192954E0,2.4809468E0,6.5653294E-1,6.387838E-2,2.0817375E-1,7.627823E-1],"categories":[],"categories_nodes":[],"categories_segments":[],"categories_sizes":[],"default_left":[0,0,0,0,0,0,0,0,0,0,0,0,0,0,0,0,0],"id":25,"left_children":[1,3,5,-1,-1,-1,7,9,11,-1,-1,13,15,-1,-1,-1,-1],"loss_changes":[2.6882068E3,1.418134E3,5.6704974E2,0E0,0E0,0E0,2.3668439E2,9.952072E0,4.71933E1,0E0,0E0,4.829486E1,5.192534E1,0E0,0E0,0E0,0E0],"parents":[2147483647,0,0,1,1,2,2,6,6,7,7,8,8,11,11,12,12],"right_children":[2,4,6,-1,-1,-1,8,10,12,-1,-1,14,16,-1,-1,-1,-1],"split_conditions":[1.7832365E2,1.7718864E2,1.7474448E2,3.4532395E-1,-2.103287E0,1.9987214E0,7.263072E-1,8.0634177E-1,1.8350778E2,-7.7225345E-1,-1.5224E-1,9.1512215E-1,9.634167E-1,6.5653294E-1,6.387838E-2,2.0817375E-1,7.627823E-1],"split_indices":[25,9,27,0,0,0,14,0,11,0,0,20,6,0,0,0,0],"split_type":[0,0,0,0,0,0,0,0,0,0,0,0,0,0,0,0,0],"sum_hessian":[5.3E1,1E1,4.3E1,3E0,7E0,1E0,4.2E1,2E0,4E1,1E0,1E0,8E0,3.2E1,6E0,2E0,3.1E1,1E0],"tree_param":{"num_deleted":"0","num_feature":"30","num_nodes":"17","size_leaf_vector":"1"}},{"base_weights":[-3.500762E-2,-1.2796637E1,3.1561952E0,3.1942368E-1,-1.9192494E0,1.8987855E0,2.3464391E0,-5.855123E0,2.8893232E0,-7.336411E-1,-1.4462738E-1,4.7353086E0,2.2221613E0,5.6955606E-1,5.962016E-2,1.8263324E-1,7.2464293E-1],"categories":[],"categories_nodes":[],"categories_segments":[],"categories_sizes":[],"default_left":[0,0,0,0,0,0,0,0,0,0,0,0,0,0,0,0,0],"id":26,"left_children":[1,3,5,-1,-1,-1,7,9,11,-1,-1,13,15,-1,-1,-1,-1],"loss_changes":[2.239536E3,1.186334E3,5.195166E2,0E0,0E0,0E0,2.0837473E2,8.981865E0,3.997177E1,0E0,0E0,3.6350143E1,5.040564E1,0E0,0E0,0E0,0E0],"parents":[2147483647,0,0,1,1,2,2,6,6,7,7,8,8,11,11,12,12],"right_children":[2,4,6,-1,-1,-1,8,10,12,-1,-1,14,16,-1,-1,-1,-1],"split_conditions":[1.7832365E2,1.7718864E2,1.7474448E2,3.1942368E-1,-1.9192494E0,1.8987855E0,7.263072E-1,8.0634177E-1,1.8328323E2,-7.336411E-1,-1.4462738E-1,9.1512215E-1,9.634167E-1,5.6955606E-1,5.962016E-2,1.8263324E-1,7.2464293E-1],"split_indices":[25,9,27,0,0,0,14,0,9,0,0,20,6,0,0,0,0],"split_type":[0,0,0,0,0,0,0,0,0,0,0,0,0,0,0,0,0],"sum_hessian":[5.3E1,1E1,4.3E1,3E0,7E0,1E0,4.2E1,2E0,4E1,1E0,1E0,9E0,3.1E1,7E0,2E0,3E1,1E0],"tree_param":{"num_deleted":"0","num_feature":"30","num_nodes":"17","size_leaf_vector":"1"}},{"base_weights":[-1.3789424E-2,-1.1662412E1,2.8986795E0,2.9546663E-1,-1.751315E0,1.8038467E0,2.1270921E0,-5.562368E0,2.6378553E0,-6.9695896E-1,-1.3739625E-1,7.6660156E-1,3.1401892E0,9.319255E-2,4.148926E-2,3.623055E-1,4.4392906E-2],"categories":[],"categories_nodes":[],"categories_segments":[],"categories_sizes":[],"default_left":[0,0,0,0,0,0,0,0,0,0,0,0,0,0,0,0,0],"id":27,"left_children":[1,3,5,-1,-1,-1,7,9,11,-1,-1,13,15,-1,-1,-1,-1],"loss_changes":[1.8658232E3,9.924729E2,4.7562393E2,0E0,0E0,0E0,1.835549E2,8.106087E0,3.6132477E1,0E0,0E0,1.9480991E-1,4.0053406E1,0E0,0E0,0E0,0E0],"parents":[2147483647,0,0,1,1,2,2,6,6,7,7,8,8,11,11,12,12],"right_children":[2,4,6,-1,-1,-1,8,10,12,-1,-1,14,16,-1,-1,-1,-1],"split_conditions":[1.7832365E2,1.7718864E2,1.7474448E2,2.9546663E-1,-1.751315E0,1.8038467E0,7.263072E-1,8.0634177E-1,4.4065366E2,-6.9695896E-1,-1.3739625E-1,8.01628E-1,4.639543E2,9.319255E-2,4.148926E-2,3.623055E-1,4.4392906E-2],"split_indices":[25,9,27,0,0,0,14,0,29,0,0,28,5,0,0,0,0],"split_type":[0,0,0,0,0,0,0,0,0,0,0,0,0,0,0,0,0],"sum_hessian":[5.3E1,1E1,4.3E1,3E0,7E0,1E0,4.2E1,2E0,4E1,1E0,1E0,9E0,3.1E1,5E0,4E0,2.6E1,5E0],"tree_param":{"num_deleted":"0","num_feature":"30","num_nodes":"17","size_leaf_vector":"1"}},{"base_weights":[-1.13949245E-2,-1.0628524E1,2.6431463E0,2.7330628E-1,-1.5980752E0,1.7136536E0,1.9075665E0,-5.2842507E0,2.387271E0,-6.621109E-1,-1.3052674E-1,2.111805E0,6.702957E-1,4.152418E-1,1.4718886E-1],"categories":[],"categories_nodes":[],"categories_segments":[],"categories_sizes":[],"default_left":[0,0,0,0,0,0,0,0,0,0,0,0,0,0,0],"id":28,"left_children":[1,3,5,-1,-1,-1,7,9,11,-1,-1,13,-1,-1,-1],"loss_changes":[1.5500074E3,8.30333E2,4.3639676E2,0E0,0E0,0E0,1.6096269E2,7.3156967E0,3.4586487E1,0E0,0E0,4.6120987E1,0E0,0E0,0E0],"parents":[2147483647,0,0,1,1,2,2,6,6,7,7,8,8,11,11],"right_children":[2,4,6,-1,-1,-1,8,10,12,-1,-1,14,-1,-1,-1],"split_conditions":[1.7832365E2,1.7718864E2,1.7474448E2,2.7330628E-1,-1.5980752E0,1.7136536E0,7.263072E-1,8.0634177E-1,9.634167E-1,-6.621109E-1,-1.3052674E-1,1.8350778E2,6.702957E-1,4.152418E-1,1.4718886E-1],"split_indices":[25,9,27,0,0,0,14,0,6,0,0,11,0,0,0],"split_type":[0,0,0,0,0,0,0,0,0,0,0,0,0,0,0],"sum_hessian":[5.3E1,1E1,4.3E1,3E0,7E0,1E0,4.2E1,2E0,4E1,1E0,1E0,3.9E1,1E0,8E0,3.1E1],"tree_param":{"num_deleted":"0","num_feature":"30","num_nodes":"15","size_leaf_vector":"1"}},{"base_weights":[5.0950227E-3,-9.686111E0,2.4277809E0,2.5280762E-1,-1.4582442E0,1.6279725E0,1.7270443E0,-5.02004E0,2.1786106E0,-6.2900543E-1,-1.2400055E-1,1.914685E0,6.3678133E-1,3.783305E-1,1.3293019E-1],"categories":[],"categories_nodes":[],"categories_segments":[],"categories_sizes":[],"default_left":[0,0,0,0,0,0,0,0,0,0,0,0,0,0,0],"id":29,"left_children":[1,3,5,-1,-1,-1,7,9,11,-1,-1,13,-1,-1,-1],"loss_changes":[1.2913683E3,6.9471716E2,3.9897293E2,0E0,0E0,0E0,1.4194714E2,6.602394E0,3.313878E1,0E0,0E0,3.8725174E1,0E0,0E0,0E0],"parents":[2147483647,0,0,1,1,2,2,6,6,7,7,8,8,11,11],"right_children":[2,4,6,-1,-1,-1,8,10,12,-1,-1,14,-1,-1,-1],"split_conditions":[1.7832365E2,1.7718864E2,1.7474448E2,2.5280762E-1,-1.4582442E0,1.6279725E0,7.263072E-1,8.0634177E-1,9.634167E-1,-6.2900543E-1,-1.2400055E-1,1.8350778E2,6.3678133E-1,3.783305E-1,1.3293019E-1],"split_indices":[25,9,27,0,0,0,14,0,6,0,0,11,0,0,0],"split_type":[0,0,0,0,0,0,0,0,0,0,0,0,0,0,0],"sum_hessian":[5.3E1,1E1,4.3E1,3E0,7E0,1E0,4.2E1,2E0,4E1,1E0,1E0,3.9E1,1E0,8E0,3.1E1],"tree_param":{"num_deleted":"0","num_feature":"30","num_nodes":"15","size_leaf_vector":"1"}},{"base_weights":[1.9722268E-2,-8.82709E0,2.230977E0,2.3384705E-1,-1.3306484E1,1.5465729E0,1.5635241E0,-1.6616448E0,-7.9972166E-1,-4.769043E0,1.988748E0,-5.975556E-1,-1.1780091E-1,1.7359955E0,6.049423E-1,3.3357483E-1,1.1639464E-1],"categories":[],"categories_nodes":[],"categories_segments":[],"categories_sizes":[],"default_left":[0,0,0,0,0,0,0,0,0,0,0,0,0,0,0,0,0],"id":30,"left_children":[1,3,5,-1,7,-1,9,-1,-1,11,13,-1,-1,15,-1,-1,-1],"loss_changes":[1.0760712E3,5.812811E2,3.6449628E2,0E0,7.7025146E0,0E0,1.2527304E2,0E0,0E0,5.958626E0,3.15784E1,0E0,0E0,3.2722862E1,0E0,0E0,0E0],"parents":[2147483647,0,0,1,1,2,2,4,4,6,6,9,9,10,10,13,13],"right_children":[2,4,6,-1,8,-1,10,-1,-1,12,14,-1,-1,16,-1,-1,-1],"split_conditions":[1.7832365E2,1.7718864E2,1.7474448E2,2.3384705E-1,1.8494305E2,1.5465729E0,7.263072E-1,-1.6616448E0,-7.9972166E-1,8.0634177E-1,9.634167E-1,-5.975556E-1,-1.1780091E-1,1.8328323E2,6.049423E-1,3.3357483E-1,1.1639464E-1],"split_indices":[25,9,27,0,3,0,14,0,0,0,6,0,0,9,0,0,0],"split_type":[0,0,0,0,0,0,0,0,0,0,0,0,0,0,0,0,0],"sum_hessian":[5.3E1,1E1,4.3E1,3E0,7E0,1E0,4.2E1,3E0,4E0,2E0,4E1,1E0,1E0,3.9E1,1E0,9E0,3E1],"tree_param":{"num_deleted":"0","num_feature":"30","num_nodes":"17","size_leaf_vector":"1"}},{"base_weights":[1.1426573E-2,-8.146881E0,2.0507438E0,2.1630783E-1,-1.2283501E1,1.4692444E0,1.415066E0,-1.5370209E0,-7.3574346E-1,-4.5305886E0,1.8156002E0,-5.676773E-1,-1.1191101E-1,1.5736427E0,5.746948E-1,2.80492E-1,9.4577685E-2],"categories":[],"categories_nodes":[],"categories_segments":[],"categories_sizes":[],"default_left":[0,0,0,0,0,0,0,0,0,0,0,0,0,0,0,0,0],"id":31,"left_children":[1,3,5,-1,7,-1,9,-1,-1,11,13,-1,-1,15,-1,-1,-1],"loss_changes":[9.151255E2,4.9570227E2,3.3279535E2,0E0,8.557373E0,0E0,1.10627556E2,0E0,0E0,5.377617E0,2.995633E1,0E0,0E0,2.827024E1,0E0,0E0,0E0],"parents":[2147483647,0,0,1,1,2,2,4,4,6,6,9,9,10,10,13,13],"right_children":[2,4,6,-1,8,-1,10,-1,-1,12,14,-1,-1,16,-1,-1,-1],"split_conditions":[1.7832365E2,1.7718864E2,1.7474448E2,2.1630783E-1,1.8494305E2,1.4692444E0,7.263072E-1,-1.5370209E0,-7.3574346E-1,8.0634177E-1,9.634167E-1,-5.676773E-1,-1.1191101E-1,1.8328323E2,5.746948E-1,2.80492E-1,9.4577685E-2],"split_indices":[25,9,27,0,3,0,14,0,0,0,6,0,0,1,0,0,0],"split_type":[0,0,0,0,0,0,0,0,0,0,0,0,0,0,0,0,0],"sum_hessian":[5.3E1,1E1,4.3E1,3E0,7E0,1E0,4.2E1,3E0,4E0,2E0,4E1,1E0,1E0,3.9E1,1E0,1.2E1,2.7E1],"tree_param":{"num_deleted":"0","num_feature":"30","num_nodes":"17","size_leaf_vector":"1"}},{"base_weights":[4.4160066E-3,-7.5191426E0,1.8852054E0,2.0008469E-1,-1.1339245E1,1.3957825E0,1.2798462E0,-1.4217446E0,-6.768836E-1,-4.3040566E0,1.6572087E0,-5.3929293E-1,-1.0631561E-1,1.4256592E0,5.459595E-1,1.6970621E-1,-8.135742E-2],"categories":[],"categories_nodes":[],"categories_segments":[],"categories_sizes":[],"default_left":[0,0,0,0,0,0,0,0,0,0,0,0,0,0,0,0,0],"id":32,"left_children":[1,3,5,-1,7,-1,9,-1,-1,11,13,-1,-1,15,-1,-1,-1],"loss_changes":[7.7828754E2,4.2272876E2,3.0370007E2,0E0,9.0008545E0,0E0,9.774041E1,0E0,0E0,4.8532524E0,2.8314552E1,0E0,0E0,2.5690071E1,0E0,0E0,0E0],"parents":[2147483647,0,0,1,1,2,2,4,4,6,6,9,9,10,10,13,13],"right_children":[2,4,6,-1,8,-1,10,-1,-1,12,14,-1,-1,16,-1,-1,-1],"split_conditions":[1.7832365E2,1.7718864E2,1.7474448E2,2.0008469E-1,1.8494305E2,1.3957825E0,7.263072E-1,-1.4217446E0,-6.768836E-1,8.0634177E-1,9.634167E-1,-5.3929293E-1,-1.0631561E-1,9.415937E-1,5.459595E-1,1.6970621E-1,-8.135742E-2],"split_indices":[25,9,27,0,3,0,14,0,0,0,6,0,0,6,0,0,0],"split_type":[0,0,0,0,0,0,0,0,0,0,0,0,0,0,0,0,0],"sum_hessian":[5.3E1,1E1,4.3E1,3E0,7E0,1E0,4.2E1,3E0,4E0,2E0,4E1,1E0,1E0,3.9E1,1E0,3.5E1,4E0],"tree_param":{"num_deleted":"0","num_feature":"30","num_nodes":"17","size_leaf_vector":"1"}},{"base_weights":[-5.5454397E-3,-6.9398236E0,1.7281501E0,1.850792E-1,-1.0467653E1,1.3259948E0,1.1515979E0,-1.3151143E0,-6.227332E-1,-4.0888467E0,1.5069573E0,-5.123276E-1,-1.0099945E-1,1.2853005E0,5.186615E-1,2.7988723E-1,8.194428E-2],"categories":[],"categories_nodes":[],"categories_segments":[],"categories_sizes":[],"default_left":[0,0,0,0,0,0,0,0,0,0,0,0,0,0,0,0,0],"id":33,"left_children":[1,3,5,-1,7,-1,9,-1,-1,11,13,-1,-1,15,-1,-1,-1],"loss_changes":[6.611771E2,3.6050317E2,2.7727197E2,0E0,9.134399E0,0E0,8.62381E1,0E0,0E0,4.380081E0,2.6774109E1,0E0,0E0,2.591085E1,0E0,0E0,0E0],"parents":[2147483647,0,0,1,1,2,2,4,4,6,6,9,9,10,10,13,13],"right_children":[2,4,6,-1,8,-1,10,-1,-1,12,14,-1,-1,16,-1,-1,-1],"split_conditions":[1.7832365E2,1.7718864E2,1.7474448E2,1.850792E-1,1.8494305E2,1.3259948E0,7.263072E-1,-1.3151143E0,-6.227332E-1,8.0634177E-1,9.634167E-1,-5.123276E-1,-1.0099945E-1,1.8350778E2,5.186615E-1,2.7988723E-1,8.194428E-2],"split_indices":[25,9,27,0,3,0,14,0,0,0,6,0,0,11,0,0,0],"split_type":[0,0,0,0,0,0,0,0,0,0,0,0,0,0,0,0,0],"sum_hessian":[5.3E1,1E1,4.3E1,3E0,7E0,1E0,4.2E1,3E0,4E0,2E0,4E1,1E0,1E0,3.9E1,1E0,8E0,3.1E1],"tree_param":{"num_deleted":"0","num_feature":"30","num_nodes":"17","size_leaf_vector":"1"}},{"base_weights":[-7.943047E-3,-6.40519E0,1.5915493E0,1.7119752E-1,-9.663124E0,1.2596954E0,1.0426571E0,-1.2164811E0,-5.72915E-1,-2.3815918E0,1.5558897E0,-4.867111E-1,-9.110657E-1,3.6119428E-1,1.0575066E0,-1.5179443E-2,-1.0629349E-1,7.737299E-2,4.927292E-1],"categories":[],"categories_nodes":[],"categories_segments":[],"categories_sizes":[],"default_left":[0,0,0,0,0,0,0,0,0,0,0,0,0,0,0,0,0,0,0],"id":34,"left_children":[1,3,5,-1,7,-1,9,-1,-1,11,13,-1,15,-1,17,-1,-1,-1,-1],"loss_changes":[5.627409E2,3.0744016E2,2.5266E2,0E0,9.038513E0,0E0,7.927525E1,0E0,0E0,1.7495869E1,3.5119026E1,0E0,4.1520214E-1,0E0,3.1328564E1,0E0,0E0,0E0,0E0],"parents":[2147483647,0,0,1,1,2,2,4,4,6,6,9,9,10,10,12,12,14,14],"right_children":[2,4,6,-1,8,-1,10,-1,-1,12,14,-1,16,-1,18,-1,-1,-1,-1],"split_conditions":[1.7832365E2,1.7718864E2,1.7474448E2,1.7119752E-1,1.8494305E2,1.2596954E0,4.3368478E2,-1.2164811E0,-5.72915E-1,7.874597E-1,1.8350778E2,-4.867111E-1,8.015531E-1,3.6119428E-1,9.634167E-1,-1.5179443E-2,-1.0629349E-1,7.737299E-2,4.927292E-1],"split_indices":[25,9,27,0,3,0,23,0,0,2,11,0,0,0,6,0,0,0,0],"split_type":[0,0,0,0,0,0,0,0,0,0,0,0,0,0,0,0,0,0,0],"sum_hessian":[5.3E1,1E1,4.3E1,3E0,7E0,1E0,4.2E1,3E0,4E0,5E0,3.7E1,1E0,4E0,6E0,3.1E1,1E0,3E0,3E1,1E0],"tree_param":{"num_deleted":"0","num_feature":"30","num_nodes":"19","size_leaf_vector":"1"}},{"base_weights":[-7.799784E-3,-5.911781E0,1.4683727E0,1.5835724E0,-8.920485E0,1.1967102E0,9.4591147E-1,4.8220824E-2,1.7899577E-1,-1.1252453E0,-5.270813E-1,-2.2447968E0,1.4248152E0,-4.623749E-1,-8.442566E-1,3.3023378E-1,9.695816E-1,-1.4421082E-2,-9.8321535E-2,6.988634E-2,4.6809235E-1],"categories":[],"categories_nodes":[],"categories_segments":[],"categories_sizes":[],"default_left":[0,0,0,0,0,0,0,0,0,0,0,0,0,0,0,0,0,0,0,0,0],"id":35,"left_children":[1,3,5,7,9,-1,11,-1,-1,-1,-1,13,15,-1,17,-1,19,-1,-1,-1,-1],"loss_changes":[4.7930655E2,2.6219052E2,2.3002805E2,4.6090126E-2,8.777832E0,0E0,6.890421E1,0E0,0E0,0E0,0E0,1.6087278E1,2.9277138E1,0E0,3.4459734E-1,0E0,2.8879967E1,0E0,0E0,0E0,0E0],"parents":[2147483647,0,0,1,1,2,2,3,3,4,4,6,6,11,11,12,12,14,14,16,16],"right_children":[2,4,6,8,10,-1,12,-1,-1,-1,-1,14,16,-1,18,-1,20,-1,-1,-1,-1],"split_conditions":[1.7832365E2,1.7718864E2,1.7474448E2,8.017664E-1,1.8494305E2,1.1967102E0,4.3368478E2,4.8220824E-2,1.7899577E-1,-1.1252453E0,-5.270813E-1,7.874597E-1,1.8350778E2,-4.623749E-1,8.015531E-1,3.3023378E-1,9.634167E-1,-1.4421082E-2,-9.8321535E-2,6.988634E-2,4.6809235E-1],"split_indices":[25,9,27,2,3,0,23,0,0,0,0,2,11,0,0,0,6,0,0,0,0],"split_type":[0,0,0,0,0,0,0,0,0,0,0,0,0,0,0,0,0,0,0,0,0],"sum_hessian":[5.3E1,1E1,4.3E1,3E0,7E0,1E0,4.2E1,1E0,2E0,3E0,4E0,5E0,3.7E1,1E0,4E0,6E0,3.1E1,1E0,3E0,3E1,1E0],"tree_param":{"num_deleted":"0","num_feature":"30","num_nodes":"21","size_leaf_vector":"1"}},{"base_weights":[-5.8195326E-3,-5.4501553E0,1.3553966E0,1.4820251E0,-8.234976E0,1.1368744E0,8.581387E-1,4.5809936E-2,1.670634E-1,-1.040852E0,-4.8491454E-1,-2.88546E0,1.211045E0,-4.3925628E-1,-9.189046E-2,-6.123861E-3,1.672941E0,1.4784648E-1,-4.508881E-2,2.2565816E-1,1.2523058E-2],"categories":[],"categories_nodes":[],"categories_segments":[],"categories_sizes":[],"default_left":[0,0,0,0,0,0,0,0,0,0,0,0,0,0,0,0,0,0,0,0,0],"id":36,"left_children":[1,3,5,7,9,-1,11,-1,-1,-1,-1,13,15,-1,-1,17,19,-1,-1,-1,-1],"loss_changes":[4.0757666E2,2.245581E2,2.0932956E2,7.1697235E-3,8.40155E0,0E0,6.0303436E1,0E0,0E0,0E0,0E0,7.818859E0,2.249847E1,0E0,0E0,8.590124E0,2.5913292E1,0E0,0E0,0E0,0E0],"parents":[2147483647,0,0,1,1,2,2,3,3,4,4,6,6,11,11,12,12,15,15,16,16],"right_children":[2,4,6,8,10,-1,12,-1,-1,-1,-1,14,16,-1,-1,18,20,-1,-1,-1,-1],"split_conditions":[1.7832365E2,1.7718864E2,1.7474448E2,8.017664E-1,1.8494305E2,1.1368744E0,4.3112952E2,4.5809936E-2,1.670634E-1,-1.040852E0,-4.8491454E-1,8.0634177E-1,8.400878E-1,-4.3925628E-1,-9.189046E-2,4.3876797E2,9.2367977E-1,1.4784648E-1,-4.508881E-2,2.2565816E-1,1.2523058E-2],"split_indices":[25,9,27,2,3,0,25,0,0,0,0,0,4,0,0,11,4,0,0,0,0],"split_type":[0,0,0,0,0,0,0,0,0,0,0,0,0,0,0,0,0,0,0,0,0],"sum_hessian":[5.3E1,1E1,4.3E1,3E0,7E0,1E0,4.2E1,1E0,2E0,3E0,4E0,3E0,3.9E1,1E0,2E0,1.1E1,2.8E1,2E0,9E0,2E1,8E0],"tree_param":{"num_deleted":"0","num_feature":"30","num_nodes":"21","size_leaf_vector":"1"}},{"base_weights":[-1.2017144E-2,-5.0244946E0,1.2413753E0,1.3870469E-1,-7.6022034E0,1.0800294E0,7.679053E-1,-9.627884E-1,-4.4612184E-1,-3.3227742E0,1.0484939E0,-4.172928E-1,-8.112335E-2,8.5800326E-1,4.3340608E-1,1.1845177E-1,-5.9611894E-2],"categories":[],"categories_nodes":[],"categories_segments":[],"categories_sizes":[],"default_left":[0,0,0,0,0,0,0,0,0,0,0,0,0,0,0,0,0],"id":37,"left_children":[1,3,5,-1,7,-1,9,-1,-1,11,13,-1,-1,15,-1,-1,-1],"loss_changes":[3.4549774E2,1.9234256E2,1.9084427E2,0E0,7.9489746E0,0E0,5.2839226E1,0E0,0E0,3.0203667E0,2.1942024E1,0E0,0E0,1.9697783E1,0E0,0E0,0E0],"parents":[2147483647,0,0,1,1,2,2,4,4,6,6,9,9,10,10,13,13],"right_children":[2,4,6,-1,8,-1,10,-1,-1,12,14,-1,-1,16,-1,-1,-1],"split_conditions":[1.7832365E2,1.7718864E2,1.7474448E2,1.3870469E-1,1.8494305E2,1.0800294E0,7.263072E-1,-9.627884E-1,-4.4612184E-1,8.0634177E-1,9.634167E-1,-4.172928E-1,-8.112335E-2,4.6348297E2,4.3340608E-1,1.1845177E-1,-5.9611894E-2],"split_indices":[25,9,27,0,3,0,14,0,0,0,6,0,0,7,0,0,0],"split_type":[0,0,0,0,0,0,0,0,0,0,0,0,0,0,0,0,0],"sum_hessian":[5.3E1,1E1,4.3E1,3E0,7E0,1E0,4.2E1,3E0,4E0,2E0,4E1,1E0,1E0,3.9E1,1E0,3.2E1,7E0],"tree_param":{"num_deleted":"0","num_feature":"30","num_nodes":"17","size_leaf_vector":"1"}},{"base_weights":[-1.44452695E-2,-4.6375194E0,1.1416515E0,1.28302E0,-7.018099E0,1.0260285E0,6.90979E-1,3.6584474E-2,1.4667968E-1,-8.9057964E-1,-4.1043216E-1,-1.9830475E0,1.09501E0,-3.9642793E-1,-7.939453E-1,2.81039E-1,6.8555164E-1,-1.7367555E-2,-9.0559386E-2,-2.5977725E-3,1.8735987E-1],"categories":[],"categories_nodes":[],"categories_segments":[],"categories_sizes":[],"default_left":[0,0,0,0,0,0,0,0,0,0,0,0,0,0,0,0,0,0,0,0,0],"id":38,"left_children":[1,3,5,7,9,-1,11,-1,-1,-1,-1,13,15,-1,17,-1,19,-1,-1,-1,-1],"loss_changes":[2.9390936E2,1.6404184E2,1.7372911E2,1.376028E-1,7.4503784E0,0E0,4.862822E1,0E0,0E0,0E0,0E0,1.09879E1,2.4763649E1,0E0,1.8898153E-1,0E0,2.7099243E1,0E0,0E0,0E0,0E0],"parents":[2147483647,0,0,1,1,2,2,3,3,4,4,6,6,11,11,12,12,14,14,16,16],"right_children":[2,4,6,8,10,-1,12,-1,-1,-1,-1,14,16,-1,18,-1,20,-1,-1,-1,-1],"split_conditions":[1.7832365E2,1.7718864E2,1.7474448E2,8.017664E-1,1.8494305E2,1.0260285E0,4.3368478E2,3.6584474E-2,1.4667968E-1,-8.9057964E-1,-4.1043216E-1,7.874597E-1,4.3956464E2,-3.9642793E-1,8.015531E-1,2.81039E-1,9.0544724E-1,-1.7367555E-2,-9.0559386E-2,-2.5977725E-3,1.8735987E-1],"split_indices":[25,9,27,2,3,0,23,0,0,0,0,2,17,0,0,0,20,0,0,0,0],"split_type":[0,0,0,0,0,0,0,0,0,0,0,0,0,0,0,0,0,0,0,0,0],"sum_hessian":[5.3E1,1E1,4.3E1,3E0,7E0,1E0,4.2E1,1E0,2E0,3E0,4E0,5E0,3.7E1,1E0,4E0,6E0,3.1E1,1E0,3E0,2E1,1.1E1],"tree_param":{"num_deleted":"0","num_feature":"30","num_nodes":"21","size_leaf_vector":"1"}},{"base_weights":[-1.5411942E-2,-4.2753797E0,1.0499302E0,1.2005386E0,-6.478916E0,9.747284E-1,6.2098515E-1,3.4754943E-2,1.3690186E-1,-8.237862E-1,-3.7759766E-1,-1.86881E0,9.97769E-1,-3.7660676E-1,-7.36145E-1,2.5695017E-1,6.227722E-1,-1.649933E-2,-8.3768465E-2,3.832693E-2,4.0236816E-1],"categories":[],"categories_nodes":[],"categories_segments":[],"categories_sizes":[],"default_left":[0,0,0,0,0,0,0,0,0,0,0,0,0,0,0,0,0,0,0,0,0],"id":39,"left_children":[1,3,5,7,9,-1,11,-1,-1,-1,-1,13,15,-1,17,-1,19,-1,-1,-1,-1],"loss_changes":[2.4955829E2,1.4050845E2,1.580973E2,9.90448E-2,6.928589E0,0E0,4.2203568E1,0E0,0E0,0E0,0E0,1.012137E1,2.0796783E1,0E0,1.517601E-1,0E0,2.4522736E1,0E0,0E0,0E0,0E0],"parents":[2147483647,0,0,1,1,2,2,3,3,4,4,6,6,11,11,12,12,14,14,16,16],"right_children":[2,4,6,8,10,-1,12,-1,-1,-1,-1,14,16,-1,18,-1,20,-1,-1,-1,-1],"split_conditions":[1.7832365E2,1.7718864E2,1.7474448E2,8.017664E-1,1.8494305E2,9.747284E-1,4.3368478E2,3.4754943E-2,1.3690186E-1,-8.237862E-1,-3.7759766E-1,7.874597E-1,4.3956464E2,-3.7660676E-1,8.015531E-1,2.5695017E-1,9.634167E-1,-1.649933E-2,-8.3768465E-2,3.832693E-2,4.0236816E-1],"split_indices":[25,9,27,2,3,0,23,0,0,0,0,2,17,0,0,0,6,0,0,0,0],"split_type":[0,0,0,0,0,0,0,0,0,0,0,0,0,0,0,0,0,0,0,0,0],"sum_hessian":[5.3E1,1E1,4.3E1,3E0,7E0,1E0,4.2E1,1E0,2E0,3E0,4E0,5E0,3.7E1,1E0,4E0,6E0,3.1E1,1E0,3E0,3E1,1E0],"tree_param":{"num_deleted":"0","num_feature":"30","num_nodes":"21","size_leaf_vector":"1"}},{"base_weights":[-1.0803223E-2,-3.9414535E0,9.7210485E-1,1.1233978E0,-5.9811974E0,9.2599183E-1,5.640181E-1,3.301697E-2,1.2777506E-1,-7.620018E-1,-3.4739015E-1,-1.7614034E0,9.163473E-1,-3.577759E-1,-6.825806E-1,2.593516E-1,5.8363944E-1,-1.567383E-2,-7.748566E-2,3.629723E-2,3.8224944E-1],"categories":[],"categories_nodes":[],"categories_segments":[],"categories_sizes":[],"default_left":[0,0,0,0,0,0,0,0,0,0,0,0,0,0,0,0,0,0,0,0,0],"id":40,"left_children":[1,3,5,7,9,-1,11,-1,-1,-1,-1,13,15,-1,17,-1,19,-1,-1,-1,-1],"loss_changes":[2.1245877E2,1.20360275E2,1.435917E2,6.787348E-2,6.400879E0,0E0,3.6844555E1,0E0,0E0,0E0,0E0,9.315044E0,1.9690598E1,0E0,1.2116361E-1,0E0,2.2197937E1,0E0,0E0,0E0,0E0],"parents":[2147483647,0,0,1,1,2,2,3,3,4,4,6,6,11,11,12,12,14,14,16,16],"right_children":[2,4,6,8,10,-1,12,-1,-1,-1,-1,14,16,-1,18,-1,20,-1,-1,-1,-1],"split_conditions":[1.7832365E2,1.7718864E2,1.7474448E2,8.017664E-1,1.8494305E2,9.2599183E-1,4.3368478E2,3.301697E-2,1.2777506E-1,-7.620018E-1,-3.4739015E-1,7.874597E-1,1.7875287E2,-3.577759E-1,8.015531E-1,2.593516E-1,9.634167E-1,-1.567383E-2,-7.748566E-2,3.629723E-2,3.8224944E-1],"split_indices":[25,9,27,2,3,0,23,0,0,0,0,2,11,0,0,0,6,0,0,0,0],"split_type":[0,0,0,0,0,0,0,0,0,0,0,0,0,0,0,0,0,0,0,0,0],"sum_hessian":[5.3E1,1E1,4.3E1,3E0,7E0,1E0,4.2E1,1E0,2E0,3E0,4E0,5E0,3.7E1,1E0,4E0,5E0,3.2E1,1E0,3E0,3.1E1,1E0],"tree_param":{"num_deleted":"0","num_feature":"30","num_nodes":"21","size_leaf_vector":"1"}},{"base_weights":[-5.9291697E-3,-3.6335409E0,9.011085E-1,1.0512543E0,-5.5217457E0,8.796936E-1,5.129047E-1,3.136597E-2,1.1925659E-1,-7.0485115E-1,-3.195984E-1,-2.69576E0,7.3517513E-1,-3.398865E-1,-6.447754E-2,5.719864E-1,3.631363E-1,8.46221E-2,-6.307297E-2],"categories":[],"categories_nodes":[],"categories_segments":[],"categories_sizes":[],"default_left":[0,0,0,0,0,0,0,0,0,0,0,0,0,0,0,0,0,0,0],"id":41,"left_children":[1,3,5,7,9,-1,11,-1,-1,-1,-1,13,15,-1,-1,17,-1,-1,-1],"loss_changes":[1.8095476E2,1.03109146E2,1.3035638E2,4.2862892E-2,5.8802185E0,0E0,3.264909E1,0E0,0E0,0E0,0E0,2.1346664E0,1.7300545E1,0E0,0E0,1.3726791E1,0E0,0E0,0E0],"parents":[2147483647,0,0,1,1,2,2,3,3,4,4,6,6,11,11,12,12,15,15],"right_children":[2,4,6,8,10,-1,12,-1,-1,-1,-1,14,16,-1,-1,18,-1,-1,-1],"split_conditions":[1.7832365E2,1.7718864E2,1.7474448E2,8.017664E-1,1.8494305E2,8.796936E-1,7.263072E-1,3.136597E-2,1.1925659E-1,-7.0485115E-1,-3.195984E-1,8.0634177E-1,9.634167E-1,-3.398865E-1,-6.447754E-2,4.6348297E2,3.631363E-1,8.46221E-2,-6.307297E-2],"split_indices":[25,9,27,2,3,0,14,0,0,0,0,0,6,0,0,7,0,0,0],"split_type":[0,0,0,0,0,0,0,0,0,0,0,0,0,0,0,0,0,0,0],"sum_hessian":[5.3E1,1E1,4.3E1,3E0,7E0,1E0,4.2E1,1E0,2E0,3E0,4E0,2E0,4E1,1E0,1E0,3.9E1,1E0,3.2E1,7E0],"tree_param":{"num_deleted":"0","num_feature":"30","num_nodes":"19","size_leaf_vector":"1"}},{"base_weights":[-5.593759E-3,-3.3496287E0,8.3054215E-1,9.837799E-1,-5.0976295E0,8.357086E-1,4.6115538E-1,2.9797364E-2,1.1130575E-1,-6.519875E-1,-2.9403076E-1,-1.0178279E0,9.4017535E-1,-3.2289276E-1,-4.7382507E-1,1.2128241E0,-4.8888144E-1,-5.5946182E-2,1.4845276E-2,7.9635486E-2,2.3484671E-1,-6.6891484E-2,2.0564271E-2],"categories":[],"categories_nodes":[],"categories_segments":[],"categories_sizes":[],"default_left":[0,0,0,0,0,0,0,0,0,0,0,0,0,0,0,0,0,0,0,0,0,0,0],"id":42,"left_children":[1,3,5,7,9,-1,11,-1,-1,-1,-1,13,15,-1,17,19,21,-1,-1,-1,-1,-1,-1],"loss_changes":[1.5376965E2,8.833776E1,1.1847513E2,2.2975683E-2,5.3755035E0,0E0,3.1420826E1,0E0,0E0,0E0,0E0,1.1701342E1,1.3450737E1,0E0,6.15952E-1,1.1372677E1,8.8778245E-1,0E0,0E0,0E0,0E0,0E0,0E0],"parents":[2147483647,0,0,1,1,2,2,3,3,4,4,6,6,11,11,12,12,14,14,15,15,16,16],"right_children":[2,4,6,8,10,-1,12,-1,-1,-1,-1,14,16,-1,18,20,22,-1,-1,-1,-1,-1,-1],"split_conditions":[1.7832365E2,1.7718864E2,1.7474448E2,8.017664E-1,1.8494305E2,8.357086E-1,4.397093E2,2.9797364E-2,1.1130575E-1,-6.519875E-1,-2.9403076E-1,7.874597E-1,4.639543E2,-3.2289276E-1,9.224325E-1,4.5402716E2,9.415937E-1,-5.5946182E-2,1.4845276E-2,7.9635486E-2,2.3484671E-1,-6.6891484E-2,2.0564271E-2],"split_indices":[25,9,27,2,3,0,29,0,0,0,0,2,5,0,8,1,0,0,0,0,0,0,0],"split_type":[0,0,0,0,0,0,0,0,0,0,0,0,0,0,0,0,0,0,0,0,0,0,0],"sum_hessian":[5.3E1,1E1,4.3E1,3E0,7E0,1E0,4.2E1,1E0,2E0,3E0,4E0,1E1,3.2E1,1E0,9E0,2.7E1,5E0,8E0,1E0,2.1E1,6E0,4E0,1E0],"tree_param":{"num_deleted":"0","num_feature":"30","num_nodes":"23","size_leaf_vector":"1"}},{"base_weights":[-6.2303897E-3,-3.2869706E0,7.229614E-1,1.4392853E-1,-4.777917E0,7.93924E-1,3.7851784E-1,5.1902264E-2,-4.9067687E-2,-6.03088E-1,-2.3304749E-1,-7.866993E-1,1.0083439E0,5.2520752E-2,-2.6434875E0,1.2886597E0,-5.949036E-1,1.246933E-1,-4.8416477E-2,-3.2388307E-2,-3.142418E-1,3.15203E-3,1.683992E-1,-1.752472E-2,-6.560059E-2],"categories":[],"categories_nodes":[],"categories_segments":[],"categories_sizes":[],"default_left":[0,0,0,0,0,0,0,0,0,0,0,0,0,0,0,0,0,0,0,0,0,0,0,0,0],"id":43,"left_children":[1,3,5,7,9,-1,11,-1,-1,-1,-1,13,15,17,19,21,23,-1,-1,-1,-1,-1,-1,-1,-1],"loss_changes":[1.3155995E2,5.1840546E1,1.0884689E2,1.2068194E0,7.411072E0,0E0,3.3084164E1,0E0,0E0,0E0,0E0,2.50709E1,1.3799679E1,8.296006E0,4.7688293E0,1.2371616E1,1.3246655E-2,0E0,0E0,0E0,0E0,0E0,0E0,0E0,0E0],"parents":[2147483647,0,0,1,1,2,2,3,3,4,4,6,6,11,11,12,12,13,13,14,14,15,15,16,16],"right_children":[2,4,6,8,10,-1,12,-1,-1,-1,-1,14,16,18,20,22,24,-1,-1,-1,-1,-1,-1,-1,-1],"split_conditions":[1.7777798E2,1.7718864E2,1.7832365E2,8.135305E-1,1.8494305E2,7.93924E-1,8.4202915E-1,5.1902264E-2,-4.9067687E-2,-6.03088E-1,-2.3304749E-1,8.210906E-1,4.6411984E2,4.3876797E2,8.021217E-1,4.4231238E2,8.611795E-1,1.246933E-1,-4.8416477E-2,-3.2388307E-2,-3.142418E-1,3.15203E-3,1.683992E-1,-1.752472E-2,-6.560059E-2],"split_indices":[23,7,23,0,3,0,4,0,0,0,0,4,7,11,0,29,0,0,0,0,0,0,0,0,0],"split_type":[0,0,0,0,0,0,0,0,0,0,0,0,0,0,0,0,0,0,0,0,0,0,0,0,0],"sum_hessian":[5.3E1,9E0,4.4E1,3E0,6E0,1E0,4.3E1,2E0,1E0,3E0,3E0,1.5E1,2.8E1,1.1E1,4E0,2.4E1,4E0,3E0,8E0,1E0,3E0,6E0,1.8E1,1E0,3E0],"tree_param":{"num_deleted":"0","num_feature":"30","num_nodes":"25","size_leaf_vector":"1"}},{"base_weights":[-9.701764E-3,7.542267E-1,-2.9449865E-1,-3.4665222E0,5.2379805E-1,8.384094E-1,-4.5163302E0,3.8159397E-1,3.2481843E-1,2.5712585E-2,1.0004883E-1,-5.6269926E-1,-2.5024018E-1,1.9674072E0,2.09162E-1,2.2590534E-1,5.4623414E-2,-3.0077279E-2,6.16874E-2],"categories":[],"categories_nodes":[],"categories_segments":[],"categories_sizes":[],"default_left":[0,0,0,0,0,0,0,0,0,0,0,0,0,0,0,0,0,0,0],"id":44,"left_children":[1,-1,3,5,7,9,11,13,-1,-1,-1,-1,-1,15,17,-1,-1,-1,-1],"loss_changes":[1.1836316E2,0E0,1.3938554E2,5.3499405E1,1.54195175E1,2.538991E-2,6.0501556E0,1.107318E1,0E0,0E0,0E0,0E0,0E0,4.2394638E-1,8.293894E0,0E0,0E0,0E0,0E0],"parents":[2147483647,0,0,2,2,3,3,4,4,5,5,6,6,7,7,13,13,14,14],"right_children":[2,-1,4,6,8,10,12,14,-1,-1,-1,-1,-1,16,18,-1,-1,-1,-1],"split_conditions":[1.6579124E2,7.542267E-1,4.275764E2,1.7718864E2,9.634167E-1,8.135305E-1,9.179761E-1,1.7474448E2,3.2481843E-1,2.5712585E-2,1.0004883E-1,-5.6269926E-1,-2.5024018E-1,8.719154E-1,8.617636E-1,2.2590534E-1,5.4623414E-2,-3.0077279E-2,6.16874E-2],"split_indices":[29,0,29,9,6,0,12,15,0,0,0,0,0,0,6,0,0,0,0],"split_type":[0,0,0,0,0,0,0,0,0,0,0,0,0,0,0,0,0,0,0],"sum_hessian":[5.3E1,1E0,5.2E1,1E1,4.2E1,2E0,8E0,4.1E1,1E0,1E0,1E0,4E0,4E0,3E0,3.8E1,2E0,1E0,1.7E1,2.1E1],"tree_param":{"num_deleted":"0","num_feature":"30","num_nodes":"19","size_leaf_vector":"1"}},{"base_weights":[4.315129E-3,7.1651614E-1,-2.659869E-1,-3.1823385E0,4.8624226E-1,7.9648846E-1,-4.1550207E0,3.5087803E-1,3.0857697E-1,2.442627E-2,9.5047E-2,-5.1768315E-1,-2.3022066E-1,1.840805E0,1.8906814E-1,2.1084595E-1,5.189209E-2,1.3120057E-1,2.3246547E-3],"categories":[],"categories_nodes":[],"categories_segments":[],"categories_sizes":[],"default_left":[0,0,0,0,0,0,0,0,0,0,0,0,0,0,0,0,0,0,0],"id":45,"left_children":[1,-1,3,5,7,9,11,13,-1,-1,-1,-1,-1,15,17,-1,-1,-1,-1],"loss_changes":[1.06427765E2,0E0,1.1781691E2,4.5880905E1,1.4048241E1,2.2933245E-2,5.1208954E0,9.777529E0,0E0,0E0,0E0,0E0,0E0,3.2110882E-1,7.231585E0,0E0,0E0,0E0,0E0],"parents":[2147483647,0,0,2,2,3,3,4,4,5,5,6,6,7,7,13,13,14,14],"right_children":[2,-1,4,6,8,10,12,14,-1,-1,-1,-1,-1,16,18,-1,-1,-1,-1],"split_conditions":[1.6579124E2,7.1651614E-1,4.275764E2,1.7718864E2,9.634167E-1,8.135305E-1,9.179761E-1,1.7474448E2,3.0857697E-1,2.442627E-2,9.5047E-2,-5.1768315E-1,-2.3022066E-1,8.719154E-1,1.7632698E2,2.1084595E-1,5.189209E-2,1.3120057E-1,2.3246547E-3],"split_indices":[29,0,29,9,6,0,12,15,0,0,0,0,0,0,9,0,0,0,0],"split_type":[0,0,0,0,0,0,0,0,0,0,0,0,0,0,0,0,0,0,0],"sum_hessian":[5.3E1,1E0,5.2E1,1E1,4.2E1,2E0,8E0,4.1E1,1E0,1E0,1E0,4E0,4E0,3E0,3.8E1,2E0,1E0,4E0,3.4E1],"tree_param":{"num_deleted":"0","num_feature":"30","num_nodes":"19","size_leaf_vector":"1"}},{"base_weights":[1.8572772E-2,6.8069154E-1,-2.3794153E-1,-2.9212313E0,4.54015E-1,7.5667316E-1,-3.8226182E0,3.2523018E-1,2.9314882E-1,2.3205567E-2,9.029541E-2,-4.7626862E-1,-2.1180268E-1,1.7224121E0,1.7359024E-1,1.9678955E-1,4.9298096E-2,-2.745446E-2,5.3235557E-2],"categories":[],"categories_nodes":[],"categories_segments":[],"categories_sizes":[],"default_left":[0,0,0,0,0,0,0,0,0,0,0,0,0,0,0,0,0,0,0],"id":46,"left_children":[1,-1,3,5,7,9,11,13,-1,-1,-1,-1,-1,15,17,-1,-1,-1,-1],"loss_changes":[9.5650215E1,0E0,9.973243E1,3.935984E1,1.2766207E1,2.068901E-2,4.3343964E0,8.599486E0,0E0,0E0,0E0,0E0,0E0,2.3708534E-1,6.4163904E0,0E0,0E0,0E0,0E0],"parents":[2147483647,0,0,2,2,3,3,4,4,5,5,6,6,7,7,13,13,14,14],"right_children":[2,-1,4,6,8,10,12,14,-1,-1,-1,-1,-1,16,18,-1,-1,-1,-1],"split_conditions":[1.6579124E2,6.8069154E-1,4.275764E2,1.7718864E2,9.634167E-1,8.135305E-1,9.179761E-1,1.7474448E2,2.9314882E-1,2.3205567E-2,9.029541E-2,-4.7626862E-1,-2.1180268E-1,8.719154E-1,8.617636E-1,1.9678955E-1,4.9298096E-2,-2.745446E-2,5.3235557E-2],"split_indices":[29,0,29,9,6,0,12,15,0,0,0,0,0,0,6,0,0,0,0],"split_type":[0,0,0,0,0,0,0,0,0,0,0,0,0,0,0,0,0,0,0],"sum_hessian":[5.3E1,1E0,5.2E1,1E1,4.2E1,2E0,8E0,4.1E1,1E0,1E0,1E0,4E0,4E0,3E0,3.8E1,2E0,1E0,1.7E1,2.1E1],"tree_param":{"num_deleted":"0","num_feature":"30","num_nodes":"19","size_leaf_vector":"1"}},{"base_weights":[2.9154178E-2,6.4665836E-1,-2.1431775E-1,-2.6813395E0,4.21765E-1,7.1884155E-1,-3.5168066E0,2.9919216E-1,2.7849123E-1,2.20459E-2,8.578034E-2,-4.381671E-1,-1.948581E-1,5.013149E-1,-6.2249374E-1,-3.361428E-2,8.497437E-2,-7.8447185E-2,2.5567627E-2],"categories":[],"categories_nodes":[],"categories_segments":[],"categories_sizes":[],"default_left":[0,0,0,0,0,0,0,0,0,0,0,0,0,0,0,0,0,0,0],"id":47,"left_children":[1,-1,3,5,7,9,11,13,-1,-1,-1,-1,-1,15,17,-1,-1,-1,-1],"loss_changes":[8.6021904E1,0E0,8.430009E1,3.377617E1,1.1622055E1,1.8657923E-2,3.6686783E0,8.136398E0,0E0,0E0,0E0,0E0,0E0,1.0498439E1,1.338525E0,0E0,0E0,0E0,0E0],"parents":[2147483647,0,0,2,2,3,3,4,4,5,5,6,6,7,7,13,13,14,14],"right_children":[2,-1,4,6,8,10,12,14,-1,-1,-1,-1,-1,16,18,-1,-1,-1,-1],"split_conditions":[1.6579124E2,6.4665836E-1,4.275764E2,1.7718864E2,9.634167E-1,8.135305E-1,9.179761E-1,4.6348297E2,2.7849123E-1,2.20459E-2,8.578034E-2,-4.381671E-1,-1.948581E-1,4.4065366E2,9.4707245E-1,-3.361428E-2,8.497437E-2,-7.8447185E-2,2.5567627E-2],"split_indices":[29,0,29,9,6,0,12,7,0,0,0,0,0,29,10,0,0,0,0],"split_type":[0,0,0,0,0,0,0,0,0,0,0,0,0,0,0,0,0,0,0],"sum_hessian":[5.3E1,1E0,5.2E1,1E1,4.2E1,2E0,8E0,4.1E1,1E0,1E0,1E0,4E0,4E0,3.4E1,7E0,1E1,2.4E1,6E0,1E0],"tree_param":{"num_deleted":"0","num_feature":"30","num_nodes":"19","size_leaf_vector":"1"}},{"base_weights":[3.3621613E-2,6.14325E-1,-1.9756475E-1,-2.341859E0,4.197947E-1,6.8290204E-1,-3.0151017E0,3.0097702E-1,2.6456603E-1,2.0944213E-2,8.149109E-2,-3.2354617E0,-5.1593017E-2,4.491907E-1,-8.5599977E-1,-4.0311342E-1,-1.7926972E-1,1.4552511E-1,2.465172E-2,-1.858673E-2,-9.770661E-2],"categories":[],"categories_nodes":[],"categories_segments":[],"categories_sizes":[],"default_left":[0,0,0,0,0,0,0,0,0,0,0,0,0,0,0,0,0,0,0,0,0],"id":48,"left_children":[1,-1,3,5,7,9,11,13,-1,-1,-1,15,-1,17,19,-1,-1,-1,-1,-1,-1],"loss_changes":[7.748667E1,0E0,7.114452E1,2.6495789E1,1.0311552E1,1.6826153E-2,3.837906E0,7.415179E0,0E0,0E0,0E0,3.1051102E0,0E0,7.1856227E0,2.2404742E-1,0E0,0E0,0E0,0E0,0E0,0E0],"parents":[2147483647,0,0,2,2,3,3,4,4,5,5,6,6,7,7,11,11,13,13,14,14],"right_children":[2,-1,4,6,8,10,12,14,-1,-1,-1,16,-1,18,20,-1,-1,-1,-1,-1,-1],"split_conditions":[1.6579124E2,6.14325E-1,4.2798654E2,1.7718864E2,9.634167E-1,8.135305E-1,4.4065366E2,9.415937E-1,2.6456603E-1,2.0944213E-2,8.149109E-2,9.179761E-1,-5.1593017E-2,1.7875287E2,8.611795E-1,-4.0311342E-1,-1.7926972E-1,1.4552511E-1,2.465172E-2,-1.858673E-2,-9.770661E-2],"split_indices":[29,0,29,9,6,0,1,6,0,0,0,12,0,15,0,0,0,0,0,0,0],"split_type":[0,0,0,0,0,0,0,0,0,0,0,0,0,0,0,0,0,0,0,0,0],"sum_hessian":[5.3E1,1E0,5.2E1,1.1E1,4.1E1,2E0,9E0,4E1,1E0,1E0,1E0,8E0,1E0,3.6E1,4E0,4E0,4E0,5E0,3.1E1,1E0,3E0],"tree_param":{"num_deleted":"0","num_feature":"30","num_nodes":"21","size_leaf_vector":"1"}},{"base_weights":[3.7686102E-2,5.8360904E-1,-1.8183266E-1,-2.151966E0,3.8539195E-1,6.48763E-1,-2.7769883E0,2.7218777E-1,2.513382E-1,1.9897461E-2,7.741699E-2,-1.637764E0,-3.5886598E-1,4.5820796E-1,-5.5242157E-1,-1.7692658E-1,-4.9012758E-2,-1.4715577E-2,7.950953E-2,-6.972133E-2,2.305603E-2],"categories":[],"categories_nodes":[],"categories_segments":[],"categories_sizes":[],"default_left":[0,0,0,0,0,0,0,0,0,0,0,0,0,0,0,0,0,0,0,0,0],"id":49,"left_children":[1,-1,3,5,7,9,11,13,-1,-1,-1,15,-1,17,19,-1,-1,-1,-1,-1,-1],"loss_changes":[6.979555E1,0E0,6.0057285E1,2.280782E1,9.433579E0,1.5179515E-2,3.3693771E0,6.5422773E0,0E0,0E0,0E0,3.8330078E-2,0E0,7.0509405E0,1.0677042E0,0E0,0E0,0E0,0E0,0E0,0E0],"parents":[2147483647,0,0,2,2,3,3,4,4,5,5,6,6,7,7,11,11,13,13,14,14],"right_children":[2,-1,4,6,8,10,12,14,-1,-1,-1,16,-1,18,20,-1,-1,-1,-1,-1,-1],"split_conditions":[1.6579124E2,5.8360904E-1,4.2798654E2,1.7718864E2,9.634167E-1,8.135305E-1,8.593187E-1,4.6348297E2,2.513382E-1,1.9897461E-2,7.741699E-2,4.4065366E2,-3.5886598E-1,4.4231238E2,9.4707245E-1,-1.7692658E-1,-4.9012758E-2,-1.4715577E-2,7.950953E-2,-6.972133E-2,2.305603E-2],"split_indices":[29,0,29,9,6,0,6,7,0,0,0,1,0,29,10,0,0,0,0,0,0],"split_type":[0,0,0,0,0,0,0,0,0,0,0,0,0,0,0,0,0,0,0,0,0],"sum_hessian":[5.3E1,1E0,5.2E1,1.1E1,4.1E1,2E0,9E0,4E1,1E0,1E0,1E0,5E0,4E0,3.3E1,7E0,4E0,1E0,1.2E1,2.1E1,6E0,1E0],"tree_param":{"num_deleted":"0","num_feature":"30","num_nodes":"21","size_leaf_vector":"1"}},{"base_weights":[4.0692363E-2,5.544281E-1,-1.67758E-1,-1.9773916E0,3.532744E-1,6.163228E-1,-2.5577667E0,2.4541715E-1,2.3877107E-1,1.8902589E-2,7.3545836E-2,-3.5109597E-1,-1.6476898E0,1.4027557E0,1.1713369E-1,-1.7670976E-1,-4.6562195E-2,1.6300456E-1,3.604431E-2,2.43813E-2,-7.6771244E-2],"categories":[],"categories_nodes":[],"categories_segments":[],"categories_sizes":[],"default_left":[0,0,0,0,0,0,0,0,0,0,0,0,0,0,0,0,0,0,0,0,0],"id":50,"left_children":[1,-1,3,5,7,9,11,13,-1,-1,-1,-1,15,17,19,-1,-1,-1,-1,-1,-1],"loss_changes":[6.2880253E1,0E0,5.067108E1,1.9640343E1,8.630019E0,1.3698101E-2,2.8898163E0,5.9228535E0,0E0,0E0,0E0,0E0,1.6523552E-1,3.600893E-1,4.446663E0,0E0,0E0,0E0,0E0,0E0,0E0],"parents":[2147483647,0,0,2,2,3,3,4,4,5,5,6,6,7,7,12,12,13,13,14,14],"right_children":[2,-1,4,6,8,10,12,14,-1,-1,-1,-1,16,18,20,-1,-1,-1,-1,-1,-1],"split_conditions":[1.6579124E2,5.544281E-1,4.2798654E2,1.7718864E2,9.634167E-1,8.135305E-1,1.8494305E2,1.7474448E2,2.3877107E-1,1.8902589E-2,7.3545836E-2,-3.5109597E-1,4.4065366E2,8.719154E-1,9.415937E-1,-1.7670976E-1,-4.6562195E-2,1.6300456E-1,3.604431E-2,2.43813E-2,-7.6771244E-2],"split_indices":[29,0,29,9,6,0,3,15,0,0,0,0,1,0,6,0,0,0,0,0,0],"split_type":[0,0,0,0,0,0,0,0,0,0,0,0,0,0,0,0,0,0,0,0,0],"sum_hessian":[5.3E1,1E0,5.2E1,1.1E1,4.1E1,2E0,9E0,4E1,1E0,1E0,1E0,3E0,6E0,3E0,3.7E1,5E0,1E0,2E0,1E0,3.3E1,4E0],"tree_param":{"num_deleted":"0","num_feature":"30","num_nodes":"21","size_leaf_vector":"1"}},{"base_weights":[4.5103002E-2,5.267059E-1,-1.5280296E-1,-1.8198128E0,3.2712373E-1,5.8551025E-1,-2.3594284E0,2.2445232E-1,2.2683258E-1,1.795807E-2,6.986847E-2,-3.2476425E-1,-1.5148163E0,1.3122482E0,1.04040846E-1,-1.6198401E-1,-4.4233706E-2,1.5213828E-1,3.424225E-2,1.0920181E-1,-1.1843437E-3],"categories":[],"categories_nodes":[],"categories_segments":[],"categories_sizes":[],"default_left":[0,0,0,0,0,0,0,0,0,0,0,0,0,0,0,0,0,0,0,0,0],"id":51,"left_children":[1,-1,3,5,7,9,11,13,-1,-1,-1,-1,15,17,19,-1,-1,-1,-1,-1,-1],"loss_changes":[5.661146E1,0E0,4.299756E1,1.6956867E1,7.8617187E0,1.2352228E-2,2.5823822E0,5.23378E0,0E0,0E0,0E0,0E0,7.193565E-2,2.9033947E-1,4.363593E0,0E0,0E0,0E0,0E0,0E0,0E0],"parents":[2147483647,0,0,2,2,3,3,4,4,5,5,6,6,7,7,12,12,13,13,14,14],"right_children":[2,-1,4,6,8,10,12,14,-1,-1,-1,-1,16,18,20,-1,-1,-1,-1,-1,-1],"split_conditions":[1.6579124E2,5.267059E-1,4.2798654E2,1.7718864E2,9.634167E-1,8.135305E-1,1.8494305E2,1.7474448E2,2.2683258E-1,1.795807E-2,6.986847E-2,-3.2476425E-1,4.4065366E2,8.719154E-1,1.7474448E2,-1.6198401E-1,-4.4233706E-2,1.5213828E-1,3.424225E-2,1.0920181E-1,-1.1843437E-3],"split_indices":[29,0,29,9,6,0,3,15,0,0,0,0,1,0,9,0,0,0,0,0,0],"split_type":[0,0,0,0,0,0,0,0,0,0,0,0,0,0,0,0,0,0,0,0,0],"sum_hessian":[5.3E1,1E0,5.2E1,1.1E1,4.1E1,2E0,9E0,4E1,1E0,1E0,1E0,3E0,6E0,3E0,3.7E1,5E0,1E0,2E0,1E0,3E0,3.4E1],"tree_param":{"num_deleted":"0","num_feature":"30","num_nodes":"21","size_leaf_vector":"1"}},{"base_weights":[5.179709E-2,5.0036925E-1,-1.3604419E-1,-1.6747576E0,3.0682737E-1,5.562439E-1,-2.1765823E0,2.0919353E-1,2.1549073E-1,1.7060852E-2,6.637573E-2,-1.2707138E-1,-2.828308E-1,6.2362313E-1,-8.098633E-2,-1.42326355E-2,1.1740204E-1,3.6709126E-2,-5.2283417E-2],"categories":[],"categories_nodes":[],"categories_segments":[],"categories_sizes":[],"default_left":[0,0,0,0,0,0,0,0,0,0,0,0,0,0,0,0,0,0,0],"id":52,"left_children":[1,-1,3,5,7,9,11,13,-1,-1,-1,-1,-1,15,17,-1,-1,-1,-1],"loss_changes":[5.0909927E1,0E0,3.6630836E1,1.4645573E1,7.1274824E0,1.11403465E-2,2.3098106E0,4.9811287E0,0E0,0E0,0E0,0E0,0E0,7.333894E0,5.141481E0,0E0,0E0,0E0,0E0],"parents":[2147483647,0,0,2,2,3,3,4,4,5,5,6,6,7,7,13,13,14,14],"right_children":[2,-1,4,6,8,10,12,14,-1,-1,-1,-1,-1,16,18,-1,-1,-1,-1],"split_conditions":[1.6579124E2,5.0036925E-1,4.2798654E2,1.7718864E2,9.634167E-1,8.135305E-1,8.593187E-1,4.4393002E2,2.1549073E-1,1.7060852E-2,6.637573E-2,-1.2707138E-1,-2.828308E-1,4.3956464E2,4.4784958E2,-1.42326355E-2,1.1740204E-1,3.6709126E-2,-5.2283417E-2],"split_indices":[29,0,29,9,6,0,6,25,0,0,0,0,0,25,5,0,0,0,0],"split_type":[0,0,0,0,0,0,0,0,0,0,0,0,0,0,0,0,0,0,0],"sum_hessian":[5.3E1,1E0,5.2E1,1.1E1,4.1E1,2E0,9E0,4E1,1E0,1E0,1E0,5E0,4E0,1.6E1,2.4E1,7E0,9E0,1.2E1,1.2E1],"tree_param":{"num_deleted":"0","num_feature":"30","num_nodes":"19","size_leaf_vector":"1"}},{"base_weights":[5.5447895E-2,4.7535095E-1,-1.2288363E-1,-1.5344836E0,2.8335643E-1,5.284322E-1,-1.99991E0,1.9040588E-1,2.0471649E-1,1.6207887E-2,6.3056946E-2,-2.7919388E-1,-1.2616206E0,3.196606E-1,-6.168569E-1,-3.4855653E-2,-1.3557053E-1,9.969991E-2,9.052821E-3,-2.4360148E-2,-7.4258424E-2],"categories":[],"categories_nodes":[],"categories_segments":[],"categories_sizes":[],"default_left":[0,0,0,0,0,0,0,0,0,0,0,0,0,0,0,0,0,0,0,0,0],"id":53,"left_children":[1,-1,3,5,7,9,11,13,-1,-1,-1,-1,15,17,19,-1,-1,-1,-1,-1,-1],"loss_changes":[4.5826004E1,0E0,3.0827576E1,1.2578444E1,6.4959817E0,1.0052979E-2,2.3250961E0,4.4752293E0,0E0,0E0,0E0,0E0,1.2879753E-1,5.4969506E0,1.0067582E-1,0E0,0E0,0E0,0E0,0E0,0E0],"parents":[2147483647,0,0,2,2,3,3,4,4,5,5,6,6,7,7,12,12,13,13,14,14],"right_children":[2,-1,4,6,8,10,12,14,-1,-1,-1,-1,16,18,20,-1,-1,-1,-1,-1,-1],"split_conditions":[1.6579124E2,4.7535095E-1,4.2798654E2,1.7718864E2,9.634167E-1,8.135305E-1,1.8494305E2,4.639543E2,2.0471649E-1,1.6207887E-2,6.3056946E-2,-2.7919388E-1,1.8350778E2,1.7875287E2,1.6671097E2,-3.4855653E-2,-1.3557053E-1,9.969991E-2,9.052821E-3,-2.4360148E-2,-7.4258424E-2],"split_indices":[29,0,29,9,6,0,3,27,0,0,0,0,5,1,3,0,0,0,0,0,0],"split_type":[0,0,0,0,0,0,0,0,0,0,0,0,0,0,0,0,0,0,0,0,0],"sum_hessian":[5.3E1,1E0,5.2E1,1.1E1,4.1E1,2E0,9E0,4E1,1E0,1E0,1E0,3E0,6E0,3.5E1,5E0,1E0,5E0,8E0,2.7E1,2E0,3E0],"tree_param":{"num_deleted":"0","num_feature":"30","num_nodes":"21","size_leaf_vector":"1"}},{"base_weights":[5.5819757E-2,4.5158386E-1,-1.13536045E-1,-1.2912064E0,3.0148697E-1,4.6772767E-2,-1.8134364E0,1.2398202E0,9.943345E-2,-9.961548E-2,-2.5949433E-1,1.3742065E-1,2.167511E-2,-1.1405892E-1,1.114741E0,7.9220586E-2,-2.9074952E-2,1.6522752E-1,2.644857E-3],"categories":[],"categories_nodes":[],"categories_segments":[],"categories_sizes":[],"default_left":[0,0,0,0,0,0,0,0,0,0,0,0,0,0,0,0,0,0,0],"id":54,"left_children":[1,-1,3,5,7,-1,9,11,13,-1,-1,-1,-1,15,17,-1,-1,-1,-1],"loss_changes":[4.1300537E1,0E0,2.6293577E1,1.3708147E1,7.4604626E0,0E0,4.440857E0,6.645441E-1,7.497E0,0E0,0E0,0E0,0E0,4.8740587E0,3.4662657E0,0E0,0E0,0E0,0E0],"parents":[2147483647,0,0,2,2,3,3,4,4,6,6,7,7,8,8,13,13,14,14],"right_children":[2,-1,4,6,8,-1,10,12,14,-1,-1,-1,-1,16,18,-1,-1,-1,-1],"split_conditions":[1.6579124E2,4.5158386E-1,4.3112952E2,1.767942E2,4.3956464E2,4.6772767E-2,1.8584221E2,9.281556E-1,9.2367977E-1,-9.961548E-2,-2.5949433E-1,1.3742065E-1,2.167511E-2,1.8328323E2,8.611795E-1,7.9220586E-2,-2.9074952E-2,1.6522752E-1,2.644857E-3],"split_indices":[29,0,23,11,17,0,13,0,20,0,0,0,0,7,2,0,0,0,0],"split_type":[0,0,0,0,0,0,0,0,0,0,0,0,0,0,0,0,0,0,0],"sum_hessian":[5.3E1,1E0,5.2E1,1.3E1,3.9E1,3E0,1E1,6E0,3.3E1,6E0,4E0,5E0,1E0,2.8E1,5E0,4E0,2.4E1,3E0,2E0],"tree_param":{"num_deleted":"0","num_feature":"30","num_nodes":"19","size_leaf_vector":"1"}},{"base_weights":[5.980174E-2,4.2900392E-1,-1.0095819E-1,-1.1844014E0,2.8077087E-1,4.3264008E-1,-1.6647435E0,1.1385672E0,9.590777E-2,1.9308472E-2,5.756531E-2,-9.107753E-2,-2.3873506E-1,1.2596893E-1,2.0591736E-2,-1.4046409E-2,1.862198E-1,-1.4464596E-2,7.4624024E-2],"categories":[],"categories_nodes":[],"categories_segments":[],"categories_sizes":[],"default_left":[0,0,0,0,0,0,0,0,0,0,0,0,0,0,0,0,0,0,0],"id":55,"left_children":[1,-1,3,5,7,9,11,13,15,-1,-1,-1,-1,-1,-1,17,-1,-1,-1],"loss_changes":[3.7155956E1,0E0,2.225238E1,1.15945E1,6.2337985E0,2.5888324E-2,3.8187122E0,5.313597E-1,6.62933E0,0E0,0E0,0E0,0E0,0E0,0E0,3.3846128E0,0E0,0E0,0E0],"parents":[2147483647,0,0,2,2,3,3,4,4,5,5,6,6,7,7,8,8,15,15],"right_children":[2,-1,4,6,8,10,12,14,16,-1,-1,-1,-1,-1,-1,18,-1,-1,-1],"split_conditions":[1.6579124E2,4.2900392E-1,4.3112952E2,1.767942E2,4.3956464E2,8.135305E-1,1.8584221E2,9.281556E-1,9.634167E-1,1.9308472E-2,5.756531E-2,-9.107753E-2,-2.3873506E-1,1.2596893E-1,2.0591736E-2,4.639543E2,1.862198E-1,-1.4464596E-2,7.4624024E-2],"split_indices":[29,0,23,11,17,0,13,0,6,0,0,0,0,0,0,21,0,0,0],"split_type":[0,0,0,0,0,0,0,0,0,0,0,0,0,0,0,0,0,0,0],"sum_hessian":[5.3E1,1E0,5.2E1,1.3E1,3.9E1,3E0,1E1,6E0,3.3E1,2E0,1E0,6E0,4E0,5E0,1E0,3.2E1,1E0,2.8E1,4E0],"tree_param":{"num_deleted":"0","num_feature":"30","num_nodes":"19","size_leaf_vector":"1"}},{"base_weights":[6.4358465E-2,4.075531E-1,-8.822085E-2,-1.1928343E0,2.2948347E-1,4.452006E-1,-1.5649612E0,1.4878361E-1,1.7690888E-1,1.209259E-2,5.46875E-2,-2.2088738E-1,-9.7344536E-1,4.6756998E-1,-9.6505485E-2,-2.3578644E-2,-1.05709076E-1,-9.574509E-3,8.347473E-2,2.7327789E-2,-4.89062E-2],"categories":[],"categories_nodes":[],"categories_segments":[],"categories_sizes":[],"default_left":[0,0,0,0,0,0,0,0,0,0,0,0,0,0,0,0,0,0,0,0,0],"id":56,"left_children":[1,-1,3,5,7,9,11,13,-1,-1,-1,-1,15,17,19,-1,-1,-1,-1,-1,-1],"loss_changes":[3.3408733E1,0E0,1.8873579E1,8.011406E0,4.955117E0,3.2779932E-2,1.6586266E0,3.251111E0,0E0,0E0,0E0,0E0,1.826644E-1,3.8029802E0,3.6175103E0,0E0,0E0,0E0,0E0,0E0,0E0],"parents":[2147483647,0,0,2,2,3,3,4,4,5,5,6,6,7,7,12,12,13,13,14,14],"right_children":[2,-1,4,6,8,10,12,14,-1,-1,-1,-1,16,18,20,-1,-1,-1,-1,-1,-1],"split_conditions":[1.6579124E2,4.075531E-1,4.2798654E2,1.7718864E2,9.634167E-1,8.135305E-1,1.8494305E2,4.4621198E2,1.7690888E-1,1.209259E-2,5.46875E-2,-2.2088738E-1,1.8350778E2,4.3956464E2,4.4784958E2,-2.3578644E-2,-1.05709076E-1,-9.574509E-3,8.347473E-2,2.7327789E-2,-4.89062E-2],"split_indices":[29,0,29,9,6,0,3,25,0,0,0,0,5,25,5,0,0,0,0,0,0],"split_type":[0,0,0,0,0,0,0,0,0,0,0,0,0,0,0,0,0,0,0,0,0],"sum_hessian":[5.3E1,1E0,5.2E1,1.1E1,4.1E1,2E0,9E0,4E1,1E0,1E0,1E0,3E0,6E0,1.7E1,2.3E1,1E0,5E0,7E0,1E1,1.2E1,1.1E1],"tree_param":{"num_deleted":"0","num_feature":"30","num_nodes":"21","size_leaf_vector":"1"}},{"base_weights":[6.44763E-2,3.871765E-1,-8.0411516E-2,-1.0101602E0,2.470108E-1,3.9429474E-1,-1.4290383E0,-2.8173357E-1,4.8367745E-1,1.7937215E-2,5.1953126E-2,-7.8657097E-1,-2.042685E-1,3.9137268E-1,-5.228027E-1,6.352857E-1,-3.4077758E-1,-2.2399902E-2,-8.4299974E-2,6.0385134E-2,1.192627E-2,-2.7273996E-2,-8.297119E-2,-2.3664856E-2,7.711168E-2,-3.4881593E-3,-4.085312E-2],"categories":[],"categories_nodes":[],"categories_segments":[],"categories_sizes":[],"default_left":[0,0,0,0,0,0,0,0,0,0,0,0,0,0,0,0,0,0,0,0,0,0,0,0,0,0,0],"id":57,"left_children":[1,-1,3,5,7,9,11,13,15,-1,-1,17,-1,19,21,23,25,-1,-1,-1,-1,-1,-1,-1,-1,-1,-1],"loss_changes":[3.009934E1,0E0,1.6383804E1,8.7996E0,5.141715E0,1.4475167E-2,2.730009E0,2.3140578E0,3.7163281E0,0E0,0E0,3.3385754E-2,0E0,1.592533E-1,5.411699E-1,3.0249405E0,8.937758E-2,0E0,0E0,0E0,0E0,0E0,0E0,0E0,0E0,0E0,0E0],"parents":[2147483647,0,0,2,2,3,3,4,4,5,5,6,6,7,7,8,8,11,11,13,13,14,14,15,15,16,16],"right_children":[2,-1,4,6,8,10,12,14,16,-1,-1,18,-1,20,22,24,26,-1,-1,-1,-1,-1,-1,-1,-1,-1,-1],"split_conditions":[1.6579124E2,3.871765E-1,4.3112952E2,1.767942E2,8.400878E-1,8.135305E-1,1.8584221E2,4.4065366E2,4.6411984E2,1.7937215E-2,5.1953126E-2,8.4202915E-1,-2.042685E-1,1.7712296E2,4.4065366E2,4.397093E2,8.611795E-1,-2.2399902E-2,-8.4299974E-2,6.0385134E-2,1.192627E-2,-2.7273996E-2,-8.297119E-2,-2.3664856E-2,7.711168E-2,-3.4881593E-3,-4.085312E-2],"split_indices":[29,0,23,11,4,0,13,13,7,0,0,0,0,1,27,29,0,0,0,0,0,0,0,0,0,0,0],"split_type":[0,0,0,0,0,0,0,0,0,0,0,0,0,0,0,0,0,0,0,0,0,0,0,0,0,0,0],"sum_hessian":[5.3E1,1E0,5.2E1,1.3E1,3.9E1,3E0,1E1,1.2E1,2.7E1,2E0,1E0,6E0,4E0,3E0,9E0,2.3E1,4E0,1E0,5E0,1E0,2E0,6E0,3E0,3E0,2E1,1E0,3E0],"tree_param":{"num_deleted":"0","num_feature":"30","num_nodes":"27","size_leaf_vector":"1"}},{"base_weights":[6.0197618E-2,3.6781618E-1,-7.746513E-2,-9.2636544E-1,2.2158661E-1,3.7233734E-1,-1.3144059E0,9.9688214E-1,8.234776E-2,1.6740926E-2,4.935608E-2,-7.231576E-1,-1.8792725E-1,2.7879333E-2,1.0847413E-1,-1.1822869E-2,1.6420746E-1,-2.1279907E-2,-7.727509E-2,6.7565314E-2,-1.2600809E-2],"categories":[],"categories_nodes":[],"categories_segments":[],"categories_sizes":[],"default_left":[0,0,0,0,0,0,0,0,0,0,0,0,0,0,0,0,0,0,0,0,0],"id":58,"left_children":[1,-1,3,5,7,9,11,13,15,-1,-1,17,-1,-1,-1,19,-1,-1,-1,-1,-1],"loss_changes":[2.7180107E1,0E0,1.3660122E1,7.544692E0,4.2359595E0,1.6741693E-2,2.3147297E0,7.612467E-2,5.16023E0,0E0,0E0,1.2731552E-2,0E0,0E0,0E0,2.754124E0,0E0,0E0,0E0,0E0,0E0],"parents":[2147483647,0,0,2,2,3,3,4,4,5,5,6,6,7,7,8,8,11,11,15,15],"right_children":[2,-1,4,6,8,10,12,14,16,-1,-1,18,-1,-1,-1,20,-1,-1,-1,-1,-1],"split_conditions":[1.6579124E2,3.6781618E-1,4.3112952E2,1.767942E2,1.7875287E2,8.135305E-1,1.8584221E2,8.257663E-1,9.634167E-1,1.6740926E-2,4.935608E-2,8.4202915E-1,-1.8792725E-1,2.7879333E-2,1.0847413E-1,4.3956464E2,1.6420746E-1,-2.1279907E-2,-7.727509E-2,6.7565314E-2,-1.2600809E-2],"split_indices":[29,0,23,11,11,0,13,2,6,0,0,0,0,0,0,17,0,0,0,0,0],"split_type":[0,0,0,0,0,0,0,0,0,0,0,0,0,0,0,0,0,0,0,0,0],"sum_hessian":[5.3E1,1E0,5.2E1,1.3E1,3.9E1,3E0,1E1,5E0,3.4E1,2E0,1E0,6E0,4E0,1E0,4E0,3.3E1,1E0,1E0,5E0,4E0,2.9E1],"tree_param":{"num_deleted":"0","num_feature":"30","num_nodes":"21","size_leaf_vector":"1"}},{"base_weights":[6.3493796E-2,3.4942627E-1,-6.716718E-2,-8.494731E-1,2.083191E-1,3.5162354E-1,-1.2090107E0,-2.5415275E-1,4.1559818E-1,1.5623982E-2,4.6888735E-2,-6.649236E-2,-1.7289308E-1,3.4949493E-1,-4.7019655E-1,6.490286E-1,-6.947937E-2,5.1942445E-2,1.1971029E-2,-2.7309418E-2,-8.390706E-2,-4.8490398E-2,8.109562E-2,6.037903E-2,-2.1137493E-2],"categories":[],"categories_nodes":[],"categories_segments":[],"categories_sizes":[],"default_left":[0,0,0,0,0,0,0,0,0,0,0,0,0,0,0,0,0,0,0,0,0,0,0,0,0],"id":59,"left_children":[1,-1,3,5,7,9,11,13,15,-1,-1,-1,-1,17,19,21,23,-1,-1,-1,-1,-1,-1,-1,-1],"loss_changes":[2.444115E1,0E0,1.1599233E1,6.470869E0,3.9400554E0,1.838684E-2,1.9620934E0,1.8597178E0,3.2155857E0,0E0,0E0,0E0,0E0,9.400827E-2,4.9791408E-1,3.8819199E0,1.0829659E0,0E0,0E0,0E0,0E0,0E0,0E0,0E0,0E0],"parents":[2147483647,0,0,2,2,3,3,4,4,5,5,6,6,7,7,8,8,13,13,14,14,15,15,16,16],"right_children":[2,-1,4,6,8,10,12,14,16,-1,-1,-1,-1,18,20,22,24,-1,-1,-1,-1,-1,-1,-1,-1],"split_conditions":[1.6579124E2,3.4942627E-1,4.3112952E2,1.767942E2,8.400878E-1,8.135305E-1,1.8584221E2,4.4065366E2,9.224325E-1,1.5623982E-2,4.6888735E-2,-6.649236E-2,-1.7289308E-1,1.7712296E2,9.0544724E-1,7.928418E-1,8.4424645E-1,5.1942445E-2,1.1971029E-2,-2.7309418E-2,-8.390706E-2,-4.8490398E-2,8.109562E-2,6.037903E-2,-2.1137493E-2],"split_indices":[29,0,23,11,4,0,13,13,2,0,0,0,0,1,12,18,4,0,0,0,0,0,0,0,0],"split_type":[0,0,0,0,0,0,0,0,0,0,0,0,0,0,0,0,0,0,0,0,0,0,0,0,0],"sum_hessian":[5.3E1,1E0,5.2E1,1.3E1,3.9E1,3E0,1E1,1.2E1,2.7E1,2E0,1E0,6E0,4E0,3E0,9E0,1.8E1,9E0,1E0,2E0,7E0,2E0,2E0,1.6E1,1E0,8E0],"tree_param":{"num_deleted":"0","num_feature":"30","num_nodes":"25","size_leaf_vector":"1"}},{"base_weights":[6.0800623E-2,3.3195496E-1,-6.3318215E-2,-8.535436E-1,1.6396804E-1,3.56781E-1,-1.1312866E0,9.3848996E-2,1.5194245E-1,8.972168E-3,4.4544984E-2,-6.088206E-1,-1.5319885E-1,3.4617785E-1,-9.9308014E-2,-1.6890718E-2,-6.630219E-2,-6.1553954E-3,6.1123937E-2,-3.9971925E-2,1.8563373E-2],"categories":[],"categories_nodes":[],"categories_segments":[],"categories_sizes":[],"default_left":[0,0,0,0,0,0,0,0,0,0,0,0,0,0,0,0,0,0,0,0,0],"id":60,"left_children":[1,-1,3,5,7,9,11,13,-1,-1,-1,15,-1,17,19,-1,-1,-1,-1,-1,-1],"loss_changes":[2.2051683E1,0E0,9.659144E0,4.4375315E0,3.8492227E0,3.1073004E-2,1.1608257E0,2.0326807E0,0E0,0E0,0E0,3.1074047E-2,0E0,1.9829562E0,2.128594E0,0E0,0E0,0E0,0E0,0E0,0E0],"parents":[2147483647,0,0,2,2,3,3,4,4,5,5,6,6,7,7,11,11,13,13,14,14],"right_children":[2,-1,4,6,8,10,12,14,-1,-1,-1,16,-1,18,20,-1,-1,-1,-1,-1,-1],"split_conditions":[1.6579124E2,3.3195496E-1,4.2798654E2,1.7718864E2,9.634167E-1,8.135305E-1,8.593187E-1,4.4621198E2,1.5194245E-1,8.972168E-3,4.4544984E-2,1.8350778E2,-1.5319885E-1,4.3956464E2,9.0544724E-1,-1.6890718E-2,-6.630219E-2,-6.1553954E-3,6.1123937E-2,-3.9971925E-2,1.8563373E-2],"split_indices":[29,0,29,9,6,0,6,25,0,0,0,5,0,25,18,0,0,0,0,0,0],"split_type":[0,0,0,0,0,0,0,0,0,0,0,0,0,0,0,0,0,0,0,0,0],"sum_hessian":[5.3E1,1E0,5.2E1,1.1E1,4.1E1,2E0,9E0,4E1,1E0,1E0,1E0,5E0,4E0,1.7E1,2.3E1,1E0,4E0,7E0,1E1,1.1E1,1.2E1],"tree_param":{"num_deleted":"0","num_feature":"30","num_nodes":"21","size_leaf_vector":"1"}},{"base_weights":[6.092015E-2,3.1535646E-1,-5.6932844E-2,-7.2223884E-1,1.7734757E-1,1.7620544E-1,-1.0992371E0,1.07871816E-1,1.4434509E-1,3.2025146E-1,-1.9998932E-2,-3.9759066E-2,-1.343144E-1,8.2391864E-1,-2.1662096E-2,8.52356E-3,3.7017822E-2,2.1502687E-2,9.026917E-2,7.205506E-3,-5.796326E-2],"categories":[],"categories_nodes":[],"categories_segments":[],"categories_sizes":[],"default_left":[0,0,0,0,0,0,0,0,0,0,0,0,0,0,0,0,0,0,0,0,0],"id":61,"left_children":[1,-1,3,5,7,9,11,13,-1,15,-1,-1,-1,17,19,-1,-1,-1,-1,-1,-1],"loss_changes":[1.986132E1,0E0,8.3891E0,4.935659E0,3.3628318E0,3.3499366E-1,1.1773434E0,3.6351895E0,0E0,1.5381962E-2,0E0,0E0,0E0,9.368229E-2,1.8196732E0,0E0,0E0,0E0,0E0,0E0,0E0],"parents":[2147483647,0,0,2,2,3,3,4,4,5,5,6,6,7,7,9,9,13,13,14,14],"right_children":[2,-1,4,6,8,10,12,14,-1,16,-1,-1,-1,18,20,-1,-1,-1,-1,-1,-1],"split_conditions":[1.6579124E2,3.1535646E-1,4.3112952E2,1.7718864E2,9.634167E-1,9.36705E-1,1.8350778E2,1.7875287E2,1.4434509E-1,8.017664E-1,-1.9998932E-2,-3.9759066E-2,-1.343144E-1,8.257663E-1,9.2367977E-1,8.52356E-3,3.7017822E-2,2.1502687E-2,9.026917E-2,7.205506E-3,-5.796326E-2],"split_indices":[29,0,23,13,6,0,5,11,0,2,0,0,0,2,26,0,0,0,0,0,0],"split_type":[0,0,0,0,0,0,0,0,0,0,0,0,0,0,0,0,0,0,0,0,0],"sum_hessian":[5.3E1,1E0,5.2E1,1.3E1,3.9E1,4E0,9E0,3.8E1,1E0,3E0,1E0,3E0,6E0,5E0,3.3E1,1E0,2E0,1E0,4E0,2.9E1,4E0],"tree_param":{"num_deleted":"0","num_feature":"30","num_nodes":"21","size_leaf_vector":"1"}},{"base_weights":[6.1720673E-2,2.9958802E-1,-5.0166868E-2,-5.307419E-1,2.3399982E-1,-1.403759E-1,-2.9410598E-1,3.8571507E-1,-3.0728912E-1,-3.980723E-1,3.23761E-1,2.2313309E-1,1.2647782E-1,1.8519085E-2,-5.0231427E-1,-1.1055502E-2,-5.3077545E-2,8.09784E-3,4.046631E-2,-1.2947253E-2,4.0752795E-2,-7.178548E-2,-2.1508027E-2],"categories":[],"categories_nodes":[],"categories_segments":[],"categories_sizes":[],"default_left":[0,0,0,0,0,0,0,0,0,0,0,0,0,0,0,0,0,0,0,0,0,0,0],"id":62,"left_children":[1,-1,3,5,7,-1,9,11,13,15,17,19,-1,-1,21,-1,-1,-1,-1,-1,-1,-1,-1],"loss_changes":[1.7878273E1,0E0,7.3620543E0,3.7188897E0,2.9106665E0,0E0,1.2209154E0,3.576621E0,8.6139166E-1,5.1363707E-1,2.6155889E-2,1.6132114E0,0E0,0E0,2.1706712E-1,0E0,0E0,0E0,0E0,0E0,0E0,0E0,0E0],"parents":[2147483647,0,0,2,2,3,3,4,4,6,6,7,7,8,8,9,9,10,10,11,11,14,14],"right_children":[2,-1,4,6,8,-1,10,12,14,16,18,20,-1,-1,22,-1,-1,-1,-1,-1,-1,-1,-1],"split_conditions":[1.6579124E2,2.9958802E-1,4.397093E2,1.8494305E2,9.196469E-1,-1.403759E-1,9.0544724E-1,9.05793E-1,8.619371E-1,7.928418E-1,8.135305E-1,8.5739857E-1,1.2647782E-1,1.8519085E-2,9.1512215E-1,-1.1055502E-2,-5.3077545E-2,8.09784E-3,4.046631E-2,-1.2947253E-2,4.0752795E-2,-7.178548E-2,-2.1508027E-2],"split_indices":[29,0,29,3,26,0,6,26,2,22,0,6,0,0,2,0,0,0,0,0,0,0,0],"split_type":[0,0,0,0,0,0,0,0,0,0,0,0,0,0,0,0,0,0,0,0,0,0,0],"sum_hessian":[5.3E1,1E0,5.2E1,1.9E1,3.3E1,3E0,1.6E1,2.6E1,7E0,1.4E1,2E0,2.3E1,3E0,2E0,5E0,5E0,9E0,1E0,1E0,8E0,1.5E1,2E0,3E0],"tree_param":{"num_deleted":"0","num_feature":"30","num_nodes":"23","size_leaf_vector":"1"}},{"base_weights":[5.9682775E-2,2.8461E-1,-4.659113E-2,-6.199537E-1,1.5525055E-1,1.5645142E-1,-9.461609E-1,9.215213E-2,1.3080445E-1,2.7729034E-1,-1.6345216E-2,-5.597512E-1,-1.3858376E-1,7.013295E-1,-1.8060124E-2,1.1343384E-2,3.8442995E-2,-1.1404419E-2,-6.150284E-2,1.9500732E-2,7.635926E-2,4.9094852E-2,-1.0229289E-2],"categories":[],"categories_nodes":[],"categories_segments":[],"categories_sizes":[],"default_left":[0,0,0,0,0,0,0,0,0,0,0,0,0,0,0,0,0,0,0,0,0,0,0],"id":63,"left_children":[1,-1,3,5,7,9,11,13,-1,15,-1,17,-1,19,21,-1,-1,-1,-1,-1,-1,-1,-1],"loss_changes":[1.6123268E1,0E0,6.2298565E0,3.6937928E0,2.78904E0,2.386077E-1,9.232292E-1,2.63108E0,0E0,2.6614726E-2,0E0,1.0232139E-1,0E0,4.024458E-2,1.5079774E0,0E0,0E0,0E0,0E0,0E0,0E0,0E0,0E0],"parents":[2147483647,0,0,2,2,3,3,4,4,5,5,6,6,7,7,9,9,11,11,13,13,14,14],"right_children":[2,-1,4,6,8,10,12,14,-1,16,-1,18,-1,20,22,-1,-1,-1,-1,-1,-1,-1,-1],"split_conditions":[1.6579124E2,2.8461E-1,4.3112952E2,1.7718864E2,9.634167E-1,9.36705E-1,1.8535493E2,1.7875287E2,1.3080445E-1,8.135305E-1,-1.6345216E-2,8.4202915E-1,-1.3858376E-1,8.257663E-1,4.3956464E2,1.1343384E-2,3.8442995E-2,-1.1404419E-2,-6.150284E-2,1.9500732E-2,7.635926E-2,4.9094852E-2,-1.0229289E-2],"split_indices":[29,0,23,13,6,0,9,11,0,0,0,0,0,2,17,0,0,0,0,0,0,0,0],"split_type":[0,0,0,0,0,0,0,0,0,0,0,0,0,0,0,0,0,0,0,0,0,0,0],"sum_hessian":[5.3E1,1E0,5.2E1,1.3E1,3.9E1,4E0,9E0,3.8E1,1E0,3E0,1E0,6E0,3E0,5E0,3.3E1,2E0,1E0,1E0,5E0,1E0,4E0,4E0,2.9E1],"tree_param":{"num_deleted":"0","num_feature":"30","num_nodes":"23","size_leaf_vector":"1"}},{"base_weights":[6.0600847E-2,2.7037963E-1,-4.0285796E-2,-4.5195848E-1,2.0305948E-1,-1.2138062E-1,-2.4611439E-1,6.853256E-1,5.2645084E-2,-3.3712465E-1,2.9097494E-1,2.0266114E-2,1.1173248E-1,2.732113E-1,-2.9301593E-1,-9.282938E-3,-4.4998933E-2,7.1258545E-3,3.6520388E-2,-3.461609E-2,4.3065973E-2,-5.022191E-2,5.847168E-3],"categories":[],"categories_nodes":[],"categories_segments":[],"categories_sizes":[],"default_left":[0,0,0,0,0,0,0,0,0,0,0,0,0,0,0,0,0,0,0,0,0,0,0],"id":64,"left_children":[1,-1,3,5,7,-1,9,11,13,15,17,-1,-1,19,21,-1,-1,-1,-1,-1,-1,-1,-1],"loss_changes":[1.4508733E1,0E0,5.40124E0,2.8377013E0,2.430273E0,0E0,9.290656E-1,1.4416468E0,2.1385663E0,3.718121E-1,2.2904038E-2,0E0,0E0,1.806903E0,8.38221E-1,0E0,0E0,0E0,0E0,0E0,0E0,0E0,0E0],"parents":[2147483647,0,0,2,2,3,3,4,4,6,6,7,7,8,8,9,9,10,10,13,13,14,14],"right_children":[2,-1,4,6,8,-1,10,12,14,16,18,-1,-1,20,22,-1,-1,-1,-1,-1,-1,-1,-1],"split_conditions":[1.6579124E2,2.7037963E-1,4.397093E2,1.8494305E2,8.06088E-1,-1.2138062E-1,9.0544724E-1,8.7933576E-1,8.921137E-1,7.928418E-1,8.135305E-1,2.0266114E-2,1.1173248E-1,8.06088E-1,9.1353655E-1,-9.282938E-3,-4.4998933E-2,7.1258545E-3,3.6520388E-2,-3.461609E-2,4.3065973E-2,-5.022191E-2,5.847168E-3],"split_indices":[29,0,29,3,14,0,6,4,0,22,0,0,0,8,28,0,0,0,0,0,0,0,0],"split_type":[0,0,0,0,0,0,0,0,0,0,0,0,0,0,0,0,0,0,0,0,0,0,0],"sum_hessian":[5.3E1,1E0,5.2E1,1.9E1,3.3E1,3E0,1.6E1,7E0,2.6E1,1.4E1,2E0,4E0,3E0,1.6E1,1E1,5E0,9E0,1E0,1E0,3E0,1.3E1,6E0,4E0],"tree_param":{"num_deleted":"0","num_feature":"30","num_nodes":"23","size_leaf_vector":"1"}},{"base_weights":[5.8884233E-2,2.5686035E-1,-3.693318E-2,-5.276162E-1,1.3572922E-1,1.3914184E-1,-8.082336E-1,7.834879E-2,1.1867829E-1,2.403183E-1,-1.3278198E-2,-4.632154E-1,-1.20995715E-1,6.15092E-1,-1.8674962E-2,8.913168E-3,3.4693908E-2,-8.584595E-3,-5.118027E-2,1.7512513E-2,6.680603E-2,-1.0386079E-2,3.9616905E-2],"categories":[],"categories_nodes":[],"categories_segments":[],"categories_sizes":[],"default_left":[0,0,0,0,0,0,0,0,0,0,0,0,0,0,0,0,0,0,0,0,0,0,0],"id":65,"left_children":[1,-1,3,5,7,9,11,13,-1,15,-1,17,-1,19,21,-1,-1,-1,-1,-1,-1,-1,-1],"loss_changes":[1.3080506E1,0E0,4.561906E0,2.7319143E0,2.319413E0,1.6947138E-1,8.2554865E-1,2.0424838E0,0E0,3.35553E-2,0E0,8.441126E-2,0E0,2.2831678E-2,1.2426666E0,0E0,0E0,0E0,0E0,0E0,0E0,0E0,0E0],"parents":[2147483647,0,0,2,2,3,3,4,4,5,5,6,6,7,7,9,9,11,11,13,13,14,14],"right_children":[2,-1,4,6,8,10,12,14,-1,16,-1,18,-1,20,22,-1,-1,-1,-1,-1,-1,-1,-1],"split_conditions":[1.6579124E2,2.5686035E-1,4.3112952E2,1.7718864E2,9.634167E-1,9.36705E-1,1.8535493E2,1.7875287E2,1.1867829E-1,8.135305E-1,-1.3278198E-2,8.4202915E-1,-1.20995715E-1,8.257663E-1,4.639543E2,8.913168E-3,3.4693908E-2,-8.584595E-3,-5.118027E-2,1.7512513E-2,6.680603E-2,-1.0386079E-2,3.9616905E-2],"split_indices":[29,0,23,13,6,0,9,11,0,0,0,0,0,2,21,0,0,0,0,0,0,0,0],"split_type":[0,0,0,0,0,0,0,0,0,0,0,0,0,0,0,0,0,0,0,0,0,0,0],"sum_hessian":[5.3E1,1E0,5.2E1,1.3E1,3.9E1,4E0,9E0,3.8E1,1E0,3E0,1E0,6E0,3E0,5E0,3.3E1,2E0,1E0,1E0,5E0,1E0,4E0,2.8E1,5E0],"tree_param":{"num_deleted":"0","num_feature":"30","num_nodes":"23","size_leaf_vector":"1"}},{"base_weights":[5.926316E-2,2.4401855E-1,-3.170114E-2,-3.839531E-1,1.7643827E-1,-1.1865286E-1,-2.288598E-1,6.2275696E-1,3.7660953E-2,2.618815E-1,-3.0657005E-1,1.8917236E-2,1.00904845E-1,2.2509944E-1,-2.5544044E-1,6.323242E-3,3.2958984E-2,-1.2138367E-2,-4.3711685E-2,-2.468567E-2,3.8930573E-2,-4.3861173E-2,5.2087405E-3],"categories":[],"categories_nodes":[],"categories_segments":[],"categories_sizes":[],"default_left":[0,0,0,0,0,0,0,0,0,0,0,0,0,0,0,0,0,0,0,0,0,0,0],"id":66,"left_children":[1,-1,3,5,7,-1,9,11,13,15,17,-1,-1,19,21,-1,-1,-1,-1,-1,-1,-1,-1],"loss_changes":[1.1772619E1,0E0,3.9535725E0,2.2179327E0,2.0824695E0,0E0,7.667265E-1,1.1490362E0,1.5408386E0,1.9509837E-2,3.3374894E-1,0E0,0E0,1.4135712E0,6.424791E-1,0E0,0E0,0E0,0E0,0E0,0E0,0E0,0E0],"parents":[2147483647,0,0,2,2,3,3,4,4,6,6,7,7,8,8,9,9,10,10,13,13,14,14],"right_children":[2,-1,4,6,8,-1,10,12,14,16,18,-1,-1,20,22,-1,-1,-1,-1,-1,-1,-1,-1],"split_conditions":[1.6579124E2,2.4401855E-1,4.397093E2,1.8448592E2,8.06088E-1,-1.1865286E-1,1.7718864E2,8.7933576E-1,8.921137E-1,8.135305E-1,8.01628E-1,1.8917236E-2,1.00904845E-1,8.300081E-1,9.1353655E-1,6.323242E-3,3.2958984E-2,-1.2138367E-2,-4.3711685E-2,-2.468567E-2,3.8930573E-2,-4.3861173E-2,5.2087405E-3],"split_indices":[29,0,29,1,14,0,9,4,0,0,22,0,0,8,28,0,0,0,0,0,0,0,0],"split_type":[0,0,0,0,0,0,0,0,0,0,0,0,0,0,0,0,0,0,0,0,0,0,0],"sum_hessian":[5.3E1,1E0,5.2E1,1.9E1,3.3E1,2E0,1.7E1,7E0,2.6E1,2E0,1.5E1,4E0,3E0,1.6E1,1E1,1E0,1E0,7E0,8E0,4E0,1.2E1,6E0,4E0],"tree_param":{"num_deleted":"0","num_feature":"30","num_nodes":"23","size_leaf_vector":"1"}},{"base_weights":[5.7116475E-2,2.3181763E-1,-2.9284207E-2,-4.4923618E-1,1.1843109E-1,5.2070618E-2,-7.335256E-1,6.6237226E-2,1.0769959E-1,2.0763397E-1,-1.7270407E-2,-4.0098572E-1,-1.04895405E-1,5.385234E-1,-1.9055534E-2,6.8105063E-3,3.1311035E-2,-5.9692385E-3,-4.573059E-2,1.5690614E-2,5.834656E-2,5.0436403E-3,-4.3219607E-2],"categories":[],"categories_nodes":[],"categories_segments":[],"categories_sizes":[],"default_left":[0,0,0,0,0,0,0,0,0,0,0,0,0,0,0,0,0,0,0,0,0,0,0],"id":67,"left_children":[1,-1,3,5,7,9,11,13,-1,15,-1,17,-1,19,21,-1,-1,-1,-1,-1,-1,-1,-1],"loss_changes":[1.061717E1,0E0,3.3409703E0,2.0334225E0,1.9299108E0,2.4565946E-1,5.23417E-1,1.581283E0,0E0,3.754361E-2,0E0,8.803254E-2,0E0,1.1355042E-2,9.979362E-1,0E0,0E0,0E0,0E0,0E0,0E0,0E0,0E0],"parents":[2147483647,0,0,2,2,3,3,4,4,5,5,6,6,7,7,9,9,11,11,13,13,14,14],"right_children":[2,-1,4,6,8,10,12,14,-1,16,-1,18,-1,20,22,-1,-1,-1,-1,-1,-1,-1,-1],"split_conditions":[1.6579124E2,2.3181763E-1,4.3112952E2,1.7777798E2,9.634167E-1,9.179761E-1,1.8535493E2,1.7875287E2,1.0769959E-1,8.135305E-1,-1.7270407E-2,8.4202915E-1,-1.04895405E-1,8.257663E-1,9.2367977E-1,6.8105063E-3,3.1311035E-2,-5.9692385E-3,-4.573059E-2,1.5690614E-2,5.834656E-2,5.0436403E-3,-4.3219607E-2],"split_indices":[29,0,23,13,6,2,9,11,0,0,0,0,0,2,26,0,0,0,0,0,0,0,0],"split_type":[0,0,0,0,0,0,0,0,0,0,0,0,0,0,0,0,0,0,0,0,0,0,0],"sum_hessian":[5.3E1,1E0,5.2E1,1.3E1,3.9E1,5E0,8E0,3.8E1,1E0,3E0,2E0,5E0,3E0,5E0,3.3E1,2E0,1E0,1E0,4E0,1E0,4E0,2.9E1,4E0],"tree_param":{"num_deleted":"0","num_feature":"30","num_nodes":"23","size_leaf_vector":"1"}},{"base_weights":[5.584604E-2,2.2022705E-1,-2.6204811E-2,-3.3273315E-1,1.5487671E-1,-1.037501E-1,-1.9678667E-1,5.568924E-1,3.0024776E-2,2.3608398E-1,-2.6565075E-1,1.678772E-2,9.0393834E-2,2.106266E-1,-2.1327972E-1,5.667114E-3,2.9745484E-2,-7.0526125E-3,-3.479323E-2,5.9681196E-2,-1.9167813E-3,-5.1460773E-2,7.546997E-3],"categories":[],"categories_nodes":[],"categories_segments":[],"categories_sizes":[],"default_left":[0,0,0,0,0,0,0,0,0,0,0,0,0,0,0,0,0,0,0,0,0,0,0],"id":68,"left_children":[1,-1,3,5,7,-1,9,11,13,15,17,-1,-1,19,21,-1,-1,-1,-1,-1,-1,-1,-1],"loss_changes":[9.567972E0,0E0,2.9933836E0,1.7120478E0,1.6898222E0,0E0,5.9928226E-1,9.282985E-1,1.2313359E0,1.6175047E-2,2.3234415E-1,0E0,0E0,1.4313313E0,1.082938E0,0E0,0E0,0E0,0E0,0E0,0E0,0E0,0E0],"parents":[2147483647,0,0,2,2,3,3,4,4,6,6,7,7,8,8,9,9,10,10,13,13,14,14],"right_children":[2,-1,4,6,8,-1,10,12,14,16,18,-1,-1,20,22,-1,-1,-1,-1,-1,-1,-1,-1],"split_conditions":[1.6579124E2,2.2022705E-1,4.397093E2,1.8448592E2,8.06088E-1,-1.037501E-1,1.7718864E2,8.7933576E-1,4.4784958E2,8.135305E-1,7.928418E-1,1.678772E-2,9.0393834E-2,8.619371E-1,8.611795E-1,5.667114E-3,2.9745484E-2,-7.0526125E-3,-3.479323E-2,5.9681196E-2,-1.9167813E-3,-5.1460773E-2,7.546997E-3],"split_indices":[29,0,29,1,14,0,9,4,5,0,22,0,0,4,4,0,0,0,0,0,0,0,0],"split_type":[0,0,0,0,0,0,0,0,0,0,0,0,0,0,0,0,0,0,0,0,0,0,0],"sum_hessian":[5.3E1,1E0,5.2E1,1.9E1,3.3E1,2E0,1.7E1,7E0,2.6E1,2E0,1.5E1,4E0,3E0,1.5E1,1.1E1,1E0,1E0,5E0,1E1,5E0,1E1,5E0,6E0],"tree_param":{"num_deleted":"0","num_feature":"30","num_nodes":"23","size_leaf_vector":"1"}},{"base_weights":[5.4539997E-2,2.0921631E-1,-2.3380496E-2,-3.0497283E-1,1.4294972E-1,-9.68338E-2,-1.7746904E-1,8.801177E-2,9.779511E-2,2.2427368E-1,-2.4170399E-1,1.9391339E-1,-2.6716995E-1,5.383301E-3,2.8257752E-2,-2.7312929E-2,1.1483765E-2,2.629076E-2,-2.5128175E-2,-3.6161587E-2,1.9697571E-2],"categories":[],"categories_nodes":[],"categories_segments":[],"categories_sizes":[],"default_left":[0,0,0,0,0,0,0,0,0,0,0,0,0,0,0,0,0,0,0,0,0],"id":69,"left_children":[1,-1,3,5,7,-1,9,11,-1,13,15,17,19,-1,-1,-1,-1,-1,-1,-1,-1],"loss_changes":[8.622636E0,0E0,2.5259736E0,1.5197818E0,1.4736198E0,0E0,5.1871437E-1,1.2930803E0,0E0,1.46000385E-2,2.1063632E-1,8.646771E-1,4.2192286E-1,0E0,0E0,0E0,0E0,0E0,0E0,0E0,0E0],"parents":[2147483647,0,0,2,2,3,3,4,4,6,6,7,7,9,9,10,10,11,11,12,12],"right_children":[2,-1,4,6,8,-1,10,12,-1,14,16,18,20,-1,-1,-1,-1,-1,-1,-1,-1],"split_conditions":[1.6579124E2,2.0921631E-1,4.397093E2,1.8448592E2,9.634167E-1,-9.68338E-2,1.7718864E2,4.6348297E2,9.779511E-2,8.135305E-1,4.5430222E2,4.639543E2,9.4707245E-1,5.383301E-3,2.8257752E-2,-2.7312929E-2,1.1483765E-2,2.629076E-2,-2.5128175E-2,-3.6161587E-2,1.9697571E-2],"split_indices":[29,0,29,1,6,0,9,7,0,0,13,27,10,0,0,0,0,0,0,0,0],"split_type":[0,0,0,0,0,0,0,0,0,0,0,0,0,0,0,0,0,0,0,0,0],"sum_hessian":[5.3E1,1E0,5.2E1,1.9E1,3.3E1,2E0,1.7E1,3.2E1,1E0,2E0,1.5E1,2.5E1,7E0,1E0,1E0,1.4E1,1E0,2.2E1,3E0,6E0,1E0],"tree_param":{"num_deleted":"0","num_feature":"30","num_nodes":"21","size_leaf_vector":"1"}},{"base_weights":[5.303051E-2,1.9875489E-1,-2.0970758E-2,-5.54803E-1,5.898236E-2,-2.3445435E-1,-9.0378314E-2,-1.402181E-1,2.5572523E-1,2.6504516E-3,-3.0632019E-2,-6.684149E-2,-4.9039077E-2,1.3626172E-1,8.1897736E-2,1.6680254E-2,-1.7141929E-2,2.4031067E-2,-2.4475709E-2],"categories":[],"categories_nodes":[],"categories_segments":[],"categories_sizes":[],"default_left":[0,0,0,0,0,0,0,0,0,0,0,0,0,0,0,0,0,0,0],"id":70,"left_children":[1,-1,3,5,7,9,-1,11,13,-1,-1,15,-1,17,-1,-1,-1,-1,-1],"loss_changes":[7.7721477E0,0E0,2.2948458E0,5.7067156E-1,1.877847E0,1.01889014E-1,0E0,5.8388925E-1,1.5033187E0,0E0,0E0,5.417066E-1,0E0,8.9135444E-1,0E0,0E0,0E0,0E0,0E0],"parents":[2147483647,0,0,2,2,3,3,4,4,5,5,7,7,8,8,11,11,13,13],"right_children":[2,-1,4,6,8,10,-1,12,14,-1,-1,16,-1,18,-1,-1,-1,-1,-1],"split_conditions":[1.6579124E2,1.9875489E-1,1.767942E2,1.8448592E2,8.617636E-1,8.017664E-1,-9.0378314E-2,9.281556E-1,9.2367977E-1,2.6504516E-3,-3.0632019E-2,4.3956464E2,-4.9039077E-2,4.6370435E2,8.1897736E-2,1.6680254E-2,-1.7141929E-2,2.4031067E-2,-2.4475709E-2],"split_indices":[29,0,21,5,8,0,0,12,20,0,0,15,0,5,0,0,0,0,0],"split_type":[0,0,0,0,0,0,0,0,0,0,0,0,0,0,0,0,0,0,0],"sum_hessian":[5.3E1,1E0,5.2E1,6E0,4.6E1,4E0,2E0,2.3E1,2.3E1,1E0,3E0,2E1,3E0,2E1,3E0,6E0,1.4E1,1.6E1,4E0],"tree_param":{"num_deleted":"0","num_feature":"30","num_nodes":"19","size_leaf_vector":"1"}},{"base_weights":[4.9813166E-2,1.8881837E-1,-2.0499175E-2,-3.440421E-1,9.325333E-2,4.3507893E-2,-5.6418186E-1,5.0101254E-2,8.880921E-2,1.603775E-1,-1.2682088E-2,-3.0960846E-1,-8.049965E-2,4.137268E-1,-1.5541526E-2,4.2877197E-3,2.564392E-2,-3.7673952E-3,-3.564606E-2,1.155243E-2,4.5026246E-2,-6.3761063E-3,3.6204528E-2],"categories":[],"categories_nodes":[],"categories_segments":[],"categories_sizes":[],"default_left":[0,0,0,0,0,0,0,0,0,0,0,0,0,0,0,0,0,0,0,0,0,0,0],"id":71,"left_children":[1,-1,3,5,7,9,11,13,-1,15,-1,17,-1,19,21,-1,-1,-1,-1,-1,-1,-1,-1],"loss_changes":[7.018753E0,0E0,1.9826852E0,1.2189586E0,1.3274629E0,1.3977677E-1,3.0251122E-1,9.3733627E-1,0E0,3.415373E-2,0E0,6.3015044E-2,0E0,1.3353825E-2,6.4212453E-1,0E0,0E0,0E0,0E0,0E0,0E0,0E0,0E0],"parents":[2147483647,0,0,2,2,3,3,4,4,5,5,6,6,7,7,9,9,11,11,13,13,14,14],"right_children":[2,-1,4,6,8,10,12,14,-1,16,-1,18,-1,20,22,-1,-1,-1,-1,-1,-1,-1,-1],"split_conditions":[1.6579124E2,1.8881837E-1,4.3112952E2,1.7777798E2,9.634167E-1,9.179761E-1,1.8535493E2,1.7875287E2,8.880921E-2,8.135305E-1,-1.2682088E-2,8.4202915E-1,-8.049965E-2,8.257663E-1,4.6411984E2,4.2877197E-3,2.564392E-2,-3.7673952E-3,-3.564606E-2,1.155243E-2,4.5026246E-2,-6.3761063E-3,3.6204528E-2],"split_indices":[29,0,23,13,6,2,9,11,0,0,0,0,0,2,23,0,0,0,0,0,0,0,0],"split_type":[0,0,0,0,0,0,0,0,0,0,0,0,0,0,0,0,0,0,0,0,0,0,0],"sum_hessian":[5.3E1,1E0,5.2E1,1.3E1,3.9E1,5E0,8E0,3.8E1,1E0,3E0,2E0,5E0,3E0,5E0,3.3E1,2E0,1E0,1E0,4E0,1E0,4E0,3E1,3E0],"tree_param":{"num_deleted":"0","num_feature":"30","num_nodes":"23","size_leaf_vector":"1"}},{"base_weights":[4.9674705E-2,1.7937623E-1,-1.7077176E-2,-4.8183987E-1,5.250614E-2,-2.0065919E-1,-7.89861E-2,-1.1849467E-1,2.213192E-1,2.3040771E-3,-2.6234437E-2,-4.35524E-2,-3.945648E-1,1.1631775E-1,7.1724705E-2,-3.081665E-2,4.1861534E-3,-4.3419268E-2,-1.1802673E-2,2.0841442E-2,-2.2007447E-2],"categories":[],"categories_nodes":[],"categories_segments":[],"categories_sizes":[],"default_left":[0,0,0,0,0,0,0,0,0,0,0,0,0,0,0,0,0,0,0,0,0],"id":72,"left_children":[1,-1,3,5,7,9,-1,11,13,-1,-1,15,17,19,-1,-1,-1,-1,-1,-1,-1],"loss_changes":[6.317373E0,0E0,1.7393053E0,4.477744E-1,1.3829821E0,7.5039506E-2,0E0,4.793595E-1,1.1663269E0,0E0,0E0,4.6493492E-1,3.5467148E-3,6.964593E-1,0E0,0E0,0E0,0E0,0E0,0E0,0E0],"parents":[2147483647,0,0,2,2,3,3,4,4,5,5,7,7,8,8,11,11,12,12,13,13],"right_children":[2,-1,4,6,8,10,-1,12,14,-1,-1,16,18,20,-1,-1,-1,-1,-1,-1,-1],"split_conditions":[1.6579124E2,1.7937623E-1,1.767942E2,1.8448592E2,8.617636E-1,8.017664E-1,-7.89861E-2,8.5739857E-1,9.2367977E-1,2.3040771E-3,-2.6234437E-2,7.4297154E-1,9.3079066E-1,4.6370435E2,7.1724705E-2,-3.081665E-2,4.1861534E-3,-4.3419268E-2,-1.1802673E-2,2.0841442E-2,-2.2007447E-2],"split_indices":[29,0,21,5,8,0,0,8,20,0,0,28,0,5,0,0,0,0,0,0,0],"split_type":[0,0,0,0,0,0,0,0,0,0,0,0,0,0,0,0,0,0,0,0,0],"sum_hessian":[5.3E1,1E0,5.2E1,6E0,4.6E1,4E0,2E0,2.3E1,2.3E1,1E0,3E0,1.9E1,4E0,2E1,3E0,4E0,1.5E1,3E0,1E0,1.6E1,4E0],"tree_param":{"num_deleted":"0","num_feature":"30","num_nodes":"21","size_leaf_vector":"1"}},{"base_weights":[4.5915674E-2,1.704071E-1,-1.752256E-2,-2.3757248E-1,1.1243394E-1,-7.3720805E-2,-1.4110142E-1,4.3748474E-1,1.1958369E-2,1.7317708E-1,-1.912098E-1,1.2021484E-1,7.247009E-2,1.0209729E-1,-2.601667E-1,2.6565553E-3,2.3320008E-2,-7.225418E-3,-2.757026E-2,1.381836E-2,2.4169923E-3,-5.3074765E-3,3.1489056E-2,-4.7714235E-3,-4.0757753E-2],"categories":[],"categories_nodes":[],"categories_segments":[],"categories_sizes":[],"default_left":[0,0,0,0,0,0,0,0,0,0,0,0,0,0,0,0,0,0,0,0,0,0,0,0,0],"id":73,"left_children":[1,-1,3,5,7,-1,9,11,13,15,17,19,-1,21,23,-1,-1,-1,-1,-1,-1,-1,-1,-1,-1],"loss_changes":[5.710144E0,0E0,1.5423478E0,8.599863E-1,1.105197E0,0E0,3.1657687E-1,6.418805E-1,6.8884695E-1,2.0205103E-2,1.4089364E-1,5.2891523E-3,0E0,7.1012354E-1,1.9977725E-1,0E0,0E0,0E0,0E0,0E0,0E0,0E0,0E0,0E0,0E0],"parents":[2147483647,0,0,2,2,3,3,4,4,6,6,7,7,8,8,9,9,10,10,11,11,13,13,14,14],"right_children":[2,-1,4,6,8,-1,10,12,14,16,18,20,-1,22,24,-1,-1,-1,-1,-1,-1,-1,-1,-1,-1],"split_conditions":[1.6579124E2,1.704071E-1,4.397093E2,1.8448592E2,8.06088E-1,-7.3720805E-2,