{"learner":{"attributes":{"scikit_learn":"{\"_estimator_type\": \"regressor\"}"},"feature_names":[],"feature_types":[],"gradient_booster":{"model":{"cats":{"enc":[],"feature_segments":[],"sorted_idx":[]},"gbtree_model_param":{"num_parallel_tree":"1","num_trees":"100"},"iteration_indptr":[0,1,2,3,4,5,6,7,8,9,10,11,12,13,14,15,16,17,18,19,20,21,22,23,24,25,26,27,28,29,30,31,32,33,34,35,36,37,38,39,40,41,42,43,44,45,46,47,48,49,50,51,52,53,54,55,56,57,58,59,60,61,62,63,64,65,66,67,68,69,70,71,72,73,74,75,76,77,78,79,80,81,82,83,84,85,86,87,88,89,90,91,92,93,94,95,96,97,98,99,100],"tree_info":[0,0,0,0,0,0,0,0,0,0,0,0,0,0,0,0,0,0,0,0,0,0,0,0,0,0,0,0,0,0,0,0,0,0,0,0,0,0,0,0,0,0,0,0,0,0,0,0,0,0,0,0,0,0,0,0,0,0,0,0,0,0,0,0,0,0,0,0,0,0,0,0,0,0,0,0,0,0,0,0,0,0,0,0,0,0,0,0,0,0,0,0,0,0,0,0,0,0,0,0],"trees":[{"base_weights":[2.8257016E-6,-1.6152044E1,5.515336E0,-3.0684283E0,-1.4173326E0,8.399663E0,-1.6931751E1,3.5073778E-1,-1.0794309E0,9.927863E0,4.319687E-1,3.25404E-1,-2.279171E0,5.161888E0,1.0865222E1,-1.4451256E-1,2.2010708E0,8.520813E-2,5.738176E-1,6.017521E-1,1.1776271E0,3.1649134E-1,8.248189E-2],"categories":[],"categories_nodes":[],"categories_segments":[],"categories_sizes":[],"default_left":[0,0,0,0,0,0,0,0,0,0,0,0,0,0,0,0,0,0,0,0,0,0,0],"id":0,"left_children":[1,3,5,-1,7,9,11,-1,-1,13,15,-1,-1,17,19,-1,21,-1,-1,-1,-1,-1,-1],"loss_changes":[4.899616E3,2.954307E3,2.7967556E3,0E0,4.0729083E2,4.4623193E2,6.656045E2,0E0,0E0,8.240527E1,2.6426224E1,0E0,0E0,1.2496414E1,3.954834E1,0E0,2.6954784E0,0E0,0E0,0E0,0E0,0E0,0E0],"parents":[2147483647,0,0,1,1,2,2,4,4,5,5,6,6,9,9,10,10,13,13,14,14,16,16],"right_children":[2,4,6,-1,8,10,12,-1,-1,14,16,-1,-1,18,20,-1,22,-1,-1,-1,-1,-1,-1],"split_conditions":[7.7925934E1,2.773716E-2,1.0237591E2,-3.0684283E0,1.01043895E-1,9.8561554E1,5.1549114E1,3.5073778E-1,-1.0794309E0,1.4469396E-2,2.0318268E-2,3.25404E-1,-2.279171E0,2.1047711E-2,1.4362125E-2,-1.4451256E-1,2.0819614E-2,8.520813E-2,5.738176E-1,6.017521E-1,1.1776271E0,3.1649134E-1,8.248189E-2],"split_indices":[29,0,25,0,0,11,1,0,0,8,0,0,0,0,16,0,0,0,0,0,0,0,0],"split_type":[0,0,0,0,0,0,0,0,0,0,0,0,0,0,0,0,0,0,0,0,0,0,0],"sum_hessian":[5.3E1,1.3E1,4E1,6E0,7E0,3.6E1,4E0,5E0,2E0,3E1,6E0,1E0,3E0,6E0,2.4E1,3E0,3E0,1E0,5E0,5E0,1.9E1,1E0,2E0],"tree_param":{"num_deleted":"0","num_feature":"30","num_nodes":"23","size_leaf_vector":"1"}},{"base_weights":[-5.6627486E-2,-1.4808064E1,4.9818296E0,-2.8054202E0,-1.3666868E0,7.6324778E0,-1.5629332E1,3.2150957E-1,-1.0074689E0,9.013736E0,4.2512512E-1,3.0913392E-1,-2.1082335E0,4.7398486E0,9.8498745E0,-1.3367386E-1,2.0807076E0,8.0947876E-2,5.259997E-1,4.683896E-1,1.0610827E0,3.006668E-1,7.698314E-2],"categories":[],"categories_nodes":[],"categories_segments":[],"categories_sizes":[],"default_left":[0,0,0,0,0,0,0,0,0,0,0,0,0,0,0,0,0,0,0,0,0,0,0],"id":1,"left_children":[1,3,5,-1,7,9,11,-1,-1,13,15,-1,-1,17,19,-1,21,-1,-1,-1,-1,-1,-1],"loss_changes":[4.0872932E3,2.4543074E3,2.3592407E3,0E0,3.5157645E2,3.64511E2,5.7559204E2,0E0,0E0,6.409375E1,2.3199736E1,0E0,0E0,1.005278E1,4.8576416E1,0E0,2.5406532E0,0E0,0E0,0E0,0E0,0E0,0E0],"parents":[2147483647,0,0,1,1,2,2,4,4,5,5,6,6,9,9,10,10,13,13,14,14,16,16],"right_children":[2,4,6,-1,8,10,12,-1,-1,14,16,-1,-1,18,20,-1,22,-1,-1,-1,-1,-1,-1],"split_conditions":[7.7925934E1,2.773716E-2,1.0237591E2,-2.8054202E0,1.01043895E-1,9.8561554E1,5.1549114E1,3.2150957E-1,-1.0074689E0,1.4469396E-2,2.0318268E-2,3.0913392E-1,-2.1082335E0,2.1047711E-2,1.4428336E-2,-1.3367386E-1,2.0819614E-2,8.0947876E-2,5.259997E-1,4.683896E-1,1.0610827E0,3.006668E-1,7.698314E-2],"split_indices":[29,0,25,0,0,11,1,0,0,8,0,0,0,0,10,0,0,0,0,0,0,0,0],"split_type":[0,0,0,0,0,0,0,0,0,0,0,0,0,0,0,0,0,0,0,0,0,0,0],"sum_hessian":[5.3E1,1.3E1,4E1,6E0,7E0,3.6E1,4E0,5E0,2E0,3E1,6E0,1E0,3E0,6E0,2.4E1,3E0,3E0,1E0,5E0,4E0,2E1,1E0,2E0],"tree_param":{"num_deleted":"0","num_feature":"30","num_nodes":"23","size_leaf_vector":"1"}},{"base_weights":[-1.0485487E-1,-1.3576642E1,4.497825E0,-2.5649555E0,-1.3157635E0,6.9335656E0,-1.4426221E1,2.9471703E0,-9.403043E-1,8.181279E0,4.174674E-1,2.9367715E-1,-1.9501162E0,8.911057E-2,3.180162E-1,3.988973E0,8.83407E0,-1.2364826E-1,1.9670506E0,7.690048E-2,4.4791657E-1,4.4646356E-1,9.66181E-1,2.8563347E-1,7.18511E-2],"categories":[],"categories_nodes":[],"categories_segments":[],"categories_sizes":[],"default_left":[0,0,0,0,0,0,0,0,0,0,0,0,0,0,0,0,0,0,0,0,0,0,0,0,0],"id":2,"left_children":[1,3,5,-1,7,9,11,13,-1,15,17,-1,-1,-1,-1,19,21,-1,23,-1,-1,-1,-1,-1,-1],"loss_changes":[3.4094067E3,2.038595E3,1.9898821E3,0E0,3.035167E2,2.9740295E2,4.978512E2,4.0420532E-2,0E0,4.9598877E1,2.0372755E1,0E0,0E0,0E0,0E0,6.0259247E0,5.0899048E1,0E0,2.388918E0,0E0,0E0,0E0,0E0,0E0,0E0],"parents":[2147483647,0,0,1,1,2,2,4,4,5,5,6,6,7,7,9,9,10,10,15,15,16,16,18,18],"right_children":[2,4,6,-1,8,10,12,14,-1,16,18,-1,-1,-1,-1,20,22,-1,24,-1,-1,-1,-1,-1,-1],"split_conditions":[7.7925934E1,2.773716E-2,1.0237591E2,-2.5649555E0,1.01043895E-1,9.8561554E1,5.1549114E1,5.0787384E1,-9.403043E-1,1.4428336E-2,2.0318268E-2,2.9367715E-1,-1.9501162E0,8.911057E-2,3.180162E-1,2.1047711E-2,5.288417E1,-1.2364826E-1,2.0819614E-2,7.690048E-2,4.4791657E-1,4.4646356E-1,9.66181E-1,2.8563347E-1,7.18511E-2],"split_indices":[29,0,25,0,0,11,1,1,0,8,0,0,0,0,0,0,9,0,0,0,0,0,0,0,0],"split_type":[0,0,0,0,0,0,0,0,0,0,0,0,0,0,0,0,0,0,0,0,0,0,0,0,0],"sum_hessian":[5.3E1,1.3E1,4E1,6E0,7E0,3.6E1,4E0,5E0,2E0,3E1,6E0,1E0,3E0,1E0,4E0,5E0,2.5E1,3E0,3E0,1E0,4E0,5E0,2E1,1E0,2E0],"tree_param":{"num_deleted":"0","num_feature":"30","num_nodes":"25","size_leaf_vector":"1"}},{"base_weights":[-1.4220655E-1,-1.2440272E1,4.060601E0,-2.345102E0,-1.2508335E0,6.298894E0,-1.3314885E1,2.7203077E-1,-8.776172E-1,7.425652E0,4.0912518E-1,2.7899322E-1,-1.8038572E0,5.5837407E0,9.263419E0,-1.1437454E-1,1.8597145E0,6.890539E-1,3.5113272E-1,3.350996E-1,1.0571263E0,2.7135164E-1,6.706085E-2],"categories":[],"categories_nodes":[],"categories_segments":[],"categories_sizes":[],"default_left":[0,0,0,0,0,0,0,0,0,0,0,0,0,0,0,0,0,0,0,0,0,0,0],"id":3,"left_children":[1,3,5,-1,7,9,11,-1,-1,13,15,-1,-1,17,19,-1,21,-1,-1,-1,-1,-1,-1],"loss_changes":[2.841581E3,1.6955239E3,1.6784175E3,0E0,2.6294733E2,2.4250659E2,4.3069714E2,0E0,0E0,5.3210693E1,1.7895082E1,0E0,0E0,2.4553162E1,7.2831055E1,0E0,2.241335E0,0E0,0E0,0E0,0E0,0E0,0E0],"parents":[2147483647,0,0,1,1,2,2,4,4,5,5,6,6,9,9,10,10,13,13,14,14,16,16],"right_children":[2,4,6,-1,8,10,12,-1,-1,14,16,-1,-1,18,20,-1,22,-1,-1,-1,-1,-1,-1],"split_conditions":[7.7925934E1,2.773716E-2,1.0237591E2,-2.345102E0,1.01043895E-1,9.8561554E1,5.1549114E1,2.7203077E-1,-8.776172E-1,2.2920525E-2,2.0318268E-2,2.7899322E-1,-1.8038572E0,2.1047711E-2,2.2920525E-2,-1.1437454E-1,2.0819614E-2,6.890539E-1,3.5113272E-1,3.350996E-1,1.0571263E0,2.7135164E-1,6.706085E-2],"split_indices":[29,0,25,0,0,11,1,0,0,26,0,0,0,22,28,0,0,0,0,0,0,0,0],"split_type":[0,0,0,0,0,0,0,0,0,0,0,0,0,0,0,0,0,0,0,0,0,0,0],"sum_hessian":[5.3E1,1.3E1,4E1,6E0,7E0,3.6E1,4E0,5E0,2E0,3E1,6E0,1E0,3E0,1.7E1,1.3E1,3E0,3E0,9E0,8E0,3E0,1E1,1E0,2E0],"tree_param":{"num_deleted":"0","num_feature":"30","num_nodes":"23","size_leaf_vector":"1"}},{"base_weights":[-1.6167492E-1,2.1891425E0,-1.933307E1,-1.1172163E1,5.0687184E0,-2.427941E0,2.699314E-1,-1.5503444E1,2.6582134E-1,6.7347164E0,2.0446763E0,-1.7140678E0,-2.8400192E-1,2.884862E0,8.001249E0,4.79273E0,-1.3024683E0,1.1703052E-1,3.679535E-1,3.4190676E-1,8.995227E-1,5.455355E-1,1.6490275E-1,1.5166148E-2,-5.7406884E-1],"categories":[],"categories_nodes":[],"categories_segments":[],"categories_sizes":[],"default_left":[0,0,0,0,0,0,0,0,0,0,0,0,0,0,0,0,0,0,0,0,0,0,0,0,0],"id":4,"left_children":[1,3,5,7,9,-1,-1,11,-1,13,15,-1,-1,17,19,21,23,-1,-1,-1,-1,-1,-1,-1,-1],"loss_changes":[2.4760195E3,1.9418982E3,7.194155E2,5.803407E2,1.9278967E2,0E0,0E0,9.645105E1,0E0,1.0369275E2,1.534125E2,0E0,0E0,6.59391E0,5.5781616E1,9.751831E0,5.2500626E1,0E0,0E0,0E0,0E0,0E0,0E0,0E0,0E0],"parents":[2147483647,0,0,1,1,2,2,3,3,4,4,7,7,9,9,10,10,13,13,14,14,15,15,16,16],"right_children":[2,4,6,8,10,-1,-1,12,-1,14,16,-1,-1,18,20,22,24,-1,-1,-1,-1,-1,-1,-1,-1],"split_conditions":[1.0237591E2,5.293084E1,2.773716E-2,8.921496E1,9.4018875E1,-2.427941E0,2.699314E-1,1.3939773E-1,2.6582134E-1,1.4886134E-2,2.1209491E-2,-1.7140678E0,-2.8400192E-1,9.317419E1,5.278038E1,9.91282E1,1.01043895E-1,1.1703052E-1,3.679535E-1,3.4190676E-1,8.995227E-1,5.455355E-1,1.6490275E-1,1.5166148E-2,-5.7406884E-1],"split_indices":[23,29,0,1,3,0,0,0,0,8,8,0,0,25,9,23,0,0,0,0,0,0,0,0,0],"split_type":[0,0,0,0,0,0,0,0,0,0,0,0,0,0,0,0,0,0,0,0,0,0,0,0,0],"sum_hessian":[5.3E1,4.8E1,5E0,8E0,4E1,4E0,1E0,6E0,2E0,2.5E1,1.5E1,5E0,1E0,7E0,1.8E1,8E0,7E0,3E0,4E0,4E0,1.4E1,6E0,2E0,6E0,1E0],"tree_param":{"num_deleted":"0","num_feature":"30","num_nodes":"25","size_leaf_vector":"1"}},{"base_weights":[-1.8277133E-1,1.973203E0,-1.7759432E1,-1.024742E1,4.6076517E0,-2.233706E0,2.56435E-1,-1.423854E1,2.4809979E-1,6.127648E0,1.8496804E0,-1.5712291E0,-2.698017E-1,2.6570015E0,7.2664647E0,4.392397E0,-1.2420855E0,1.0825348E-1,3.3851746E-1,7.830638E-1,1.6473262E-1,4.9877557E-1,1.5390931E-1,1.3866099E-2,-5.453655E-1],"categories":[],"categories_nodes":[],"categories_segments":[],"categories_sizes":[],"default_left":[0,0,0,0,0,0,0,0,0,0,0,0,0,0,0,0,0,0,0,0,0,0,0,0,0],"id":5,"left_children":[1,3,5,7,9,-1,-1,11,-1,13,15,-1,-1,17,19,21,23,-1,-1,-1,-1,-1,-1,-1,-1],"loss_changes":[2.0813635E3,1.6247523E3,6.154884E2,4.9253156E2,1.6054205E2,0E0,0E0,7.666284E1,0E0,8.345624E1,1.3123947E2,0E0,0E0,5.507305E0,4.7333496E1,7.612015E0,4.727709E1,0E0,0E0,0E0,0E0,0E0,0E0,0E0,0E0],"parents":[2147483647,0,0,1,1,2,2,3,3,4,4,7,7,9,9,10,10,13,13,14,14,15,15,16,16],"right_children":[2,4,6,8,10,-1,-1,12,-1,14,16,-1,-1,18,20,22,24,-1,-1,-1,-1,-1,-1,-1,-1],"split_conditions":[1.0237591E2,5.293084E1,2.773716E-2,8.921496E1,9.4018875E1,-2.233706E0,2.56435E-1,1.3939773E-1,2.4809979E-1,1.4886134E-2,2.1209491E-2,-1.5712291E0,-2.698017E-1,9.317419E1,1.019563E2,9.91282E1,1.01043895E-1,1.0825348E-1,3.3851746E-1,7.830638E-1,1.6473262E-1,4.9877557E-1,1.5390931E-1,1.3866099E-2,-5.453655E-1],"split_indices":[23,29,0,1,3,0,0,0,0,8,8,0,0,25,27,23,0,0,0,0,0,0,0,0,0],"split_type":[0,0,0,0,0,0,0,0,0,0,0,0,0,0,0,0,0,0,0,0,0,0,0,0,0],"sum_hessian":[5.3E1,4.8E1,5E0,8E0,4E1,4E0,1E0,6E0,2E0,2.5E1,1.5E1,5E0,1E0,7E0,1.8E1,8E0,7E0,3E0,4E0,1.6E1,2E0,6E0,2E0,6E0,1E0],"tree_param":{"num_deleted":"0","num_feature":"30","num_nodes":"25","size_leaf_vector":"1"}},{"base_weights":[-2.0254037E-1,1.777212E0,-1.6336761E1,-8.623637E0,3.7160115E0,2.550869E-1,-2.0624464E0,-1.4161931E0,4.5513916E-1,4.540414E0,-5.2509155E0,2.3155975E-1,-2.563118E-1,5.3973627E0,5.450678E-1,2.2972031E-1,-8.532689E-1,3.8143036E-1,7.1602744E-1,-1.07973866E-1,1.7358993E-1],"categories":[],"categories_nodes":[],"categories_segments":[],"categories_sizes":[],"default_left":[0,0,0,0,0,0,0,0,0,0,0,0,0,0,0,0,0,0,0,0,0],"id":6,"left_children":[1,3,5,7,9,-1,-1,-1,11,13,15,-1,-1,17,19,-1,-1,-1,-1,-1,-1],"loss_changes":[1.7538892E3,1.0201384E3,5.385172E2,4.086931E2,3.343203E2,0E0,0E0,0E0,2.8396519E1,1.3058655E2,1.186862E2,0E0,0E0,6.1993958E1,1.7353283E1,0E0,0E0,0E0,0E0,0E0,0E0],"parents":[2147483647,0,0,1,1,2,2,3,3,4,4,8,8,9,9,10,10,13,13,14,14],"right_children":[2,4,6,8,10,-1,-1,-1,12,14,16,-1,-1,18,20,-1,-1,-1,-1,-1,-1],"split_conditions":[1.0237591E2,5.293084E1,5.2749138E1,2.1722997E-2,1.0237591E2,2.550869E-1,-2.0624464E0,-1.4161931E0,5.7780758E-2,9.8561554E1,5.1549114E1,2.3155975E-1,-2.563118E-1,2.2920525E-2,2.0318268E-2,2.2972031E-1,-8.532689E-1,3.8143036E-1,7.1602744E-1,-1.07973866E-1,1.7358993E-1],"split_indices":[21,29,1,0,25,0,0,0,0,11,1,0,0,26,0,0,0,0,0,0,0],"split_type":[0,0,0,0,0,0,0,0,0,0,0,0,0,0,0,0,0,0,0,0,0],"sum_hessian":[5.3E1,4.8E1,5E0,7E0,4.1E1,1E0,4E0,4E0,3E0,3.8E1,3E0,2E0,1E0,3.1E1,7E0,1E0,2E0,1.8E1,1.3E1,3E0,4E0],"tree_param":{"num_deleted":"0","num_feature":"30","num_nodes":"21","size_leaf_vector":"1"}},{"base_weights":[-2.3244943E-1,1.6054442E0,-1.5203172E1,-8.564072E0,3.7986197E0,-1.9141973E0,2.2454186E-1,-1.1937188E1,2.1612243E-1,5.091756E0,1.4598598E0,-4.1779962E-1,-1.4205266E0,2.106328E0,6.080791E0,3.5750935E0,-1.1022606E0,7.15271E-2,2.7979082E-1,2.624892E-1,7.1275485E-1,4.089892E-1,1.1822001E-1,9.86557E-3,-4.7543374E-1],"categories":[],"categories_nodes":[],"categories_segments":[],"categories_sizes":[],"default_left":[0,0,0,0,0,0,0,0,0,0,0,0,0,0,0,0,0,0,0,0,0,0,0,0,0],"id":7,"left_children":[1,3,5,7,9,-1,-1,11,-1,13,15,-1,-1,17,19,21,23,-1,-1,-1,-1,-1,-1,-1,-1],"loss_changes":[1.510196E3,1.1254049E3,4.5534094E2,3.51398E2,1.16564514E2,0E0,0E0,6.38396E1,0E0,6.3961853E1,9.065242E1,0E0,0E0,5.694954E0,5.0023132E1,6.251648E0,3.5555748E1,0E0,0E0,0E0,0E0,0E0,0E0,0E0,0E0],"parents":[2147483647,0,0,1,1,2,2,3,3,4,4,7,7,9,9,10,10,13,13,14,14,15,15,16,16],"right_children":[2,4,6,8,10,-1,-1,12,-1,14,16,-1,-1,18,20,22,24,-1,-1,-1,-1,-1,-1,-1,-1],"split_conditions":[1.0237591E2,5.293084E1,2.773716E-2,8.921496E1,9.4018875E1,-1.9141973E0,2.2454186E-1,7.7925934E1,2.1612243E-1,1.4886134E-2,2.1209491E-2,-4.1779962E-1,-1.4205266E0,9.317419E1,5.3050125E1,9.91282E1,1.01043895E-1,7.15271E-2,2.7979082E-1,2.624892E-1,7.1275485E-1,4.089892E-1,1.1822001E-1,9.86557E-3,-4.7543374E-1],"split_indices":[23,29,0,1,3,0,0,3,0,8,8,0,0,25,9,23,0,0,0,0,0,0,0,0,0],"split_type":[0,0,0,0,0,0,0,0,0,0,0,0,0,0,0,0,0,0,0,0,0,0,0,0,0],"sum_hessian":[5.3E1,4.8E1,5E0,8E0,4E1,4E0,1E0,6E0,2E0,2.5E1,1.5E1,2E0,4E0,7E0,1.8E1,8E0,7E0,3E0,4E0,5E0,1.3E1,6E0,2E0,6E0,1E0],"tree_param":{"num_deleted":"0","num_feature":"30","num_nodes":"25","size_leaf_vector":"1"}},{"base_weights":[-2.4482727E-1,1.4401245E0,-1.3964462E1,-7.887911E0,3.452617E0,-1.7610615E0,2.1331482E-1,-1.1006088E1,2.0171407E-1,4.6336026E0,1.3177271E0,-3.8994625E-1,-1.3068846E0,5.8374095E0,2.4613738E0,3.2761638E0,-1.05023E0,2.5454077E-1,7.102373E-1,1.5226991E-1,4.4569397E-1,3.73933E-1,1.10338844E-1,9.020015E-3,-4.5166206E-1],"categories":[],"categories_nodes":[],"categories_segments":[],"categories_sizes":[],"default_left":[0,0,0,0,0,0,0,0,0,0,0,0,0,0,0,0,0,0,0,0,0,0,0,0,0],"id":8,"left_children":[1,3,5,7,9,-1,-1,11,-1,13,15,-1,-1,17,19,21,23,-1,-1,-1,-1,-1,-1,-1,-1],"loss_changes":[1.2684244E3,9.470914E2,3.8973206E2,3.0017218E2,9.726639E1,0E0,0E0,5.165332E1,0E0,5.3620483E1,7.7640625E1,0E0,0E0,4.8549805E1,1.3818481E1,4.9312744E0,3.2032814E1,0E0,0E0,0E0,0E0,0E0,0E0,0E0,0E0],"parents":[2147483647,0,0,1,1,2,2,3,3,4,4,7,7,9,9,10,10,13,13,14,14,15,15,16,16],"right_children":[2,4,6,8,10,-1,-1,12,-1,14,16,-1,-1,18,20,22,24,-1,-1,-1,-1,-1,-1,-1,-1],"split_conditions":[1.0237591E2,5.293084E1,2.773716E-2,8.921496E1,9.4018875E1,-1.7610615E0,2.1331482E-1,7.7925934E1,2.0171407E-1,1.9700862E-2,2.1209491E-2,-3.8994625E-1,-1.3068846E0,5.293084E1,2.1722997E-2,9.91282E1,1.01043895E-1,2.5454077E-1,7.102373E-1,1.5226991E-1,4.4569397E-1,3.73933E-1,1.10338844E-1,9.020015E-3,-4.5166206E-1],"split_indices":[23,29,0,1,3,0,0,3,0,0,8,0,0,7,18,23,0,0,0,0,0,0,0,0,0],"split_type":[0,0,0,0,0,0,0,0,0,0,0,0,0,0,0,0,0,0,0,0,0,0,0,0,0],"sum_hessian":[5.3E1,4.8E1,5E0,8E0,4E1,4E0,1E0,6E0,2E0,2.5E1,1.5E1,2E0,4E0,1.5E1,1E1,8E0,7E0,5E0,1E1,8E0,2E0,6E0,2E0,6E0,1E0],"tree_param":{"num_deleted":"0","num_feature":"30","num_nodes":"25","size_leaf_vector":"1"}},{"base_weights":[-2.4698201E-1,1.2992067E0,-1.2833027E1,-6.8211374E0,2.8150055E0,2.0605813E-1,-1.6223866E0,-1.1230983E1,3.9645386E-1,3.4279244E0,-3.8647041E0,-1.232465E0,-3.428158E-1,1.882665E-1,-2.0310898E-1,4.083665E0,3.7647152E-1,1.9151764E-1,-6.4297235E-1,2.88605E-1,5.839186E-1,-7.458191E-2,1.6852169E-1],"categories":[],"categories_nodes":[],"categories_segments":[],"categories_sizes":[],"default_left":[0,0,0,0,0,0,0,0,0,0,0,0,0,0,0,0,0,0,0,0,0,0,0],"id":9,"left_children":[1,3,5,7,9,-1,-1,11,13,15,17,-1,-1,-1,-1,19,21,-1,-1,-1,-1,-1,-1],"loss_changes":[1.0675344E3,6.223331E2,3.3644147E2,2.5908032E2,1.8520096E2,0E0,0E0,4.175415E-1,1.8255232E1,7.650012E1,7.1616066E1,0E0,0E0,0E0,0E0,5.0425842E1,1.3007208E1,0E0,0E0,0E0,0E0,0E0,0E0],"parents":[2147483647,0,0,1,1,2,2,3,3,4,4,7,7,8,8,9,9,10,10,15,15,16,16],"right_children":[2,4,6,8,10,-1,-1,12,14,16,18,-1,-1,-1,-1,20,22,-1,-1,-1,-1,-1,-1],"split_conditions":[1.0237591E2,5.293084E1,5.2749138E1,2.1722997E-2,1.0237591E2,2.0605813E-1,-1.6223866E0,8.2977615E1,5.7780758E-2,9.8561554E1,5.1549114E1,-1.232465E0,-3.428158E-1,1.882665E-1,-2.0310898E-1,4.804203E-2,1.03628296E2,1.9151764E-1,-6.4297235E-1,2.88605E-1,5.839186E-1,-7.458191E-2,1.6852169E-1],"split_indices":[21,29,1,0,25,0,0,1,0,11,1,0,0,0,0,28,11,0,0,0,0,0,0],"split_type":[0,0,0,0,0,0,0,0,0,0,0,0,0,0,0,0,0,0,0,0,0,0,0],"sum_hessian":[5.3E1,4.8E1,5E0,7E0,4.1E1,1E0,4E0,4E0,3E0,3.8E1,3E0,3E0,1E0,2E0,1E0,3.1E1,7E0,1E0,2E0,2E1,1.1E1,4E0,3E0],"tree_param":{"num_deleted":"0","num_feature":"30","num_nodes":"23","size_leaf_vector":"1"}},{"base_weights":[-2.6842034E-1,1.1681556E0,-1.195572E1,-6.6553335E0,2.8570154E0,-1.5099739E0,1.882187E-1,-9.309924E0,1.7571564E-1,3.1805987E0,-2.3019078E0,-3.457522E-1,-1.0959381E0,3.7887123E0,3.5056973E-1,5.1644135E-2,-3.969303E-1,2.6647508E-1,5.692207E-1,-9.569836E-2,1.3264984E-1],"categories":[],"categories_nodes":[],"categories_segments":[],"categories_sizes":[],"default_left":[0,0,0,0,0,0,0,0,0,0,0,0,0,0,0,0,0,0,0,0,0],"id":10,"left_children":[1,3,5,7,9,-1,-1,11,-1,13,15,-1,-1,17,19,-1,-1,-1,-1,-1,-1],"loss_changes":[9.206096E2,6.6644037E2,2.8946033E2,2.1734445E2,7.5764465E1,0E0,0E0,2.9680725E1,0E0,6.578995E1,1.614782E1,0E0,0E0,5.329422E1,1.1478067E1,0E0,0E0,0E0,0E0,0E0,0E0],"parents":[2147483647,0,0,1,1,2,2,3,3,4,4,7,7,9,9,10,10,13,13,14,14],"right_children":[2,4,6,8,10,-1,-1,12,-1,14,16,-1,-1,18,20,-1,-1,-1,-1,-1,-1],"split_conditions":[1.0237591E2,5.293084E1,2.773716E-2,8.921496E1,1.0368814E2,-1.5099739E0,1.882187E-1,7.7925934E1,1.7571564E-1,9.8561554E1,1.6305327E-2,-3.457522E-1,-1.0959381E0,4.804203E-2,2.0318268E-2,5.1644135E-2,-3.969303E-1,2.6647508E-1,5.692207E-1,-9.569836E-2,1.3264984E-1],"split_indices":[23,29,0,1,27,0,0,3,0,11,0,0,0,28,0,0,0,0,0,0,0],"split_type":[0,0,0,0,0,0,0,0,0,0,0,0,0,0,0,0,0,0,0,0,0],"sum_hessian":[5.3E1,4.8E1,5E0,8E0,4E1,4E0,1E0,6E0,2E0,3.8E1,2E0,2E0,4E0,3.1E1,7E0,1E0,1E0,2.1E1,1E1,3E0,4E0],"tree_param":{"num_deleted":"0","num_feature":"30","num_nodes":"21","size_leaf_vector":"1"}},{"base_weights":[-2.7973247E-1,1.0362672E0,-1.0980441E1,-6.1304636E0,2.5841773E0,-1.389176E0,1.7880784E-1,-8.5848875E0,1.6400146E-1,3.5491846E0,8.545289E-1,-9.430149E-1,-1.7566605E-1,4.607728E0,1.6868321E0,-3.77084E-1,1.4142761E0,2.1575546E-1,5.862077E-1,8.5570954E-2,3.6179227E-1,-8.85212E-2,2.0629159E-1],"categories":[],"categories_nodes":[],"categories_segments":[],"categories_sizes":[],"default_left":[0,0,0,0,0,0,0,0,0,0,0,0,0,0,0,0,0,0,0,0,0,0,0],"id":11,"left_children":[1,3,5,7,9,-1,-1,11,-1,13,15,-1,-1,17,19,-1,21,-1,-1,-1,-1,-1,-1],"loss_changes":[7.718136E2,5.594214E2,2.4787897E2,1.8572781E2,6.5401184E1,0E0,0E0,2.3835876E1,0E0,4.348346E1,4.6757603E1,0E0,0E0,3.6526215E1,1.4558811E1,0E0,2.4199203E1,0E0,0E0,0E0,0E0,0E0,0E0],"parents":[2147483647,0,0,1,1,2,2,3,3,4,4,7,7,9,9,10,10,13,13,14,14,16,16],"right_children":[2,4,6,8,10,-1,-1,12,-1,14,16,-1,-1,18,20,-1,22,-1,-1,-1,-1,-1,-1],"split_conditions":[1.0237591E2,5.293084E1,2.773716E-2,8.921496E1,9.4018875E1,-1.389176E0,1.7880784E-1,1.3939773E-1,1.6400146E-1,1.9700862E-2,8.9965256E1,-9.430149E-1,-1.7566605E-1,5.3050125E1,2.1722997E-2,-3.77084E-1,9.530803E1,2.1575546E-1,5.862077E-1,8.5570954E-2,3.6179227E-1,-8.85212E-2,2.0629159E-1],"split_indices":[23,29,0,1,3,0,0,0,0,0,5,0,0,7,18,0,3,0,0,0,0,0,0],"split_type":[0,0,0,0,0,0,0,0,0,0,0,0,0,0,0,0,0,0,0,0,0,0,0],"sum_hessian":[5.3E1,4.8E1,5E0,8E0,4E1,4E0,1E0,6E0,2E0,2.5E1,1.5E1,5E0,1E0,1.5E1,1E1,1E0,1.4E1,6E0,9E0,8E0,2E0,3E0,1.1E1],"tree_param":{"num_deleted":"0","num_feature":"30","num_nodes":"23","size_leaf_vector":"1"}},{"base_weights":[-2.735186E-1,9.354396E-1,-1.010109E1,-5.431834E0,2.1259813E0,1.6434212E-1,-1.2778677E1,-8.9418125E0,3.1359673E-1,2.5760174E0,-2.7933655E0,-1.4184159E0,-3.5783768E-1,-9.8710823E-1,-2.6123658E-1,1.5306804E-1,-1.6688271E-1,3.0732036E0,2.6527023E-1,1.5783004E-1,-4.7766876E-1,2.126297E-1,4.47419E-1,-6.434082E-2,1.3348007E-1],"categories":[],"categories_nodes":[],"categories_segments":[],"categories_sizes":[],"default_left":[0,0,0,0,0,0,0,0,0,0,0,0,0,0,0,0,0,0,0,0,0,0,0,0,0],"id":12,"left_children":[1,3,5,7,9,-1,11,13,15,17,19,-1,-1,-1,-1,-1,-1,21,23,-1,-1,-1,-1,-1,-1],"loss_changes":[6.5102966E2,3.8299274E2,2.096825E2,1.6413481E2,1.0017886E2,0E0,1.3897949E1,3.6219177E0,1.22055435E1,4.3990753E1,4.2220734E1,0E0,0E0,0E0,0E0,0E0,0E0,3.2937836E1,8.633696E0,0E0,0E0,0E0,0E0,0E0,0E0],"parents":[2147483647,0,0,1,1,2,2,3,3,4,4,6,6,7,7,8,8,9,9,10,10,17,17,18,18],"right_children":[2,4,6,8,10,-1,12,14,16,18,20,-1,-1,-1,-1,-1,-1,22,24,-1,-1,-1,-1,-1,-1],"split_conditions":[1.0237591E2,5.293084E1,5.2749138E1,2.1722997E-2,1.0237591E2,1.6434212E-1,2.773716E-2,8.2977615E1,5.7780758E-2,9.8561554E1,5.1549114E1,-1.4184159E0,-3.5783768E-1,-9.8710823E-1,-2.6123658E-1,1.5306804E-1,-1.6688271E-1,4.804203E-2,1.03628296E2,1.5783004E-1,-4.7766876E-1,2.126297E-1,4.47419E-1,-6.434082E-2,1.3348007E-1],"split_indices":[21,29,1,0,25,0,0,1,0,11,1,0,0,0,0,0,0,28,11,0,0,0,0,0,0],"split_type":[0,0,0,0,0,0,0,0,0,0,0,0,0,0,0,0,0,0,0,0,0,0,0,0,0],"sum_hessian":[5.3E1,4.8E1,5E0,7E0,4.1E1,1E0,4E0,4E0,3E0,3.8E1,3E0,3E0,1E0,3E0,1E0,2E0,1E0,3.1E1,7E0,1E0,2E0,2E1,1.1E1,4E0,3E0],"tree_param":{"num_deleted":"0","num_feature":"30","num_nodes":"25","size_leaf_vector":"1"}},{"base_weights":[-2.9181027E-1,8.244908E-1,-9.359633E0,-5.046421E0,1.923129E0,1.5612487E-1,-1.185606E1,-8.2973E0,2.787838E-1,2.337112E0,-2.5939884E0,-1.3120347E0,-3.399456E-1,-9.1307527E-1,-2.4817467E-1,1.4286347E-1,-1.5853845E-1,2.786509E0,2.4738503E-1,1.4993858E-1,-4.458242E-1,1.2536654E-1,3.529729E-1,-5.9193727E-2,1.2346917E-1],"categories":[],"categories_nodes":[],"categories_segments":[],"categories_sizes":[],"default_left":[0,0,0,0,0,0,0,0,0,0,0,0,0,0,0,0,0,0,0,0,0,0,0,0,0],"id":13,"left_children":[1,3,5,7,9,-1,11,13,15,17,19,-1,-1,-1,-1,-1,-1,21,23,-1,-1,-1,-1,-1,-1],"loss_changes":[5.5432764E2,3.2575528E2,1.8208936E2,1.4080597E2,8.460286E1,0E0,8.855835E0,1.574707E0,1.0838997E1,3.5936234E1,3.7208973E1,0E0,0E0,0E0,0E0,0E0,0E0,3.2030563E1,7.360207E0,0E0,0E0,0E0,0E0,0E0,0E0],"parents":[2147483647,0,0,1,1,2,2,3,3,4,4,6,6,7,7,8,8,9,9,10,10,17,17,18,18],"right_children":[2,4,6,8,10,-1,12,14,16,18,20,-1,-1,-1,-1,-1,-1,22,24,-1,-1,-1,-1,-1,-1],"split_conditions":[1.0237591E2,5.293084E1,5.2749138E1,2.1722997E-2,1.0237591E2,1.5612487E-1,2.773716E-2,8.2977615E1,5.7780758E-2,9.8561554E1,5.1549114E1,-1.3120347E0,-3.399456E-1,-9.1307527E-1,-2.4817467E-1,1.4286347E-1,-1.5853845E-1,1.6109051E-2,1.03628296E2,1.4993858E-1,-4.458242E-1,1.2536654E-1,3.529729E-1,-5.9193727E-2,1.2346917E-1],"split_indices":[21,29,1,0,25,0,0,1,0,11,1,0,0,0,0,0,0,8,11,0,0,0,0,0,0],"split_type":[0,0,0,0,0,0,0,0,0,0,0,0,0,0,0,0,0,0,0,0,0,0,0,0,0],"sum_hessian":[5.3E1,4.8E1,5E0,7E0,4.1E1,1E0,4E0,4E0,3E0,3.8E1,3E0,3E0,1E0,3E0,1E0,2E0,1E0,3.1E1,7E0,1E0,2E0,1.1E1,2E1,4E0,3E0],"tree_param":{"num_deleted":"0","num_feature":"30","num_nodes":"25","size_leaf_vector":"1"}},{"base_weights":[-3.0755594E-1,7.230584E-1,-8.67298E0,-4.6888924E0,1.7366905E0,1.4831848E-1,-1.1000851E1,-7.6998186E0,2.469883E-1,2.117314E0,-2.4085617E0,-1.2136321E0,-3.2294846E-1,-8.445944E-1,-2.3576584E-1,1.3333945E-1,-1.506115E-1,6.401207E-1,1.8361273E0,1.4244156E-1,-4.1610262E-1,1.0258144E-1,2.77676E-1],"categories":[],"categories_nodes":[],"categories_segments":[],"categories_sizes":[],"default_left":[0,0,0,0,0,0,0,0,0,0,0,0,0,0,0,0,0,0,0,0,0,0,0],"id":14,"left_children":[1,3,5,7,9,-1,11,13,15,17,19,-1,-1,-1,-1,-1,-1,-1,21,-1,-1,-1,-1],"loss_changes":[4.7183353E2,2.769438E2,1.5816965E2,1.2079433E2,7.136648E1,0E0,4.926697E0,1.6967773E-2,9.626574E0,3.5224976E1,3.2795654E1,0E0,0E0,0E0,0E0,0E0,0E0,0E0,2.6115417E1,0E0,0E0,0E0,0E0],"parents":[2147483647,0,0,1,1,2,2,3,3,4,4,6,6,7,7,8,8,9,9,10,10,18,18],"right_children":[2,4,6,8,10,-1,12,14,16,18,20,-1,-1,-1,-1,-1,-1,-1,22,-1,-1,-1,-1],"split_conditions":[1.0237591E2,5.293084E1,5.2749138E1,2.1722997E-2,1.0237591E2,1.4831848E-1,2.773716E-2,8.2977615E1,5.7780758E-2,5.1095394E1,5.1549114E1,-1.2136321E0,-3.2294846E-1,-8.445944E-1,-2.3576584E-1,1.3333945E-1,-1.506115E-1,6.401207E-1,9.4018875E1,1.4244156E-1,-4.1610262E-1,1.0258144E-1,2.77676E-1],"split_indices":[21,29,1,0,25,0,0,1,0,13,1,0,0,0,0,0,0,0,25,0,0,0,0],"split_type":[0,0,0,0,0,0,0,0,0,0,0,0,0,0,0,0,0,0,0,0,0,0,0],"sum_hessian":[5.3E1,4.8E1,5E0,7E0,4.1E1,1E0,4E0,4E0,3E0,3.8E1,3E0,3E0,1E0,3E0,1E0,2E0,1E0,1E0,3.7E1,1E0,2E0,2.1E1,1.6E1],"tree_param":{"num_deleted":"0","num_feature":"30","num_nodes":"23","size_leaf_vector":"1"}},{"base_weights":[-3.0900997E-1,6.4358824E-1,-8.037061E0,-4.357208E0,1.5807973E0,1.4090271E-1,-1.0208083E1,-7.1459097E-1,2.179718E-1,1.9317429E0,-2.2361221E0,-1.1226099E0,-3.0680123E-1,1.2445017E-1,-1.430809E-1,6.0811466E-1,1.6625179E0,1.3531952E-1,-3.8836262E-1,5.621053E-2,2.2810042E-1],"categories":[],"categories_nodes":[],"categories_segments":[],"categories_sizes":[],"default_left":[0,0,0,0,0,0,0,0,0,0,0,0,0,0,0,0,0,0,0,0,0],"id":15,"left_children":[1,3,5,7,9,-1,11,-1,13,15,17,-1,-1,-1,-1,-1,19,-1,-1,-1,-1],"loss_changes":[4.027058E2,2.3654065E2,1.3742944E2,1.0362811E2,6.0579926E1,0E0,1.9017334E0,0E0,8.550735E0,3.345778E1,2.8908966E1,0E0,0E0,0E0,0E0,0E0,2.4580261E1,0E0,0E0,0E0,0E0],"parents":[2147483647,0,0,1,1,2,2,3,3,4,4,6,6,8,8,9,9,10,10,16,16],"right_children":[2,4,6,8,10,-1,12,-1,14,16,18,-1,-1,-1,-1,-1,20,-1,-1,-1,-1],"split_conditions":[1.0237591E2,5.293084E1,5.2749138E1,2.1722997E-2,1.0237591E2,1.4090271E-1,2.773716E-2,-7.1459097E-1,5.7780758E-2,5.1095394E1,5.1549114E1,-1.1226099E0,-3.0680123E-1,1.2445017E-1,-1.430809E-1,6.0811466E-1,9.3081474E1,1.3531952E-1,-3.8836262E-1,5.621053E-2,2.2810042E-1],"split_indices":[21,29,1,0,25,0,0,0,0,13,1,0,0,0,0,0,29,0,0,0,0],"split_type":[0,0,0,0,0,0,0,0,0,0,0,0,0,0,0,0,0,0,0,0,0],"sum_hessian":[5.3E1,4.8E1,5E0,7E0,4.1E1,1E0,4E0,4E0,3E0,3.8E1,3E0,3E0,1E0,2E0,1E0,1E0,3.7E1,1E0,2E0,1.4E1,2.3E1],"tree_param":{"num_deleted":"0","num_feature":"30","num_nodes":"21","size_leaf_vector":"1"}},{"base_weights":[-3.037103E-1,5.773119E-1,-7.4481063E0,-4.0131392E0,1.437938E0,1.3385773E-1,-9.473158E-1,-6.5742364E0,1.9151688E-1,1.901783E0,-1.1529704E0,-7.2765553E-1,-1.8824807E-1,1.1615347E-1,-1.3592683E-1,2.6603668E0,5.1969635E-1,5.6067353E-1,-3.6247203E-1,1.1350131E-1,3.3982214E-1,-9.161962E-2,1.419214E-1,-4.089457E-2,1.3434015E-1],"categories":[],"categories_nodes":[],"categories_segments":[],"categories_sizes":[],"default_left":[0,0,0,0,0,0,0,0,0,0,0,0,0,0,0,0,0,0,0,0,0,0,0,0,0],"id":16,"left_children":[1,3,5,7,9,-1,-1,11,13,15,17,-1,-1,-1,-1,19,21,23,-1,-1,-1,-1,-1,-1,-1],"loss_changes":[3.441959E2,1.993531E2,1.194415E2,8.740732E1,5.2667473E1,0E0,0E0,2.7775726E0,7.5959935E0,3.6360825E1,3.1682178E1,0E0,0E0,0E0,0E0,2.202922E1,1.9382828E1,4.344119E0,0E0,0E0,0E0,0E0,0E0,0E0,0E0],"parents":[2147483647,0,0,1,1,2,2,3,3,4,4,7,7,8,8,9,9,10,10,15,15,16,16,17,17],"right_children":[2,4,6,8,10,-1,-1,12,14,16,18,-1,-1,-1,-1,20,22,24,-1,-1,-1,-1,-1,-1,-1],"split_conditions":[1.0237591E2,5.293084E1,5.2749138E1,2.1722997E-2,1.019563E2,1.3385773E-1,-9.473158E-1,8.2977615E1,5.7780758E-2,9.4018875E1,9.3081474E1,-7.2765553E-1,-1.8824807E-1,1.1615347E-1,-1.3592683E-1,5.3235924E1,2.0318268E-2,8.083354E1,-3.6247203E-1,1.1350131E-1,3.3982214E-1,-9.161962E-2,1.419214E-1,-4.089457E-2,1.3434015E-1],"split_indices":[21,29,1,0,27,0,0,1,0,5,1,0,0,0,0,9,2,1,0,0,0,0,0,0,0],"split_type":[0,0,0,0,0,0,0,0,0,0,0,0,0,0,0,0,0,0,0,0,0,0,0,0,0],"sum_hessian":[5.3E1,4.8E1,5E0,7E0,4.1E1,1E0,4E0,4E0,3E0,3.5E1,6E0,3E0,1E0,2E0,1E0,2.2E1,1.3E1,4E0,2E0,8E0,1.4E1,5E0,8E0,2E0,2E0],"tree_param":{"num_deleted":"0","num_feature":"30","num_nodes":"25","size_leaf_vector":"1"}},{"base_weights":[-3.0138573E-1,5.1132184E-1,-6.888267E0,-3.856908E0,1.4577304E0,-8.753933E0,1.22003175E-1,-5.4234967E0,1.08410135E-1,2.6372895E0,5.9732085E-1,-2.5375214E-1,-9.6736556E-1,-2.0531082E-1,-6.361031E-1,9.085625E-1,4.4685373E0,1.8689973E0,-1.1105616E-1,1.5400423E-1,-4.236679E-2,5.0183016E-1,1.8794963E-1,2.4132788E-1,-2.3991903E-3,6.3308336E-2,-1.5808259E-1],"categories":[],"categories_nodes":[],"categories_segments":[],"categories_sizes":[],"default_left":[0,0,0,0,0,0,0,0,0,0,0,0,0,0,0,0,0,0,0,0,0,0,0,0,0,0,0],"id":17,"left_children":[1,3,5,7,9,11,-1,13,-1,15,17,-1,-1,-1,-1,19,21,23,25,-1,-1,-1,-1,-1,-1,-1,-1],"loss_changes":[2.925954E2,2.0819469E2,1.01444336E2,7.55444E1,4.003576E1,4.0397644E0,0E0,9.059097E0,0E0,4.975741E1,2.2728226E1,0E0,0E0,0E0,0E0,9.065233E0,1.9550323E0,9.330769E0,1.9593927E1,0E0,0E0,0E0,0E0,0E0,0E0,0E0,0E0],"parents":[2147483647,0,0,1,1,2,2,3,3,4,4,5,5,7,7,9,9,10,10,15,15,16,16,17,17,18,18],"right_children":[2,4,6,8,10,12,-1,14,-1,16,18,-1,-1,-1,-1,20,22,24,26,-1,-1,-1,-1,-1,-1,-1,-1],"split_conditions":[1.0237591E2,5.293084E1,2.773716E-2,8.921496E1,9.297631E1,1.56167215E-2,1.22003175E-1,7.7925934E1,1.08410135E-1,5.3235924E1,9.301041E1,-2.5375214E-1,-9.6736556E-1,-2.0531082E-1,-6.361031E-1,1.8774798E-2,2.1182442E-2,4.84088E-2,2.1209491E-2,1.5400423E-1,-4.236679E-2,5.0183016E-1,1.8794963E-1,2.4132788E-1,-2.3991903E-3,6.3308336E-2,-1.5808259E-1],"split_indices":[23,29,0,1,13,0,0,3,0,9,21,0,0,0,0,6,10,2,10,0,0,0,0,0,0,0,0],"split_type":[0,0,0,0,0,0,0,0,0,0,0,0,0,0,0,0,0,0,0,0,0,0,0,0,0,0,0],"sum_hessian":[5.3E1,4.8E1,5E0,8E0,4E1,4E0,1E0,6E0,2E0,1.6E1,2.4E1,1E0,3E0,2E0,4E0,9E0,7E0,8E0,1.6E1,6E0,3E0,5E0,2E0,6E0,2E0,1.1E1,5E0],"tree_param":{"num_deleted":"0","num_feature":"30","num_nodes":"27","size_leaf_vector":"1"}},{"base_weights":[-2.8766525E-1,4.6452713E-1,-6.3826256E0,-3.5526628E0,1.3350194E0,-8.122763E0,1.15903094E-1,-5.001349E0,1.0118256E-1,2.4207015E0,5.433548E-1,-2.4106446E-1,-8.948132E-1,-1.9162343E-1,-5.852148E-1,8.288681E-1,4.1079054E0,8.427658E-1,-1.9332479E0,1.4080364E-1,-3.918934E-2,1.11104965E-1,4.3773064E-1,1.6625331E-1,-2.0266516E-2,-4.4182587E-2,-2.458046E-1],"categories":[],"categories_nodes":[],"categories_segments":[],"categories_sizes":[],"default_left":[0,0,0,0,0,0,0,0,0,0,0,0,0,0,0,0,0,0,0,0,0,0,0,0,0,0,0],"id":18,"left_children":[1,3,5,7,9,11,-1,13,-1,15,17,-1,-1,-1,-1,19,21,23,25,-1,-1,-1,-1,-1,-1,-1,-1],"loss_changes":[2.5053236E2,1.7609256E2,8.8155655E1,6.457309E1,3.3924034E1,2.0022583E0,0E0,7.1595917E0,0E0,4.2252808E1,2.016733E1,0E0,0E0,0E0,0E0,7.6220636E0,1.5954285E0,2.004817E1,1.2620573E0,0E0,0E0,0E0,0E0,0E0,0E0,0E0,0E0],"parents":[2147483647,0,0,1,1,2,2,3,3,4,4,5,5,7,7,9,9,10,10,15,15,16,16,17,17,18,18],"right_children":[2,4,6,8,10,12,-1,14,-1,16,18,-1,-1,-1,-1,20,22,24,26,-1,-1,-1,-1,-1,-1,-1,-1],"split_conditions":[1.0237591E2,5.293084E1,2.773716E-2,8.921496E1,9.297631E1,1.56167215E-2,1.15903094E-1,7.7925934E1,1.0118256E-1,5.3235924E1,1.0209578E2,-2.4106446E-1,-8.948132E-1,-1.9162343E-1,-5.852148E-1,1.8774798E-2,1.4100544E-2,9.5217865E1,1.0440015E-1,1.4080364E-1,-3.918934E-2,1.11104965E-1,4.3773064E-1,1.6625331E-1,-2.0266516E-2,-4.4182587E-2,-2.458046E-1],"split_indices":[23,29,0,1,13,0,0,3,0,9,29,0,0,0,0,6,0,9,0,0,0,0,0,0,0,0,0],"split_type":[0,0,0,0,0,0,0,0,0,0,0,0,0,0,0,0,0,0,0,0,0,0,0,0,0,0,0],"sum_hessian":[5.3E1,4.8E1,5E0,8E0,4E1,4E0,1E0,6E0,2E0,1.6E1,2.4E1,1E0,3E0,2E0,4E0,9E0,7E0,2.2E1,2E0,6E0,3E0,1E0,6E0,1.2E1,1E1,1E0,1E0],"tree_param":{"num_deleted":"0","num_feature":"30","num_nodes":"27","size_leaf_vector":"1"}},{"base_weights":[-2.8092024E-1,4.1462162E-1,-5.9143586E0,-3.2724695E0,1.2138704E0,-7.5376616E0,1.101078E-1,-4.612191E0,9.443715E-2,5.1373976E-1,9.8734725E-1,-2.2901116E-1,-8.2770216E-1,-5.814821E-1,-2.2565137E-1,1.1686138E0,-1.6378123E0,5.6320887E-2,1.9658451E-1,-1.215744E-2,-2.3351441E-1],"categories":[],"categories_nodes":[],"categories_segments":[],"categories_sizes":[],"default_left":[0,0,0,0,0,0,0,0,0,0,0,0,0,0,0,0,0,0,0,0,0],"id":19,"left_children":[1,3,5,7,9,11,-1,13,-1,-1,15,-1,-1,-1,-1,17,19,-1,-1,-1,-1],"loss_changes":[2.1404002E2,1.4837057E2,7.662862E1,5.5200165E1,3.1367165E1,4.4384766E-1,0E0,6.709839E0,0E0,0E0,2.0948124E1,0E0,0E0,0E0,0E0,1.7233433E1,2.8880682E0,0E0,0E0,0E0,0E0],"parents":[2147483647,0,0,1,1,2,2,3,3,4,4,5,5,7,7,10,10,15,15,16,16],"right_children":[2,4,6,8,10,12,-1,14,-1,-1,16,-1,-1,-1,-1,18,20,-1,-1,-1,-1],"split_conditions":[1.0237591E2,5.293084E1,2.773716E-2,8.921496E1,5.1095394E1,1.56167215E-2,1.101078E-1,1.8137906E-2,9.443715E-2,5.1373976E-1,1.0368814E2,-2.2901116E-1,-8.2770216E-1,-5.814821E-1,-2.2565137E-1,2.1760657E-2,1.6305327E-2,5.6320887E-2,1.9658451E-1,-1.215744E-2,-2.3351441E-1],"split_indices":[23,29,0,1,13,0,0,2,0,0,27,0,0,0,0,18,0,0,0,0,0],"split_type":[0,0,0,0,0,0,0,0,0,0,0,0,0,0,0,0,0,0,0,0,0],"sum_hessian":[5.3E1,4.8E1,5E0,8E0,4E1,4E0,1E0,6E0,2E0,1E0,3.9E1,1E0,3E0,3E0,3E0,3.7E1,2E0,2.2E1,1.5E1,1E0,1E0],"tree_param":{"num_deleted":"0","num_feature":"30","num_nodes":"21","size_leaf_vector":"1"}},{"base_weights":[-2.7390862E-1,3.692465E-1,-5.4806905E0,-3.0244098E0,1.1051894E0,-6.9952387E-1,1.04602434E-1,-4.266276E0,8.8141374E-2,4.8805276E-1,8.887928E-1,-5.37871E-1,-2.0872727E-1,1.0967662E0,-1.2571602E0,3.9670985E-2,1.8136755E-1,-1.9728852E-2,-2.2183876E-1],"categories":[],"categories_nodes":[],"categories_segments":[],"categories_sizes":[],"default_left":[0,0,0,0,0,0,0,0,0,0,0,0,0,0,0,0,0,0,0],"id":20,"left_children":[1,3,5,7,9,-1,-1,11,-1,-1,13,-1,-1,15,17,-1,-1,-1,-1],"loss_changes":[1.8285722E2,1.2572187E2,6.6627304E1,4.741494E1,2.9158016E1,0E0,0E0,5.74115E0,0E0,0E0,1.9230867E1,0E0,0E0,1.7849937E1,3.6374483E0,0E0,0E0,0E0,0E0],"parents":[2147483647,0,0,1,1,2,2,3,3,4,4,7,7,10,10,13,13,14,14],"right_children":[2,4,6,8,10,-1,-1,12,-1,-1,14,-1,-1,16,18,-1,-1,-1,-1],"split_conditions":[1.0237591E2,5.293084E1,2.773716E-2,8.921496E1,5.1095394E1,-6.9952387E-1,1.04602434E-1,1.8137906E-2,8.8141374E-2,4.8805276E-1,1.0034445E2,-5.37871E-1,-2.0872727E-1,9.338426E1,4.81103E-2,3.9670985E-2,1.8136755E-1,-1.9728852E-2,-2.2183876E-1],"split_indices":[23,29,0,1,13,0,0,2,0,0,23,0,0,25,0,0,0,0,0],"split_type":[0,0,0,0,0,0,0,0,0,0,0,0,0,0,0,0,0,0,0],"sum_hessian":[5.3E1,4.8E1,5E0,8E0,4E1,4E0,1E0,6E0,2E0,1E0,3.9E1,3E0,3E0,3.6E1,3E0,1.9E1,1.7E1,2E0,1E0],"tree_param":{"num_deleted":"0","num_feature":"30","num_nodes":"19","size_leaf_vector":"1"}},{"base_weights":[-2.6107076E-1,5.3525287E-1,-3.81842E0,-2.7412462E0,1.2109566E0,3.5876083E-1,-5.659892E0,-4.5293245E0,1.7916298E-1,1.7952642E0,8.1053056E-2,9.9372484E-2,-1.8413544E-1,-7.131602E-1,-2.7732086E-1,-4.9753055E-1,-1.3726997E-1,8.226522E-2,-8.7565236E-2,5.841881E-1,2.439983E0,-4.2094484E-1,2.062027E-1,-2.3572922E-2,-4.047394E-3,-3.1689074E-2,1.01563476E-1,1.3881119E-1,3.594087E-1,-1.055851E-1,1.8339539E-2],"categories":[],"categories_nodes":[],"categories_segments":[],"categories_sizes":[],"default_left":[0,0,0,0,0,0,0,0,0,0,0,0,0,0,0,0,0,0,0,0,0,0,0,0,0,0,0,0,0,0,0],"id":21,"left_children":[1,3,5,7,9,11,13,15,17,19,21,-1,23,-1,-1,-1,-1,-1,-1,25,27,29,-1,-1,-1,-1,-1,-1,-1,-1,-1],"loss_changes":[1.5501509E2,1.02946945E2,7.895215E1,4.2586838E1,2.494252E1,1.5618584E0,9.961121E0,2.093811E-1,3.4354062E0,1.8094673E1,1.4790227E1,0E0,1.2695223E-2,0E0,0E0,0E0,0E0,0E0,0E0,4.2095203E0,1.4434502E1,4.79803E0,0E0,0E0,0E0,0E0,0E0,0E0,0E0,0E0,0E0],"parents":[2147483647,0,0,1,1,2,2,3,3,4,4,5,5,6,6,7,7,8,8,9,9,10,10,12,12,19,19,20,20,21,21],"right_children":[2,4,6,8,10,12,14,16,18,20,22,-1,24,-1,-1,-1,-1,-1,-1,26,28,30,-1,-1,-1,-1,-1,-1,-1,-1,-1],"split_conditions":[1.0034445E2,5.293084E1,2.1047711E-2,2.1722997E-2,9.5217865E1,5.1095394E1,8.921496E1,8.2977615E1,5.7780758E-2,1.6949743E-2,1.0638742E-1,9.9372484E-2,1.3977542E-2,-7.131602E-1,-2.7732086E-1,-4.9753055E-1,-1.3726997E-1,8.226522E-2,-8.7565236E-2,5.293084E1,1.8774798E-2,2.1182442E-2,2.062027E-1,-2.3572922E-2,-4.047394E-3,-3.1689074E-2,1.01563476E-1,1.3881119E-1,3.594087E-1,-1.055851E-1,1.8339539E-2],"split_indices":[23,29,8,0,9,1,3,1,0,10,6,0,0,0,0,0,0,0,0,15,2,2,0,0,0,0,0,0,0,0,0],"split_type":[0,0,0,0,0,0,0,0,0,0,0,0,0,0,0,0,0,0,0,0,0,0,0,0,0,0,0,0,0,0,0],"sum_hessian":[5.3E1,4.4E1,9E0,7E0,3.7E1,3E0,6E0,4E0,3E0,2.4E1,1.3E1,1E0,2E0,3E0,3E0,3E0,1E0,2E0,1E0,9E0,1.5E1,1.1E1,2E0,1E0,1E0,3E0,6E0,9E0,6E0,5E0,6E0],"tree_param":{"num_deleted":"0","num_feature":"30","num_nodes":"31","size_leaf_vector":"1"}},{"base_weights":[-2.511069E-1,4.8277172E-1,-3.52845E0,-2.5471349E0,1.1079422E0,3.4082413E-1,-5.2353997E0,-4.2033514E-1,1.5991974E-1,4.4567987E-1,8.969786E-1,9.440384E-2,-1.7492676E-1,-6.5967315E-1,-2.565218E-1,7.67807E-2,-8.31871E-2,3.9424768E-1,1.6947333E0,-2.239418E-2,-3.8448335E-3,9.508157E-2,-6.390118E-2,2.0218436E-1,-1.7861938E-2],"categories":[],"categories_nodes":[],"categories_segments":[],"categories_sizes":[],"default_left":[0,0,0,0,0,0,0,0,0,0,0,0,0,0,0,0,0,0,0,0,0,0,0,0,0],"id":22,"left_children":[1,3,5,7,9,11,13,-1,15,-1,17,-1,19,-1,-1,-1,-1,21,23,-1,-1,-1,-1,-1,-1],"loss_changes":[1.3158273E2,8.806146E1,6.783091E1,3.6539948E1,2.284885E1,1.4095707E0,8.5229645E0,0E0,3.0503044E0,0E0,1.4170925E1,0E0,1.14583075E-2,0E0,0E0,0E0,0E0,1.4409482E1,8.940243E0,0E0,0E0,0E0,0E0,0E0,0E0],"parents":[2147483647,0,0,1,1,2,2,3,3,4,4,5,5,6,6,8,8,10,10,12,12,17,17,18,18],"right_children":[2,4,6,8,10,12,14,-1,16,-1,18,-1,20,-1,-1,-1,-1,22,24,-1,-1,-1,-1,-1,-1],"split_conditions":[1.0034445E2,5.293084E1,2.1047711E-2,2.1722997E-2,5.1095394E1,5.1095394E1,8.921496E1,-4.2033514E-1,5.7780758E-2,4.4567987E-1,2.7351765E-2,9.440384E-2,1.3977542E-2,-6.5967315E-1,-2.565218E-1,7.67807E-2,-8.31871E-2,9.5217865E1,9.901661E1,-2.239418E-2,-3.8448335E-3,9.508157E-2,-6.390118E-2,2.0218436E-1,-1.7861938E-2],"split_indices":[23,29,8,0,13,1,3,0,0,0,18,0,0,0,0,0,0,9,1,0,0,0,0,0,0],"split_type":[0,0,0,0,0,0,0,0,0,0,0,0,0,0,0,0,0,0,0,0,0,0,0,0,0],"sum_hessian":[5.3E1,4.4E1,9E0,7E0,3.7E1,3E0,6E0,4E0,3E0,1E0,3.6E1,1E0,2E0,3E0,3E0,2E0,1E0,2.3E1,1.3E1,1E0,1E0,1.5E1,8E0,1.1E1,2E0],"tree_param":{"num_deleted":"0","num_feature":"30","num_nodes":"25","size_leaf_vector":"1"}},{"base_weights":[-2.3736021E-1,4.3970296E-1,-3.2604084E0,-2.1671476E0,1.0619179E0,3.2378197E-1,-4.8427444E0,-3.8670845E0,-3.378143E-2,4.2339593E-1,8.561957E-1,8.968353E-2,-1.6618092E-1,-6.101977E-1,-2.3728256E-1,-4.2869064E-1,-1.0938988E-1,-7.729213E-2,7.166188E-2,1.2931496E0,7.718604E-2,-2.1274567E-2,-3.6525726E-3,4.0025253E-2,1.8385653E-1,-3.57392E-2,1.7897695E-1],"categories":[],"categories_nodes":[],"categories_segments":[],"categories_sizes":[],"default_left":[0,0,0,0,0,0,0,0,0,0,0,0,0,0,0,0,0,0,0,0,0,0,0,0,0,0,0],"id":23,"left_children":[1,3,5,7,9,11,13,15,17,-1,19,-1,21,-1,-1,-1,-1,-1,-1,23,25,-1,-1,-1,-1,-1,-1],"loss_changes":[1.1196052E2,7.52923E1,5.828195E1,3.2508656E1,2.0519604E1,1.2721364E0,7.2924805E0,1.1317749E0,3.3271437E0,0E0,1.2154274E1,0E0,1.0341391E-2,0E0,0E0,0E0,0E0,0E0,0E0,1.0465111E1,1.1059165E1,0E0,0E0,0E0,0E0,0E0,0E0],"parents":[2147483647,0,0,1,1,2,2,3,3,4,4,5,5,6,6,7,7,8,8,10,10,12,12,19,19,20,20],"right_children":[2,4,6,8,10,12,14,16,18,-1,20,-1,22,-1,-1,-1,-1,-1,-1,24,26,-1,-1,-1,-1,-1,-1],"split_conditions":[1.0034445E2,5.9471657E1,2.1047711E-2,2.1722997E-2,5.1095394E1,5.1095394E1,8.921496E1,8.2977615E1,7.7925934E1,4.2339593E-1,9.5217865E1,8.968353E-2,1.3977542E-2,-6.101977E-1,-2.3728256E-1,-4.2869064E-1,-1.0938988E-1,-7.729213E-2,7.166188E-2,9.297631E1,1.0638742E-1,-2.1274567E-2,-3.6525726E-3,4.0025253E-2,1.8385653E-1,-3.57392E-2,1.7897695E-1],"split_indices":[23,29,8,0,13,1,3,1,1,0,9,0,0,0,0,0,0,0,0,25,6,0,0,0,0,0,0],"split_type":[0,0,0,0,0,0,0,0,0,0,0,0,0,0,0,0,0,0,0,0,0,0,0,0,0,0,0],"sum_hessian":[5.3E1,4.4E1,9E0,8E0,3.6E1,3E0,6E0,4E0,4E0,1E0,3.5E1,1E0,2E0,3E0,3E0,3E0,1E0,2E0,2E0,2.2E1,1.3E1,1E0,1E0,9E0,1.3E1,1.1E1,2E0],"tree_param":{"num_deleted":"0","num_feature":"30","num_nodes":"27","size_leaf_vector":"1"}},{"base_weights":[-2.2354797E-1,4.0121782E-1,-3.0126393E0,-2.0108447E0,9.77092E-1,3.075943E-1,-4.4795384E0,-3.5879912E0,-3.1529237E-2,4.0222627E-1,7.807744E-1,8.5199356E-2,-1.5786998E-1,-5.644328E-1,-2.1948643E-1,-3.9653873E-1,-1.0392036E-1,-7.213923E-2,6.688436E-2,1.1141763E0,-7.8245685E-2,-2.0210648E-2,-3.4698488E-3,2.5157928E-3,1.3722683E-1,7.4138135E-2,-8.848318E-2],"categories":[],"categories_nodes":[],"categories_segments":[],"categories_sizes":[],"default_left":[0,0,0,0,0,0,0,0,0,0,0,0,0,0,0,0,0,0,0,0,0,0,0,0,0,0,0],"id":24,"left_children":[1,3,5,7,9,11,13,15,17,-1,19,-1,21,-1,-1,-1,-1,-1,-1,23,25,-1,-1,-1,-1,-1,-1],"loss_changes":[9.530528E1,6.447179E1,5.0082367E1,2.7981907E1,1.8978882E1,1.1480978E0,6.239624E0,6.886673E-1,2.8983054E0,0E0,1.0397537E1,0E0,9.333231E-3,0E0,0E0,0E0,0E0,0E0,0E0,7.2732124E0,7.9280944E0,0E0,0E0,0E0,0E0,0E0,0E0],"parents":[2147483647,0,0,1,1,2,2,3,3,4,4,5,5,6,6,7,7,8,8,10,10,12,12,19,19,20,20],"right_children":[2,4,6,8,10,12,14,16,18,-1,20,-1,22,-1,-1,-1,-1,-1,-1,24,26,-1,-1,-1,-1,-1,-1],"split_conditions":[1.0034445E2,5.9471657E1,2.1047711E-2,2.1722997E-2,5.1095394E1,5.1095394E1,8.921496E1,8.2977615E1,7.7925934E1,4.0222627E-1,9.583864E1,8.5199356E-2,1.3977542E-2,-5.644328E-1,-2.1948643E-1,-3.9653873E-1,-1.0392036E-1,-7.213923E-2,6.688436E-2,5.288417E1,9.301041E1,-2.0210648E-2,-3.4698488E-3,2.5157928E-3,1.3722683E-1,7.4138135E-2,-8.848318E-2],"split_indices":[23,29,8,0,13,1,3,1,1,0,11,0,0,0,0,0,0,0,0,13,19,0,0,0,0,0,0],"split_type":[0,0,0,0,0,0,0,0,0,0,0,0,0,0,0,0,0,0,0,0,0,0,0,0,0,0,0],"sum_hessian":[5.3E1,4.4E1,9E0,8E0,3.6E1,3E0,6E0,4E0,4E0,1E0,3.5E1,1E0,2E0,3E0,3E0,3E0,1E0,2E0,2E0,2.5E1,1E1,1E0,1E0,5E0,2E1,5E0,5E0],"tree_param":{"num_deleted":"0","num_feature":"30","num_nodes":"27","size_leaf_vector":"1"}},{"base_weights":[-2.1416607E-1,3.615816E-1,-2.783614E0,-1.8659524E0,8.936417E-1,2.9221535E-1,-4.1435714E0,-3.3292847E0,-2.9429626E-2,3.821148E-1,7.061791E-1,8.093949E-2,-1.4997609E-1,-5.2210027E-1,-2.0302477E-1,-3.667984E-1,-9.8724365E-2,-6.7330174E-2,6.2425233E-2,1.9242418E-1,1.2092438E0,-1.9200135E-2,-3.29628E-3,4.2979002E-2,-8.051453E-2,3.6826935E-2,2.0092992E-1],"categories":[],"categories_nodes":[],"categories_segments":[],"categories_sizes":[],"default_left":[0,0,0,0,0,0,0,0,0,0,0,0,0,0,0,0,0,0,0,0,0,0,0,0,0,0,0],"id":25,"left_children":[1,3,5,7,9,11,13,15,17,-1,19,-1,21,-1,-1,-1,-1,-1,-1,23,25,-1,-1,-1,-1,-1,-1],"loss_changes":[8.0891594E1,5.5000683E1,4.3040802E1,2.4089008E1,1.7607111E1,1.0361593E0,5.338791E0,3.4503937E-1,2.524748E0,0E0,9.071583E0,0E0,8.423634E-3,0E0,0E0,0E0,0E0,0E0,0E0,4.8450327E0,1.1370911E1,0E0,0E0,0E0,0E0,0E0,0E0],"parents":[2147483647,0,0,1,1,2,2,3,3,4,4,5,5,6,6,7,7,8,8,10,10,12,12,19,19,20,20],"right_children":[2,4,6,8,10,12,14,16,18,-1,20,-1,22,-1,-1,-1,-1,-1,-1,24,26,-1,-1,-1,-1,-1,-1],"split_conditions":[1.0034445E2,5.9471657E1,2.1047711E-2,2.1722997E-2,5.1095394E1,5.1095394E1,8.921496E1,8.2977615E1,7.7925934E1,3.821148E-1,9.338426E1,8.093949E-2,1.3977542E-2,-5.2210027E-1,-2.0302477E-1,-3.667984E-1,-9.8724365E-2,-6.7330174E-2,6.2425233E-2,9.307589E1,2.0318268E-2,-1.9200135E-2,-3.29628E-3,4.2979002E-2,-8.051453E-2,3.6826935E-2,2.0092992E-1],"split_indices":[23,29,8,0,13,1,3,1,1,0,25,0,0,0,0,0,0,0,0,25,18,0,0,0,0,0,0],"split_type":[0,0,0,0,0,0,0,0,0,0,0,0,0,0,0,0,0,0,0,0,0,0,0,0,0,0,0],"sum_hessian":[5.3E1,4.4E1,9E0,8E0,3.6E1,3E0,6E0,4E0,4E0,1E0,3.5E1,1E0,2E0,3E0,3E0,3E0,1E0,2E0,2E0,1.8E1,1.7E1,1E0,1E0,1.5E1,3E0,9E0,8E0],"tree_param":{"num_deleted":"0","num_feature":"30","num_nodes":"27","size_leaf_vector":"1"}},{"base_weights":[-2.0302214E-1,3.2791138E-1,-2.5719209E0,-1.6055626E0,8.5587883E-1,2.7760506E-1,-3.832804E0,-3.0894608E0,-1.01387024E-1,3.630089E-1,6.728989E-1,7.689247E-2,-1.424764E-1,-4.8294288E-1,-1.8779783E-1,-3.3928853E-1,-9.378815E-2,-5.890579E-2,5.8263656E-2,1.0596421E0,1.7095294E-2,-1.8239975E-2,-3.131485E-3,-4.8766837E-2,1.23875655E-1,-3.4656655E-2,1.466044E-1],"categories":[],"categories_nodes":[],"categories_segments":[],"categories_sizes":[],"default_left":[0,0,0,0,0,0,0,0,0,0,0,0,0,0,0,0,0,0,0,0,0,0,0,0,0,0,0],"id":26,"left_children":[1,3,5,7,9,11,13,15,17,-1,19,-1,21,-1,-1,-1,-1,-1,-1,23,25,-1,-1,-1,-1,-1,-1],"loss_changes":[6.876066E1,4.7310673E1,3.6993195E1,2.2007204E1,1.583181E1,9.351307E-1,4.5680313E0,8.2084656E-2,2.344677E0,0E0,8.85885E0,0E0,7.602006E-3,0E0,0E0,0E0,0E0,0E0,0E0,6.701309E0,7.8850656E0,0E0,0E0,0E0,0E0,0E0,0E0],"parents":[2147483647,0,0,1,1,2,2,3,3,4,4,5,5,6,6,7,7,8,8,10,10,12,12,19,19,20,20],"right_children":[2,4,6,8,10,12,14,16,18,-1,20,-1,22,-1,-1,-1,-1,-1,-1,24,26,-1,-1,-1,-1,-1,-1],"split_conditions":[1.0034445E2,6.471273E1,2.1047711E-2,2.1722997E-2,5.1095394E1,5.1095394E1,8.921496E1,8.2977615E1,7.7925934E1,3.630089E-1,9.5217865E1,7.689247E-2,1.3977542E-2,-4.8294288E-1,-1.8779783E-1,-3.3928853E-1,-9.378815E-2,-5.890579E-2,5.8263656E-2,5.1549114E1,1.0638742E-1,-1.8239975E-2,-3.131485E-3,-4.8766837E-2,1.23875655E-1,-3.4656655E-2,1.466044E-1],"split_indices":[23,29,8,0,13,1,3,1,1,0,9,0,0,0,0,0,0,0,0,5,6,0,0,0,0,0,0],"split_type":[0,0,0,0,0,0,0,0,0,0,0,0,0,0,0,0,0,0,0,0,0,0,0,0,0,0,0],"sum_hessian":[5.3E1,4.4E1,9E0,9E0,3.5E1,3E0,6E0,4E0,5E0,1E0,3.4E1,1E0,2E0,3E0,3E0,3E0,1E0,3E0,2E0,2.1E1,1.3E1,1E0,1E0,2E0,1.9E1,1.1E1,2E0],"tree_param":{"num_deleted":"0","num_feature":"30","num_nodes":"27","size_leaf_vector":"1"}},{"base_weights":[-1.919586E-1,1.7273954E-1,-3.1383336E0,-1.7511454E0,5.3508097E-1,-4.4672203E-1,-3.2037354E-1,-2.606757E0,5.4379273E-2,3.4485856E-1,3.7990803E-1,4.4182587E-2,-9.223862E-2,-3.1384203E-1,-1.0289536E-1,5.892805E-1,-7.212268E-1,1.547045E-2,1.1584015E-1,2.1019364E-2,-1.4723407E-1],"categories":[],"categories_nodes":[],"categories_segments":[],"categories_sizes":[],"default_left":[0,0,0,0,0,0,0,0,0,0,0,0,0,0,0,0,0,0,0,0,0],"id":27,"left_children":[1,3,5,7,9,-1,11,13,-1,-1,15,-1,-1,-1,-1,17,19,-1,-1,-1,-1],"loss_changes":[5.856714E1,3.5095062E1,2.1037312E1,1.7126137E1,1.7677929E1,0E0,1.784095E0,1.8038712E0,0E0,0E0,9.877445E0,0E0,0E0,0E0,0E0,8.477211E0,5.2066956E0,0E0,0E0,0E0,0E0],"parents":[2147483647,0,0,1,1,2,2,3,3,4,4,6,6,7,7,10,10,15,15,16,16],"right_children":[2,4,6,8,10,-1,12,14,-1,-1,16,-1,-1,-1,-1,18,20,-1,-1,-1,-1],"split_conditions":[1.0237591E2,5.293084E1,5.2186012E-2,8.533956E1,5.1095394E1,-4.4672203E-1,2.146502E-2,1.8137906E-2,5.4379273E-2,3.4485856E-1,1.019563E2,4.4182587E-2,-9.223862E-2,-3.1384203E-1,-1.0289536E-1,9.4018875E1,1.8774798E-2,1.547045E-2,1.1584015E-1,2.1019364E-2,-1.4723407E-1],"split_indices":[21,29,14,1,13,0,0,2,0,0,27,0,0,0,0,25,8,0,0,0,0],"split_type":[0,0,0,0,0,0,0,0,0,0,0,0,0,0,0,0,0,0,0,0,0],"sum_hessian":[5.3E1,4.8E1,5E0,7E0,4.1E1,3E0,2E0,5E0,2E0,1E0,4E1,1E0,1E0,3E0,2E0,3.4E1,6E0,2E1,1.4E1,3E0,3E0],"tree_param":{"num_deleted":"0","num_feature":"30","num_nodes":"21","size_leaf_vector":"1"}},{"base_weights":[-1.8215491E-1,2.7658692E-1,-2.2282777E0,-1.3876175E0,7.3118293E-1,2.0193863E-1,-3.2986472E0,-2.658246E-1,-9.7490944E-2,3.2761574E-1,5.648649E-1,6.725617E-2,-1.7912293E-2,-4.1321793E-1,-1.6404533E-1,-5.2688982E-2,5.0753783E-2,7.536471E-1,-4.731903E-1,5.1624388E-2,1.8374145E-1,-6.4871214E-2,-8.143107E-3],"categories":[],"categories_nodes":[],"categories_segments":[],"categories_sizes":[],"default_left":[0,0,0,0,0,0,0,0,0,0,0,0,0,0,0,0,0,0,0,0,0,0,0],"id":28,"left_children":[1,3,5,7,9,11,13,-1,15,-1,17,-1,-1,-1,-1,-1,-1,19,21,-1,-1,-1,-1],"loss_changes":[5.1302986E1,3.5058937E1,2.6678425E1,1.6133554E1,1.338732E1,8.378166E-1,2.8964539E0,0E0,1.8262086E0,0E0,7.2154408E0,0E0,0E0,0E0,0E0,0E0,0E0,6.7701435E0,3.597486E-1,0E0,0E0,0E0,0E0],"parents":[2147483647,0,0,1,1,2,2,3,3,4,4,5,5,6,6,8,8,10,10,17,17,18,18],"right_children":[2,4,6,8,10,12,14,-1,16,-1,18,-1,-1,-1,-1,-1,-1,20,22,-1,-1,-1,-1],"split_conditions":[1.0034445E2,6.471273E1,2.1047711E-2,2.1722997E-2,5.1095394E1,5.1095394E1,8.921496E1,-2.658246E-1,7.7925934E1,3.2761574E-1,1.0440015E-1,6.725617E-2,-1.7912293E-2,-4.1321793E-1,-1.6404533E-1,-5.2688982E-2,5.0753783E-2,4.84088E-2,9.5217865E1,5.1624388E-2,1.8374145E-1,-6.4871214E-2,-8.143107E-3],"split_indices":[23,29,8,0,13,1,3,0,1,0,24,0,0,0,0,0,0,8,1,0,0,0,0],"split_type":[0,0,0,0,0,0,0,0,0,0,0,0,0,0,0,0,0,0,0,0,0,0,0],"sum_hessian":[5.3E1,4.4E1,9E0,9E0,3.5E1,3E0,6E0,4E0,5E0,1E0,3.4E1,1E0,2E0,3E0,3E0,3E0,2E0,2.9E1,5E0,2.5E1,4E0,3E0,2E0],"tree_param":{"num_deleted":"0","num_feature":"30","num_nodes":"23","size_leaf_vector":"1"}},{"base_weights":[-1.6960193E-1,2.5386438E-1,-2.0582402E0,-1.2756317E0,6.716726E-1,1.9408226E-1,-3.0512471E0,-2.4455872E0,-8.806356E-2,3.1123504E-1,5.130147E-1,6.389351E-2,-1.6718037E-2,-3.8222647E-1,-1.5174179E-1,-2.7036706E-1,-7.066269E-2,-4.8737336E-2,4.73704E-2,8.500023E-1,-5.318124E-2,-5.017395E-2,1.0102635E-1,-3.6520135E-2,1.2126261E-1],"categories":[],"categories_nodes":[],"categories_segments":[],"categories_sizes":[],"default_left":[0,0,0,0,0,0,0,0,0,0,0,0,0,0,0,0,0,0,0,0,0,0,0,0,0],"id":29,"left_children":[1,3,5,7,9,11,13,15,17,-1,19,-1,-1,-1,-1,-1,-1,-1,-1,21,23,-1,-1,-1,-1],"loss_changes":[4.3710346E1,2.961343E1,2.2957916E1,1.3678652E1,1.2343704E1,7.4965227E-1,2.4782867E0,3.334961E-1,1.5767865E0,0E0,6.723241E0,0E0,0E0,0E0,0E0,0E0,0E0,0E0,0E0,5.272787E0,5.9722548E0,0E0,0E0,0E0,0E0],"parents":[2147483647,0,0,1,1,2,2,3,3,4,4,5,5,6,6,7,7,8,8,10,10,19,19,20,20],"right_children":[2,4,6,8,10,12,14,16,18,-1,20,-1,-1,-1,-1,-1,-1,-1,-1,22,24,-1,-1,-1,-1],"split_conditions":[1.0034445E2,6.471273E1,2.1047711E-2,2.1722997E-2,5.1095394E1,5.1095394E1,8.921496E1,8.2977615E1,7.7925934E1,3.1123504E-1,9.5217865E1,6.389351E-2,-1.6718037E-2,-3.8222647E-1,-1.5174179E-1,-2.7036706E-1,-7.066269E-2,-4.8737336E-2,4.73704E-2,5.1549114E1,1.0638742E-1,-5.017395E-2,1.0102635E-1,-3.6520135E-2,1.2126261E-1],"split_indices":[23,29,8,0,13,1,3,1,1,0,9,0,0,0,0,0,0,0,0,5,6,0,0,0,0],"split_type":[0,0,0,0,0,0,0,0,0,0,0,0,0,0,0,0,0,0,0,0,0,0,0,0,0],"sum_hessian":[5.3E1,4.4E1,9E0,9E0,3.5E1,3E0,6E0,4E0,5E0,1E0,3.4E1,1E0,2E0,3E0,3E0,3E0,1E0,3E0,2E0,2.1E1,1.3E1,2E0,1.9E1,1.1E1,2E0],"tree_param":{"num_deleted":"0","num_feature":"30","num_nodes":"25","size_leaf_vector":"1"}},{"base_weights":[-1.597232E-1,2.3079808E-1,-1.9010967E0,-1.1823086E0,6.1691666E-1,1.8646622E-1,-2.8224046E0,-2.074456E0,1.2472992E-1,2.9567337E-1,4.6558663E-1,6.06987E-2,-1.5603638E-2,-3.3025718E-1,-1.0813242E-1,-2.5008956E-1,-8.1438445E-2,-2.3424022E-2,4.421234E-2,6.659061E-1,-2.9372978E-1,4.688782E-2,1.730854E-1,-5.1310625E-2,6.2095262E-2],"categories":[],"categories_nodes":[],"categories_segments":[],"categories_sizes":[],"default_left":[0,0,0,0,0,0,0,0,0,0,0,0,0,0,0,0,0,0,0,0,0,0,0,0,0],"id":30,"left_children":[1,3,5,7,9,11,13,15,17,-1,19,-1,-1,-1,-1,-1,-1,-1,-1,21,23,-1,-1,-1,-1],"loss_changes":[3.7161114E1,2.5282589E1,1.975917E1,1.1919456E1,1.137043E1,6.7082983E-1,2.2809143E0,1.187376E0,6.73237E-1,0E0,5.519301E0,0E0,0E0,0E0,0E0,0E0,0E0,0E0,0E0,5.063525E0,1.9238927E0,0E0,0E0,0E0,0E0],"parents":[2147483647,0,0,1,1,2,2,3,3,4,4,5,5,6,6,7,7,8,8,10,10,19,19,20,20],"right_children":[2,4,6,8,10,12,14,16,18,-1,20,-1,-1,-1,-1,-1,-1,-1,-1,22,24,-1,-1,-1,-1],"split_conditions":[1.0034445E2,6.471273E1,2.1047711E-2,5.3147793E1,5.1095394E1,5.1095394E1,5.2186012E-2,1.8137906E-2,3.8548693E-2,2.9567337E-1,9.8561554E1,6.06987E-2,-1.5603638E-2,-3.3025718E-1,-1.0813242E-1,-2.5008956E-1,-8.1438445E-2,-2.3424022E-2,4.421234E-2,5.8762316E-2,5.2186012E-2,4.688782E-2,1.730854E-1,-5.1310625E-2,6.2095262E-2],"split_indices":[23,29,8,11,13,1,14,2,0,0,11,0,0,0,0,0,0,0,0,8,0,0,0,0,0],"split_type":[0,0,0,0,0,0,0,0,0,0,0,0,0,0,0,0,0,0,0,0,0,0,0,0,0],"sum_hessian":[5.3E1,4.4E1,9E0,9E0,3.5E1,3E0,6E0,5E0,4E0,1E0,3.4E1,1E0,2E0,4E0,2E0,3E0,2E0,2E0,2E0,2.7E1,7E0,2.4E1,3E0,6E0,1E0],"tree_param":{"num_deleted":"0","num_feature":"30","num_nodes":"25","size_leaf_vector":"1"}},{"base_weights":[-1.4704189E-1,2.1250916E-1,-1.7503173E0,-1.0951531E0,5.698456E-1,1.790924E-1,-2.602792E0,-1.9222666E0,1.1641388E-1,2.808895E-1,4.2561865E-1,5.7663728E-2,-1.4563496E-2,-3.2879028E-1,-1.266983E-1,-2.3133297E-1,-7.600937E-2,-2.1862539E-2,4.1264854E-2,8.8017784E-2,8.6988527E-1,5.0434817E-2,-5.231281E-2,1.0928841E-1,-1.658249E-3],"categories":[],"categories_nodes":[],"categories_segments":[],"categories_sizes":[],"default_left":[0,0,0,0,0,0,0,0,0,0,0,0,0,0,0,0,0,0,0,0,0,0,0,0,0],"id":31,"left_children":[1,3,5,7,9,11,13,15,17,-1,19,-1,-1,-1,-1,-1,-1,-1,-1,21,23,-1,-1,-1,-1],"loss_changes":[3.1500765E1,2.165146E1,1.6913868E1,1.0244813E1,1.043001E1,6.003533E-1,2.2405205E0,9.685497E-1,5.8646667E-1,0E0,5.172903E0,0E0,0E0,0E0,0E0,0E0,0E0,0E0,0E0,5.6070495E0,2.9833412E0,0E0,0E0,0E0,0E0],"parents":[2147483647,0,0,1,1,2,2,3,3,4,4,5,5,6,6,7,7,8,8,10,10,19,19,20,20],"right_children":[2,4,6,8,10,12,14,16,18,-1,20,-1,-1,-1,-1,-1,-1,-1,-1,22,24,-1,-1,-1,-1],"split_conditions":[1.0034445E2,6.471273E1,2.1047711E-2,5.3147793E1,5.1095394E1,5.1095394E1,8.921496E1,1.8137906E-2,3.8548693E-2,2.808895E-1,2.1209491E-2,5.7663728E-2,-1.4563496E-2,-3.2879028E-1,-1.266983E-1,-2.3133297E-1,-7.600937E-2,-2.1862539E-2,4.1264854E-2,9.4018875E1,9.91282E1,5.0434817E-2,-5.231281E-2,1.0928841E-1,-1.658249E-3],"split_indices":[23,29,8,11,13,1,3,2,0,0,16,0,0,0,0,0,0,0,0,9,5,0,0,0,0],"split_type":[0,0,0,0,0,0,0,0,0,0,0,0,0,0,0,0,0,0,0,0,0,0,0,0,0],"sum_hessian":[5.3E1,4.4E1,9E0,9E0,3.5E1,3E0,6E0,5E0,4E0,1E0,3.4E1,1E0,2E0,3E0,3E0,3E0,2E0,2E0,2E0,2E1,1.4E1,1.2E1,8E0,1.1E1,3E0],"tree_param":{"num_deleted":"0","num_feature":"30","num_nodes":"25","size_leaf_vector":"1"}},{"base_weights":[-1.3814756E-1,1.9345051E-1,-1.6165241E0,-1.0144306E0,5.235994E-1,1.7195892E-1,-2.4075825E0,-1.781262E0,1.0865326E-1,2.6684496E-1,3.8607657E-1,5.478058E-2,-1.3592529E-2,-3.0413112E-1,-1.171958E-1,-2.1398287E-1,-7.0941925E-2,-2.0404816E-2,3.8513694E-2,1.3030582E-2,7.376739E-1,2.7260063E-2,-5.5154294E-2,1.4497909E-2,1.3142599E-1],"categories":[],"categories_nodes":[],"categories_segments":[],"categories_sizes":[],"default_left":[0,0,0,0,0,0,0,0,0,0,0,0,0,0,0,0,0,0,0,0,0,0,0,0,0],"id":32,"left_children":[1,3,5,7,9,11,13,15,17,-1,19,-1,-1,-1,-1,-1,-1,-1,-1,21,23,-1,-1,-1,-1],"loss_changes":[2.6784967E1,1.8476282E1,1.4561947E1,8.805699E0,9.588546E0,5.373299E-1,1.9170685E0,7.879276E-1,5.1087064E-1,0E0,4.5810566E0,0E0,0E0,0E0,0E0,0E0,0E0,0E0,0E0,2.7881854E0,5.9607706E0,0E0,0E0,0E0,0E0],"parents":[2147483647,0,0,1,1,2,2,3,3,4,4,5,5,6,6,7,7,8,8,10,10,19,19,20,20],"right_children":[2,4,6,8,10,12,14,16,18,-1,20,-1,-1,-1,-1,-1,-1,-1,-1,22,24,-1,-1,-1,-1],"split_conditions":[1.0034445E2,6.471273E1,2.1047711E-2,5.3147793E1,5.1095394E1,5.1095394E1,8.921496E1,1.8137906E-2,3.8548693E-2,2.6684496E-1,9.338426E1,5.478058E-2,-1.3592529E-2,-3.0413112E-1,-1.171958E-1,-2.1398287E-1,-7.0941925E-2,-2.0404816E-2,3.8513694E-2,9.5217865E1,2.0318268E-2,2.7260063E-2,-5.5154294E-2,1.4497909E-2,1.3142599E-1],"split_indices":[23,29,8,11,13,1,3,2,0,0,25,0,0,0,0,0,0,0,0,29,18,0,0,0,0],"split_type":[0,0,0,0,0,0,0,0,0,0,0,0,0,0,0,0,0,0,0,0,0,0,0,0,0],"sum_hessian":[5.3E1,4.4E1,9E0,9E0,3.5E1,3E0,6E0,5E0,4E0,1E0,3.4E1,1E0,2E0,3E0,3E0,3E0,2E0,2E0,2E0,1.7E1,1.7E1,1.2E1,5E0,9E0,8E0],"tree_param":{"num_deleted":"0","num_feature":"30","num_nodes":"25","size_leaf_vector":"1"}},{"base_weights":[-1.2918542E-1,1.0007134E-1,-1.9799181E0,-1.1031699E0,3.268775E-1,-2.8132135E-1,-2.088852E-1,-1.6506239E0,3.5946146E-1,2.5350267E-1,2.111903E-1,2.290306E-2,-5.4235842E-2,-1.9793426E-1,-6.621247E-2,1.1332321E-2,4.25869E-2,4.97193E-1,-1.8187946E-1,2.2639304E-2,1.2718607E-1,2.449646E-2,-6.3594185E-2],"categories":[],"categories_nodes":[],"categories_segments":[],"categories_sizes":[],"default_left":[0,0,0,0,0,0,0,0,0,0,0,0,0,0,0,0,0,0,0,0,0,0,0],"id":33,"left_children":[1,3,5,7,9,-1,11,13,15,-1,17,-1,-1,-1,-1,-1,-1,19,21,-1,-1,-1,-1],"loss_changes":[2.3109955E1,1.3732825E1,8.267122E0,6.9991236E0,1.0193721E1,0E0,5.623162E-1,6.3905716E-1,7.754564E-4,0E0,4.699609E0,0E0,0E0,0E0,0E0,0E0,0E0,4.7467804E0,3.6444323E0,0E0,0E0,0E0,0E0],"parents":[2147483647,0,0,1,1,2,2,3,3,4,4,6,6,7,7,8,8,10,10,17,17,18,18],"right_children":[2,4,6,8,10,-1,12,14,16,-1,18,-1,-1,-1,-1,-1,-1,20,22,-1,-1,-1,-1],"split_conditions":[1.0237591E2,5.293084E1,5.2186012E-2,8.533956E1,5.1095394E1,-2.8132135E-1,2.146502E-2,1.8137906E-2,4.728805E-2,2.5350267E-1,9.338426E1,2.290306E-2,-5.4235842E-2,-1.9793426E-1,-6.621247E-2,1.1332321E-2,4.25869E-2,9.301041E1,9.307589E1,2.2639304E-2,1.2718607E-1,2.449646E-2,-6.3594185E-2],"split_indices":[21,29,14,1,13,0,0,2,0,0,1,0,0,0,0,0,0,1,25,0,0,0,0],"split_type":[0,0,0,0,0,0,0,0,0,0,0,0,0,0,0,0,0,0,0,0,0,0,0],"sum_hessian":[5.3E1,4.8E1,5E0,7E0,4.1E1,3E0,2E0,5E0,2E0,1E0,4E1,1E0,1E0,3E0,2E0,1E0,1E0,2.3E1,1.7E1,1.8E1,5E0,9E0,8E0],"tree_param":{"num_deleted":"0","num_feature":"30","num_nodes":"23","size_leaf_vector":"1"}},{"base_weights":[-1.192047E-1,9.607206E-2,-1.8574308E0,-1.0590248E0,4.1940522E-1,1.2821579E-2,-2.2802033E0,-1.7506275E0,-1.9091797E-1,2.4082756E-1,3.0369085E-1,-2.758891E-1,-1.04144804E-1,-1.8911569E-1,-5.2399065E-2,-5.424938E-1,3.4148917E-1,2.3022017E-2,7.32515E-1,-1.6676713E-2,-6.1214704E-2,1.0765838E-2,4.0457536E-2,-2.6600335E-2,6.343231E-2,1.3338967E-1,2.9843444E-2],"categories":[],"categories_nodes":[],"categories_segments":[],"categories_sizes":[],"default_left":[0,0,0,0,0,0,0,0,0,0,0,0,0,0,0,0,0,0,0,0,0,0,0,0,0,0,0],"id":34,"left_children":[1,3,5,7,9,-1,11,13,15,-1,17,-1,-1,-1,-1,19,21,23,25,-1,-1,-1,-1,-1,-1,-1,-1],"loss_changes":[2.0385231E1,1.8744736E1,5.329218E0,6.270009E0,8.2441225E0,0E0,9.164238E-2,4.3323517E-2,1.3083447E0,0E0,4.5567236E0,0E0,0E0,0E0,0E0,2.5962591E-3,6.9853663E-4,4.4090886E0,3.51764E0,0E0,0E0,0E0,0E0,0E0,0E0,0E0,0E0],"parents":[2147483647,0,0,1,1,2,2,3,3,4,4,6,6,7,7,8,8,10,10,15,15,16,16,17,17,18,18],"right_children":[2,4,6,8,10,-1,12,14,16,-1,18,-1,-1,-1,-1,20,22,24,26,-1,-1,-1,-1,-1,-1,-1,-1],"split_conditions":[1.0237591E2,6.436134E1,5.1549114E1,2.773716E-2,5.1095394E1,1.2821579E-2,8.9965256E1,1.3939773E-1,8.921496E1,2.4082756E-1,2.1760657E-2,-2.758891E-1,-1.04144804E-1,-1.8911569E-1,-5.2399065E-2,3.8548693E-2,4.728805E-2,2.2920525E-2,9.317419E1,-1.6676713E-2,-6.1214704E-2,1.0765838E-2,4.0457536E-2,-2.6600335E-2,6.343231E-2,1.3338967E-1,2.9843444E-2],"split_indices":[25,29,1,0,13,0,1,2,1,0,16,0,0,0,0,0,0,10,3,0,0,0,0,0,0,0,0],"split_type":[0,0,0,0,0,0,0,0,0,0,0,0,0,0,0,0,0,0,0,0,0,0,0,0,0,0,0],"sum_hessian":[5.3E1,4.8E1,5E0,1E1,3.8E1,1E0,4E0,5E0,5E0,1E0,3.7E1,2E0,2E0,4E0,1E0,3E0,2E0,2.3E1,1.4E1,1E0,2E0,1E0,1E0,1.6E1,7E0,5E0,9E0],"tree_param":{"num_deleted":"0","num_feature":"30","num_nodes":"27","size_leaf_vector":"1"}},{"base_weights":[-1.1088548E-1,8.999034E-2,-1.7328905E0,-9.775013E-1,3.8877028E-1,1.2180328E-2,-2.1281898E0,-1.6158162E-1,-1.7626953E-1,2.287861E-1,2.7858734E-1,-2.574964E-1,-9.720192E-2,-5.0771523E-2,3.2441458E-1,2.225717E-2,6.701431E-1,1.0227585E-2,3.8434602E-2,-2.4096455E-2,5.788212E-2,1.2227364E-1,2.715729E-2],"categories":[],"categories_nodes":[],"categories_segments":[],"categories_sizes":[],"default_left":[0,0,0,0,0,0,0,0,0,0,0,0,0,0,0,0,0,0,0,0,0,0,0],"id":35,"left_children":[1,3,5,7,9,-1,11,-1,13,-1,15,-1,-1,-1,17,19,21,-1,-1,-1,-1,-1,-1],"loss_changes":[1.7750309E1,1.6008333E1,4.6581764E0,5.3409986E0,7.5232787E0,0E0,7.982063E-2,0E0,1.1604078E0,0E0,3.7990513E0,0E0,0E0,0E0,6.299615E-4,3.655469E0,2.9716473E0,0E0,0E0,0E0,0E0,0E0,0E0],"parents":[2147483647,0,0,1,1,2,2,3,3,4,4,6,6,8,8,10,10,14,14,15,15,16,16],"right_children":[2,4,6,8,10,-1,12,-1,14,-1,16,-1,-1,-1,18,20,22,-1,-1,-1,-1,-1,-1],"split_conditions":[1.0237591E2,6.436134E1,5.1549114E1,2.773716E-2,5.1095394E1,1.2180328E-2,8.9965256E1,-1.6158162E-1,8.921496E1,2.287861E-1,2.1760657E-2,-2.574964E-1,-9.720192E-2,-5.0771523E-2,4.728805E-2,2.2920525E-2,9.317419E1,1.0227585E-2,3.8434602E-2,-2.4096455E-2,5.788212E-2,1.2227364E-1,2.715729E-2],"split_indices":[25,29,1,0,13,0,1,0,1,0,16,0,0,0,0,10,3,0,0,0,0,0,0],"split_type":[0,0,0,0,0,0,0,0,0,0,0,0,0,0,0,0,0,0,0,0,0,0,0],"sum_hessian":[5.3E1,4.8E1,5E0,1E1,3.8E1,1E0,4E0,5E0,5E0,1E0,3.7E1,2E0,2E0,3E0,2E0,2.3E1,1.4E1,1E0,1E0,1.6E1,7E0,5E0,9E0],"tree_param":{"num_deleted":"0","num_feature":"30","num_nodes":"23","size_leaf_vector":"1"}},{"base_weights":[-1.0154322E-1,8.6057E-2,-1.6166878E0,-8.9463145E-1,3.6045486E-1,1.1571503E-2,-1.9863113E0,-1.4811636E0,-1.5899403E-1,2.1734695E-1,2.5554737E-1,-5.9513092E-2,-2.1853237E-1,-1.6105965E-1,-4.1699983E-2,-4.69635E-1,3.0819193E-1,2.1436691E-2,6.1308795E-1,-1.3304139E-2,-5.3748578E-2,9.716034E-3,3.651276E-2,2.538677E-2,-5.7930537E-2,1.1208395E-1,2.4712829E-2],"categories":[],"categories_nodes":[],"categories_segments":[],"categories_sizes":[],"default_left":[0,0,0,0,0,0,0,0,0,0,0,0,0,0,0,0,0,0,0,0,0,0,0,0,0,0,0],"id":36,"left_children":[1,3,5,7,9,-1,11,13,15,-1,17,-1,-1,-1,-1,19,21,23,25,-1,-1,-1,-1,-1,-1,-1,-1],"loss_changes":[1.5488167E1,1.3508316E1,4.071866E0,4.510729E0,6.862329E0,0E0,8.37574E-2,1.5480804E-1,1.0155004E0,0E0,3.1676126E0,0E0,0E0,0E0,0E0,1.9844651E-2,5.697608E-4,3.4982128E0,2.5102568E0,0E0,0E0,0E0,0E0,0E0,0E0,0E0,0E0],"parents":[2147483647,0,0,1,1,2,2,3,3,4,4,6,6,7,7,8,8,10,10,15,15,16,16,17,17,18,18],"right_children":[2,4,6,8,10,-1,12,14,16,-1,18,-1,-1,-1,-1,20,22,24,26,-1,-1,-1,-1,-1,-1,-1,-1],"split_conditions":[1.0237591E2,6.436134E1,5.1549114E1,2.773716E-2,5.1095394E1,1.1571503E-2,1.56167215E-2,1.3939773E-1,8.921496E1,2.1734695E-1,2.1760657E-2,-5.9513092E-2,-2.1853237E-1,-1.6105965E-1,-4.1699983E-2,3.8548693E-2,4.728805E-2,9.583864E1,9.317419E1,-1.3304139E-2,-5.3748578E-2,9.716034E-3,3.651276E-2,2.538677E-2,-5.7930537E-2,1.1208395E-1,2.4712829E-2],"split_indices":[25,29,1,0,13,0,0,2,1,0,16,0,0,0,0,0,0,11,3,0,0,0,0,0,0,0,0],"split_type":[0,0,0,0,0,0,0,0,0,0,0,0,0,0,0,0,0,0,0,0,0,0,0,0,0,0,0],"sum_hessian":[5.3E1,4.8E1,5E0,1E1,3.8E1,1E0,4E0,5E0,5E0,1E0,3.7E1,1E0,3E0,4E0,1E0,3E0,2E0,2.3E1,1.4E1,1E0,2E0,1E0,1E0,1.7E1,6E0,5E0,9E0],"tree_param":{"num_deleted":"0","num_feature":"30","num_nodes":"27","size_leaf_vector":"1"}},{"base_weights":[-9.450701E-2,7.945337E-2,-1.4994322E0,-7.781814E-1,3.481945E-1,1.0992813E-2,-1.84329E0,-1.3668398E0,-1.6244833E-1,1.0796399E0,1.1715444E-1,-2.2576116E-1,-8.145383E-2,-1.4817482E-1,-3.9614867E-2,-4.0309754E-1,2.927831E-1,1.7101243E0,2.3322754E-1,-1.6419019E-1,5.528539E-1,-1.701762E-2,-5.0165303E-2,9.230423E-3,3.4687042E-2,1.9750443E-1,3.25222E-2,3.749161E-2,-1.6676331E-2,5.7171164E-3,-5.518341E-2,1.2883893E-1,1.6452111E-2],"categories":[],"categories_nodes":[],"categories_segments":[],"categories_sizes":[],"default_left":[0,0,0,0,0,0,0,0,0,0,0,0,0,0,0,0,0,0,0,0,0,0,0,0,0,0,0,0,0,0,0,0,0],"id":37,"left_children":[1,3,5,7,9,-1,11,13,15,17,19,-1,-1,-1,-1,21,23,25,27,29,31,-1,-1,-1,-1,-1,-1,-1,-1,-1,-1,-1,-1],"loss_changes":[1.3316808E1,1.1564565E1,3.522975E0,4.1274343E0,6.295256E0,0E0,2.9225922E-1,8.225155E-2,8.848777E-1,4.4040003E0,3.7682245E0,0E0,0E0,0E0,0E0,2.9408932E-2,5.1251054E-4,1.1921129E0,3.4589282E-1,1.6619272E0,3.2156227E0,0E0,0E0,0E0,0E0,0E0,0E0,0E0,0E0,0E0,0E0,0E0,0E0],"parents":[2147483647,0,0,1,1,2,2,3,3,4,4,6,6,7,7,8,8,9,9,10,10,15,15,16,16,17,17,18,18,19,19,20,20],"right_children":[2,4,6,8,10,-1,12,14,16,18,20,-1,-1,-1,-1,22,24,26,28,30,32,-1,-1,-1,-1,-1,-1,-1,-1,-1,-1,-1,-1],"split_conditions":[1.0237591E2,6.471273E1,5.1549114E1,2.773716E-2,5.3095005E1,1.0992813E-2,8.9965256E1,1.3939773E-1,8.921496E1,9.384062E1,2.7351765E-2,-2.2576116E-1,-8.145383E-2,-1.4817482E-1,-3.9614867E-2,3.8548693E-2,4.728805E-2,1.6213816E-2,5.278038E1,9.530803E1,9.317419E1,-1.701762E-2,-5.0165303E-2,9.230423E-3,3.4687042E-2,1.9750443E-1,3.25222E-2,3.749161E-2,-1.6676331E-2,5.7171164E-3,-5.518341E-2,1.2883893E-1,1.6452111E-2],"split_indices":[25,29,1,0,1,0,1,2,1,21,18,0,0,0,0,0,0,0,1,11,3,0,0,0,0,0,0,0,0,0,0,0,0],"split_type":[0,0,0,0,0,0,0,0,0,0,0,0,0,0,0,0,0,0,0,0,0,0,0,0,0,0,0,0,0,0,0,0,0],"sum_hessian":[5.3E1,4.8E1,5E0,1.1E1,3.7E1,1E0,4E0,5E0,6E0,8E0,2.9E1,2E0,2E0,4E0,1E0,4E0,2E0,4E0,4E0,1.8E1,1.1E1,2E0,2E0,1E0,1E0,3E0,1E0,3E0,1E0,1.2E1,6E0,3E0,8E0],"tree_param":{"num_deleted":"0","num_feature":"30","num_nodes":"33","size_leaf_vector":"1"}},{"base_weights":[-8.802944E-2,7.42769E-2,-1.3988596E0,-7.179518E-1,3.2249972E-1,1.0443116E-2,-1.720404E0,-1.2614549E0,-1.4952742E-1,1.9660453E-1,2.249432E-1,-2.107104E-1,-7.602361E-2,-1.3632087E-1,-3.763428E-2,-3.7622374E-1,2.781423E-1,7.686702E-1,9.4909914E-2,-1.5882874E-2,-4.6821084E-2,8.768844E-3,3.29525E-2,4.0102236E-2,1.12519324E-1,-1.5869675E-2,5.0967854E-2],"categories":[],"categories_nodes":[],"categories_segments":[],"categories_sizes":[],"default_left":[0,0,0,0,0,0,0,0,0,0,0,0,0,0,0,0,0,0,0,0,0,0,0,0,0,0,0],"id":38,"left_children":[1,3,5,7,9,-1,11,13,15,-1,17,-1,-1,-1,-1,19,21,23,25,-1,-1,-1,-1,-1,-1,-1,-1],"loss_changes":[1.159273E1,9.867352E0,3.0799122E0,3.5186625E0,5.6506186E0,0E0,2.5458813E-1,2.7348518E-2,7.8330183E-1,0E0,2.5430422E0,0E0,0E0,0E0,0E0,2.5622368E-2,4.6256185E-4,4.6629715E-1,3.3417149E0,0E0,0E0,0E0,0E0,0E0,0E0,0E0,0E0],"parents":[2147483647,0,0,1,1,2,2,3,3,4,4,6,6,7,7,8,8,10,10,15,15,16,16,17,17,18,18],"right_children":[2,4,6,8,10,-1,12,14,16,-1,18,-1,-1,-1,-1,20,22,24,26,-1,-1,-1,-1,-1,-1,-1,-1],"split_conditions":[1.0237591E2,6.471273E1,5.1549114E1,2.773716E-2,5.1095394E1,1.0443116E-2,8.9965256E1,1.3939773E-1,8.921496E1,1.9660453E-1,5.293084E1,-2.107104E-1,-7.602361E-2,-1.3632087E-1,-3.763428E-2,3.8548693E-2,4.728805E-2,5.278038E1,2.7351765E-2,-1.5882874E-2,-4.6821084E-2,8.768844E-3,3.29525E-2,4.0102236E-2,1.12519324E-1,-1.5869675E-2,5.0967854E-2],"split_indices":[25,29,1,0,13,0,1,2,1,0,1,0,0,0,0,0,0,1,18,0,0,0,0,0,0,0,0],"split_type":[0,0,0,0,0,0,0,0,0,0,0,0,0,0,0,0,0,0,0,0,0,0,0,0,0,0,0],"sum_hessian":[5.3E1,4.8E1,5E0,1.1E1,3.7E1,1E0,4E0,5E0,6E0,1E0,3.6E1,2E0,2E0,4E0,1E0,4E0,2E0,6E0,3E1,2E0,2E0,1E0,1E0,4E0,2E0,1.9E1,1.1E1],"tree_param":{"num_deleted":"0","num_feature":"30","num_nodes":"27","size_leaf_vector":"1"}},{"base_weights":[-8.083485E-2,1.2301382E-1,-9.9007034E-1,-5.59983E-1,3.3415526E-1,5.788994E-2,-1.4474661E0,-1.1299699E-1,-7.2852E-2,1.8677445E-1,2.3411605E-1,2.8890992E-2,-1.1542003E-2,-1.8089628E-1,-7.24103E-2,-3.0924072E-2,3.454132E-1,-2.5622897E-2,4.9536222E-1,8.330536E-3,4.3481447E-2,3.402354E-2,-3.5233308E-2,5.521054E-3,8.804737E-2],"categories":[],"categories_nodes":[],"categories_segments":[],"categories_sizes":[],"default_left":[0,0,0,0,0,0,0,0,0,0,0,0,0,0,0,0,0,0,0,0,0,0,0,0,0],"id":39,"left_children":[1,3,5,7,9,11,13,-1,15,-1,17,-1,-1,-1,-1,-1,19,21,23,-1,-1,-1,-1,-1,-1],"loss_changes":[1.01305E1,6.6765237E0,4.87712E0,2.97192E0,4.9323993E0,1.9349824E-1,5.205784E-1,0E0,7.989281E-1,0E0,2.31979E0,0E0,0E0,0E0,0E0,0E0,3.4075916E-2,2.2714093E0,2.8330154E0,0E0,0E0,0E0,0E0,0E0,0E0],"parents":[2147483647,0,0,1,1,2,2,3,3,4,4,5,5,6,6,8,8,10,10,16,16,17,17,18,18],"right_children":[2,4,6,8,10,12,14,-1,16,-1,18,-1,-1,-1,-1,-1,20,22,24,-1,-1,-1,-1,-1,-1],"split_conditions":[1.0034445E2,5.293084E1,2.1047711E-2,2.1722997E-2,5.1095394E1,5.1095394E1,8.921496E1,-1.1299699E-1,4.84088E-2,1.8677445E-1,2.0819614E-2,2.8890992E-2,-1.1542003E-2,-1.8089628E-1,-7.24103E-2,-3.0924072E-2,4.728805E-2,1.5623049E-2,9.4018875E1,8.330536E-3,4.3481447E-2,3.402354E-2,-3.5233308E-2,5.521054E-3,8.804737E-2],"split_indices":[23,25,8,0,13,1,3,0,8,0,18,0,0,0,0,0,0,18,23,0,0,0,0,0,0],"split_type":[0,0,0,0,0,0,0,0,0,0,0,0,0,0,0,0,0,0,0,0,0,0,0,0,0],"sum_hessian":[5.3E1,4.4E1,9E0,1E1,3.4E1,3E0,6E0,4E0,6E0,1E0,3.3E1,1E0,2E0,3E0,3E0,4E0,2E0,1.7E1,1.6E1,1E0,1E0,8E0,9E0,8E0,8E0],"tree_param":{"num_deleted":"0","num_feature":"30","num_nodes":"25","size_leaf_vector":"1"}},{"base_weights":[-7.365926E-2,6.839682E-2,-1.2215074E0,-5.9705E-1,2.7673802E-1,9.644699E-3,-1.5043876E0,-1.0588207E0,-1.1595372E-1,1.7743568E-1,1.8830624E-1,-1.8460338E-1,-6.6127904E-2,-1.1501747E-1,-3.010254E-2,-3.1810609E-1,2.5961813E-1,3.637832E-1,-1.2596186E-1,-1.2762452E-2,-4.025523E-2,7.913971E-3,3.1028748E-2,-4.7795106E-2,4.6202954E-2,-4.7644917E-2,1.9645978E-2],"categories":[],"categories_nodes":[],"categories_segments":[],"categories_sizes":[],"default_left":[0,0,0,0,0,0,0,0,0,0,0,0,0,0,0,0,0,0,0,0,0,0,0,0,0,0,0],"id":40,"left_children":[1,3,5,7,9,-1,11,13,15,-1,17,-1,-1,-1,-1,19,21,23,25,-1,-1,-1,-1,-1,-1,-1,-1],"loss_changes":[8.888722E0,6.9585857E0,2.3820343E0,2.5431004E0,4.6984863E0,0E0,2.1947956E-1,6.913376E-2,6.140452E-1,0E0,2.0862546E0,0E0,0E0,0E0,0E0,2.9051721E-2,2.8781146E-3,2.2055633E0,1.6756686E0,0E0,0E0,0E0,0E0,0E0,0E0,0E0,0E0],"parents":[2147483647,0,0,1,1,2,2,3,3,4,4,6,6,7,7,8,8,10,10,15,15,16,16,17,17,18,18],"right_children":[2,4,6,8,10,-1,12,14,16,-1,18,-1,-1,-1,-1,20,22,24,26,-1,-1,-1,-1,-1,-1,-1,-1],"split_conditions":[1.0237591E2,6.471273E1,5.1549114E1,2.773716E-2,5.1095394E1,9.644699E-3,8.9965256E1,1.3939773E-1,8.921496E1,1.7743568E-1,9.5217865E1,-1.8460338E-1,-6.6127904E-2,-1.1501747E-1,-3.010254E-2,3.8548693E-2,4.728805E-2,5.1549114E1,2.1209491E-2,-1.2762452E-2,-4.025523E-2,7.913971E-3,3.1028748E-2,-4.7795106E-2,4.6202954E-2,-4.7644917E-2,1.9645978E-2],"split_indices":[25,29,1,0,13,0,1,2,1,0,9,0,0,0,0,0,0,5,20,0,0,0,0,0,0,0,0],"split_type":[0,0,0,0,0,0,0,0,0,0,0,0,0,0,0,0,0,0,0,0,0,0,0,0,0,0,0],"sum_hessian":[5.3E1,4.8E1,5E0,1.1E1,3.7E1,1E0,4E0,5E0,6E0,1E0,3.6E1,2E0,2E0,4E0,1E0,4E0,2E0,2.3E1,1.3E1,2E0,2E0,1E0,1E0,2E0,2.1E1,6E0,7E0],"tree_param":{"num_deleted":"0","num_feature":"30","num_nodes":"27","size_leaf_vector":"1"}},{"base_weights":[-7.0967995E-2,5.7444E-1,-2.8962028E-1,1.2044868E0,9.05821E-2,-1.1377913E0,5.930214E-2,3.0652871E-2,1.5768337E-1,2.4742253E-2,-1.6732408E-2,-3.5609055E-2,-1.3587927E0,6.9233197E-1,-9.49971E-2,-1.5699425E-1,-7.023697E-2,1.0594864E-1,-2.798462E-2,2.3168412E-1,-2.9323554E-1,1.368866E-2,-1.7886354E-2,-5.5157472E-3,4.3210473E-2,6.5793993E-4,-5.27156E-2],"categories":[],"categories_nodes":[],"categories_segments":[],"categories_sizes":[],"default_left":[0,0,0,0,0,0,0,0,0,0,0,0,0,0,0,0,0,0,0,0,0,0,0,0,0,0,0],"id":41,"left_children":[1,3,5,7,9,11,13,-1,-1,-1,-1,-1,15,17,19,-1,-1,-1,21,23,25,-1,-1,-1,-1,-1,-1],"loss_changes":[7.786846E0,4.158839E0,1.2201255E1,1.5227661E0,4.0545076E-1,1.5892305E0,2.9960501E0,0E0,0E0,0E0,0E0,0E0,1.447506E-1,1.6164536E0,1.6869574E0,0E0,0E0,0E0,9.911079E-2,5.987235E-1,1.1255938E0,0E0,0E0,0E0,0E0,0E0,0E0],"parents":[2147483647,0,0,1,1,2,2,3,3,4,4,5,5,6,6,12,12,13,13,14,14,18,18,19,19,20,20],"right_children":[2,4,6,8,10,12,14,-1,-1,-1,-1,-1,16,18,20,-1,-1,-1,22,24,26,-1,-1,-1,-1,-1,-1],"split_conditions":[5.3147793E1,1.6213816E-2,8.9965256E1,5.3050125E1,5.3050125E1,2.0269345E-2,8.9965256E1,3.0652871E-2,1.5768337E-1,2.4742253E-2,-1.6732408E-2,-3.5609055E-2,1.0141686E2,9.317419E1,9.305976E1,-1.5699425E-1,-7.023697E-2,1.0594864E-1,1.6753728E-2,5.2186012E-2,9.5217865E1,1.368866E-2,-1.7886354E-2,-5.5157472E-3,4.3210473E-2,6.5793993E-4,-5.27156E-2],"split_indices":[1,0,5,7,9,8,15,0,0,0,0,0,29,3,23,0,0,0,0,28,11,0,0,0,0,0,0],"split_type":[0,0,0,0,0,0,0,0,0,0,0,0,0,0,0,0,0,0,0,0,0,0,0,0,0,0,0],"sum_hessian":[5.3E1,1.3E1,4E1,5E0,8E0,1.1E1,2.9E1,2E0,3E0,5E0,3E0,3E0,8E0,5E0,2.4E1,5E0,3E0,3E0,2E0,9E0,1.5E1,1E0,1E0,4E0,5E0,7E0,8E0],"tree_param":{"num_deleted":"0","num_feature":"30","num_nodes":"27","size_leaf_vector":"1"}},{"base_weights":[-6.348426E-2,1.0369933E-1,-8.0946195E-1,1.6067962E-1,3.3019934E-2,1.52721405E-2,-1.1651012E0,-4.6629307E-1,2.5745097E-1,2.3899078E-2,-1.3896435E-2,-1.6183014E-1,-6.6016085E-2,6.763764E-2,-6.866291E-1,-2.1587117E-2,4.8851687E-1,2.2069043E-2,-1.0796103E-2,-9.334892E-2,-3.6647417E-2,2.5852457E-2,-3.7864685E-2,7.954531E-2,1.9411622E-2],"categories":[],"categories_nodes":[],"categories_segments":[],"categories_sizes":[],"default_left":[0,0,0,0,0,0,0,0,0,0,0,0,0,0,0,0,0,0,0,0,0,0,0,0,0],"id":42,"left_children":[1,3,5,-1,7,9,11,13,15,-1,-1,-1,-1,17,19,21,23,-1,-1,-1,-1,-1,-1,-1,-1],"loss_changes":[6.8185625E0,4.727653E0,2.950872E0,0E0,5.050746E0,1.712335E-1,5.3353405E-1,1.6934607E0,2.0093071E0,0E0,0E0,0E0,0E0,1.5820526E-1,4.482355E-1,1.5981386E0,1.3817472E0,0E0,0E0,0E0,0E0,0E0,0E0,0E0,0E0],"parents":[2147483647,0,0,1,1,2,2,4,4,5,5,6,6,7,7,8,8,13,13,14,14,15,15,16,16],"right_children":[2,4,6,-1,8,10,12,14,16,-1,-1,-1,-1,18,20,22,24,-1,-1,-1,-1,-1,-1,-1,-1],"split_conditions":[1.0034445E2,5.1095394E1,2.1047711E-2,1.6067962E-1,6.788805E1,5.1095394E1,8.5918945E1,5.3147793E1,2.0318268E-2,2.3899078E-2,-1.3896435E-2,-1.6183014E-1,-6.6016085E-2,2.0269345E-2,1.8137906E-2,9.530803E1,9.317419E1,2.2069043E-2,-1.0796103E-2,-9.334892E-2,-3.6647417E-2,2.5852457E-2,-3.7864685E-2,7.954531E-2,1.9411622E-2],"split_indices":[23,13,8,0,19,1,3,1,18,0,0,0,0,0,2,11,3,0,0,0,0,0,0,0,0],"split_type":[0,0,0,0,0,0,0,0,0,0,0,0,0,0,0,0,0,0,0,0,0,0,0,0,0],"sum_hessian":[5.3E1,4.4E1,9E0,1E0,4.3E1,3E0,6E0,1.3E1,3E1,1E0,2E0,2E0,4E0,4E0,9E0,1.4E1,1.6E1,2E0,2E0,4E0,5E0,8E0,6E0,7E0,9E0],"tree_param":{"num_deleted":"0","num_feature":"30","num_nodes":"25","size_leaf_vector":"1"}},{"base_weights":[-5.8783356E-2,5.8307104E-2,-1.0052248E0,1.526455E-1,-4.0804544E-3,3.9482117E-3,-1.2220627E0,-4.2814583E-1,1.6566227E-1,-1.5104142E-1,-5.26357E-2,6.312714E-2,-6.3096774E-1,5.907864E-1,1.7818592E-2,2.0597585E-2,-1.0076395E-2,-8.588105E-2,-3.359375E-2,2.1918107E-2,1.00049786E-1,6.9629975E-2,-1.3045204E-2],"categories":[],"categories_nodes":[],"categories_segments":[],"categories_sizes":[],"default_left":[0,0,0,0,0,0,0,0,0,0,0,0,0,0,0,0,0,0,0,0,0,0,0],"id":43,"left_children":[1,3,5,-1,7,-1,9,11,13,-1,-1,15,17,19,21,-1,-1,-1,-1,-1,-1,-1,-1],"loss_changes":[6.042853E0,4.494342E0,1.4074411E0,0E0,3.5260644E0,0E0,2.0802212E-1,1.434804E0,2.18929E0,0E0,0E0,1.3781309E-1,3.83698E-1,1.1509681E0,2.807002E0,0E0,0E0,0E0,0E0,0E0,0E0,0E0,0E0],"parents":[2147483647,0,0,1,1,2,2,4,4,6,6,7,7,8,8,11,11,12,12,13,13,14,14],"right_children":[2,4,6,-1,8,-1,10,12,14,-1,-1,16,18,20,22,-1,-1,-1,-1,-1,-1,-1,-1],"split_conditions":[1.0237591E2,5.1095394E1,5.1549114E1,1.526455E-1,7.7925934E1,3.9482117E-3,8.9965256E1,5.3147793E1,9.092327E1,-1.5104142E-1,-5.26357E-2,2.0269345E-2,1.8137906E-2,1.8774798E-2,8.921496E1,2.0597585E-2,-1.0076395E-2,-8.588105E-2,-3.359375E-2,2.1918107E-2,1.00049786E-1,6.9629975E-2,-1.3045204E-2],"split_indices":[25,13,1,0,17,0,1,1,9,0,0,0,2,4,19,0,0,0,0,0,0,0,0],"split_type":[0,0,0,0,0,0,0,0,0,0,0,0,0,0,0,0,0,0,0,0,0,0,0],"sum_hessian":[5.3E1,4.8E1,5E0,1E0,4.7E1,1E0,4E0,1.3E1,3.4E1,2E0,2E0,4E0,9E0,8E0,2.6E1,2E0,2E0,4E0,5E0,5E0,3E0,4E0,2.2E1],"tree_param":{"num_deleted":"0","num_feature":"30","num_nodes":"23","size_leaf_vector":"1"}},{"base_weights":[-5.2488327E-2,5.7011742E-2,-9.3799084E-1,1.4501305E-1,-2.2226174E-3,3.7506104E-3,-1.1405914E0,-3.931141E-1,1.5419747E-1,-1.4097188E-1,-4.912669E-2,5.8918763E-2,-5.798191E-1,5.452584E-1,1.813281E-2,1.9224294E-2,-9.404501E-3,-7.9010546E-2,-3.0794397E-2,2.0091502E-2,9.254589E-2,6.4059295E-2,-1.17973E-2],"categories":[],"categories_nodes":[],"categories_segments":[],"categories_sizes":[],"default_left":[0,0,0,0,0,0,0,0,0,0,0,0,0,0,0,0,0,0,0,0,0,0,0],"id":44,"left_children":[1,3,5,-1,7,-1,9,11,13,-1,-1,15,17,19,21,-1,-1,-1,-1,-1,-1,-1,-1],"loss_changes":[5.289456E0,4.046727E0,1.2285967E0,0E0,2.9954946E0,0E0,1.8120718E-1,1.2157173E0,1.8524481E0,0E0,0E0,1.2004832E-1,3.28408E-1,9.92337E-1,2.3630245E0,0E0,0E0,0E0,0E0,0E0,0E0,0E0,0E0],"parents":[2147483647,0,0,1,1,2,2,4,4,6,6,7,7,8,8,11,11,12,12,13,13,14,14],"right_children":[2,4,6,-1,8,-1,10,12,14,-1,-1,16,18,20,22,-1,-1,-1,-1,-1,-1,-1,-1],"split_conditions":[1.0237591E2,5.1095394E1,5.1549114E1,1.4501305E-1,7.7925934E1,3.7506104E-3,8.9965256E1,5.3147793E1,9.092327E1,-1.4097188E-1,-4.912669E-2,2.0269345E-2,1.8137906E-2,1.8774798E-2,8.921496E1,1.9224294E-2,-9.404501E-3,-7.9010546E-2,-3.0794397E-2,2.0091502E-2,9.254589E-2,6.4059295E-2,-1.17973E-2],"split_indices":[25,13,1,0,17,0,1,1,9,0,0,0,2,4,19,0,0,0,0,0,0,0,0],"split_type":[0,0,0,0,0,0,0,0,0,0,0,0,0,0,0,0,0,0,0,0,0,0,0],"sum_hessian":[5.3E1,4.8E1,5E0,1E0,4.7E1,1E0,4E0,1.3E1,3.4E1,2E0,2E0,4E0,9E0,8E0,2.6E1,2E0,2E0,4E0,5E0,5E0,3E0,4E0,2.2E1],"tree_param":{"num_deleted":"0","num_feature":"30","num_nodes":"23","size_leaf_vector":"1"}},{"base_weights":[-4.680337E-2,9.17934E-2,-6.658085E-1,1.3776246E-1,3.1260315E-2,1.8163681E-2,-9.615342E-1,-3.6094528E-1,2.0737703E-1,2.0603944E-2,-1.1314138E-2,-1.2109194E-1,-4.717655E-2,5.499115E-2,-5.32819E-1,-2.6567077E-2,4.0159965E-1,1.7942555E-2,-8.777364E-3,-7.268974E-2,-2.8228378E-2,2.0842066E-2,-3.248989E-2,-1.5690614E-3,5.3120364E-2],"categories":[],"categories_nodes":[],"categories_segments":[],"categories_sizes":[],"default_left":[0,0,0,0,0,0,0,0,0,0,0,0,0,0,0,0,0,0,0,0,0,0,0,0,0],"id":45,"left_children":[1,3,5,-1,7,9,11,13,15,-1,-1,-1,-1,17,19,21,23,-1,-1,-1,-1,-1,-1,-1,-1],"loss_changes":[4.6938906E0,3.4595244E0,2.0401473E0,0E0,3.1141062E0,1.2198773E-1,2.8371716E-1,1.0301396E0,1.4192239E0,0E0,0E0,0E0,0E0,1.045731E-1,2.8104353E-1,1.1192803E0,9.27737E-1,0E0,0E0,0E0,0E0,0E0,0E0,0E0,0E0],"parents":[2147483647,0,0,1,1,2,2,4,4,5,5,6,6,7,7,8,8,13,13,14,14,15,15,16,16],"right_children":[2,4,6,-1,8,10,12,14,16,-1,-1,-1,-1,18,20,22,24,-1,-1,-1,-1,-1,-1,-1,-1],"split_conditions":[1.0034445E2,5.1095394E1,2.1047711E-2,1.3776246E-1,6.788805E1,5.1095394E1,8.921496E1,5.3147793E1,2.0318268E-2,2.0603944E-2,-1.1314138E-2,-1.2109194E-1,-4.717655E-2,2.0269345E-2,1.8137906E-2,9.530803E1,1.6753728E-2,1.7942555E-2,-8.777364E-3,-7.268974E-2,-2.8228378E-2,2.0842066E-2,-3.248989E-2,-1.5690614E-3,5.3120364E-2],"split_indices":[23,13,8,0,19,1,3,1,18,0,0,0,0,0,2,11,28,0,0,0,0,0,0,0,0],"split_type":[0,0,0,0,0,0,0,0,0,0,0,0,0,0,0,0,0,0,0,0,0,0,0,0,0],"sum_hessian":[5.3E1,4.4E1,9E0,1E0,4.3E1,3E0,6E0,1.3E1,3E1,1E0,2E0,3E0,3E0,4E0,9E0,1.4E1,1.6E1,2E0,2E0,4E0,5E0,8E0,6E0,4E0,1.2E1],"tree_param":{"num_deleted":"0","num_feature":"30","num_nodes":"25","size_leaf_vector":"1"}},{"base_weights":[-4.3476388E-2,5.2360456E-2,-8.188979E-1,1.3087426E-1,-1.0796388E-3,-1.5890376E-1,-1.10916905E-1,-3.314051E-1,1.3108139E-1,-2.7477074E-2,3.6415101E-3,5.1322937E-2,-4.896286E-1,5.385557E-1,2.8205477E-2,1.6746266E-2,-8.192444E-3,-6.687454E-2,-2.5875984E-2,1.7694283E-2,7.6552965E-2,3.1103933E-2,-1.3702492E-2],"categories":[],"categories_nodes":[],"categories_segments":[],"categories_sizes":[],"default_left":[0,0,0,0,0,0,0,0,0,0,0,0,0,0,0,0,0,0,0,0,0,0,0],"id":46,"left_children":[1,3,5,-1,7,9,-1,11,13,-1,-1,15,17,19,21,-1,-1,-1,-1,-1,-1,-1,-1],"loss_changes":[4.055831E0,3.2913306E0,9.7321224E-1,0E0,2.1389363E0,7.789884E-2,0E0,8.729212E-1,1.4519849E0,0E0,0E0,9.109586E-2,2.4048042E-1,4.390819E-1,1.39787E0,0E0,0E0,0E0,0E0,0E0,0E0,0E0,0E0],"parents":[2147483647,0,0,1,1,2,2,4,4,5,5,7,7,8,8,11,11,12,12,13,13,14,14],"right_children":[2,4,6,-1,8,10,-1,12,14,-1,-1,16,18,20,22,-1,-1,-1,-1,-1,-1,-1,-1],"split_conditions":[1.0237591E2,5.1095394E1,8.549338E1,1.3087426E-1,7.7925934E1,1.56167215E-2,-1.10916905E-1,5.3147793E1,8.9965256E1,-2.7477074E-2,3.6415101E-3,2.0269345E-2,1.8137906E-2,9.3081474E1,9.317419E1,1.6746266E-2,-8.192444E-3,-6.687454E-2,-2.5875984E-2,1.7694283E-2,7.6552965E-2,3.1103933E-2,-1.3702492E-2],"split_indices":[25,13,7,0,17,0,0,1,15,0,0,0,2,5,11,0,0,0,0,0,0,0,0],"split_type":[0,0,0,0,0,0,0,0,0,0,0,0,0,0,0,0,0,0,0,0,0,0,0],"sum_hessian":[5.3E1,4.8E1,5E0,1E0,4.7E1,2E0,3E0,1.3E1,3.4E1,1E0,1E0,4E0,9E0,6E0,2.8E1,2E0,2E0,4E0,5E0,3E0,3E0,1E1,1.8E1],"tree_param":{"num_deleted":"0","num_feature":"30","num_nodes":"23","size_leaf_vector":"1"}},{"base_weights":[-3.869205E-2,5.1426712E-2,-7.682133E-1,1.2433052E-1,6.937186E-4,-1.0612154E-1,-1.2147268E-1,-3.0427742E-1,1.2266235E-1,4.310608E-3,-2.253151E-2,-3.3060346E-2,-5.035577E-1,4.95733E-1,2.8381085E-2,1.5629834E-2,-1.4006348E-2,-5.4910768E-2,-9.235382E-3,1.5941812E-2,7.0811465E-2,-6.651794E-3,4.972E-2],"categories":[],"categories_nodes":[],"categories_segments":[],"categories_sizes":[],"default_left":[0,0,0,0,0,0,0,0,0,0,0,0,0,0,0,0,0,0,0,0,0,0,0],"id":47,"left_children":[1,3,5,-1,7,-1,9,11,13,-1,-1,15,17,19,21,-1,-1,-1,-1,-1,-1,-1,-1],"loss_changes":[3.5896583E0,2.962048E0,1.0080695E0,0E0,1.8227751E0,0E0,6.098322E-2,7.400272E-1,1.2170055E0,0E0,0E0,1.6372547E-1,9.913039E-2,3.8710344E-1,1.3232962E0,0E0,0E0,0E0,0E0,0E0,0E0,0E0,0E0],"parents":[2147483647,0,0,1,1,2,2,4,4,6,6,7,7,8,8,11,11,12,12,13,13,14,14],"right_children":[2,4,6,-1,8,-1,10,12,14,-1,-1,16,18,20,22,-1,-1,-1,-1,-1,-1,-1,-1],"split_conditions":[1.0237591E2,5.1095394E1,5.2186012E-2,1.2433052E-1,6.788805E1,-1.0612154E-1,2.146502E-2,5.3235924E1,8.9965256E1,4.310608E-3,-2.253151E-2,1.4886134E-2,4.84088E-2,9.3081474E1,1.0237591E2,1.5629834E-2,-1.4006348E-2,-5.4910768E-2,-9.235382E-3,1.5941812E-2,7.0811465E-2,-6.651794E-3,4.972E-2],"split_indices":[21,13,14,0,19,0,0,3,15,0,0,2,0,5,13,0,0,0,0,0,0,0,0],"split_type":[0,0,0,0,0,0,0,0,0,0,0,0,0,0,0,0,0,0,0,0,0,0,0],"sum_hessian":[5.3E1,4.8E1,5E0,1E0,4.7E1,3E0,2E0,1.3E1,3.4E1,1E0,1E0,6E0,7E0,6E0,2.8E1,2E0,4E0,6E0,1E0,3E0,3E0,2.4E1,4E0],"tree_param":{"num_deleted":"0","num_feature":"30","num_nodes":"23","size_leaf_vector":"1"}},{"base_weights":[-3.357654E-2,5.1715616E-2,-7.245331E-1,1.1811409E-1,3.578822E-3,2.6622773E-3,-8.800888E-1,-1.7721374E-1,1.917553E-1,-1.24862485E-1,-4.7579862E-2,2.639618E-1,-2.493723E-1,-5.8743287E-2,3.4597066E-1,3.6087036E-3,3.2789104E-2,-4.6634253E-2,-9.207916E-3,-2.581927E-2,1.9234467E-2,6.6926576E-2,1.1739655E-2],"categories":[],"categories_nodes":[],"categories_segments":[],"categories_sizes":[],"default_left":[0,0,0,0,0,0,0,0,0,0,0,0,0,0,0,0,0,0,0,0,0,0,0],"id":48,"left_children":[1,3,5,-1,7,-1,9,11,13,-1,-1,15,17,19,21,-1,-1,-1,-1,-1,-1,-1,-1],"loss_changes":[3.219861E0,2.6597517E0,7.2450995E-1,0E0,1.6669853E0,0E0,1.5088367E-1,8.616896E-1,9.4746095E-1,0E0,0E0,4.6438813E-2,7.078737E-1,5.504554E-1,1.0298841E0,0E0,0E0,0E0,0E0,0E0,0E0,0E0,0E0],"parents":[2147483647,0,0,1,1,2,2,4,4,6,6,7,7,8,8,11,11,12,12,13,13,14,14],"right_children":[2,4,6,-1,8,-1,10,12,14,-1,-1,16,18,20,22,-1,-1,-1,-1,-1,-1,-1,-1],"split_conditions":[1.0237591E2,5.1095394E1,5.1549114E1,1.1811409E-1,9.3081474E1,2.6622773E-3,8.549338E1,5.0787384E1,9.338426E1,-1.24862485E-1,-4.7579862E-2,4.728805E-2,6.436134E1,9.307589E1,1.6949743E-2,3.6087036E-3,3.2789104E-2,-4.6634253E-2,-9.207916E-3,-2.581927E-2,1.9234467E-2,6.6926576E-2,1.1739655E-2],"split_indices":[25,13,1,0,29,0,5,27,25,0,0,0,29,19,0,0,0,0,0,0,0,0,0],"split_type":[0,0,0,0,0,0,0,0,0,0,0,0,0,0,0,0,0,0,0,0,0,0,0],"sum_hessian":[5.3E1,4.8E1,5E0,1E0,4.7E1,1E0,4E0,2.4E1,2.3E1,1E0,3E0,3E0,2.1E1,9E0,1.4E1,1E0,2E0,8E0,1.3E1,5E0,4E0,5E0,9E0],"tree_param":{"num_deleted":"0","num_feature":"30","num_nodes":"23","size_leaf_vector":"1"}},{"base_weights":[-3.0201241E-2,5.0028432E-2,-6.803767E-1,1.1220856E-1,4.317125E-3,-2.459383E-1,-1.0328356E-1,-1.602704E-1,1.7558257E-1,2.5291443E-3,-3.447787E-2,2.4666405E-1,-2.2697344E-1,-5.3527832E-2,3.1661734E-1,3.4282685E-3,3.0603027E-2,6.6937767E-3,-3.1735543E-2,-2.366778E-2,1.769577E-2,6.134949E-2,1.0682907E-2],"categories":[],"categories_nodes":[],"categories_segments":[],"categories_sizes":[],"default_left":[0,0,0,0,0,0,0,0,0,0,0,0,0,0,0,0,0,0,0,0,0,0,0],"id":49,"left_children":[1,3,5,-1,7,9,-1,11,13,-1,-1,15,17,19,21,-1,-1,-1,-1,-1,-1,-1,-1],"loss_changes":[2.8508599E0,2.3964071E0,6.647165E-1,0E0,1.3811722E0,1.159538E-1,0E0,7.345804E-1,7.924486E-1,0E0,0E0,3.9941564E-2,6.056572E-1,4.6401617E-1,8.6868227E-1,0E0,0E0,0E0,0E0,0E0,0E0,0E0,0E0],"parents":[2147483647,0,0,1,1,2,2,4,4,5,5,7,7,8,8,11,11,12,12,13,13,14,14],"right_children":[2,4,6,-1,8,10,-1,12,14,-1,-1,16,18,20,22,-1,-1,-1,-1,-1,-1,-1,-1],"split_conditions":[1.0237591E2,5.1095394E1,2.1722997E-2,1.1220856E-1,9.3081474E1,5.1549114E1,-1.0328356E-1,5.0787384E1,9.338426E1,2.5291443E-3,-3.447787E-2,4.728805E-2,5.3147793E1,9.307589E1,1.6949743E-2,3.4282685E-3,3.0603027E-2,6.6937767E-3,-3.1735543E-2,-2.366778E-2,1.769577E-2,6.134949E-2,1.0682907E-2],"split_indices":[25,13,4,0,29,1,0,27,25,0,0,0,1,19,0,0,0,0,0,0,0,0,0],"split_type":[0,0,0,0,0,0,0,0,0,0,0,0,0,0,0,0,0,0,0,0,0,0,0],"sum_hessian":[5.3E1,4.8E1,5E0,1E0,4.7E1,3E0,2E0,2.4E1,2.3E1,1E0,2E0,3E0,2.1E1,9E0,1.4E1,1E0,2E0,5E0,1.6E1,5E0,4E0,5E0,9E0],"tree_param":{"num_deleted":"0","num_feature":"30","num_nodes":"23","size_leaf_vector":"1"}},{"base_weights":[-2.6216295E-2,4.8848834E-2,-6.348788E-1,1.0659828E-1,5.4505668E-3,-3.0803376E-1,-1.134552E-1,-2.7040353E-1,9.4769455E-2,2.4024963E-3,-3.9705466E-2,-5.0193787E-1,-3.3316474E-2,1.9518471E-1,-8.414023E-2,-5.5274047E-2,-1.2396241E-2,-1.3951722E-2,1.5479024E-2,1.326065E-2,5.8902998E-2,-2.8454373E-2,1.0173035E-2],"categories":[],"categories_nodes":[],"categories_segments":[],"categories_sizes":[],"default_left":[0,0,0,0,0,0,0,0,0,0,0,0,0,0,0,0,0,0,0,0,0,0,0],"id":50,"left_children":[1,3,5,-1,7,9,-1,11,13,-1,-1,15,17,19,21,-1,-1,-1,-1,-1,-1,-1,-1],"loss_changes":[2.498237E0,2.1571405E0,6.304138E-1,0E0,1.2082971E0,1.5734008E-1,0E0,6.4200276E-1,6.811376E-1,0E0,0E0,4.6693802E-2,1.614354E-1,5.133979E-1,5.504343E-1,0E0,0E0,0E0,0E0,0E0,0E0,0E0,0E0],"parents":[2147483647,0,0,1,1,2,2,4,4,5,5,7,7,8,8,11,11,12,12,13,13,14,14],"right_children":[2,4,6,-1,8,10,-1,12,14,-1,-1,16,18,20,22,-1,-1,-1,-1,-1,-1,-1,-1],"split_conditions":[1.0237591E2,5.1095394E1,5.315401E-2,1.0659828E-1,6.471273E1,5.1549114E1,-1.134552E-1,2.773716E-2,9.5217865E1,2.4024963E-3,-3.9705466E-2,1.3939773E-1,8.921496E1,9.848534E1,2.1209491E-2,-5.5274047E-2,-1.2396241E-2,-1.3951722E-2,1.5479024E-2,1.326065E-2,5.8902998E-2,-2.8454373E-2,1.0173035E-2],"split_indices":[25,13,6,0,29,1,0,0,9,0,0,2,1,13,20,0,0,0,0,0,0,0,0],"split_type":[0,0,0,0,0,0,0,0,0,0,0,0,0,0,0,0,0,0,0,0,0,0,0],"sum_hessian":[5.3E1,4.8E1,5E0,1E0,4.7E1,4E0,1E0,1.1E1,3.6E1,1E0,3E0,5E0,6E0,2.3E1,1.3E1,4E0,1E0,4E0,2E0,2.1E1,2E0,6E0,7E0],"tree_param":{"num_deleted":"0","num_feature":"30","num_nodes":"23","size_leaf_vector":"1"}},{"base_weights":[-2.4638282E-2,1.0126839E-1,-6.331764E-2,4.6513877E-3,-5.965169E-1,-2.4887402E-1,8.6750135E-2,-2.8469086E-1,-1.07782364E-1,-4.630216E-1,-2.9765537E-2,2.4439905E-2,3.5030255E-1,2.2823333E-3,-3.6727525E-2,-5.085205E-2,-1.1776352E-2,-1.2835388E-2,1.4447021E-2,1.4552737E-2,-9.817505E-3,9.118806E-3,6.653926E-2],"categories":[],"categories_nodes":[],"categories_segments":[],"categories_sizes":[],"default_left":[0,0,0,0,0,0,0,0,0,0,0,0,0,0,0,0,0,0,0,0,0,0,0],"id":51,"left_children":[1,-1,3,5,7,9,11,13,-1,15,17,19,21,-1,-1,-1,-1,-1,-1,-1,-1,-1,-1],"loss_changes":[2.2307606E0,0E0,1.9235498E0,1.0206676E0,5.9365726E-1,5.492764E-1,5.990531E-1,1.3536185E-1,0E0,3.4368157E-2,1.3878661E-1,4.745483E-1,5.108348E-1,0E0,0E0,0E0,0E0,0E0,0E0,0E0,0E0,0E0,0E0],"parents":[2147483647,0,0,2,2,3,3,4,4,5,5,6,6,7,7,9,9,10,10,11,11,12,12],"right_children":[2,-1,4,6,8,10,12,14,-1,16,18,20,22,-1,-1,-1,-1,-1,-1,-1,-1,-1,-1],"split_conditions":[5.1095394E1,1.0126839E-1,1.0237591E2,6.471273E1,5.315401E-2,2.773716E-2,5.315401E-2,5.1549114E1,-1.07782364E-1,1.3939773E-1,8.921496E1,9.338426E1,1.9700862E-2,2.2823333E-3,-3.6727525E-2,-5.085205E-2,-1.1776352E-2,-1.2835388E-2,1.4447021E-2,1.4552737E-2,-9.817505E-3,9.118806E-3,6.653926E-2],"split_indices":[13,0,25,29,6,0,14,1,0,2,1,7,4,0,0,0,0,0,0,0,0,0,0],"split_type":[0,0,0,0,0,0,0,0,0,0,0,0,0,0,0,0,0,0,0,0,0,0,0],"sum_hessian":[5.3E1,1E0,5.2E1,4.7E1,5E0,1.1E1,3.6E1,4E0,1E0,5E0,6E0,3E1,6E0,1E0,3E0,4E0,1E0,4E0,2E0,1.5E1,1.5E1,4E0,2E0],"tree_param":{"num_deleted":"0","num_feature":"30","num_nodes":"23","size_leaf_vector":"1"}},{"base_weights":[-2.2572553E-2,9.620514E-2,-5.9302278E-2,4.591624E-3,-5.6056976E-1,-2.1180262E-1,9.101813E-2,-2.6311034E-1,-1.02393344E-1,-4.9111503E-3,-3.6635733E-1,3.3569336E-1,6.0886806E-3,2.168274E-3,-3.397293E-2,1.2901561E-2,-8.428498E-3,-4.562828E-2,-1.6236115E-2,9.9105835E-3,6.066513E-2,4.0969696E-2,-8.191697E-3],"categories":[],"categories_nodes":[],"categories_segments":[],"categories_sizes":[],"default_left":[0,0,0,0,0,0,0,0,0,0,0,0,0,0,0,0,0,0,0,0,0,0,0],"id":52,"left_children":[1,-1,3,5,7,9,11,13,-1,15,17,19,21,-1,-1,-1,-1,-1,-1,-1,-1,-1,-1],"loss_changes":[2.0099602E0,0E0,1.7000545E0,9.169835E-1,5.575838E-1,4.4586545E-1,7.2526073E-1,1.16469026E-1,0E0,8.528603E-2,7.267308E-2,5.1682484E-1,9.925961E-1,0E0,0E0,0E0,0E0,0E0,0E0,0E0,0E0,0E0,0E0],"parents":[2147483647,0,0,2,2,3,3,4,4,5,5,6,6,7,7,9,9,10,10,11,11,12,12],"right_children":[2,-1,4,6,8,10,12,14,-1,16,18,20,22,-1,-1,-1,-1,-1,-1,-1,-1,-1,-1],"split_conditions":[5.1095394E1,9.620514E-2,1.0237591E2,7.7925934E1,5.315401E-2,5.3235924E1,9.092327E1,5.1549114E1,-1.02393344E-1,1.4886134E-2,8.2977615E1,1.8774798E-2,8.921496E1,2.168274E-3,-3.397293E-2,1.2901561E-2,-8.428498E-3,-4.562828E-2,-1.6236115E-2,9.9105835E-3,6.066513E-2,4.0969696E-2,-8.191697E-3],"split_indices":[13,0,25,17,6,3,9,1,0,2,1,4,19,0,0,0,0,0,0,0,0,0,0],"split_type":[0,0,0,0,0,0,0,0,0,0,0,0,0,0,0,0,0,0,0,0,0,0,0],"sum_hessian":[5.3E1,1E0,5.2E1,4.7E1,5E0,1.3E1,3.4E1,4E0,1E0,6E0,7E0,8E0,2.6E1,1E0,3E0,2E0,4E0,4E0,3E0,5E0,3E0,4E0,2.2E1],"tree_param":{"num_deleted":"0","num_feature":"30","num_nodes":"23","size_leaf_vector":"1"}},{"base_weights":[-2.0166751E-2,9.1394804E-2,-5.503586E-2,5.5516562E-3,-5.3056335E-1,-1.9472122E-1,8.5502185E-2,-2.4758148E-1,-9.727364E-2,5.4553222E-2,-2.9988632E-1,3.4538597E-1,1.9823272E-2,2.6065826E-3,-3.2250978E-2,1.2041474E-2,-2.9492697E-3,-4.1977998E-2,-1.499939E-2,3.3175151E-3,4.636353E-2,-4.7169803E-3,3.5082396E-2],"categories":[],"categories_nodes":[],"categories_segments":[],"categories_sizes":[],"default_left":[0,0,0,0,0,0,0,0,0,0,0,0,0,0,0,0,0,0,0,0,0,0,0],"id":53,"left_children":[1,-1,3,5,7,9,11,13,-1,15,17,19,21,-1,-1,-1,-1,-1,-1,-1,-1,-1,-1],"loss_changes":[1.8091745E0,0E0,1.5299301E0,7.8522146E-1,5.0993013E-1,3.8336933E-1,5.9056425E-1,1.1092609E-1,0E0,3.1228311E-2,1.1674708E-1,2.4304986E-1,6.596162E-1,0E0,0E0,0E0,0E0,0E0,0E0,0E0,0E0,0E0,0E0],"parents":[2147483647,0,0,2,2,3,3,4,4,5,5,6,6,7,7,9,9,10,10,11,11,12,12],"right_children":[2,-1,4,6,8,10,12,14,-1,16,18,20,22,-1,-1,-1,-1,-1,-1,-1,-1,-1,-1],"split_conditions":[5.1095394E1,9.1394804E-2,1.0237591E2,6.788805E1,8.921496E1,5.3147793E1,8.9965256E1,5.2749138E1,-9.727364E-2,2.0269345E-2,1.8137906E-2,4.728805E-2,1.0237591E2,2.6065826E-3,-3.2250978E-2,1.2041474E-2,-2.9492697E-3,-4.1977998E-2,-1.499939E-2,3.3175151E-3,4.636353E-2,-4.7169803E-3,3.5082396E-2],"split_indices":[13,0,21,19,1,1,15,1,0,0,2,20,13,0,0,0,0,0,0,0,0,0,0],"split_type":[0,0,0,0,0,0,0,0,0,0,0,0,0,0,0,0,0,0,0,0,0,0,0],"sum_hessian":[5.3E1,1E0,5.2E1,4.7E1,5E0,1.3E1,3.4E1,4E0,1E0,4E0,9E0,6E0,2.8E1,1E0,3E0,2E0,2E0,4E0,5E0,2E0,4E0,2.4E1,4E0],"tree_param":{"num_deleted":"0","num_feature":"30","num_nodes":"23","size_leaf_vector":"1"}},{"base_weights":[-1.8212989E-2,8.6825185E-2,-5.132085E-2,6.3672066E-3,-5.042718E-1,-1.0943756E-1,1.2673187E-1,-2.354866E-1,-9.24099E-2,-2.0621777E-1,5.6354523E-2,1.83322E-1,-2.0204926E-2,1.8939972E-3,-3.0382825E-2,2.3627146E-3,-3.4648743E-2,1.8241882E-2,-5.8091483E-3,2.5257876E-3,2.9976526E-2],"categories":[],"categories_nodes":[],"categories_segments":[],"categories_sizes":[],"default_left":[0,0,0,0,0,0,0,0,0,0,0,0,0,0,0,0,0,0,0,0,0],"id":54,"left_children":[1,-1,3,5,7,9,11,13,-1,15,17,19,-1,-1,-1,-1,-1,-1,-1,-1,-1],"loss_changes":[1.6294029E0,0E0,1.3880935E0,6.829318E-1,4.5944703E-1,4.127561E-1,4.8357844E-1,9.269413E-2,0E0,5.240308E-1,1.5487254E-1,3.7894416E-1,0E0,0E0,0E0,0E0,0E0,0E0,0E0,0E0,0E0],"parents":[2147483647,0,0,2,2,3,3,4,4,5,5,6,6,7,7,9,9,10,10,11,11],"right_children":[2,-1,4,6,8,10,12,14,-1,16,18,20,-1,-1,-1,-1,-1,-1,-1,-1,-1],"split_conditions":[5.1095394E1,8.6825185E-2,1.0237591E2,9.3081474E1,5.315401E-2,9.552853E1,9.8561554E1,5.1549114E1,-9.24099E-2,7.7925934E1,8.549338E1,1.8774798E-2,-2.0204926E-2,1.8939972E-3,-3.0382825E-2,2.3627146E-3,-3.4648743E-2,1.8241882E-2,-5.8091483E-3,2.5257876E-3,2.9976526E-2],"split_indices":[13,0,25,29,6,3,11,1,0,1,29,8,0,0,0,0,0,0,0,0,0],"split_type":[0,0,0,0,0,0,0,0,0,0,0,0,0,0,0,0,0,0,0,0,0],"sum_hessian":[5.3E1,1E0,5.2E1,4.7E1,5E0,2.4E1,2.3E1,4E0,1E0,1.5E1,9E0,2E1,3E0,1E0,3E0,6E0,9E0,4E0,5E0,9E0,1.1E1],"tree_param":{"num_deleted":"0","num_feature":"30","num_nodes":"21","size_leaf_vector":"1"}},{"base_weights":[-1.7163312E-2,8.248406E-2,-4.8613206E-2,5.5721602E-3,-4.7399393E-1,-1.7110634E-1,7.608435E-2,-2.1763535E-1,-8.778935E-2,-1.8958092E-2,-3.205463E-1,2.2213644E-1,-3.1861622E-2,1.7993927E-3,-2.8104115E-2,1.1081187E-2,-8.068339E-3,-6.651306E-3,-3.5179965E-2,3.7586212E-2,1.0768738E-2,3.514843E-2,-1.1527952E-2],"categories":[],"categories_nodes":[],"categories_segments":[],"categories_sizes":[],"default_left":[0,0,0,0,0,0,0,0,0,0,0,0,0,0,0,0,0,0,0,0,0,0,0],"id":55,"left_children":[1,-1,3,5,7,9,11,13,-1,15,17,19,21,-1,-1,-1,-1,-1,-1,-1,-1,-1,-1],"loss_changes":[1.4700685E0,0E0,1.22426E0,6.1100197E-1,4.3019795E-1,3.122414E-1,5.5887836E-1,7.9758346E-2,0E0,7.302139E-2,3.2176495E-2,2.2343081E-1,7.12055E-1,0E0,0E0,0E0,0E0,0E0,0E0,0E0,0E0,0E0,0E0],"parents":[2147483647,0,0,2,2,3,3,4,4,5,5,6,6,7,7,9,9,10,10,11,11,12,12],"right_children":[2,-1,4,6,8,10,12,14,-1,16,18,20,22,-1,-1,-1,-1,-1,-1,-1,-1,-1,-1],"split_conditions":[5.1095394E1,8.248406E-2,1.0237591E2,7.7925934E1,5.315401E-2,5.293084E1,9.317419E1,5.1549114E1,-8.778935E-2,1.4886134E-2,5.1549114E1,1.6949743E-2,8.921496E1,1.7993927E-3,-2.8104115E-2,1.1081187E-2,-8.068339E-3,-6.651306E-3,-3.5179965E-2,3.7586212E-2,1.0768738E-2,3.514843E-2,-1.1527952E-2],"split_indices":[13,0,25,17,6,19,11,1,0,2,3,0,19,0,0,0,0,0,0,0,0,0,0],"split_type":[0,0,0,0,0,0,0,0,0,0,0,0,0,0,0,0,0,0,0,0,0,0,0],"sum_hessian":[5.3E1,1E0,5.2E1,4.7E1,5E0,1.3E1,3.4E1,4E0,1E0,7E0,6E0,1.4E1,2E1,1E0,3E0,2E0,5E0,1E0,5E0,5E0,9E0,3E0,1.7E1],"tree_param":{"num_deleted":"0","num_feature":"30","num_nodes":"23","size_leaf_vector":"1"}},{"base_weights":[-1.5417241E-2,7.8359984E-2,-4.527794E-2,5.7152114E-3,-4.456768E-1,-1.5676689E-1,7.054476E-2,-2.0121232E-1,-8.339997E-2,-1.6682625E-2,-2.9446793E-1,2.815301E-1,1.7184686E-2,1.8196106E-3,-2.6061345E-2,1.0342661E-2,-7.395681E-3,-6.3186646E-3,-3.224837E-2,1.6362509E-3,3.8432464E-2,-3.9242404E-3,2.9588317E-2],"categories":[],"categories_nodes":[],"categories_segments":[],"categories_sizes":[],"default_left":[0,0,0,0,0,0,0,0,0,0,0,0,0,0,0,0,0,0,0,0,0,0,0],"id":56,"left_children":[1,-1,3,5,7,9,11,13,-1,15,17,19,21,-1,-1,-1,-1,-1,-1,-1,-1,-1,-1],"loss_changes":[1.323877E0,0E0,1.0846798E0,5.166739E-1,4.0177584E-1,2.6514393E-1,3.8919878E-1,6.990771E-2,0E0,6.2682375E-2,2.4980009E-2,1.8451595E-1,4.6766934E-1,0E0,0E0,0E0,0E0,0E0,0E0,0E0,0E0,0E0,0E0],"parents":[2147483647,0,0,2,2,3,3,4,4,5,5,6,6,7,7,9,9,10,10,11,11,12,12],"right_children":[2,-1,4,6,8,10,12,14,-1,16,18,20,22,-1,-1,-1,-1,-1,-1,-1,-1,-1,-1],"split_conditions":[5.1095394E1,7.8359984E-2,1.0237591E2,6.788805E1,8.921496E1,5.293084E1,8.9965256E1,5.2749138E1,-8.339997E-2,1.4886134E-2,5.1549114E1,4.728805E-2,1.0237591E2,1.8196106E-3,-2.6061345E-2,1.0342661E-2,-7.395681E-3,-6.3186646E-3,-3.224837E-2,1.6362509E-3,3.8432464E-2,-3.9242404E-3,2.9588317E-2],"split_indices":[13,0,21,19,1,19,15,1,0,2,3,20,13,0,0,0,0,0,0,0,0,0,0],"split_type":[0,0,0,0,0,0,0,0,0,0,0,0,0,0,0,0,0,0,0,0,0,0,0],"sum_hessian":[5.3E1,1E0,5.2E1,4.7E1,5E0,1.3E1,3.4E1,4E0,1E0,7E0,6E0,6E0,2.8E1,1E0,3E0,2E0,5E0,1E0,5E0,2E0,4E0,2.4E1,4E0],"tree_param":{"num_deleted":"0","num_feature":"30","num_nodes":"23","size_leaf_vector":"1"}},{"base_weights":[-1.3860985E-2,7.444191E-2,-4.22138E-2,6.68033E-3,-4.263312E-1,-3.6606394E-2,2.2768974E-1,-1.9467774E-1,-7.922993E-2,-6.708326E-2,2.6207542E-2,6.072235E-2,4.8572794E-2,1.6277314E-3,-2.5148584E-2,-2.380829E-2,-1.3547261E-3,1.5028127E-2,-2.1627427E-3],"categories":[],"categories_nodes":[],"categories_segments":[],"categories_sizes":[],"default_left":[0,0,0,0,0,0,0,0,0,0,0,0,0,0,0,0,0,0,0],"id":57,"left_children":[1,-1,3,5,7,9,11,13,-1,15,-1,17,-1,-1,-1,-1,-1,-1,-1],"loss_changes":[1.192391E0,0E0,9.9824566E-1,4.6754003E-1,3.5442352E-1,3.907992E-1,3.1517717E-1,6.401329E-2,0E0,3.446508E-1,0E0,4.750114E-2,0E0,0E0,0E0,0E0,0E0,0E0,0E0],"parents":[2147483647,0,0,2,2,3,3,4,4,5,5,6,6,7,7,9,9,11,11],"right_children":[2,-1,4,6,8,10,12,14,-1,16,-1,18,-1,-1,-1,-1,-1,-1,-1],"split_conditions":[5.1095394E1,7.444191E-2,1.0237591E2,5.7780758E-2,5.315401E-2,1.0368814E2,9.514476E1,5.1549114E1,-7.922993E-2,6.436134E1,2.6207542E-2,1.6753728E-2,4.8572794E-2,1.6277314E-3,-2.5148584E-2,-2.380829E-2,-1.3547261E-3,1.5028127E-2,-2.1627427E-3],"split_indices":[13,0,25,14,6,15,27,1,0,29,0,10,0,0,0,0,0,0,0],"split_type":[0,0,0,0,0,0,0,0,0,0,0,0,0,0,0,0,0,0,0],"sum_hessian":[5.3E1,1E0,5.2E1,4.7E1,5E0,4E1,7E0,4E0,1E0,3.7E1,3E0,5E0,2E0,1E0,3E0,8E0,2.9E1,2E0,3E0],"tree_param":{"num_deleted":"0","num_feature":"30","num_nodes":"19","size_leaf_vector":"1"}},{"base_weights":[-1.1840326E-2,7.071991E-2,-3.875049E-2,7.3157945E-3,-4.008223E-1,-3.2917675E-2,2.1259785E-1,-1.7991333E-1,-7.5268365E-2,-6.103435E-2,2.424202E-2,5.6791943E-2,4.5334373E-2,1.5464782E-3,-2.3262406E-2,-1.986625E-2,-4.786355E-4,1.4026134E-2,-2.0008087E-3],"categories":[],"categories_nodes":[],"categories_segments":[],"categories_sizes":[],"default_left":[0,0,0,0,0,0,0,0,0,0,0,0,0,0,0,0,0,0,0],"id":58,"left_children":[1,-1,3,5,7,9,11,13,-1,15,-1,17,-1,-1,-1,-1,-1,-1,-1],"loss_changes":[1.0722755E0,0E0,8.8693535E-1,4.0344027E-1,3.309582E-1,3.32201E-1,2.743308E-1,5.5090085E-2,0E0,2.9321882E-1,0E0,4.126907E-2,0E0,0E0,0E0,0E0,0E0,0E0,0E0],"parents":[2147483647,0,0,2,2,3,3,4,4,5,5,6,6,7,7,9,9,11,11],"right_children":[2,-1,4,6,8,10,12,14,-1,16,-1,18,-1,-1,-1,-1,-1,-1,-1],"split_conditions":[5.1095394E1,7.071991E-2,1.0237591E2,5.7780758E-2,5.315401E-2,1.0368814E2,9.514476E1,5.1549114E1,-7.5268365E-2,7.7925934E1,2.424202E-2,1.6753728E-2,4.5334373E-2,1.5464782E-3,-2.3262406E-2,-1.986625E-2,-4.786355E-4,1.4026134E-2,-2.0008087E-3],"split_indices":[13,0,25,14,6,15,27,1,0,27,0,10,0,0,0,0,0,0,0],"split_type":[0,0,0,0,0,0,0,0,0,0,0,0,0,0,0,0,0,0,0],"sum_hessian":[5.3E1,1E0,5.2E1,4.7E1,5E0,4E1,7E0,4E0,1E0,3.7E1,3E0,5E0,2E0,1E0,3E0,1E1,2.7E1,2E0,3E0],"tree_param":{"num_deleted":"0","num_feature":"30","num_nodes":"19","size_leaf_vector":"1"}},{"base_weights":[-1.000694E-2,6.718407E-2,-3.554823E-2,-5.9295655E-4,-4.6360207E-1,-8.479177E-2,8.699753E-2,-1.4143626E-2,-7.150497E-2,-1.5499048E-1,4.3025207E-2,1.4537278E-1,-1.22086205E-1,1.9982338E-3,-2.7946968E-2,-2.6308333E-3,1.536026E-2,-1.2510936E-2,1.8237686E-2,-1.8806687E-2,1.0390854E-2],"categories":[],"categories_nodes":[],"categories_segments":[],"categories_sizes":[],"default_left":[0,0,0,0,0,0,0,0,0,0,0,0,0,0,0,0,0,0,0,0,0],"id":59,"left_children":[1,-1,3,5,7,9,11,-1,-1,13,15,17,19,-1,-1,-1,-1,-1,-1,-1,-1],"loss_changes":[9.643071E-1,0E0,7.927502E-1,3.7612742E-1,2.2289753E-1,2.3995575E-1,3.2288092E-1,0E0,0E0,3.7585256E-1,8.070825E-2,2.2299594E-1,1.0900945E-1,0E0,0E0,0E0,0E0,0E0,0E0,0E0,0E0],"parents":[2147483647,0,0,2,2,3,3,4,4,5,5,6,6,9,9,10,10,11,11,12,12],"right_children":[2,-1,4,6,8,10,12,-1,-1,14,16,18,20,-1,-1,-1,-1,-1,-1,-1,-1],"split_conditions":[5.1095394E1,6.718407E-2,1.0368814E2,9.3081474E1,2.1722997E-2,9.552853E1,1.01043895E-1,-1.4143626E-2,-7.150497E-2,7.7925934E1,5.2186012E-2,8.549338E1,9.8561554E1,1.9982338E-3,-2.7946968E-2,-2.6308333E-3,1.536026E-2,-1.2510936E-2,1.8237686E-2,-1.8806687E-2,1.0390854E-2],"split_indices":[13,0,27,29,6,3,26,0,0,3,0,23,1,0,0,0,0,0,0,0,0],"split_type":[0,0,0,0,0,0,0,0,0,0,0,0,0,0,0,0,0,0,0,0,0],"sum_hessian":[5.3E1,1E0,5.2E1,4.9E1,3E0,2.5E1,2.4E1,2E0,1E0,1.6E1,9E0,1.9E1,5E0,7E0,9E0,6E0,3E0,2E0,1.7E1,4E0,1E0],"tree_param":{"num_deleted":"0","num_feature":"30","num_nodes":"21","size_leaf_vector":"1"}},{"base_weights":[-9.641506E-3,6.382485E-2,-3.3908267E-2,7.294178E-3,-3.5787645E-1,-2.8926756E-2,1.920147E-1,-1.5773316E-1,-6.792965E-2,-1.3299942E-1,3.6230527E-2,5.053711E-2,4.1096497E-2,5.573273E-4,-1.9995308E-2,-2.01643E-2,5.834503E-3,-3.7717484E-3,1.5831908E-2,1.2137095E-2,-1.522255E-3],"categories":[],"categories_nodes":[],"categories_segments":[],"categories_sizes":[],"default_left":[0,0,0,0,0,0,0,0,0,0,0,0,0,0,0,0,0,0,0,0,0],"id":60,"left_children":[1,-1,3,5,7,9,11,13,-1,15,17,19,-1,-1,-1,-1,-1,-1,-1,-1,-1],"loss_changes":[8.706402E-1,0E0,7.1006936E-1,3.267103E-1,2.788328E-1,2.828434E-1,2.2704348E-1,3.5588317E-2,0E0,2.219179E-1,2.4070477E-1,2.9795628E-2,0E0,0E0,0E0,0E0,0E0,0E0,0E0,0E0,0E0],"parents":[2147483647,0,0,2,2,3,3,4,4,5,5,6,6,7,7,9,9,10,10,11,11],"right_children":[2,-1,4,6,8,10,12,14,-1,16,18,20,-1,-1,-1,-1,-1,-1,-1,-1,-1],"split_conditions":[5.1095394E1,6.382485E-2,1.0237591E2,5.7780758E-2,5.315401E-2,2.0318268E-2,9.514476E1,5.1549114E1,-6.792965E-2,2.1209491E-2,9.4018875E1,1.6753728E-2,4.1096497E-2,5.573273E-4,-1.9995308E-2,-2.01643E-2,5.834503E-3,-3.7717484E-3,1.5831908E-2,1.2137095E-2,-1.522255E-3],"split_indices":[13,0,25,14,6,20,27,1,0,18,27,10,0,0,0,0,0,0,0,0,0],"split_type":[0,0,0,0,0,0,0,0,0,0,0,0,0,0,0,0,0,0,0,0,0],"sum_hessian":[5.3E1,1E0,5.2E1,4.7E1,5E0,4E1,7E0,4E0,1E0,1.5E1,2.5E1,5E0,2E0,1E0,3E0,1.1E1,4E0,1.6E1,9E0,2E0,3E0],"tree_param":{"num_deleted":"0","num_feature":"30","num_nodes":"21","size_leaf_vector":"1"}},{"base_weights":[-8.1984205E-3,6.063347E-2,-3.123366E-2,5.426788E-4,-4.206295E-1,-6.906979E-2,7.291794E-2,-1.3061779E-2,-6.453323E-2,-1.1653976E-1,7.642583E-2,1.988093E-2,2.8108978E-1,-3.9655413E-3,-2.5365993E-2,1.8304825E-2,-4.9303058E-3,1.924305E-2,-8.013888E-3,2.742386E-3,3.376503E-2],"categories":[],"categories_nodes":[],"categories_segments":[],"categories_sizes":[],"default_left":[0,0,0,0,0,0,0,0,0,0,0,0,0,0,0,0,0,0,0,0,