{"learner":{"attributes":{"scikit_learn":"{\"_estimator_type\": \"regressor\"}"},"feature_names":[],"feature_types":[],"gradient_booster":{"model":{"cats":{"enc":[],"feature_segments":[],"sorted_idx":[]},"gbtree_model_param":{"num_parallel_tree":"1","num_trees":"100"},"iteration_indptr":[0,1,2,3,4,5,6,7,8,9,10,11,12,13,14,15,16,17,18,19,20,21,22,23,24,25,26,27,28,29,30,31,32,33,34,35,36,37,38,39,40,41,42,43,44,45,46,47,48,49,50,51,52,53,54,55,56,57,58,59,60,61,62,63,64,65,66,67,68,69,70,71,72,73,74,75,76,77,78,79,80,81,82,83,84,85,86,87,88,89,90,91,92,93,94,95,96,97,98,99,100],"tree_info":[0,0,0,0,0,0,0,0,0,0,0,0,0,0,0,0,0,0,0,0,0,0,0,0,0,0,0,0,0,0,0,0,0,0,0,0,0,0,0,0,0,0,0,0,0,0,0,0,0,0,0,0,0,0,0,0,0,0,0,0,0,0,0,0,0,0,0,0,0,0,0,0,0,0,0,0,0,0,0,0,0,0,0,0,0,0,0,0,0,0,0,0,0,0,0,0,0,0,0,0],"trees":[{"base_weights":[-3.390842E-6,2.8610327E2,-7.984277E1,8.350604E0,2.9692972E1,6.756495E1,-1.3908334E2,1.2939778E2,-5.7247143E0,-1.63697E2,2.164712E1,2.157723E1,1.571212E2,1.829895E0,-1.8446411E2,6.8790736E0,-3.27122E0,3.5904846E0,-3.5390016E-1,3.7414734E0,1.7083649E1,7.9959315E-1,-8.334107E-1,-1.3534337E1,-2.5129389E1],"categories":[],"categories_nodes":[],"categories_segments":[],"categories_sizes":[],"default_left":[0,0,0,0,0,0,0,0,0,0,0,0,0,0,0,0,0,0,0,0,0,0,0,0,0],"id":0,"left_children":[1,3,5,-1,-1,7,9,11,-1,13,15,17,19,21,23,-1,-1,-1,-1,-1,-1,-1,-1,-1,-1],"loss_changes":[1.2563802E6,1.5255E3,3.8489547E5,0E0,0E0,1.0773495E5,1.2618469E5,2.3512156E4,0E0,9.315044E4,1.506377E4,1.2066345E3,5.1008438E3,3.1732532E2,4.4774562E4,0E0,0E0,0E0,0E0,0E0,0E0,0E0,0E0,0E0,0E0],"parents":[2147483647,0,0,1,1,2,2,5,5,6,6,7,7,9,9,10,10,11,11,12,12,13,13,14,14],"right_children":[2,4,6,-1,-1,8,10,12,-1,14,16,18,20,22,24,-1,-1,-1,-1,-1,-1,-1,-1,-1,-1],"split_conditions":[3.0212164E0,9.587683E2,3.279958E0,8.350604E0,2.9692972E1,1.2585918E3,1.3123113E3,9.885024E2,-5.7247143E0,8.434185E2,1.2108441E3,3.4718058E0,2.0929976E0,6.211548E0,1.2108441E3,6.8790736E0,-3.27122E0,3.5904846E0,-3.5390016E-1,3.7414734E0,1.7083649E1,7.9959315E-1,-8.334107E-1,-1.3534337E1,-2.5129389E1],"split_indices":[26,3,4,0,0,1,17,1,0,21,1,0,0,2,7,0,0,0,0,0,0,0,0,0,0],"split_type":[0,0,0,0,0,0,0,0,0,0,0,0,0,0,0,0,0,0,0,0,0,0,0,0,0],"sum_hessian":[5.3E1,1.1E1,4.2E1,1E0,1E1,1.2E1,3E1,8E0,4E0,2.6E1,4E0,2E0,6E0,3E0,2.3E1,2E0,2E0,1E0,1E0,1E0,5E0,2E0,1E0,1.5E1,8E0],"tree_param":{"num_deleted":"0","num_feature":"30","num_nodes":"25","size_leaf_vector":"1"}},{"base_weights":[3.942679E-1,2.606632E2,-7.22481E1,1.11828375E1,2.7924734E1,6.2219013E1,-1.26306946E2,1.1913155E2,-5.266736E0,-1.4876057E2,2.0204004E1,3.6356445E1,1.544597E2,-1.9474957E2,-7.504518E1,6.420471E0,-3.0531373E0,5.0716634E0,-3.3620605E-1,3.5544007E0,1.7113403E1,-1.306429E1,-2.4252588E1,1.6384582E-1,-1.0078845E1],"categories":[],"categories_nodes":[],"categories_segments":[],"categories_sizes":[],"default_left":[0,0,0,0,0,0,0,0,0,0,0,0,0,0,0,0,0,0,0,0,0,0,0,0,0],"id":1,"left_children":[1,3,5,-1,-1,7,9,11,-1,13,15,17,19,21,23,-1,-1,-1,-1,-1,-1,-1,-1,-1,-1],"loss_changes":[1.03978625E6,1.963875E3,3.2043156E5,0E0,0E0,9.127453E4,1.0498628E5,2.0703023E4,0E0,7.6917625E4,1.3122221E4,2.4519736E3,5.8142344E3,1.7320188E4,2.385418E4,0E0,0E0,0E0,0E0,0E0,0E0,0E0,0E0,0E0,0E0],"parents":[2147483647,0,0,1,1,2,2,5,5,6,6,7,7,9,9,10,10,11,11,12,12,13,13,14,14],"right_children":[2,4,6,-1,-1,8,10,12,-1,14,16,18,20,22,24,-1,-1,-1,-1,-1,-1,-1,-1,-1,-1],"split_conditions":[3.0212164E0,3.0212164E0,3.279958E0,1.11828375E1,2.7924734E1,1.2585918E3,1.3123113E3,1.0571843E3,-5.266736E0,3.995453E0,1.2108441E3,3.4718058E0,2.0929976E0,3.7126942E0,9.546025E2,6.420471E0,-3.0531373E0,5.0716634E0,-3.3620605E-1,3.5544007E0,1.7113403E1,-1.306429E1,-2.4252588E1,1.6384582E-1,-1.0078845E1],"split_indices":[26,8,4,0,0,1,17,13,0,4,1,0,0,22,19,0,0,0,0,0,0,0,0,0,0],"split_type":[0,0,0,0,0,0,0,0,0,0,0,0,0,0,0,0,0,0,0,0,0,0,0,0,0],"sum_hessian":[5.3E1,1.1E1,4.2E1,2E0,9E0,1.2E1,3E1,8E0,4E0,2.6E1,4E0,3E0,5E0,1.5E1,1.1E1,2E0,2E0,2E0,1E0,1E0,4E0,8E0,7E0,3E0,8E0],"tree_param":{"num_deleted":"0","num_feature":"30","num_nodes":"25","size_leaf_vector":"1"}},{"base_weights":[6.396609E-1,2.1615099E2,-7.296518E1,2.3725948E1,-2.9129639E0,4.767131E1,-1.1341795E2,1.0952204E2,-4.845398E0,-1.3371266E2,1.885708E1,4.733553E0,1.2492954E2,-5.0656483E1,-1.7242651E2,5.992444E0,-2.8495972E0,3.3766785E0,1.3927854E1,-7.323246E0,1.5155946E-1,-1.2126723E1,-2.3549578E1],"categories":[],"categories_nodes":[],"categories_segments":[],"categories_sizes":[],"default_left":[0,0,0,0,0,0,0,0,0,0,0,0,0,0,0,0,0,0,0,0,0,0,0],"id":2,"left_children":[1,3,5,-1,-1,7,9,11,-1,13,15,-1,17,19,21,-1,-1,-1,-1,-1,-1,-1,-1],"loss_changes":[8.7235594E5,7.939631E4,2.0549014E5,0E0,0E0,7.070639E4,8.5740375E4,7.933672E2,0E0,7.8082E4,1.143093E4,0E0,1.8374766E3,1.1889344E4,2.9520438E4,0E0,0E0,0E0,0E0,0E0,0E0,0E0,0E0],"parents":[2147483647,0,0,1,1,2,2,5,5,6,6,7,7,9,9,10,10,12,12,13,13,14,14],"right_children":[2,4,6,-1,-1,8,10,12,-1,14,16,-1,18,20,22,-1,-1,-1,-1,-1,-1,-1,-1],"split_conditions":[3.07505E0,3.85492E0,3.279958E0,2.3725948E1,-2.9129639E0,1.2585918E3,1.3123113E3,1.0588829E3,-4.845398E0,1.00318646E3,1.2108441E3,4.733553E0,2.0929976E0,5.271967E0,1.2108441E3,5.992444E0,-2.8495972E0,3.3766785E0,1.3927854E1,-7.323246E0,1.5155946E-1,-1.2126723E1,-2.3549578E1],"split_indices":[24,0,2,0,0,1,17,1,0,21,1,0,0,4,5,0,0,0,0,0,0,0,0],"split_type":[0,0,0,0,0,0,0,0,0,0,0,0,0,0,0,0,0,0,0,0,0,0,0],"sum_hessian":[5.3E1,1.3E1,4E1,1.2E1,1E0,1E1,3E1,6E0,4E0,2.6E1,4E0,2E0,4E0,9E0,1.7E1,2E0,2E0,1E0,3E0,6E0,3E0,1.1E1,6E0],"tree_param":{"num_deleted":"0","num_feature":"30","num_nodes":"23","size_leaf_vector":"1"}},{"base_weights":[5.442109E-1,2.1692361E2,-5.9853394E1,8.855582E0,2.3374159E1,5.2819393E1,-1.05172516E2,1.01060074E2,-4.457771E0,-1.24012886E2,1.759995E1,1.4932169E1,5.2042316E1,-9.348598E1,-2.1527605E2,5.5929484E0,-2.6596231E0,6.2263722E0,4.6765137E-2,1.401886E-1,-1.0854205E1,-5.2279086E0,-2.3741964E1],"categories":[],"categories_nodes":[],"categories_segments":[],"categories_sizes":[],"default_left":[0,0,0,0,0,0,0,0,0,0,0,0,0,0,0,0,0,0,0,0,0,0,0],"id":3,"left_children":[1,3,5,-1,-1,7,9,11,-1,13,15,-1,17,19,21,-1,-1,-1,-1,-1,-1,-1,-1],"loss_changes":[7.186987E5,5.2074375E3,2.2512312E5,0E0,0E0,6.5585555E4,7.3888E4,1.3520039E4,0E0,5.509622E4,9.957609E3,0E0,3.133876E3,3.1582234E4,9.243969E3,0E0,0E0,0E0,0E0,0E0,0E0,0E0,0E0],"parents":[2147483647,0,0,1,1,2,2,5,5,6,6,7,7,9,9,10,10,12,12,13,13,14,14],"right_children":[2,4,6,-1,-1,8,10,12,-1,14,16,-1,18,20,22,-1,-1,-1,-1,-1,-1,-1,-1],"split_conditions":[3.0212164E0,3.0212164E0,3.279958E0,8.855582E0,2.3374159E1,1.2585918E3,1.3123113E3,2.150573E0,-4.457771E0,1.3123113E3,1.2108441E3,1.4932169E1,3.4718058E0,8.434185E2,1.2108441E3,5.5929484E0,-2.6596231E0,6.2263722E0,4.6765137E-2,1.401886E-1,-1.0854205E1,-5.2279086E0,-2.3741964E1],"split_indices":[26,8,4,0,0,1,17,18,0,7,1,0,0,21,5,0,0,0,0,0,0,0,0],"split_type":[0,0,0,0,0,0,0,0,0,0,0,0,0,0,0,0,0,0,0,0,0,0,0],"sum_hessian":[5.3E1,1.1E1,4.2E1,2E0,9E0,1.2E1,3E1,8E0,4E0,2.6E1,4E0,3E0,5E0,2.1E1,5E0,2E0,2E0,4E0,1E0,3E0,1.8E1,1E0,4E0],"tree_param":{"num_deleted":"0","num_feature":"30","num_nodes":"23","size_leaf_vector":"1"}},{"base_weights":[7.1623737E-1,1.8004294E2,-6.0534737E1,1.9731485E2,-2.2246034E0,4.034163E1,-9.437685E1,8.26521E0,2.106488E1,9.268792E1,-4.10115E0,-7.366833E1,-2.1574226E1,4.0028973E0,1.05745705E2,-8.53583E1,5.2200885E0,2.896527E0,1.176995E1,1.2967835E-1,-9.671752E0],"categories":[],"categories_nodes":[],"categories_segments":[],"categories_sizes":[],"default_left":[0,0,0,0,0,0,0,0,0,0,0,0,0,0,0,0,0,0,0,0,0],"id":4,"left_children":[1,3,5,7,-1,9,11,-1,-1,13,-1,15,-1,-1,17,19,-1,-1,-1,-1,-1],"loss_changes":[6.040314E5,5.3304344E4,1.4377592E5,2.4651875E3,0E0,5.064515E4,6.2018844E4,0E0,0E0,5.80375E2,0E0,4.5655188E4,0E0,0E0,1.1798867E3,2.5718125E4,0E0,0E0,0E0,0E0,0E0],"parents":[2147483647,0,0,1,1,2,2,3,3,5,5,6,6,9,9,11,11,14,14,15,15],"right_children":[2,4,6,8,-1,10,12,-1,-1,14,-1,16,-1,-1,18,20,-1,-1,-1,-1,-1],"split_conditions":[3.07505E0,3.85492E0,3.279958E0,2.0983303E0,-2.2246034E0,1.2585918E3,1.3320004E3,8.26521E0,2.106488E1,1.0588829E3,-4.10115E0,6.472662E0,-2.1574226E1,4.0028973E0,2.0929976E0,8.434185E2,5.2200885E0,2.896527E0,1.176995E1,1.2967835E-1,-9.671752E0],"split_indices":[24,0,2,10,0,1,7,0,0,1,0,10,0,0,0,21,0,0,0,0,0],"split_type":[0,0,0,0,0,0,0,0,0,0,0,0,0,0,0,0,0,0,0,0,0],"sum_hessian":[5.3E1,1.3E1,4E1,1.2E1,1E0,1E1,3E1,2E0,1E1,6E0,4E0,2.7E1,3E0,2E0,4E0,2.5E1,2E0,1E0,3E0,3E0,2.2E1],"tree_param":{"num_deleted":"0","num_feature":"30","num_nodes":"21","size_leaf_vector":"1"}},{"base_weights":[9.368026E-1,1.8151549E2,-4.947904E1,7.714193E0,1.9467602E1,4.4941483E1,-8.747864E1,8.5876884E1,-3.7730541E0,-1.26878105E2,-3.6994007E1,1.2464765E1,4.57169E1,-1.3851009E2,2.961682E0,-4.9971733E1,3.1574137E1,5.2748218E0,5.2801514E-1,-9.033748E0,-1.7539051E1,-9.984538E-2,-5.8785195E0,4.3464417E0,3.8967896E-1],"categories":[],"categories_nodes":[],"categories_segments":[],"categories_sizes":[],"default_left":[0,0,0,0,0,0,0,0,0,0,0,0,0,0,0,0,0,0,0,0,0,0,0,0,0],"id":5,"left_children":[1,3,5,-1,-1,7,9,11,-1,13,15,-1,17,19,-1,21,23,-1,-1,-1,-1,-1,-1,-1,-1],"loss_changes":[5.0059866E5,1.465625E3,1.5821294E5,0E0,0E0,4.7234945E4,5.696736E4,8.314797E3,0E0,3.5048094E4,1.4925691E4,0E0,1.4274238E3,1.25816875E4,0E0,5.552422E3,8.179026E2,0E0,0E0,0E0,0E0,0E0,0E0,0E0,0E0],"parents":[2147483647,0,0,1,1,2,2,5,5,6,6,7,7,9,9,10,10,12,12,13,13,15,15,16,16],"right_children":[2,4,6,-1,-1,8,10,12,-1,14,16,-1,18,20,-1,22,24,-1,-1,-1,-1,-1,-1,-1,-1],"split_conditions":[3.0212164E0,3.0212164E0,3.279958E0,7.714193E0,1.9467602E1,1.2585918E3,3.995453E0,2.150573E0,-3.7730541E0,6.362461E0,1.2187067E3,1.2464765E1,3.4718058E0,3.7126942E0,2.961682E0,9.546025E2,3.9503815E0,5.2748218E0,5.2801514E-1,-9.033748E0,-1.7539051E1,-9.984538E-2,-5.8785195E0,4.3464417E0,3.8967896E-1],"split_indices":[26,8,4,0,0,1,4,18,0,10,7,0,0,22,0,19,0,0,0,0,0,0,0,0,0],"split_type":[0,0,0,0,0,0,0,0,0,0,0,0,0,0,0,0,0,0,0,0,0,0,0,0,0],"sum_hessian":[5.3E1,1.1E1,4.2E1,2E0,9E0,1.2E1,3E1,8E0,4E0,1.6E1,1.4E1,3E0,5E0,1.5E1,1E0,1.2E1,2E0,4E0,1E0,8E0,7E0,2E0,1E1,1E0,1E0],"tree_param":{"num_deleted":"0","num_feature":"30","num_nodes":"25","size_leaf_vector":"1"}},{"base_weights":[1.154653E0,1.662593E2,-4.494791E1,1.8389055E1,8.502414E0,3.49373E1,-7.699823E1,6.974948E1,-3.4712086E1,-5.8618427E1,-1.864073E1,-3.4265077E0,8.703444E1,-4.226453E0,-1.5588949E0,-6.846809E1,4.628479E0,3.384383E0,9.9124E0,-2.263504E0,-8.416263E0],"categories":[],"categories_nodes":[],"categories_segments":[],"categories_sizes":[],"default_left":[0,0,0,0,0,0,0,0,0,0,0,0,0,0,0,0,0,0,0,0,0],"id":6,"left_children":[1,3,5,-1,-1,7,9,11,13,15,-1,-1,17,-1,-1,19,-1,-1,-1,-1,-1],"loss_changes":[4.1850734E5,1.5521875E3,1.12785016E5,0E0,0E0,3.3941566E4,5.1411547E4,1.9163223E4,6.327246E1,3.2100344E4,0E0,0E0,1.7896719E3,0E0,0E0,1.6797531E4,0E0,0E0,0E0,0E0,0E0],"parents":[2147483647,0,0,1,1,2,2,5,5,6,6,7,7,8,8,9,9,12,12,15,15],"right_children":[2,4,6,-1,-1,8,10,12,14,16,-1,-1,18,-1,-1,20,-1,-1,-1,-1,-1],"split_conditions":[3.0212164E0,1.5630054E3,3.4718058E0,1.8389055E1,8.502414E0,1.2585918E3,1.3320004E3,9.546025E2,2.150573E0,6.472662E0,-1.864073E1,-3.4265077E0,1.0588829E3,-4.226453E0,-1.5588949E0,9.710746E2,4.628479E0,3.384383E0,9.9124E0,-2.263504E0,-8.416263E0],"split_indices":[22,27,0,0,0,1,7,1,0,10,0,0,1,0,0,21,0,0,0,0,0],"split_type":[0,0,0,0,0,0,0,0,0,0,0,0,0,0,0,0,0,0,0,0,0],"sum_hessian":[5.3E1,1.1E1,4.2E1,8E0,3E0,1.2E1,3E1,8E0,4E0,2.7E1,3E0,1E0,7E0,2E0,2E0,2.5E1,2E0,2E0,5E0,7E0,1.8E1],"tree_param":{"num_deleted":"0","num_feature":"30","num_nodes":"21","size_leaf_vector":"1"}},{"base_weights":[1.1555753E0,1.3795074E2,-4.5583157E1,1.5071408E2,-1.3986329E0,3.1014893E1,-7.129269E1,1.6898563E1,8.7682495E0,7.18791E1,-3.2397972E1,-5.4298794E1,-1.7242674E1,7.727134E1,1.9762818E0,-3.94469E0,-1.4549724E0,-6.7642815E1,2.0612255E1,1.9923462E0,8.475623E0,-2.9134722E0,-9.306754E0,4.3199177E0,-8.845418E-1],"categories":[],"categories_nodes":[],"categories_segments":[],"categories_sizes":[],"default_left":[0,0,0,0,0,0,0,0,0,0,0,0,0,0,0,0,0,0,0,0,0,0,0,0,0],"id":7,"left_children":[1,3,5,7,-1,9,11,-1,-1,13,15,17,-1,19,-1,-1,-1,21,23,-1,-1,-1,-1,-1,-1],"loss_changes":[3.515444E5,2.9257094E4,8.2952414E4,1.548125E2,0E0,3.0833215E4,4.3915938E4,0E0,0E0,4.400664E2,5.511328E1,2.9383469E4,0E0,8.868164E2,0E0,0E0,0E0,2.0785898E4,3.708906E3,0E0,0E0,0E0,0E0,0E0,0E0],"parents":[2147483647,0,0,1,1,2,2,3,3,5,5,6,6,9,9,10,10,11,11,13,13,17,17,18,18],"right_children":[2,4,6,8,-1,10,12,-1,-1,14,16,18,-1,20,-1,-1,-1,22,24,-1,-1,-1,-1,-1,-1],"split_conditions":[3.07505E0,3.85492E0,3.279958E0,1.5382363E3,-1.3986329E0,1.2585918E3,1.3320004E3,1.6898563E1,8.7682495E0,3.279958E0,2.150573E0,1.3123113E3,-1.7242674E1,2.0929976E0,1.9762818E0,-3.94469E0,-1.4549724E0,1.0201421E3,1.2108441E3,1.9923462E0,8.475623E0,-2.9134722E0,-9.306754E0,4.3199177E0,-8.845418E-1],"split_indices":[24,0,2,27,0,1,7,0,0,0,0,17,0,0,0,0,0,21,1,0,0,0,0,0,0],"split_type":[0,0,0,0,0,0,0,0,0,0,0,0,0,0,0,0,0,0,0,0,0,0,0,0,0],"sum_hessian":[5.3E1,1.3E1,4E1,1.2E1,1E0,1E1,3E1,8E0,4E0,6E0,4E0,2.7E1,3E0,5E0,1E0,2E0,2E0,2.3E1,4E0,1E0,4E0,1E1,1.3E1,2E0,2E0],"tree_param":{"num_deleted":"0","num_feature":"30","num_nodes":"25","size_leaf_vector":"1"}},{"base_weights":[1.1378931E0,1.3996825E2,-3.7631924E1,1.5953493E1,8.06679E0,9.050401E0,-5.3094685E1,-6.845158E1,-1.7145507E0,-4.0168087E1,-1.2998326E2,3.9703064E0,-2.5136824E1,-7.675485E0,-1.377887E0,-5.784665E0,-1.5641045E1,-3.6817098E0,-1.3101294E0],"categories":[],"categories_nodes":[],"categories_segments":[],"categories_sizes":[],"default_left":[0,0,0,0,0,0,0,0,0,0,0,0,0,0,0,0,0,0,0],"id":8,"left_children":[1,3,5,-1,-1,-1,7,9,11,13,15,-1,17,-1,-1,-1,-1,-1,-1],"loss_changes":[2.9591834E5,1.054375E3,9.000269E4,0E0,0E0,0E0,3.0655156E4,4.6988734E4,1.0698955E4,2.0183316E4,8.1095E3,0E0,5.0169678E2,0E0,0E0,0E0,0E0,0E0,0E0],"parents":[2147483647,0,0,1,1,2,2,6,6,7,7,8,8,9,9,10,10,12,12],"right_children":[2,4,6,-1,-1,-1,8,10,12,14,16,-1,18,-1,-1,-1,-1,-1,-1],"split_conditions":[3.0212164E0,1.5382363E3,3.0212164E0,1.5953493E1,8.06679E0,9.050401E0,1.3123113E3,1.2108441E3,1.2585918E3,1.00318646E3,1.01469763E3,3.9703064E0,2.150573E0,-7.675485E0,-1.377887E0,-5.784665E0,-1.5641045E1,-3.6817098E0,-1.3101294E0],"split_indices":[20,27,28,0,0,0,17,5,1,5,13,0,0,0,0,0,0,0,0],"split_type":[0,0,0,0,0,0,0,0,0,0,0,0,0,0,0,0,0,0,0],"sum_hessian":[5.3E1,1.1E1,4.2E1,7E0,4E0,4E0,3.8E1,2.9E1,9E0,2.1E1,8E0,3E0,6E0,8E0,1.3E1,3E0,5E0,2E0,4E0],"tree_param":{"num_deleted":"0","num_feature":"30","num_nodes":"19","size_leaf_vector":"1"}},{"base_weights":[1.0532012E0,1.283946E2,-3.4508427E1,7.4214478E0,1.4620786E1,3.258373E1,-5.85896E1,6.652643E1,-2.8241333E1,-4.4269356E1,-1.4776395E1,1.6942139E0,7.118959E1,-3.1243317E0,-8.1166995E-1,-5.498726E1,1.8174023E1,8.22521E0,2.9022217E0,6.068268E-1,-6.3588843E0,3.7672322E0,-7.382284E-1],"categories":[],"categories_nodes":[],"categories_segments":[],"categories_sizes":[],"default_left":[0,0,0,0,0,0,0,0,0,0,0,0,0,0,0,0,0,0,0,0,0,0,0],"id":9,"left_children":[1,3,5,-1,-1,7,9,11,13,15,-1,-1,17,-1,-1,19,21,-1,-1,-1,-1,-1,-1],"loss_changes":[2.4896792E5,7.3075E2,7.138234E4,0E0,0E0,2.6653594E4,3.4322523E4,6.4365234E2,4.8476562E1,2.0407945E4,0E0,0E0,8.781992E2,0E0,0E0,1.3515227E4,2.7696304E3,0E0,0E0,0E0,0E0,0E0,0E0],"parents":[2147483647,0,0,1,1,2,2,5,5,6,6,7,7,8,8,9,9,12,12,15,15,16,16],"right_children":[2,4,6,-1,-1,8,10,12,14,16,-1,-1,18,-1,-1,20,22,-1,-1,-1,-1,-1,-1],"split_conditions":[3.0212164E0,3.0212164E0,3.279958E0,7.4214478E0,1.4620786E1,1.2585918E3,1.3320004E3,2.0929976E0,1.4553904E3,1.3123113E3,-1.4776395E1,1.6942139E0,3.243745E0,-3.1243317E0,-8.1166995E-1,8.434185E2,1.2108441E3,8.22521E0,2.9022217E0,6.068268E-1,-6.3588843E0,3.7672322E0,-7.382284E-1],"split_indices":[24,10,2,0,0,1,7,0,1,17,0,0,2,0,0,21,1,0,0,0,0,0,0],"split_type":[0,0,0,0,0,0,0,0,0,0,0,0,0,0,0,0,0,0,0,0,0,0,0],"sum_hessian":[5.3E1,1.1E1,4.2E1,4E0,7E0,1.1E1,3.1E1,7E0,4E0,2.8E1,3E0,1E0,6E0,3E0,1E0,2.4E1,4E0,4E0,2E0,3E0,2.1E1,2E0,2E0],"tree_param":{"num_deleted":"0","num_feature":"30","num_nodes":"23","size_leaf_vector":"1"}},{"base_weights":[1.1965637E0,1.1803644E2,-3.143774E1,1.3508066E1,6.7158403E0,7.412529E0,-4.4165367E1,-2.8980274E1,-8.530411E1,-5.9154247E1,-1.3231701E1,-1.25524574E2,-1.9978724E1,-6.427982E0,-6.512085E-1,9.027074E-1,-3.861906E0,-2.209662E0,-1.4179085E1,-2.6043413E0,2.1400146E-1],"categories":[],"categories_nodes":[],"categories_segments":[],"categories_sizes":[],"default_left":[0,0,0,0,0,0,0,0,0,0,0,0,0,0,0,0,0,0,0,0,0],"id":10,"left_children":[1,3,5,-1,-1,-1,7,9,11,13,15,17,19,-1,-1,-1,-1,-1,-1,-1,-1],"loss_changes":[2.0961214E5,1.3343125E3,6.1047137E4,0E0,0E0,0E0,2.1890992E4,1.3473199E4,2.3766367E4,2.2796133E3,1.2215539E4,6.9612188E3,7.264497E2,0E0,0E0,0E0,0E0,0E0,0E0,0E0,0E0],"parents":[2147483647,0,0,1,1,2,2,6,6,7,7,8,8,9,9,10,10,11,11,12,12],"right_children":[2,4,6,-1,-1,-1,8,10,12,14,16,18,20,-1,-1,-1,-1,-1,-1,-1,-1],"split_conditions":[3.0212164E0,1.5382363E3,3.0212164E0,1.3508066E1,6.7158403E0,7.412529E0,5.238869E0,1.00318646E3,6.472662E0,1.241063E3,1.2585918E3,1.137683E3,4.823447E0,-6.427982E0,-6.512085E-1,9.027074E-1,-3.861906E0,-2.209662E0,-1.4179085E1,-2.6043413E0,2.1400146E-1],"split_indices":[20,25,28,0,0,0,16,5,16,1,1,7,0,0,0,0,0,0,0,0,0],"split_type":[0,0,0,0,0,0,0,0,0,0,0,0,0,0,0,0,0,0,0,0,0],"sum_hessian":[5.3E1,1.1E1,4.2E1,7E0,4E0,4E0,3.8E1,2.9E1,9E0,9E0,2E1,5E0,4E0,8E0,1E0,1.1E1,9E0,1E0,4E0,3E0,1E0],"tree_param":{"num_deleted":"0","num_feature":"30","num_nodes":"21","size_leaf_vector":"1"}},{"base_weights":[1.0550492E0,1.0791813E2,-2.8791742E1,1.23410845E1,6.154617E0,6.8195314E0,-4.0487732E1,-5.2657986E1,7.181396E-2,-2.9423645E1,-1.0360216E2,3.374112E0,-1.917805E1,2.537503E0,-3.9411595E0,-3.5014894E0,-1.181964E1,-3.0124228E0,-8.774732E-1],"categories":[],"categories_nodes":[],"categories_segments":[],"categories_sizes":[],"default_left":[0,0,0,0,0,0,0,0,0,0,0,0,0,0,0,0,0,0,0],"id":11,"left_children":[1,3,5,-1,-1,-1,7,9,11,13,15,-1,17,-1,-1,-1,-1,-1,-1],"loss_changes":[1.7534123E5,1.0256719E3,5.1538527E4,0E0,0E0,0E0,1.9254969E4,3.2461281E4,7.128384E3,1.3041252E4,4.870172E3,0E0,5.328037E2,0E0,0E0,0E0,0E0,0E0,0E0],"parents":[2147483647,0,0,1,1,2,2,6,6,7,7,8,8,9,9,10,10,12,12],"right_children":[2,4,6,-1,-1,-1,8,10,12,14,16,-1,18,-1,-1,-1,-1,-1,-1],"split_conditions":[3.0212164E0,1.5382363E3,3.0212164E0,1.23410845E1,6.154617E0,6.8195314E0,1.3123113E3,1.2108441E3,1.2585918E3,3.279958E0,9.546025E2,3.374112E0,2.150573E0,2.537503E0,-3.9411595E0,-3.5014894E0,-1.181964E1,-3.0124228E0,-8.774732E-1],"split_indices":[20,27,28,0,0,0,17,5,1,4,13,0,0,0,0,0,0,0,0],"split_type":[0,0,0,0,0,0,0,0,0,0,0,0,0,0,0,0,0,0,0],"sum_hessian":[5.3E1,1.1E1,4.2E1,7E0,4E0,4E0,3.8E1,2.9E1,9E0,2.1E1,8E0,3E0,6E0,3E0,1.8E1,2E0,6E0,2E0,4E0],"tree_param":{"num_deleted":"0","num_feature":"30","num_nodes":"19","size_leaf_vector":"1"}},{"base_weights":[1.0990679E0,9.939335E1,-2.6357454E1,5.662244E0,1.1370101E1,2.4747925E1,-4.4698303E1,5.091057E1,-2.206189E1,-3.315914E1,-1.1718264E1,1.3956604E0,5.4195904E1,-2.8115928E0,-8.65389E-1,-4.0601433E1,2.3505524E1,2.895935E0,6.5883484E0,9.083161E-1,-4.7476954E0,-1.4533691E-1,3.2309613E0],"categories":[],"categories_nodes":[],"categories_segments":[],"categories_sizes":[],"default_left":[0,0,0,0,0,0,0,0,0,0,0,0,0,0,0,0,0,0,0,0,0,0,0],"id":12,"left_children":[1,3,5,-1,-1,7,9,11,13,15,-1,-1,17,-1,-1,19,21,-1,-1,-1,-1,-1,-1],"loss_changes":[1.4835598E5,9.053828E2,4.1410777E4,0E0,0E0,1.5819205E4,2.2879387E4,2.1485938E2,1.625503E2,1.3184086E4,0E0,0E0,1.5673633E2,0E0,0E0,9.313035E3,9.259187E2,0E0,0E0,0E0,0E0,0E0,0E0],"parents":[2147483647,0,0,1,1,2,2,5,5,6,6,7,7,8,8,9,9,12,12,15,15,16,16],"right_children":[2,4,6,-1,-1,8,10,12,14,16,-1,-1,18,-1,-1,20,22,-1,-1,-1,-1,-1,-1],"split_conditions":[3.0212164E0,3.0212164E0,3.279958E0,5.662244E0,1.1370101E1,1.2585918E3,1.3320004E3,2.0929976E0,2.150573E0,1.3320004E3,-1.1718264E1,1.3956604E0,1.0571843E3,-2.8115928E0,-8.65389E-1,8.434185E2,3.6447313E0,2.895935E0,6.5883484E0,9.083161E-1,-4.7476954E0,-1.4533691E-1,3.2309613E0],"split_indices":[24,10,2,0,0,1,7,0,0,17,0,0,11,0,0,21,0,0,0,0,0,0,0],"split_type":[0,0,0,0,0,0,0,0,0,0,0,0,0,0,0,0,0,0,0,0,0,0,0],"sum_hessian":[5.3E1,1.1E1,4.2E1,4E0,7E0,1.1E1,3.1E1,7E0,4E0,2.8E1,3E0,1E0,6E0,2E0,2E0,2.5E1,3E0,3E0,3E0,3E0,2.2E1,1E0,2E0],"tree_param":{"num_deleted":"0","num_feature":"30","num_nodes":"23","size_leaf_vector":"1"}},{"base_weights":[1.2069962E0,9.09446E1,-2.3864126E1,1.0459833E1,5.090972E0,5.629475E0,-3.3529003E1,-2.1383E1,-6.661412E1,-4.6433155E1,-8.436116E0,-9.9798546E1,-1.3469983E1,-1.4962524E0,-5.7783065E0,2.6097986E-1,-4.4305005E0,-1.6867188E0,-1.1301138E1,-2.00262E0,6.377441E-1],"categories":[],"categories_nodes":[],"categories_segments":[],"categories_sizes":[],"default_left":[0,0,0,0,0,0,0,0,0,0,0,0,0,0,0,0,0,0,0,0,0],"id":13,"left_children":[1,3,5,-1,-1,-1,7,9,11,13,15,17,19,-1,-1,-1,-1,-1,-1,-1,-1],"loss_changes":[1.2366072E5,1.2344453E3,3.520072E4,0E0,0E0,0E0,1.4247816E4,9.337928E3,1.6291293E4,2.7073047E3,8.435926E3,4.6683633E3,7.783358E2,0E0,0E0,0E0,0E0,0E0,0E0,0E0,0E0],"parents":[2147483647,0,0,1,1,2,2,6,6,7,7,8,8,9,9,10,10,11,11,12,12],"right_children":[2,4,6,-1,-1,-1,8,10,12,14,16,18,20,-1,-1,-1,-1,-1,-1,-1,-1],"split_conditions":[3.0212164E0,1.5382363E3,3.0212164E0,1.0459833E1,5.090972E0,5.629475E0,5.238869E0,1.00318646E3,6.472662E0,3.243745E0,4.403967E0,1.137683E3,4.823447E0,-1.4962524E0,-5.7783065E0,2.6097986E-1,-4.4305005E0,-1.6867188E0,-1.1301138E1,-2.00262E0,6.377441E-1],"split_indices":[20,25,28,0,0,0,16,5,16,18,14,7,0,0,0,0,0,0,0,0,0],"split_type":[0,0,0,0,0,0,0,0,0,0,0,0,0,0,0,0,0,0,0,0,0],"sum_hessian":[5.3E1,1.1E1,4.2E1,7E0,4E0,4E0,3.8E1,2.9E1,9E0,9E0,2E1,5E0,4E0,3E0,6E0,1.6E1,4E0,1E0,4E0,3E0,1E0],"tree_param":{"num_deleted":"0","num_feature":"30","num_nodes":"21","size_leaf_vector":"1"}},{"base_weights":[1.0008025E0,7.556274E1,-2.448378E1,8.18789E1,-3.2736817E-1,1.7012274E1,-3.8418385E1,4.9661117E0,9.580737E0,4.0943904E0,-1.9894459E1,-2.8260632E1,-9.991808E0,-2.987793E0,-9.929108E-1,-3.6552116E1,1.7190624E1,-1.29269E0,-5.5548306E0,2.998165E0,-1.3306071E-1],"categories":[],"categories_nodes":[],"categories_segments":[],"categories_sizes":[],"default_left":[0,0,0,0,0,0,0,0,0,0,0,0,0,0,0,0,0,0,0,0,0],"id":14,"left_children":[1,3,5,7,-1,9,11,-1,-1,-1,13,15,-1,-1,-1,17,19,-1,-1,-1,-1],"loss_changes":[1.04459766E5,7.239258E3,2.4361064E4,1.0757812E3,0E0,1.0530176E4,1.6541918E4,0E0,0E0,0E0,2.0078271E2,1.1180389E4,0E0,0E0,0E0,1.0052873E4,1.2244214E3,0E0,0E0,0E0,0E0],"parents":[2147483647,0,0,1,1,2,2,3,3,5,5,6,6,10,10,11,11,15,15,16,16],"right_children":[2,4,6,8,-1,10,12,-1,-1,-1,14,16,-1,-1,-1,18,20,-1,-1,-1,-1],"split_conditions":[3.07505E0,3.85492E0,3.279958E0,3.0212164E0,-3.2736817E-1,1.2585918E3,1.3320004E3,4.9661117E0,9.580737E0,4.0943904E0,2.1302378E0,1.3123113E3,-9.991808E0,-2.987793E0,-9.929108E-1,1.02055524E3,1.2108441E3,-1.29269E0,-5.5548306E0,2.998165E0,-1.3306071E-1],"split_indices":[24,0,2,10,0,1,7,0,0,0,0,17,0,0,0,21,1,0,0,0,0],"split_type":[0,0,0,0,0,0,0,0,0,0,0,0,0,0,0,0,0,0,0,0,0],"sum_hessian":[5.3E1,1.3E1,4E1,1.2E1,1E0,1E1,3E1,5E0,7E0,6E0,4E0,2.7E1,3E0,1E0,3E0,2.3E1,4E0,1.1E1,1.2E1,2E0,2E0],"tree_param":{"num_deleted":"0","num_feature":"30","num_nodes":"21","size_leaf_vector":"1"}},{"base_weights":[9.073871E-1,7.6743706E1,-2.0277338E1,5.323392E0,9.901062E0,4.632112E0,-2.829567E1,-1.7296179E1,-5.4721996E1,-1.0009263E1,-6.033708E0,-8.401017E1,-1.6313486E1,-3.2561917E0,6.121265E-1,-2.4544373E0,-9.099446E0,-1.7960364E0,-4.0395507E-1],"categories":[],"categories_nodes":[],"categories_segments":[],"categories_sizes":[],"default_left":[0,0,0,0,0,0,0,0,0,0,0,0,0,0,0,0,0,0,0],"id":15,"left_children":[1,3,5,-1,-1,-1,7,9,11,13,-1,15,17,-1,-1,-1,-1,-1,-1],"loss_changes":[8.8311016E4,1.01116406E3,2.4273055E4,0E0,0E0,0E0,1.0389885E4,8.491496E3,1.1003566E4,9.657763E3,0E0,2.585547E2,4.8730103E1,0E0,0E0,0E0,0E0,0E0,0E0],"parents":[2147483647,0,0,1,1,2,2,6,6,7,7,8,8,9,9,11,11,12,12],"right_children":[2,4,6,-1,-1,-1,8,10,12,14,-1,16,18,-1,-1,-1,-1,-1,-1],"split_conditions":[3.0212164E0,3.2135332E0,3.0212164E0,5.323392E0,9.901062E0,4.632112E0,5.238869E0,1.3320004E3,6.472662E0,3.6447313E0,-6.033708E0,1.1525851E3,1.4553904E3,-3.2561917E0,6.121265E-1,-2.4544373E0,-9.099446E0,-1.7960364E0,-4.0395507E-1],"split_indices":[20,10,28,0,0,0,18,1,18,24,0,9,1,0,0,0,0,0,0],"split_type":[0,0,0,0,0,0,0,0,0,0,0,0,0,0,0,0,0,0,0],"sum_hessian":[5.3E1,1.1E1,4.2E1,7E0,4E0,4E0,3.8E1,2.8E1,1E1,2.5E1,3E0,5E0,5E0,1E1,1.5E1,1E0,4E0,4E0,1E0],"tree_param":{"num_deleted":"0","num_feature":"30","num_nodes":"19","size_leaf_vector":"1"}},{"base_weights":[7.6895934E-1,7.033807E1,-1.866356E1,1.6122802E0,7.3801026E0,4.2615456E1,-2.604129E1,4.7218385E0,1.2101868E0,-1.6387365E1,-5.2398937E1,-2.051233E1,2.7574747E0,-7.9748116E1,-9.100134E0,2.3220079E-1,-2.9762166E0,-1.3749329E0,-9.019801E0,-1.5640122E0,8.5299075E-1],"categories":[],"categories_nodes":[],"categories_segments":[],"categories_sizes":[],"default_left":[0,0,0,0,0,0,0,0,0,0,0,0,0,0,0,0,0,0,0,0,0],"id":16,"left_children":[1,3,5,-1,-1,7,9,-1,-1,11,13,15,-1,17,19,-1,-1,-1,-1,-1,-1],"loss_changes":[7.431552E4,1.0630625E3,2.0550062E4,0E0,0E0,1.3082812E2,9.065055E3,0E0,0E0,6.005885E3,1.1116148E4,5.9830957E3,0E0,2.8979219E3,7.099101E2,0E0,0E0,0E0,0E0,0E0,0E0],"parents":[2147483647,0,0,1,1,2,2,5,5,6,6,9,9,10,10,11,11,13,13,14,14],"right_children":[2,4,6,-1,-1,8,10,-1,-1,12,14,16,-1,18,20,-1,-1,-1,-1,-1,-1],"split_conditions":[3.0212164E0,9.587683E2,3.0212164E0,1.6122802E0,7.3801026E0,1.1840627E3,5.238869E0,4.7218385E0,1.2101868E0,6.472662E0,6.472662E0,3.7126942E0,2.7574747E0,1.137683E3,4.823447E0,2.3220079E-1,-2.9762166E0,-1.3749329E0,-9.019801E0,-1.5640122E0,8.5299075E-1],"split_indices":[20,3,28,0,0,1,16,0,0,10,16,0,0,7,0,0,0,0,0,0,0],"split_type":[0,0,0,0,0,0,0,0,0,0,0,0,0,0,0,0,0,0,0,0,0],"sum_hessian":[5.3E1,1.1E1,4.2E1,1E0,1E1,4E0,3.8E1,3E0,1E0,2.9E1,9E0,2.7E1,2E0,5E0,4E0,8E0,1.9E1,1E0,4E0,3E0,1E0],"tree_param":{"num_deleted":"0","num_feature":"30","num_nodes":"21","size_leaf_vector":"1"}},{"base_weights":[7.630163E-1,5.8161255E1,-1.8854992E1,7.443323E1,3.1255964E1,4.943629E0,-3.4283855E1,2.9531333E0,8.447864E0,3.6463215E0,6.225586E-4,-2.3446238E1,1.8726593E1,-5.2312176E1,-1.3618315E1,-8.900177E0,-3.5025575E0,3.4007366E1,-2.0336792E1,-6.525356E1,-6.880661E0,1.0635559E1,-2.5579542E1,-1.22363284E-1,-1.1051148E0,1.3957154E0,3.774212E0,-2.8806214E0,-7.911581E-1,-3.1972911E0,-8.2111845E0,-1.944162E0,3.7868652E-1,1.9925476E0,-1.3262055E0,-4.4890139E-1,-4.155416E0],"categories":[],"categories_nodes":[],"categories_segments":[],"categories_sizes":[],"default_left":[0,0,0,0,0,0,0,0,0,0,0,0,0,0,0,0,0,0,0,0,0,0,0,0,0,0,0,0,0,0,0,0,0,0,0,0,0],"id":17,"left_children":[1,3,5,7,9,11,13,-1,-1,-1,-1,15,17,19,21,23,-1,25,27,29,31,33,35,-1,-1,-1,-1,-1,-1,-1,-1,-1,-1,-1,-1,-1,-1],"loss_changes":[6.1902746E4,3.802746E3,1.5224099E4,1.1136953E3,1.1388496E3,7.091109E3,8.601721E3,0E0,0E0,0E0,0E0,6.988684E2,7.8546255E3,7.194324E3,4.0434321E3,5.2525543E1,0E0,1.471709E2,1.9303467E2,2.9851914E3,6.096003E2,1.374287E3,2.8456812E3,0E0,0E0,0E0,0E0,0E0,0E0,0E0,0E0,0E0,0E0,0E0,0E0,0E0,0E0],"parents":[2147483647,0,0,1,1,2,2,3,3,4,4,5,5,6,6,11,11,12,12,13,13,14,14,15,15,17,17,18,18,19,19,20,20,21,21,22,22],"right_children":[2,4,6,8,10,12,14,-1,-1,-1,-1,16,18,20,22,24,-1,26,28,30,32,34,36,-1,-1,-1,-1,-1,-1,-1,-1,-1,-1,-1,-1,-1,-1],"split_conditions":[3.07505E0,3.3624275E0,3.5794754E0,3.0212164E0,3.6774235E0,9.546025E2,1.0873809E3,2.9531333E0,8.447864E0,3.6463215E0,6.225586E-4,3.243745E0,1.2585918E3,3.995453E0,3.7374852E0,7.874405E2,-3.5025575E0,9.710746E2,2.1302378E0,3.279958E0,4.823447E0,4.343635E0,3.7374852E0,-1.22363284E-1,-1.1051148E0,1.3957154E0,3.774212E0,-2.8806214E0,-7.911581E-1,-3.1972911E0,-8.2111845E0,-1.944162E0,3.7868652E-1,1.9925476E0,-1.3262055E0,-4.4890139E-1,-4.155416E0],"split_indices":[24,2,14,6,0,3,17,0,0,0,0,18,1,4,18,1,0,15,0,26,0,0,12,0,0,0,0,0,0,0,0,0,0,0,0,0,0],"split_type":[0,0,0,0,0,0,0,0,0,0,0,0,0,0,0,0,0,0,0,0,0,0,0,0,0,0,0,0,0,0,0,0,0,0,0,0,0],"sum_hessian":[5.3E1,1.3E1,4E1,7E0,6E0,1.6E1,2.4E1,2E0,5E0,5E0,1E0,5E0,1.1E1,1.2E1,1.2E1,3E0,2E0,8E0,3E0,9E0,3E0,4E0,8E0,1E0,2E0,2E0,6E0,1E0,2E0,4E0,5E0,1E0,2E0,3E0,1E0,4E0,4E0],"tree_param":{"num_deleted":"0","num_feature":"30","num_nodes":"37","size_leaf_vector":"1"}},{"base_weights":[5.9233713E-1,5.9215496E1,-1.5781389E1,3.9806106E0,7.8427415E0,3.60875E1,-2.2026596E1,3.970993E0,1.0798889E0,-1.3117019E1,-4.351306E1,-7.062484E0,-4.9192247E0,-6.670181E1,-1.3072133E1,-2.1040142E0,1.740578E0,-2.0230408E0,-7.195001E0,-1.4554089E0,-2.8311768E-1],"categories":[],"categories_nodes":[],"categories_segments":[],"categories_sizes":[],"default_left":[0,0,0,0,0,0,0,0,0,0,0,0,0,0,0,0,0,0,0,0,0],"id":18,"left_children":[1,3,5,-1,-1,7,9,-1,-1,11,13,15,-1,17,19,-1,-1,-1,-1,-1,-1],"loss_changes":[5.2768E4,1.3528086E3,1.4723957E4,0E0,0E0,2.9208008E1,6.895215E3,0E0,0E0,5.986724E3,6.8928223E3,9.258453E3,0E0,7.7695312E0,4.9854736E1,0E0,0E0,0E0,0E0,0E0,0E0],"parents":[2147483647,0,0,1,1,2,2,5,5,6,6,9,9,10,10,11,11,13,13,14,14],"right_children":[2,4,6,-1,-1,8,10,-1,-1,12,14,16,-1,18,20,-1,-1,-1,-1,-1,-1],"split_conditions":[3.0212164E0,3.2135332E0,3.0212164E0,3.9806106E0,7.8427415E0,1.1840627E3,5.238869E0,3.970993E0,1.0798889E0,1.3320004E3,6.472662E0,1.137683E3,-4.9192247E0,1.1525851E3,1.4553904E3,-2.1040142E0,1.740578E0,-2.0230408E0,-7.195001E0,-1.4554089E0,-2.8311768E-1],"split_indices":[20,10,28,0,0,1,18,0,0,3,18,7,0,9,1,0,0,0,0,0,0],"split_type":[0,0,0,0,0,0,0,0,0,0,0,0,0,0,0,0,0,0,0,0,0],"sum_hessian":[5.3E1,1.1E1,4.2E1,7E0,4E0,4E0,3.8E1,3E0,1E0,2.8E1,1E1,2.5E1,3E0,5E0,5E0,1.6E1,9E0,1E0,4E0,4E0,1E0],"tree_param":{"num_deleted":"0","num_feature":"30","num_nodes":"21","size_leaf_vector":"1"}},{"base_weights":[5.448631E-1,5.4279224E1,-1.4463444E1,6.3918137E1,2.8001125E0,3.3488965E0,-2.0240332E1,6.7577255E1,1.9152161E0,-2.4008663E1,1.8734741E1,1.9316406E0,7.240133E0,1.456326E0,-3.1336386E1,-5.9039306E-2,2.5373251E0,1.7508081E0,-1.4886694E0,-4.374706E0,-1.114324E0],"categories":[],"categories_nodes":[],"categories_segments":[],"categories_sizes":[],"default_left":[0,0,0,0,0,0,0,0,0,0,0,0,0,0,0,0,0,0,0,0,0],"id":19,"left_children":[1,3,5,7,-1,-1,9,11,-1,13,15,-1,-1,17,19,-1,-1,-1,-1,-1,-1],"loss_changes":[4.4334004E4,1.2497266E3,1.25895E4,1.6183594E1,0E0,0E0,6.1777676E3,2.3116406E2,0E0,6.76325E3,5.281404E2,0E0,0E0,2.621645E3,6.5296094E3,0E0,0E0,0E0,0E0,0E0,0E0],"parents":[2147483647,0,0,1,1,2,2,3,3,6,6,7,7,9,9,10,10,13,13,14,14],"right_children":[2,4,6,8,-1,-1,10,12,-1,14,16,-1,-1,18,20,-1,-1,-1,-1,-1,-1],"split_conditions":[3.0212164E0,1.5382363E3,3.0212164E0,3.3624275E0,2.8001125E0,3.3488965E0,6.362461E0,2.0751622E0,1.9152161E0,3.279958E0,3.6447313E0,1.9316406E0,7.240133E0,1.2585918E3,3.995453E0,-5.9039306E-2,2.5373251E0,1.7508081E0,-1.4886694E0,-4.374706E0,-1.114324E0],"split_indices":[20,27,28,2,0,0,8,4,0,4,0,0,0,1,4,0,0,0,0,0,0],"split_type":[0,0,0,0,0,0,0,0,0,0,0,0,0,0,0,0,0,0,0,0,0],"sum_hessian":[5.3E1,1.1E1,4.2E1,7E0,4E0,4E0,3.8E1,6E0,1E0,3.5E1,3E0,1E0,5E0,8E0,2.7E1,1E0,2E0,4E0,4E0,1.6E1,1.1E1],"tree_param":{"num_deleted":"0","num_feature":"30","num_nodes":"21","size_leaf_vector":"1"}},{"base_weights":[7.5867265E-1,4.5513977E1,-1.454213E1,5.837198E1,2.4317122E1,4.248643E0,-2.673817E1,2.3331583E0,6.6163516E0,2.7831604E0,1.6151123E-1,-1.7577799E1,1.4807811E1,-4.1811428E1,-9.60813E0,-4.2730713E0,-2.945817E0,2.692022E1,-1.6147064E1,-2.2831713E1,-6.7612634E0,9.973963E0,-1.9419502E1,4.4671632E-2,-5.9952396E-1,7.0261234E-1,2.8528717E0,-2.4161987E0,-5.4214275E-1,-3.1240122E0,4.398478E-1,1.8108399E0,-1.1281891E0,-4.903422E-1,-3.6338747E0],"categories":[],"categories_nodes":[],"categories_segments":[],"categories_sizes":[],"default_left":[0,0,0,0,0,0,0,0,0,0,0,0,0,0,0,0,0,0,0,0,0,0,0,0,0,0,0,0,0,0,0,0,0,0,0],"id":20,"left_children":[1,3,5,7,9,11,13,-1,-1,-1,-1,15,17,19,21,23,-1,25,27,29,-1,31,33,-1,-1,-1,-1,-1,-1,-1,-1,-1,-1,-1,-1],"loss_changes":[3.7640645E4,2.396248E3,9.509695E3,6.404492E2,5.135498E2,4.178263E3,6.053408E3,0E0,0E0,0E0,0E0,8.225138E2,4.9339395E3,4.822383E3,2.6913428E3,3.519124E1,0E0,8.755029E1,2.1286816E2,2.1980723E3,0E0,1.0688188E3,2.0322253E3,0E0,0E0,0E0,0E0,0E0,0E0,0E0,0E0,0E0,0E0,0E0,0E0],"parents":[2147483647,0,0,1,1,2,2,3,3,4,4,5,5,6,6,11,11,12,12,13,13,14,14,15,15,17,17,18,18,19,19,21,21,22,22],"right_children":[2,4,6,8,10,12,14,-1,-1,-1,-1,16,18,20,22,24,-1,26,28,30,-1,32,34,-1,-1,-1,-1,-1,-1,-1,-1,-1,-1,-1,-1],"split_conditions":[3.07505E0,3.3624275E0,3.5794754E0,3.0212164E0,3.6774235E0,9.546025E2,1.0873809E3,2.3331583E0,6.6163516E0,2.7831604E0,1.6151123E-1,3.243745E0,1.2585918E3,1.3123113E3,3.7374852E0,7.874405E2,-2.945817E0,2.0929976E0,2.1302378E0,1.2108441E3,-6.7612634E0,4.343635E0,3.7780213E0,4.4671632E-2,-5.9952396E-1,7.0261234E-1,2.8528717E0,-2.4161987E0,-5.4214275E-1,-3.1240122E0,4.398478E-1,1.8108399E0,-1.1281891E0,-4.903422E-1,-3.6338747E0],"split_indices":[24,2,14,6,0,3,17,0,0,0,0,18,1,7,18,1,0,0,0,9,0,0,12,0,0,0,0,0,0,0,0,0,0,0,0],"split_type":[0,0,0,0,0,0,0,0,0,0,0,0,0,0,0,0,0,0,0,0,0,0,0,0,0,0,0,0,0,0,0,0,0,0,0],"sum_hessian":[5.3E1,1.3E1,4E1,7E0,6E0,1.6E1,2.4E1,2E0,5E0,5E0,1E0,5E0,1.1E1,1.2E1,1.2E1,3E0,2E0,8E0,3E0,8E0,4E0,4E0,8E0,1E0,2E0,1E0,7E0,1E0,2E0,6E0,2E0,3E0,1E0,5E0,3E0],"tree_param":{"num_deleted":"0","num_feature":"30","num_nodes":"35","size_leaf_vector":"1"}},{"base_weights":[6.1064994E-1,4.624878E1,-1.2139773E1,5.4607897E0,2.362444E0,2.7788794E1,-1.6947544E1,3.1156952E0,7.158081E-1,-1.31116085E1,-5.8608236E0,-5.687839E0,-3.0141624E1,-1.7537415E0,6.568011E-1,-3.8102188E0,3.7872723E-1],"categories":[],"categories_nodes":[],"categories_segments":[],"categories_sizes":[],"default_left":[0,0,0,0,0,0,0,0,0,0,0,0,0,0,0,0,0],"id":21,"left_children":[1,3,5,-1,-1,7,9,-1,-1,11,-1,13,15,-1,-1,-1,-1],"loss_changes":[3.1984346E4,9.7935156E2,8.725551E3,0E0,0E0,1.2441382E2,5.4640537E3,0E0,0E0,4.5063555E3,0E0,4.0363044E3,3.1153271E3,0E0,0E0,0E0,0E0],"parents":[2147483647,0,0,1,1,2,2,5,5,6,6,9,9,11,11,12,12],"right_children":[2,4,6,-1,-1,8,10,-1,-1,12,-1,14,16,-1,-1,-1,-1],"split_conditions":[3.0212164E0,1.5382363E3,3.0212164E0,5.4607897E0,2.362444E0,1.1840627E3,6.472662E0,3.1156952E0,7.158081E-1,4.403967E0,-5.8608236E0,1.0859291E3,6.691084E0,-1.7537415E0,6.568011E-1,-3.8102188E0,3.7872723E-1],"split_indices":[20,27,28,0,0,1,2,0,0,14,0,7,16,0,0,0,0],"split_type":[0,0,0,0,0,0,0,0,0,0,0,0,0,0,0,0,0],"sum_hessian":[5.3E1,1.1E1,4.2E1,7E0,4E0,4E0,3.8E1,3E0,1E0,3.6E1,2E0,2.6E1,1E1,1.3E1,1.3E1,8E0,2E0],"tree_param":{"num_deleted":"0","num_feature":"30","num_nodes":"17","size_leaf_vector":"1"}},{"base_weights":[5.73006E-1,3.8476997E1,-1.2383797E1,4.955571E1,2.03189E1,3.3130565E0,-2.2562305E1,1.9168417E0,5.6490073E0,2.2901633E0,2.411255E-1,-1.4942006E1,1.21645E1,-3.5822403E1,-7.5666456E0,-2.669159E0,-2.6325135E0,2.3225817E1,-1.5764587E1,-1.9107199E1,-5.874529E0,9.481054E0,-1.6196852E1,1.3012695E-1,-4.4263917E-1,1.1120118E0,2.7425315E0,-2.3282287E0,-5.4979247E-1,-2.6522226E0,4.5635986E-1,1.625766E0,-8.812683E-1,-1.2986572E-1,-2.7855678E0],"categories":[],"categories_nodes":[],"categories_segments":[],"categories_sizes":[],"default_left":[0,0,0,0,0,0,0,0,0,0,0,0,0,0,0,0,0,0,0,0,0,0,0,0,0,0,0,0,0,0,0,0,0,0,0],"id":22,"left_children":[1,3,5,7,9,11,13,-1,-1,-1,-1,15,17,19,21,23,-1,25,27,29,-1,31,33,-1,-1,-1,-1,-1,-1,-1,-1,-1,-1,-1,-1],"loss_changes":[2.6996678E4,1.8094375E3,6.625343E3,6.029082E2,2.6853296E2,2.928684E3,4.70004E3,0E0,0E0,0E0,0E0,7.6795435E2,4.0733354E3,3.8586309E3,2.0661902E3,3.3667793E1,0E0,1.5256738E2,1.8072253E2,1.7007134E3,0E0,7.631207E2,1.527084E3,0E0,0E0,0E0,0E0,0E0,0E0,0E0,0E0,0E0,0E0,0E0,0E0],"parents":[2147483647,0,0,1,1,2,2,3,3,4,4,5,5,6,6,11,11,12,12,13,13,14,14,15,15,17,17,18,18,19,19,21,21,22,22],"right_children":[2,4,6,8,10,12,14,-1,-1,-1,-1,16,18,20,22,24,-1,26,28,30,-1,32,34,-1,-1,-1,-1,-1,-1,-1,-1,-1,-1,-1,-1],"split_conditions":[3.07505E0,3.3624275E0,3.5794754E0,3.0212164E0,3.6774235E0,9.546025E2,1.0873809E3,1.9168417E0,5.6490073E0,2.2901633E0,2.411255E-1,3.243745E0,1.2585918E3,1.3123113E3,3.7374852E0,7.874405E2,-2.6325135E0,1.1621753E3,2.1302378E0,1.2108441E3,-5.874529E0,4.343635E0,3.7374852E0,1.3012695E-1,-4.4263917E-1,1.1120118E0,2.7425315E0,-2.3282287E0,-5.4979247E-1,-2.6522226E0,4.5635986E-1,1.625766E0,-8.812683E-1,-1.2986572E-1,-2.7855678E0],"split_indices":[24,2,14,6,0,3,17,0,0,0,0,18,1,7,18,1,0,3,0,9,0,0,12,0,0,0,0,0,0,0,0,0,0,0,0],"split_type":[0,0,0,0,0,0,0,0,0,0,0,0,0,0,0,0,0,0,0,0,0,0,0,0,0,0,0,0,0,0,0,0,0,0,0],"sum_hessian":[5.3E1,1.3E1,4E1,7E0,6E0,1.6E1,2.4E1,2E0,5E0,5E0,1E0,5E0,1.1E1,1.2E1,1.2E1,3E0,2E0,8E0,3E0,8E0,4E0,4E0,8E0,1E0,2E0,3E0,5E0,1E0,2E0,6E0,2E0,3E0,1E0,4E0,4E0],"tree_param":{"num_deleted":"0","num_feature":"30","num_nodes":"35","size_leaf_vector":"1"}},{"base_weights":[4.7657606E-1,3.90814E1,-1.0307946E1,1.6610473E0,4.47261E1,2.341743E1,-1.4367407E1,5.2707725E0,2.1572144E0,2.6149719E0,6.244141E-1,-1.09428625E1,-5.1814313E0,-1.7845354E1,1.6716135E0,-2.0136176E-2,-2.6654766E0,-1.056602E0,9.6443003E-1],"categories":[],"categories_nodes":[],"categories_segments":[],"categories_sizes":[],"default_left":[0,0,0,0,0,0,0,0,0,0,0,0,0,0,0,0,0,0,0],"id":23,"left_children":[1,3,5,-1,7,9,11,-1,-1,-1,-1,13,-1,15,17,-1,-1,-1,-1],"loss_changes":[2.2884918E4,7.7917773E2,6.223442E3,0E0,5.262363E2,7.1329346E1,4.4343066E3,0E0,0E0,0E0,0E0,3.2514697E3,0E0,3.7250298E3,1.4678374E3,0E0,0E0,0E0,0E0],"parents":[2147483647,0,0,1,1,2,2,4,4,5,5,6,6,11,11,13,13,14,14],"right_children":[2,4,6,-1,8,10,12,-1,-1,-1,-1,14,-1,16,18,-1,-1,-1,-1],"split_conditions":[3.0212164E0,2.1473162E0,3.0212164E0,1.6610473E0,3.3624275E0,1.1840627E3,6.472662E0,5.2707725E0,2.1572144E0,2.6149719E0,6.244141E-1,3.9849756E0,-5.1814313E0,3.4718058E0,1.0590277E3,-2.0136176E-2,-2.6654766E0,-1.056602E0,9.6443003E-1],"split_indices":[20,10,28,0,2,1,2,0,0,0,0,4,0,2,3,0,0,0,0],"split_type":[0,0,0,0,0,0,0,0,0,0,0,0,0,0,0,0,0,0,0],"sum_hessian":[5.3E1,1.1E1,4.2E1,3E0,8E0,4E0,3.8E1,5E0,3E0,3E0,1E0,3.6E1,2E0,2.3E1,1.3E1,8E0,1.5E1,5E0,8E0],"tree_param":{"num_deleted":"0","num_feature":"30","num_nodes":"19","size_leaf_vector":"1"}},{"base_weights":[5.098346E-1,3.2583923E1,-1.0454728E1,4.2168335E1,1.6975464E1,-3.7634158E0,-2.8361633E1,1.6783164E0,4.7832866E0,2.0820386E0,4.908773E-1,6.7831856E-1,-3.3914704E0,-8.48051E0,-4.351582E1,-9.107639E0,1.6630037E1,-9.450806E-1,-1.8145142E-1,-5.2195926E0,-1.7437073E0,-2.3637536E0,2.2875254E-1,-7.039307E-1,1.9700903E0],"categories":[],"categories_nodes":[],"categories_segments":[],"categories_sizes":[],"default_left":[0,0,0,0,0,0,0,0,0,0,0,0,0,0,0,0,0,0,0,0,0,0,0,0,0],"id":24,"left_children":[1,3,5,7,9,11,13,-1,-1,-1,-1,15,-1,17,19,21,23,-1,-1,-1,-1,-1,-1,-1,-1],"loss_changes":[1.9331287E4,1.378544E3,4.8059116E3,3.4757422E2,2.225658E2,4.1746494E3,2.9450693E3,0E0,0E0,0E0,0E0,4.5223403E3,0E0,2.1659302E1,4.4805273E2,3.0343418E3,9.382197E2,0E0,0E0,0E0,0E0,0E0,0E0,0E0,0E0],"parents":[2147483647,0,0,1,1,2,2,3,3,4,4,5,5,6,6,11,11,13,13,14,14,15,15,16,16],"right_children":[2,4,6,8,10,12,14,-1,-1,-1,-1,16,-1,18,20,22,24,-1,-1,-1,-1,-1,-1,-1,-1],"split_conditions":[3.07505E0,3.3624275E0,5.238869E0,3.0212164E0,3.2807586E0,1.3320004E3,3.6447313E0,1.6783164E0,4.7832866E0,2.0820386E0,4.908773E-1,1.137683E3,-3.3914704E0,1.4553904E3,3.8709738E0,3.4718058E0,1.00159064E3,-9.450806E-1,-1.8145142E-1,-5.2195926E0,-1.7437073E0,-2.3637536E0,2.2875254E-1,-7.039307E-1,1.9700903E0],"split_indices":[24,2,18,6,0,3,12,0,0,0,0,7,0,1,8,20,13,0,0,0,0,0,0,0,0],"split_type":[0,0,0,0,0,0,0,0,0,0,0,0,0,0,0,0,0,0,0,0,0,0,0,0,0],"sum_hessian":[5.3E1,1.3E1,4E1,7E0,6E0,3E1,1E1,2E0,5E0,4E0,2E0,2.7E1,3E0,5E0,5E0,1.7E1,1E1,4E0,1E0,3E0,2E0,7E0,1E1,1E0,9E0],"tree_param":{"num_deleted":"0","num_feature":"30","num_nodes":"25","size_leaf_vector":"1"}},{"base_weights":[3.9744624E-1,3.3330944E1,-8.80254E0,3.9472748E1,1.6837866E0,2.0258984E1,-1.23026705E1,1.5664266E0,4.47982E0,2.241495E0,5.817566E-1,-9.328738E0,-4.488027E0,-4.7512736E0,-2.532814E1,-1.5046784E0,4.0068683E-1,-4.2278442E-1,-3.7142751E0],"categories":[],"categories_nodes":[],"categories_segments":[],"categories_sizes":[],"default_left":[0,0,0,0,0,0,0,0,0,0,0,0,0,0,0,0,0,0,0],"id":25,"left_children":[1,3,5,7,-1,9,11,-1,-1,-1,-1,13,-1,15,17,-1,-1,-1,-1],"loss_changes":[1.6654734E4,5.509297E2,4.6231616E3,3.125957E2,0E0,2.527539E1,3.3597822E3,0E0,0E0,0E0,0E0,2.589417E3,0E0,2.7653765E3,1.8372998E3,0E0,0E0,0E0,0E0],"parents":[2147483647,0,0,1,1,2,2,3,3,5,5,6,6,11,11,13,13,14,14],"right_children":[2,4,6,8,-1,10,12,-1,-1,-1,-1,14,-1,16,18,-1,-1,-1,-1],"split_conditions":[3.0212164E0,3.3624275E0,3.0212164E0,2.1473162E0,1.6837866E0,1.1840627E3,6.472662E0,1.5664266E0,4.47982E0,2.241495E0,5.817566E-1,1.3713759E3,-4.488027E0,3.6447313E0,2.369439E0,-1.5046784E0,4.0068683E-1,-4.2278442E-1,-3.7142751E0],"split_indices":[20,2,28,10,0,1,2,0,0,0,0,5,0,24,2,0,0,0,0],"split_type":[0,0,0,0,0,0,0,0,0,0,0,0,0,0,0,0,0,0,0],"sum_hessian":[5.3E1,1.1E1,4.2E1,7E0,4E0,4E0,3.8E1,2E0,5E0,3E0,1E0,3.6E1,2E0,2.9E1,7E0,1.3E1,1.6E1,3E0,4E0],"tree_param":{"num_deleted":"0","num_feature":"30","num_nodes":"19","size_leaf_vector":"1"}},{"base_weights":[3.7296662E-1,2.7773281E1,-8.992335E0,3.5847458E1,1.4578038E1,2.995688E0,-1.6784496E1,4.30761E0,1.7849792E0,1.7696167E0,4.52181E-1,-1.02117E1,9.349742E0,-2.728148E1,-4.996399E0,2.4526978E-1,-2.0750427E0,1.799174E1,-1.243219E1,-1.431267E1,-4.5169044E1,8.545679E0,-1.196462E1,1.0809326E-1,-1.1308594E-1,6.650757E-1,2.0281913E0,-1.8555237E0,-4.2060953E-1,-1.9812021E0,3.290039E-1,-5.0679536E0,-1.1563538E0,1.4125947E0,-6.887695E-1,-1.0061767E-1,-2.053014E0],"categories":[],"categories_nodes":[],"categories_segments":[],"categories_sizes":[],"default_left":[0,0,0,0,0,0,0,0,0,0,0,0,0,0,0,0,0,0,0,0,0,0,0,0,0,0,0,0,0,0,0,0,0,0,0,0,0],"id":26,"left_children":[1,3,5,7,9,11,13,-1,-1,-1,-1,15,17,19,21,23,-1,25,27,29,31,33,35,-1,-1,-1,-1,-1,-1,-1,-1,-1,-1,-1,-1,-1,-1],"loss_changes":[1.4106806E4,9.6898535E2,3.8801987E3,2.7188965E2,1.3947766E2,1.5221245E3,2.9571772E3,0E0,0E0,0E0,0E0,6.6630835E2,2.4825498E3,2.3692568E3,1.3289802E3,5.822303E0,0E0,9.8865234E1,1.2342999E2,9.364137E2,3.398789E2,5.27907E2,8.24126E2,0E0,0E0,0E0,0E0,0E0,0E0,0E0,0E0,0E0,0E0,0E0,0E0,0E0,0E0],"parents":[2147483647,0,0,1,1,2,2,3,3,4,4,5,5,6,6,11,11,12,12,13,13,14,14,15,15,17,17,18,18,19,19,20,20,21,21,22,22],"right_children":[2,4,6,8,10,12,14,-1,-1,-1,-1,16,18,20,22,24,-1,26,28,30,32,34,36,-1,-1,-1,-1,-1,-1,-1,-1,-1,-1,-1,-1,-1,-1],"split_conditions":[3.07505E0,3.3624275E0,3.5794754E0,3.6326745E0,3.2807586E0,9.546025E2,1.0873809E3,4.30761E0,1.7849792E0,1.7696167E0,4.52181E-1,3.243745E0,1.2585918E3,1.3123113E3,3.7374852E0,4.7669396E0,-2.0750427E0,9.710746E2,2.1302378E0,1.2108441E3,6.691084E0,4.343635E0,3.7374852E0,1.0809326E-1,-1.1308594E-1,6.650757E-1,2.0281913E0,-1.8555237E0,-4.2060953E-1,-1.9812021E0,3.290039E-1,-5.0679536E0,-1.1563538E0,1.4125947E0,-6.887695E-1,-1.0061767E-1,-2.053014E0],"split_indices":[24,2,14,0,0,3,17,0,0,0,0,18,1,7,18,0,0,15,0,9,0,0,12,0,0,0,0,0,0,0,0,0,0,0,0,0,0],"split_type":[0,0,0,0,0,0,0,0,0,0,0,0,0,0,0,0,0,0,0,0,0,0,0,0,0,0,0,0,0,0,0,0,0,0,0,0,0],"sum_hessian":[5.3E1,1.3E1,4E1,7E0,6E0,1.6E1,2.4E1,4E0,3E0,4E0,2E0,5E0,1.1E1,1.2E1,1.2E1,3E0,2E0,8E0,3E0,8E0,4E0,4E0,8E0,2E0,1E0,2E0,6E0,1E0,2E0,6E0,2E0,3E0,1E0,3E0,1E0,4E0,4E0],"tree_param":{"num_deleted":"0","num_feature":"30","num_nodes":"37","size_leaf_vector":"1"}},{"base_weights":[2.8650016E-1,2.8469717E1,-7.585246E0,4.0575747E0,1.9925957E1,-2.300822E0,-2.2748951E1,4.241272E-1,2.1356385E0,1.0549195E0,-2.6893678E0,-6.603373E0,-3.510304E1,-1.5819168E1,6.878301E0,-7.339185E-1,-1.4621583E-1,-4.20614E0,-1.4124206E0,2.1948243E-2,-2.5486257E0,1.6378345E0,-3.9875142E-2],"categories":[],"categories_nodes":[],"categories_segments":[],"categories_sizes":[],"default_left":[0,0,0,0,0,0,0,0,0,0,0,0,0,0,0,0,0,0,0,0,0,0,0],"id":27,"left_children":[1,3,5,-1,7,9,11,-1,-1,13,-1,15,17,19,21,-1,-1,-1,-1,-1,-1,-1,-1],"loss_changes":[1.2195911E4,4.3266113E2,3.393311E3,0E0,1.11343994E2,2.7517703E3,1.9623042E3,0E0,0E0,3.0567363E3,0E0,1.1966736E1,2.8178613E2,1.2459698E3,1.5965742E3,0E0,0E0,0E0,0E0,0E0,0E0,0E0,0E0],"parents":[2147483647,0,0,1,1,2,2,4,4,5,5,6,6,9,9,11,11,12,12,13,13,14,14],"right_children":[2,4,6,-1,8,10,12,-1,-1,14,-1,16,18,20,22,-1,-1,-1,-1,-1,-1,-1,-1],"split_conditions":[3.0212164E0,1.0324381E3,5.238869E0,4.0575747E0,9.587683E2,1.3320004E3,3.6447313E0,4.241272E-1,2.1356385E0,9.885024E2,-2.6893678E0,1.4553904E3,3.8709738E0,3.243745E0,3.6447313E0,-7.339185E-1,-1.4621583E-1,-4.20614E0,-1.4124206E0,2.1948243E-2,-2.5486257E0,1.6378345E0,-3.9875142E-2],"split_indices":[20,11,18,0,3,3,12,0,0,5,0,1,8,18,2,0,0,0,0,0,0,0,0],"split_type":[0,0,0,0,0,0,0,0,0,0,0,0,0,0,0,0,0,0,0,0,0,0,0],"sum_hessian":[5.3E1,1.1E1,4.2E1,3E0,8E0,3.2E1,1E1,1E0,7E0,2.9E1,3E0,5E0,5E0,7E0,2.2E1,4E0,1E0,3E0,2E0,3E0,4E0,9E0,1.3E1],"tree_param":{"num_deleted":"0","num_feature":"30","num_nodes":"23","size_leaf_vector":"1"}},{"base_weights":[1.9305533E-1,2.6174194E1,-7.0619845E0,3.7532532E0,1.82178E1,-1.2450948E0,-1.9022322E1,4.0292358E-1,1.9487717E0,1.2586706E1,-7.7723765E0,-3.5602875E1,-5.855028E0,1.6123278E1,-9.621216E-1,-1.672134E1,-9.7906494E-1,-1.2401509E0,-4.410318E0,-9.201881E0,1.04599E0,7.642975E-1,1.90896E0,-6.525472E-2,-2.1219203E0,6.4695436E-1,-1.0747365E0,-1.8307374E-1,-1.6115341E0],"categories":[],"categories_nodes":[],"categories_segments":[],"categories_sizes":[],"default_left":[0,0,0,0,0,0,0,0,0,0,0,0,0,0,0,0,0,0,0,0,0,0,0,0,0,0,0,0,0],"id":28,"left_children":[1,3,5,-1,7,9,11,-1,-1,13,15,17,19,21,-1,23,25,-1,-1,27,-1,-1,-1,-1,-1,-1,-1,-1,-1],"loss_changes":[1.0363528E4,4.006963E2,2.9679097E3,0E0,8.36438E1,2.8063506E3,2.8480386E3,0E0,0E0,9.405243E2,1.2602838E3,6.363657E2,5.8768384E2,8.049634E1,0E0,6.366304E2,1.01541376E3,0E0,0E0,3.7817798E2,0E0,0E0,0E0,0E0,0E0,0E0,0E0,0E0,0E0],"parents":[2147483647,0,0,1,1,2,2,4,4,5,5,6,6,9,9,10,10,11,11,12,12,13,13,15,15,16,16,19,19],"right_children":[2,4,6,-1,8,10,12,-1,-1,14,16,18,20,22,-1,24,26,-1,-1,28,-1,-1,-1,-1,-1,-1,-1,-1,-1],"split_conditions":[3.0212164E0,1.0324381E3,1.2702676E3,3.7532532E0,9.587683E2,3.6447313E0,1.0873809E3,4.0292358E-1,1.9487717E0,3.9503815E0,3.9849756E0,1.01469763E3,3.9849756E0,3.243745E0,-9.621216E-1,3.236957E0,4.1068277E0,-1.2401509E0,-4.410318E0,2.369439E0,1.04599E0,7.642975E-1,1.90896E0,-6.525472E-2,-2.1219203E0,6.4695436E-1,-1.0747365E0,-1.8307374E-1,-1.6115341E0],"split_indices":[20,11,7,0,3,2,17,0,0,0,4,21,6,8,0,18,18,0,0,2,0,0,0,0,0,0,0,0,0],"split_type":[0,0,0,0,0,0,0,0,0,0,0,0,0,0,0,0,0,0,0,0,0,0,0,0,0,0,0,0,0],"sum_hessian":[5.3E1,1.1E1,4.2E1,3E0,8E0,2.9E1,1.3E1,1E0,7E0,9E0,2E1,5E0,8E0,8E0,1E0,8E0,1.2E1,2E0,3E0,7E0,1E0,3E0,5E0,2E0,6E0,7E0,5E0,4E0,3E0],"tree_param":{"num_deleted":"0","num_feature":"30","num_nodes":"29","size_leaf_vector":"1"}},{"base_weights":[1.515729E-1,2.406553E1,-6.5256147E0,3.471756E0,1.6657349E1,-4.2915845E0,-3.4882162E0,3.8277587E-1,1.7782577E0,-8.346396E-1,-1.8447151E1,1.0828031E1,-6.1452537E0,-3.134491E-1,-2.700785E0,1.3738867E0,-9.140167E-1,-1.5781068E0,-3.4103014E-2],"categories":[],"categories_nodes":[],"categories_segments":[],"categories_sizes":[],"default_left":[0,0,0,0,0,0,0,0,0,0,0,0,0,0,0,0,0,0,0],"id":29,"left_children":[1,3,5,-1,7,9,-1,-1,-1,11,13,15,17,-1,-1,-1,-1,-1,-1],"loss_changes":[8.779654E3,3.6864404E2,2.5743242E3,0E0,6.1858643E1,1.990939E3,0E0,0E0,0E0,2.1723628E3,9.640405E2,7.6494116E2,1.3369001E3,0E0,0E0,0E0,0E0,0E0,0E0],"parents":[2147483647,0,0,1,1,2,2,4,4,5,5,9,9,10,10,11,11,12,12],"right_children":[2,4,6,-1,8,10,-1,-1,-1,12,14,16,18,-1,-1,-1,-1,-1,-1],"split_conditions":[3.0212164E0,1.0324381E3,6.472662E0,3.471756E0,9.587683E2,1.3713759E3,-3.4882162E0,3.8277587E-1,1.7782577E0,3.6447313E0,2.369439E0,3.9503815E0,3.8722012E0,-3.134491E-1,-2.700785E0,1.3738867E0,-9.140167E-1,-1.5781068E0,-3.4103014E-2],"split_indices":[20,11,2,0,3,5,0,0,0,2,2,0,0,0,0,0,0,0,0],"split_type":[0,0,0,0,0,0,0,0,0,0,0,0,0,0,0,0,0,0,0],"sum_hessian":[5.3E1,1.1E1,4.2E1,3E0,8E0,4E1,2E0,1E0,7E0,3.3E1,7E0,1E1,2.3E1,3E0,4E0,9E0,1E0,8E0,1.5E1],"tree_param":{"num_deleted":"0","num_feature":"30","num_nodes":"19","size_leaf_vector":"1"}},{"base_weights":[9.8968506E-2,2.2128397E1,-6.0510807E0,3.211371E0,1.52317705E1,-1.7266088E0,-1.8474398E1,3.6363527E-1,1.6226654E0,9.305115E-1,-2.122336E0,-5.4442954E0,-2.8425436E1,-1.2982811E1,5.7294707E0,-1.9775797E-1,-6.6832584E-1,-1.4310395E0,-3.7770345E0,4.8547365E-2,-2.1160877E0,-1.1651653E0,7.939657E-1],"categories":[],"categories_nodes":[],"categories_segments":[],"categories_sizes":[],"default_left":[0,0,0,0,0,0,0,0,0,0,0,0,0,0,0,0,0,0,0,0,0,0,0],"id":30,"left_children":[1,3,5,-1,7,9,11,-1,-1,13,-1,15,17,19,21,-1,-1,-1,-1,-1,-1,-1,-1],"loss_changes":[7.4499326E3,3.3723096E2,2.2782466E3,0E0,4.4818848E1,1.7293204E3,1.2715371E3,0E0,0E0,2.0774688E3,0E0,1.2554123E1,2.5091406E2,8.914292E2,9.760668E2,0E0,0E0,0E0,0E0,0E0,0E0,0E0,0E0],"parents":[2147483647,0,0,1,1,2,2,4,4,5,5,6,6,9,9,11,11,12,12,13,13,14,14],"right_children":[2,4,6,-1,8,10,12,-1,-1,14,-1,16,18,20,22,-1,-1,-1,-1,-1,-1,-1,-1],"split_conditions":[3.0212164E0,1.0324381E3,5.238869E0,3.211371E0,9.587683E2,1.3320004E3,3.6447313E0,3.6363527E-1,1.6226654E0,9.885024E2,-2.122336E0,2.150573E0,3.8709738E0,3.243745E0,8.434185E2,-1.9775797E-1,-6.6832584E-1,-1.4310395E0,-3.7770345E0,4.8547365E-2,-2.1160877E0,-1.1651653E0,7.939657E-1],"split_indices":[20,11,18,0,3,3,12,0,0,5,0,2,10,18,27,0,0,0,0,0,0,0,0],"split_type":[0,0,0,0,0,0,0,0,0,0,0,0,0,0,0,0,0,0,0,0,0,0,0],"sum_hessian":[5.3E1,1.1E1,4.2E1,3E0,8E0,3.2E1,1E1,1E0,7E0,2.9E1,3E0,5E0,5E0,7E0,2.2E1,2E0,3E0,3E0,2E0,3E0,4E0,2E0,2E1],"tree_param":{"num_deleted":"0","num_feature":"30","num_nodes":"23","size_leaf_vector":"1"}},{"base_weights":[-1.1624937E-2,2.0348673E1,-5.6932983E0,2.4565048E1,9.5327395E-1,-3.71585E0,-3.0820658E0,3.0586402E0,1.0897095E0,1.2700903E1,-5.833902E0,1.4421539E0,2.9091796E-1,-7.46702E0,1.5163778E0,-3.6827192E-1,-1.7990255E0],"categories":[],"categories_nodes":[],"categories_segments":[],"categories_sizes":[],"default_left":[0,0,0,0,0,0,0,0,0,0,0,0,0,0,0,0,0],"id":31,"left_children":[1,3,5,7,-1,9,-1,-1,-1,11,13,-1,-1,15,-1,-1,-1],"loss_changes":[6.3626016E3,3.1307617E2,2.0220614E3,3.2509375E2,0E0,1.4997286E3,0E0,0E0,0E0,4.2285034E1,1.382021E3,0E0,0E0,1.3275549E3,0E0,0E0,0E0],"parents":[2147483647,0,0,1,1,2,2,3,3,5,5,9,9,10,10,13,13],"right_children":[2,4,6,8,-1,10,-1,-1,-1,12,14,-1,-1,16,-1,-1,-1],"split_conditions":[3.0212164E0,3.3624275E0,6.472662E0,3.3624275E0,9.5327395E-1,3.0212164E0,-3.0820658E0,3.0586402E0,1.0897095E0,1.1840627E3,6.472662E0,1.4421539E0,2.9091796E-1,4.1068277E0,1.5163778E0,-3.6827192E-1,-1.7990255E0],"split_indices":[20,2,2,0,0,28,0,0,0,1,10,0,0,10,0,0,0],"split_type":[0,0,0,0,0,0,0,0,0,0,0,0,0,0,0,0,0],"sum_hessian":[5.3E1,1.1E1,4.2E1,7E0,4E0,4E1,2E0,4E0,3E0,4E0,3.6E1,3E0,1E0,3.4E1,2E0,2.6E1,8E0],"tree_param":{"num_deleted":"0","num_feature":"30","num_nodes":"17","size_leaf_vector":"1"}},{"base_weights":[4.6992548E-2,1.8738962E1,-5.170464E0,2.7411194E0,1.2802531E1,-1.5102773E0,-1.7098053E1,2.9779053E-1,1.3658371E0,-1.0468872E1,2.1335719E0,7.3010254E-1,-2.484299E1,-1.6589376E1,-1.0304931E0,1.3305623E1,-1.3247223E0,-2.1145427E-1,4.632019E-1,-8.633713E0,-3.4841523E0,-1.9556935E0,-8.757935E-2,-7.440979E-1,2.432373E-1,1.4519702E0,3.6176148E-1,-3.8307258E-1,1.4152874E0,-1.817749E-1,-1.0299785E0],"categories":[],"categories_nodes":[],"categories_segments":[],"categories_sizes":[],"default_left":[0,0,0,0,0,0,0,0,0,0,0,0,0,0,0,0,0,0,0,0,0,0,0,0,0,0,0,0,0,0,0],"id":32,"left_children":[1,3,5,-1,7,9,11,-1,-1,13,15,17,19,21,23,25,27,-1,-1,29,-1,-1,-1,-1,-1,-1,-1,-1,-1,-1,-1],"loss_changes":[5.363215E3,2.6685254E2,1.8514368E3,0E0,3.5001465E1,1.1322242E3,1.398918E3,0E0,0E0,5.6058093E2,9.835322E2,5.4192875E1,8.336709E2,2.6265796E2,1.290925E2,1.804541E1,8.299539E2,0E0,0E0,2.6701141E1,0E0,0E0,0E0,0E0,0E0,0E0,0E0,0E0,0E0,0E0,0E0],"parents":[2147483647,0,0,1,1,2,2,4,4,5,5,6,6,9,9,10,10,11,11,12,12,13,13,14,14,15,15,16,16,19,19],"right_children":[2,4,6,-1,8,10,12,-1,-1,14,16,18,20,22,24,26,28,-1,-1,30,-1,-1,-1,-1,-1,-1,-1,-1,-1,-1,-1],"split_conditions":[3.0212164E0,1.0324381E3,5.238869E0,2.7411194E0,9.587683E2,1.00318646E3,3.6447313E0,2.9779053E-1,1.3658371E0,1.0859291E3,1.0568269E3,2.369439E0,3.8709738E0,4.429314E0,3.377875E0,3.9849756E0,6.472662E0,-2.1145427E-1,4.632019E-1,3.7780213E0,-3.4841523E0,-1.9556935E0,-8.757935E-2,-7.440979E-1,2.432373E-1,1.4519702E0,3.6176148E-1,-3.8307258E-1,1.4152874E0,-1.817749E-1,-1.0299785E0],"split_indices":[20,11,16,0,3,5,8,0,0,19,5,0,10,0,2,0,10,0,0,2,0,0,0,0,0,0,0,0,0,0,0],"split_type":[0,0,0,0,0,0,0,0,0,0,0,0,0,0,0,0,0,0,0,0,0,0,0,0,0,0,0,0,0,0,0],"sum_hessian":[5.3E1,1.1E1,4.2E1,3E0,8E0,3.3E1,9E0,1E0,7E0,9E0,2.4E1,3E0,6E0,5E0,4E0,5E0,1.9E1,2E0,1E0,3E0,3E0,4E0,1E0,1E0,3E0,4E0,1E0,1.7E1,2E0,1E0,2E0],"tree_param":{"num_deleted":"0","num_feature":"30","num_nodes":"31","size_leaf_vector":"1"}},{"base_weights":[4.7134966E-2,1.7232126E1,-4.749773E0,2.0916275E1,7.891065E-1,-4.1762897E-1,-1.3693669E1,2.6221704E0,9.05542E-1,9.252337E0,-5.002488E0,-2.5870554E1,-4.0542264E0,1.1851251E1,-7.068939E-1,-1.2212315E1,3.7373704E-1,-8.7698776E-1,-3.2228425E0,-6.583786E0,8.0911255E-1,7.299154E-1,1.5716584E0,8.959961E-3,-1.5739946E0,5.597275E-1,-6.6532695E-1,-1.1845459E-1,-1.168689E0],"categories":[],"categories_nodes":[],"categories_segments":[],"categories_sizes":[],"default_left":[0,0,0,0,0,0,0,0,0,0,0,0,0,0,0,0,0,0,0,0,0,0,0,0,0,0,0,0,0],"id":33,"left_children":[1,3,5,7,-1,9,11,-1,-1,13,15,17,19,21,-1,23,25,-1,-1,27,-1,-1,-1,-1,-1,-1,-1,-1,-1],"loss_changes":[4.533329E3,2.4791455E2,1.6603696E3,2.6596655E2,0E0,1.3763477E3,1.5384126E3,0E0,0E0,5.0795154E2,8.185587E2,3.6970386E2,3.2977176E2,4.3640625E1,0E0,3.9197998E2,5.14416E2,0E0,0E0,2.065794E2,0E0,0E0,0E0,0E0,0E0,0E0,0E0,0E0,0E0],"parents":[2147483647,0,0,1,1,2,2,3,3,5,5,6,6,9,9,10,10,11,11,12,12,13,13,15,15,16,16,19,19],"right_children":[2,4,6,8,-1,10,12,-1,-1,14,16,18,20,22,-1,24,26,-1,-1,28,-1,-1,-1,-1,-1,-1,-1,-1,-1],"split_conditions":[3.0212164E0,3.3624275E0,1.2702676E3,3.3624275E0,7.891065E-1,3.6447313E0,1.0873809E3,2.6221704E0,9.05542E-1,3.9503815E0,3.9849756E0,1.01469763E3,3.9849756E0,3.279958E0,-7.068939E-1,3.236957E0,4.1068277E0,-8.7698776E-1,-3.2228425E0,2.369439E0,8.0911255E-1,7.299154E-1,1.5716584E0,8.959961E-3,-1.5739946E0,5.597275E-1,-6.6532695E-1,-1.1845459E-1,-1.168689E0],"split_indices":[20,2,7,0,0,2,17,0,0,0,4,21,6,4,0,18,18,0,0,2,0,0,0,0,0,0,0,0,0],"split_type":[0,0,0,0,0,0,0,0,0,0,0,0,0,0,0,0,0,0,0,0,0,0,0,0,0,0,0,0,0],"sum_hessian":[5.3E1,1.1E1,4.2E1,7E0,4E0,2.9E1,1.3E1,4E0,3E0,9E0,2E1,5E0,8E0,8E0,1E0,8E0,1.2E1,2E0,3E0,7E0,1E0,5E0,3E0,2E0,6E0,7E0,5E0,4E0,3E0],"tree_param":{"num_deleted":"0","num_feature":"30","num_nodes":"29","size_leaf_vector":"1"}},{"base_weights":[3.6188196E-2,1.5868663E1,-4.3830185E0,5.8665466E-1,1.8550863E1,-2.7195122E0,-2.5656595E1,2.4123952E0,9.267603E-1,-2.419272E-1,-1.2909309E1,-7.804718E-1,-3.0680177E0,7.97133E0,-3.9962566E0,-2.066925E-1,-1.9001354E0,1.011156E0,-6.715485E-1,-1.1012397E0,2.000885E-2],"categories":[],"categories_nodes":[],"categories_segments":[],"categories_sizes":[],"default_left":[0,0,0,0,0,0,0,0,0,0,0,0,0,0,0,0,0,0,0,0,0],"id":34,"left_children":[1,3,5,-1,7,9,11,-1,-1,13,15,-1,-1,17,19,-1,-1,-1,-1,-1,-1],"loss_changes":[3.847769E3,2.1310254E2,1.4519419E3,0E0,2.4205664E2,1.0319666E3,2.9590942E1,0E0,0E0,1.0802548E3,4.8914404E2,0E0,0E0,4.136687E2,7.0881494E2,0E0,0E0,0E0,0E0,0E0,0E0],"parents":[2147483647,0,0,1,1,2,2,4,4,5,5,6,6,9,9,10,10,13,13,14,14],"right_children":[2,4,6,-1,8,10,12,-1,-1,14,16,-1,-1,18,20,-1,-1,-1,-1,-1,-1],"split_conditions":[3.0212164E0,2.1473162E0,6.472662E0,5.8665466E-1,3.2871296E0,1.3713759E3,4.429314E0,2.4123952E0,9.267603E-1,3.6447313E0,2.369439E0,-7.804718E-1,-3.0680177E0,3.9503815E0,3.8722012E0,-2.066925E-1,-1.9001354E0,1.011156E0,-6.715485E-1,-1.1012397E0,2.000885E-2],"split_indices":[20,10,2,0,2,5,0,0,0,2,2,0,0,0,0,0,0,0,0,0,0],"split_type":[0,0,0,0,0,0,0,0,0,0,0,0,0,0,0,0,0,0,0,0,0],"sum_hessian":[5.3E1,1.1E1,4.2E1,3E0,8E0,4E1,2E0,4E0,4E0,3.3E1,7E0,1E0,1E0,1E1,2.3E1,3E0,4E0,9E0,1E0,8E0,1.5E1],"tree_param":{"num_deleted":"0","num_feature":"30","num_nodes":"21","size_leaf_vector":"1"}},{"base_weights":[-1.8743444E-2,1.3295427E1,-4.5645885E0,1.7797302E1,6.251081E0,-2.923764E0,-2.437378E1,2.2194679E0,7.8512573E-1,7.2984135E-1,2.4218343E-1,-5.9290314E-1,-1.1881737E1,-7.41449E-1,-2.914618E0,-7.02914E0,4.1807923E0,-1.9119263E0,-1.7481238E0,3.895874E-1,-1.036286E0,-7.9395753E-1,6.073752E-1,-2.15625E-1,-5.8947753E-2],"categories":[],"categories_nodes":[],"categories_segments":[],"categories_sizes":[],"default_left":[0,0,0,0,0,0,0,0,0,0,0,0,0,0,0,0,0,0,0,0,0,0,0,0,0],"id":35,"left_children":[1,3,5,7,9,11,13,-1,-1,-1,-1,15,17,-1,-1,19,21,23,-1,-1,-1,-1,-1,-1,-1],"loss_changes":[3.3289927E3,3.3272632E2,1.2613765E3,1.7563574E2,1.0397919E1,8.072671E2,2.6705566E1,0E0,0E0,0E0,0E0,1.0125757E3,4.131848E2,0E0,0E0,5.502655E2,4.841469E2,2.1361351E-2,0E0,0E0,0E0,0E0,0E0,0E0,0E0],"parents":[2147483647,0,0,1,1,2,2,3,3,4,4,5,5,6,6,11,11,12,12,15,15,16,16,17,17],"right_children":[2,4,6,8,10,12,14,-1,-1,-1,-1,16,18,-1,-1,20,22,24,-1,-1,-1,-1,-1,-1,-1],"split_conditions":[3.07505E0,3.3624275E0,6.472662E0,3.6326745E0,3.2807586E0,1.3713759E3,4.429314E0,2.2194679E0,7.8512573E-1,7.2984135E-1,2.4218343E-1,3.6447313E0,2.369439E0,-7.41449E-1,-2.914618E0,3.7126942E0,8.434185E2,1.4553904E3,-1.7481238E0,3.895874E-1,-1.036286E0,-7.9395753E-1,6.073752E-1,-2.15625E-1,-5.8947753E-2],"split_indices":[24,2,2,0,0,5,0,0,0,0,0,24,2,0,0,0,27,1,0,0,0,0,0,0,0],"split_type":[0,0,0,0,0,0,0,0,0,0,0,0,0,0,0,0,0,0,0,0,0,0,0,0,0],"sum_hessian":[5.3E1,1.3E1,4E1,7E0,6E0,3.8E1,2E0,4E0,3E0,4E0,2E0,3.1E1,7E0,1E0,1E0,1.3E1,1.8E1,3E0,4E0,3E0,1E1,2E0,1.6E1,2E0,1E0],"tree_param":{"num_deleted":"0","num_feature":"30","num_nodes":"25","size_leaf_vector":"1"}},{"base_weights":[-6.383938E-2,1.3604533E1,-3.8767843E0,1.6594254E1,6.1000735E-1,-2.3716207E0,-2.315509E1,2.0740895E0,7.26239E-1,2.8989835E0,-6.225756E0,-7.043762E-1,-2.7688873E0,6.8188376E0,-4.2349067E0,-8.382705E0,1.1667114E0,9.5767516E-1,1.0424073E-1,-6.332657E-1,-1.0784302E-1,-1.4051996E0,-3.3768874E-1],"categories":[],"categories_nodes":[],"categories_segments":[],"categories_sizes":[],"default_left":[0,0,0,0,0,0,0,0,0,0,0,0,0,0,0,0,0,0,0,0,0,0,0],"id":36,"left_children":[1,3,5,7,-1,9,11,-1,-1,13,15,-1,-1,17,19,21,-1,-1,-1,-1,-1,-1,-1],"loss_changes":[2.8670464E3,1.6800879E2,1.192816E3,1.5893848E2,0E0,8.509069E2,2.4101929E1,0E0,0E0,5.3222577E2,1.0240577E3,0E0,0E0,1.8118787E2,3.952117E1,5.7689575E2,0E0,0E0,0E0,0E0,0E0,0E0,0E0],"parents":[2147483647,0,0,1,1,2,2,3,3,5,5,6,6,9,9,10,10,13,13,14,14,15,15],"right_children":[2,4,6,8,-1,10,12,-1,-1,14,16,-1,-1,18,20,22,-1,-1,-1,-1,-1,-1,-1],"split_conditions":[3.0212164E0,3.3624275E0,6.472662E0,3.3624275E0,6.1000735E-1,1.0442579E3,4.429314E0,2.0740895E0,7.26239E-1,3.8325167E0,6.362461E0,-7.043762E-1,-2.7688873E0,3.9849756E0,3.8325167E0,1.0569263E3,1.1667114E0,9.5767516E-1,1.0424073E-1,-6.332657E-1,-1.0784302E-1,-1.4051996E0,-3.3768874E-1],"split_indices":[20,2,2,0,0,21,0,0,0,10,10,0,0,0,4,29,0,0,0,0,0,0,0],"split_type":[0,0,0,0,0,0,0,0,0,0,0,0,0,0,0,0,0,0,0,0,0,0,0],"sum_hessian":[5.3E1,1.1E1,4.2E1,7E0,4E0,4E1,2E0,4E0,3E0,1.7E1,2.3E1,1E0,1E0,1.1E1,6E0,2.1E1,2E0,7E0,4E0,3E0,3E0,9E0,1.2E1],"tree_param":{"num_deleted":"0","num_feature":"30","num_nodes":"23","size_leaf_vector":"1"}},{"base_weights":[-6.335336E-2,1.1439131E1,-3.9894855E0,1.5223312E1,5.48019E-1,-2.501972E0,-2.1997335E1,4.800415E-1,1.7897543E0,-4.624958E-1,-1.034713E1,-6.691559E-1,-2.6304443E0,-3.0403936E0,9.178624E0,-1.5361633E0,-1.5326477E1,4.8180458E-1,-5.6388277E-1,1.4175446E0,1.8871461E-1,-1.787435E-1,-3.9117433E-2,-1.7000717E0,-4.3147585E-1],"categories":[],"categories_nodes":[],"categories_segments":[],"categories_sizes":[],"default_left":[0,0,0,0,0,0,0,0,0,0,0,0,0,0,0,0,0,0,0,0,0,0,0,0,0],"id":37,"left_children":[1,3,5,7,-1,9,11,-1,-1,13,15,-1,-1,17,19,21,23,-1,-1,-1,-1,-1,-1,-1,-1],"loss_changes":[2.484291E3,2.3226929E2,1.0432272E3,1.3707019E2,0E0,6.1921497E2,2.1753174E1,0E0,0E0,8.232289E2,3.2743896E2,0E0,0E0,5.580787E2,2.2828839E2,4.5161438E-1,1.882727E1,0E0,0E0,0E0,0E0,0E0,0E0,0E0,0E0],"parents":[2147483647,0,0,1,1,2,2,3,3,5,5,6,6,9,9,10,10,13,13,14,14,15,15,16,16],"right_children":[2,4,6,8,-1,10,12,-1,-1,14,16,-1,-1,18,20,22,24,-1,-1,-1,-1,-1,-1,-1,-1],"split_conditions":[3.07505E0,3.3624275E0,6.472662E0,3.0212164E0,5.48019E-1,1.3713759E3,4.429314E0,4.800415E-1,1.7897543E0,5.238869E0,2.369439E0,-6.691559E-1,-2.6304443E0,3.7126942E0,3.9849756E0,1.4553904E3,3.995453E0,4.8180458E-1,-5.6388277E-1,1.4175446E0,1.8871461E-1,-1.787435E-1,-3.9117433E-2,-1.7000717E0,-4.3147585E-1],"split_indices":[24,2,2,6,0,5,0,0,0,24,2,0,0,0,22,1,0,0,0,0,0,0,0,0,0],"split_type":[0,0,0,0,0,0,0,0,0,0,0,0,0,0,0,0,0,0,0,0,0,0,0,0,0],"sum_hessian":[5.3E1,1.3E1,4E1,7E0,6E0,3.8E1,2E0,2E0,5E0,3.1E1,7E0,1E0,1E0,2.5E1,6E0,3E0,4E0,6E0,1.9E1,3E0,3E0,2E0,1E0,3E0,1E0],"tree_param":{"num_deleted":"0","num_feature":"30","num_nodes":"25","size_leaf_vector":"1"}},{"base_weights":[-8.123214E-2,1.0496504E1,-3.6911607E0,1.3984695E1,5.010498E0,-2.2729523E0,-2.0897482E1,1.755127E0,6.030304E-1,5.718628E-1,2.1601155E-1,-3.6863327E-1,-9.60611E0,-6.3569945E-1,-2.4989228E0,-2.339739E0,1.0743286E1,-1.4370422E0,-1.4220141E1,5.535976E-2,-9.642281E-1,6.744995E-2,1.3091859E0,-1.6682944E-1,-3.7164308E-2,-1.5725663E0,-4.0990296E-1],"categories":[],"categories_nodes":[],"categories_segments":[],"categories_sizes":[],"default_left":[0,0,0,0,0,0,0,0,0,0,0,0,0,0,0,0,0,0,0,0,0,0,0,0,0,0,0],"id":38,"left_children":[1,3,5,7,9,11,13,-1,-1,-1,-1,15,17,-1,-1,19,21,23,25,-1,-1,-1,-1,-1,-1,-1,-1],"loss_changes":[2.100727E3,1.9783691E2,9.52989E2,1.21119995E2,1.7761841E0,5.4108105E2,1.9631592E1,0E0,0E0,0E0,0E0,7.26025E2,2.8110376E2,0E0,0E0,5.9694183E2,1.09405945E2,3.6549282E-1,1.1727722E1,0E0,0E0,0E0,0E0,0E0,0E0,0E0,0E0],"parents":[2147483647,0,0,1,1,2,2,3,3,4,4,5,5,6,6,11,11,12,12,15,15,16,16,17,17,18,18],"right_children":[2,4,6,8,10,12,14,-1,-1,-1,-1,16,18,-1,-1,20,22,24,26,-1,-1,-1,-1,-1,-1,-1,-1],"split_conditions":[3.07505E0,3.3624275E0,6.472662E0,3.6326745E0,3.2807586E0,1.3713759E3,4.429314E0,1.755127E0,6.030304E-1,5.718628E-1,2.1601155E-1,1.3757699E3,2.369439E0,-6.3569945E-1,-2.4989228E0,4.1068277E0,2.0929976E0,1.4553904E3,3.995453E0,5.535976E-2,-9.642281E-1,6.744995E-2,1.3091859E0,-1.6682944E-1,-3.7164308E-2,-1.5725663E0,-4.0990296E-1],"split_indices":[24,2,2,0,0,5,0,0,0,0,0,19,2,0,0,10,0,1,0,0,0,0,0,0,0,0,0],"split_type":[0,0,0,0,0,0,0,0,0,0,0,0,0,0,0,0,0,0,0,0,0,0,0,0,0,0,0],"sum_hessian":[5.3E1,1.3E1,4E1,7E0,6E0,3.8E1,2E0,4E0,3E0,4E0,2E0,3.1E1,7E0,1E0,1E0,2.7E1,4E0,3E0,4E0,2E1,7E0,1E0,3E0,2E0,1E0,3E0,1E0],"tree_param":{"num_deleted":"0","num_feature":"30","num_nodes":"27","size_leaf_vector":"1"}},{"base_weights":[-1.0475102E-1,9.671553E0,-3.4404461E0,1.2880997E1,4.621966E0,-2.0897546E0,-1.9852621E1,1.6147168E0,5.5780333E-1,5.261108E-1,2.0160726E-1,-3.1718636E-1,-8.918808E0,-6.039154E-1,-2.3739777E0,-8.019508E0,2.1602442E0,-1.3443298E0,-1.3194629E1,9.084167E-2,-1.3557948E0,5.0264245E-1,-3.4936795E-1,-1.5570475E-1,-3.5308838E-2,-1.454625E0,-3.8940737E-1],"categories":[],"categories_nodes":[],"categories_segments":[],"categories_sizes":[],"default_left":[0,0,0,0,0,0,0,0,0,0,0,0,0,0,0,0,0,0,0,0,0,0,0,0,0,0,0],"id":39,"left_children":[1,3,5,7,9,11,13,-1,-1,-1,-1,15,17,-1,-1,19,21,23,25,-1,-1,-1,-1,-1,-1,-1,-1],"loss_changes":[1.7942559E3,1.6735364E2,8.673921E2,1.0075244E2,1.052002E0,4.6926462E2,1.7717041E1,0E0,0E0,0E0,0E0,6.279471E2,2.4135889E2,0E0,0E0,4.0789044E2,4.2268982E2,2.93643E-1,6.210022E0,0E0,0E0,0E0,0E0,0E0,0E0,0E0,0E0],"parents":[2147483647,0,0,1,1,2,2,3,3,4,4,5,5,6,6,11,11,12,12,15,15,16,16,17,17,18,18],"right_children":[2,4,6,8,10,12,14,-1,-1,-1,-1,16,18,-1,-1,20,22,24,26,-1,-1,-1,-1,-1,-1,-1,-1],"split_conditions":[3.07505E0,3.3624275E0,6.472662E0,3.6326745E0,3.2807586E0,1.3713759E3,4.429314E0,1.6147168E0,5.5780333E-1,5.261108E-1,2.0160726E-1,9.885024E2,2.369439E0,-6.039154E-1,-2.3739777E0,3.243745E0,3.995453E0,1.4553904E3,3.995453E0,9.084167E-2,-1.3557948E0,5.0264245E-1,-3.4936795E-1,-1.5570475E-1,-3.5308838E-2,-1.454625E0,-3.8940737E-1],"split_indices":[24,2,2,0,0,5,0,0,0,0,0,5,2,0,0,18,14,1,0,0,0,0,0,0,0,0,0],"split_type":[0,0,0,0,0,0,0,0,0,0,0,0,0,0,0,0,0,0,0,0,0,0,0,0,0,0,0],"sum_hessian":[5.3E1,1.3E1,4E1,7E0,6E0,3.8E1,2E0,4E0,3E0,4E0,2E0,3.1E1,7E0,1E0,1E0,7E0,2.4E1,3E0,4E0,3E0,4E0,1.6E1,8E0,2E0,1E0,3E0,1E0],"tree_param":{"num_deleted":"0","num_feature":"30","num_nodes":"27","size_leaf_vector":"1"}},{"base_weights":[-1.5400526E-1,1.0530784E1,-2.8217025E0,3.3959657E-1,1.2781845E1,-1.6089274E0,-1.8859985E1,1.3743443E0,3.0253297E-1,2.3842604E0,-4.4196653E0,-5.7371825E-1,-2.2552795E0,5.2176003E0,-2.8135028E0,-1.3286244E1,-1.5387084E0,1.5066324E-1,7.653059E-1,-4.6112823E-1,-3.1234741E-2,-1.4990308E0,-2.3829651E-1,-3.2758042E-1,9.3967694E-1],"categories":[],"categories_nodes":[],"categories_segments":[],"categories_sizes":[],"default_left":[0,0,0,0,0,0,0,0,0,0,0,0,0,0,0,0,0,0,0,0,0,0,0,0,0],"id":40,"left_children":[1,3,5,-1,7,9,11,-1,-1,13,15,-1,-1,17,19,21,23,-1,-1,-1,-1,-1,-1,-1,-1],"loss_changes":[1.5689191E3,1.332633E2,8.2549207E2,0E0,3.347644E1,4.8193744E2,1.59904785E1,0E0,0E0,2.797663E2,6.1816223E2,0E0,0E0,9.692453E1,3.0035362E1,7.5757935E1,4.1070142E2,0E0,0E0,0E0,0E0,0E0,0E0,0E0,0E0],"parents":[2147483647,0,0,1,1,2,2,4,4,5,5,6,6,9,9,10,10,13,13,14,14,15,15,16,16],"right_children":[2,4,6,-1,8,10,12,-1,-1,14,16,-1,-1,18,20,22,24,-1,-1,-1,-1,-1,-1,-1,-1],"split_conditions":[2.4743733E0,2.1473162E0,6.472662E0,3.3959657E-1,3.6774235E0,1.0442579E3,4.429314E0,1.3743443E0,3.0253297E-1,3.8325167E0,1.00318646E3,-5.7371825E-1,-2.2552795E0,1.01469763E3,3.8325167E0,1.4186819E3,5.551592E0,1.5066324E-1,7.653059E-1,-4.6112823E-1,-3.1234741E-2,-1.4990308E0,-2.3829651E-1,-3.2758042E-1,9.3967694E-1],"split_indices":[20,10,2,0,4,21,0,0,0,10,29,0,0,1,4,1,10,0,0,0,0,0,0,0,0],"split_type":[0,0,0,0,0,0,0,0,0,0,0,0,0,0,0,0,0,0,0,0,0,0,0,0,0],"sum_hessian":[5.3E1,1E1,4.3E1,3E0,7E0,4.1E1,2E0,6E0,1E0,1.7E1,2.4E1,1E0,1E0,1.1E1,6E0,5E0,1.9E1,5E0,6E0,3E0,3E0,4E0,1E0,1.7E1,2E0],"tree_param":{"num_deleted":"0","num_feature":"30","num_nodes":"25","size_leaf_vector":"1"}},{"base_weights":[-1.6662937E-1,9.187907E0,-2.7733226E0,3.1412658E-1,1.0854424E1,-1.5976071E0,-1.7916992E1,1.4240406E0,5.297559E-1,2.1693928E0,-4.3562903E0,-5.450317E-1,-2.142517E0,4.772207E0,-2.6024868E0,-5.948267E0,8.770305E-1,1.3811035E-1,6.997123E-1,-7.24646E-2,-4.8647258E-1,-1.0307074E0,-2.1377797E-1],"categories":[],"categories_nodes":[],"categories_segments":[],"categories_sizes":[],"default_left":[0,0,0,0,0,0,0,0,0,0,0,0,0,0,0,0,0,0,0,0,0,0,0],"id":41,"left_children":[1,3,5,-1,7,9,11,-1,-1,13,15,-1,-1,17,19,21,-1,-1,-1,-1,-1,-1,-1],"loss_changes":[1.3422389E3,8.682526E1,7.3697546E2,0E0,9.389966E1,4.355208E2,1.4431946E1,0E0,0E0,2.3598524E2,5.537017E2,0E0,0E0,8.0875275E1,2.6211662E1,3.4336768E2,0E0,0E0,0E0,0E0,0E0,0E0,0E0],"parents":[2147483647,0,0,1,1,2,2,4,4,5,5,6,6,9,9,10,10,13,13,14,14,15,15],"right_children":[2,4,6,-1,8,10,12,-1,-1,14,16,-1,-1,18,20,22,-1,-1,-1,-1,-1,-1,-1],"split_conditions":[3.0212164E0,2.1473162E0,6.472662E0,3.1412658E-1,3.2871296E0,1.0442579E3,4.429314E0,1.4240406E0,5.297559E-1,3.8325167E0,6.362461E0,-5.450317E-1,-2.142517E0,1.01469763E3,5.271967E0,1.0569263E3,8.770305E-1,1.3811035E-1,6.997123E-1,-7.24646E-2,-4.8647258E-1,-1.0307074E0,-2.1377797E-1],"split_indices":[20,10,2,0,2,21,0,0,0,10,10,0,0,1,0,29,0,0,0,0,0,0,0],"split_type":[0,0,0,0,0,0,0,0,0,0,0,0,0,0,0,0,0,0,0,0,0,0,0],"sum_hessian":[5.3E1,1.1E1,4.2E1,3E0,8E0,4E1,2E0,4E0,4E0,1.7E1,2.3E1,1E0,1E0,1.1E1,6E0,2.1E1,2E0,5E0,6E0,4E0,2E0,9E0,1.2E1],"tree_param":{"num_deleted":"0","num_feature":"30","num_nodes":"23","size_leaf_vector":"1"}},{"base_weights":[-1.5937862E-1,7.7136145E0,-2.8438303E0,1.1811328E1,4.893396E0,-1.6803495E0,-1.702114E1,1.3498993E0,2.5303346E-1,5.509949E-1,1.6181235E-1,-2.622662E0,7.2205505E0,-5.177795E-1,-2.0353913E0,-3.66756E0,6.653412E0,1.3191529E-1,8.7479657E-1,-1.8823242E-2,-7.352581E-1,6.600952E-2,8.4311527E-1],"categories":[],"categories_nodes":[],"categories_segments":[],"categories_sizes":[],"default_left":[0,0,0,0,0,0,0,0,0,0,0,0,0,0,0,0,0,0,0,0,0,0,0],"id":42,"left_children":[1,3,5,7,9,11,13,-1,-1,-1,-1,15,17,-1,-1,19,21,-1,-1,-1,-1,-1,-1],"loss_changes":[1.1632084E3,1.0399274E2,6.4769464E2,4.4159058E1,1.1278E1,3.460468E2,1.30251465E1,0E0,0E0,0E0,0E0,3.7333365E2,2.451564E1,0E0,0E0,4.2172205E2,3.705287E1,0E0,0E0,0E0,0E0,0E0,0E0],"parents":[2147483647,0,0,1,1,2,2,3,3,4,4,5,5,6,6,11,11,12,12,15,15,16,16],"right_children":[2,4,6,8,10,12,14,-1,-1,-1,-1,16,18,-1,-1,20,22,-1,-1,-1,-1,-1,-1],"split_conditions":[3.07505E0,3.236957E0,6.472662E0,3.6326745E0,3.377875E0,6.362461E0,4.429314E0,1.3498993E0,2.5303346E-1,5.509949E-1,1.6181235E-1,1.4553904E3,3.6447313E0,-5.177795E-1,-2.0353913E0,1.0859291E3,2.0929976E0,1.3191529E-1,8.7479657E-1,-1.8823242E-2,-7.352581E-1,6.600952E-2,8.4311527E-1],"split_indices":[24,2,2,0,6,8,0,0,0,0,0,23,0,0,0,21,0,0,0,0,0,0,0],"split_type":[0,0,0,0,0,0,0,0,0,0,0,0,0,0,0,0,0,0,0,0,0,0,0],"sum_hessian":[5.3E1,1.3E1,4E1,4E0,9E0,3.8E1,2E0,3E0,1E0,7E0,2E0,3.5E1,3E0,1E0,1E0,3.2E1,3E0,1E0,2E0,1.7E1,1.5E1,1E0,2E0],"tree_param":{"num_deleted":"0","num_feature":"30","num_nodes":"23","size_leaf_vector":"1"}},{"base_weights":[-1.263439E-1,7.1076484E0,-2.5934062E0,1.0950806E1,4.475305E0,-1.4825486E0,-1.6170084E1,1.2486603E0,2.4038087E-1,5.555237E-1,2.2843261E-1,1.0466003E0,-4.491367E0,-4.9189147E-1,-1.9336213E0,-4.318339E-1,6.1596437E0,-1.4539319E0,-5.8200073E-1,3.134101E-1,-3.597992E-1,8.164795E-1,2.1012776E-1,3.964931E-1,-4.4878158E-1],"categories":[],"categories_nodes":[],"categories_segments":[],"categories_sizes":[],"default_left":[0,0,0,0,0,0,0,0,0,0,0,0,0,0,0,0,0,0,0,0,0,0,0,0,0],"id":43,"left_children":[1,3,5,7,9,11,13,-1,-1,-1,-1,15,17,-1,-1,19,21,-1,23,-1,-1,-1,-1,-1,-1],"loss_changes":[9.8215533E2,9.2622925E1,5.9437897E2,3.5616882E1,1.09711E1,3.014809E2,1.1754761E1,0E0,0E0,0E0,0E0,1.689645E2,6.985984E2,0E0,0E0,2.1450212E2,2.3531708E1,0E0,2.664265E2,0E0,0E0,0E0,0E0,0E0,0E0],"parents":[2147483647,0,0,1,1,2,2,3,3,4,4,5,5,6,6,11,11,12,12,15,15,16,16,18,18],"right_children":[2,4,6,8,10,12,14,-1,-1,-1,-1,16,18,-1,-1,20,22,-1,24,-1,-1,-1,-1,-1,-1],"split_conditions":[3.07505E0,3.236957E0,6.472662E0,3.6326745E0,3.2807586E0,1.0873809E3,4.429314E0,1.2486603E0,2.4038087E-1,5.555237E-1,2.2843261E-1,5.238869E0,1.1840627E3,-4.9189147E-1,-1.9336213E0,3.377875E0,1.286287E3,-1.4539319E0,3.8722012E0,3.134101E-1,-3.597992E-1,8.164795E-1,2.1012776E-1,3.964931E-1,-4.4878158E-1],"split_indices":[24,2,2,0,6,25,0,0,0,0,0,24,25,0,0,14,1,0,20,0,0,0,0,0,0],"split_type":[0,0,0,0,0,0,0,0,0,0,0,0,0,0,0,0,0,0,0,0,0,0,0,0,0],"sum_hessian":[5.3E1,1.3E1,4E1,4E0,9E0,3.8E1,2E0,3E0,1E0,5E0,4E0,2.1E1,1.7E1,1E0,1E0,1.7E1,4E0,4E0,1.3E1,8E0,9E0,2E0,2E0,6E0,7E0],"tree_param":{"num_deleted":"0","num_feature":"30","num_nodes":"25","size_leaf_vector":"1"}},{"base_weights":[-1.2627496E-1,7.74454E0,-2.0911088E0,9.501602E0,2.294281E0,-1.0934289E0,-1.5361592E1,1.0822877E0,3.691854E-1,2.5855714E-1,7.102051E-2,-1.0072042E0,-3.9269716E-1,-4.6729738E-1,-1.8369416E0,-5.9461365E0,9.654911E-1,7.8948975E-2,-1.014541E0,3.0061445E-1,-4.0286255E-1],"categories":[],"categories_nodes":[],"categories_segments":[],"categories_sizes":[],"default_left":[0,0,0,0,0,0,0,0,0,0,0,0,0,0,0,0,0,0,0,0,0],"id":44,"left_children":[1,3,5,7,9,11,13,-1,-1,-1,-1,-1,15,-1,-1,17,19,-1,-1,-1,-1],"loss_changes":[8.5129626E2,8.3541565E1,5.657498E2,2.1453674E1,9.418488E-3,2.602919E2,1.0608643E1,0E0,0E0,0E0,0E0,0E0,3.0744562E2,0E0,0E0,2.3428757E2,3.4842218E2,0E0,0E0,0E0,0E0],"parents":[2147483647,0,0,1,1,2,2,3,3,4,4,5,5,6,6,12,12,15,15,16,16],"right_children":[2,4,6,8,10,12,14,-1,-1,-1,-1,-1,16,-1,-1,18,20,-1,-1,-1,-1],"split_conditions":[2.4743733E0,1.5630054E3,6.472662E0,3.3624275E0,1.0442579E3,8.225591E2,4.429314E0,1.0822877E0,3.691854E-1,2.5855714E-1,7.102051E-2,-1.0072042E0,9.885024E2,-4.6729738E-1,-1.8369416E0,3.243745E0,4.403967E0,7.8948975E-2,-1.014541E0,3.0061445E-1,-4.0286255E-1],"split_indices":[20,29,2,0,1,29,0,0,0,0,0,0,5,0,0,18,14,0,0,0,0],"split_type":[0,0,0,0,0,0,0,0,0,0,0,0,0,0,0,0,0,0,0,0,0],"sum_hessian":[5.3E1,1E1,4.3E1,7E0,3E0,4.1E1,2E0,5E0,2E0,2E0,1E0,2E0,3.9E1,1E0,1E0,7E0,3.2E1,3E0,4E0,2.3E1,9E0],"tree_param":{"num_deleted":"0","num_feature":"30","num_nodes":"21","size_leaf_vector":"1"}},{"base_weights":[-1.6123001E-1,7.1320133E0,-1.9808766E0,8.732895E0,2.1472473E-1,-1.0328093E0,-1.4593526E1,3.3635256E-1,9.9620974E-1,-1.6495224E0,7.534302E-1,-4.439331E-1,-1.7450958E0,5.60112E-2,-7.5303617E0,4.287191E-1,-1.5330149E-1,-9.325265E-1,-8.32133E-2],"categories":[],"categories_nodes":[],"categories_segments":[],"categories_sizes":[],"default_left":[0,0,0,0,0,0,0,0,0,0,0,0,0,0,0,0,0,0,0],"id":45,"left_children":[1,3,5,7,-1,9,11,-1,-1,13,-1,-1,-1,15,17,-1,-1,-1,-1],"loss_changes":[7.3076843E2,6.90285E1,5.1106384E2,1.9292542E1,0E0,2.3433287E2,9.574219E0,0E0,0E0,4.0162054E2,0E0,0E0,0E0,2.2172289E2,1.00444244E2,0E0,0E0,0E0,0E0],"parents":[2147483647,0,0,1,1,2,2,3,3,5,5,6,6,9,9,13,13,14,14],"right_children":[2,4,6,8,-1,10,12,-1,-1,14,-1,-1,-1,16,18,-1,-1,-1,-1],"split_conditions":[2.4743733E0,1.5630054E3,6.472662E0,2.0983303E0,2.1472473E-1,6.472662E0,4.429314E0,3.3635256E-1,9.9620974E-1,4.1068277E0,7.534302E-1,-4.439331E-1,-1.7450958E0,1.00159064E3,6.211548E0,4.287191E-1,-1.5330149E-1,-9.325265E-1,-8.32133E-2],"split_indices":[20,29,2,6,0,10,0,0,0,10,0,0,0,21,10,0,0,0,0],"split_type":[0,0,0,0,0,0,0,0,0,0,0,0,0,0,0,0,0,0,0],"sum_hessian":[5.3E1,1E1,4.3E1,7E0,3E0,4.1E1,2E0,2E0,5E0,3.9E1,2E0,1E0,1E0,3.1E1,8E0,8E0,2.3E1,6E0,2E0],"tree_param":{"num_deleted":"0","num_feature":"30","num_nodes":"19","size_leaf_vector":"1"}},{"base_weights":[-1.5673377E-1,1.5641576E0,-7.026051E0,-1.81486E0,4.455625E0,-1.1843455E1,-1.0376383E0,2.4897828E0,-5.250824E0,5.254556E0,-6.9599E-1,-4.6302897E-1,-1.4292465E0,6.220296E-1,-2.0229797E0,7.919922E-2,4.0836387E0,-9.191116E0,2.1038086E0,3.9888915E-1,6.255808E0,8.052979E-2,1.2774658E-2,-8.8818364E-2,-2.713684E-1,-4.2211916E-2,5.5411786E-2,1.1723023E-1,4.4314453E-1,-1.100824E0,-2.4931641E-1,3.8899842E-1,-2.5204468E-1,1.6778158E-1,-1.0130005E-1,1.7756836E-1,7.332129E-1],"categories":[],"categories_nodes":[],"categories_segments":[],"categories_sizes":[],"default_left":[0,0,0,0,0,0,0,0,0,0,0,0,0,0,0,0,0,0,0,0,0,0,0,0,0,0,0,0,0,0,0,0,0,0,0,0,0],"id":46,"left_children":[1,3,5,7,9,11,13,15,17,19,-1,-1,-1,21,23,25,27,29,31,33,35,-1,-1,-1,-1,-1,-1,-1,-1,-1,-1,-1,-1,-1,-1,-1,-1],"loss_changes":[6.4934265E2,4.3798038E2,3.050454E2,3.2367593E2,2.5545651E2,3.981244E1,1.1070391E1,3.80978E1,3.6708917E2,1.0932483E2,0E0,0E0,0E0,1.6888511E-1,7.249851E-1,1.424331E0,8.805084E-1,6.992273E1,5.1103153E1,1.0728145E1,7.8599365E1,0E0,0E0,0E0,0E0,0E0,0E0,0E0,0E0,0E0,0E0,0E0,0E0,0E0,0E0,0E0,0E0],"parents":[2147483647,0,0,1,1,2,2,3,3,4,4,5,5,6,6,7,7,8,8,9,9,13,13,14,14,15,15,16,16,17,17,18,18,19,19,20,20],"right_children":[2,4,6,8,10,12,14,16,18,20,-1,-1,-1,22,24,26,28,30,32,34,36,-1,-1,-1,-1,-1,-1,-1,-1,-1,-1,-1,-1,-1,-1,-1,-1],"split_conditions":[5.238869E0,1.0859291E3,6.362461E0,1.0442579E3,1.3320004E3,3.9849756E0,2.150573E0,1.0284897E3,1.0571843E3,9.9982477E2,-6.9599E-1,-4.6302897E-1,-1.4292465E0,2.369439E0,4.403967E0,5.271967E0,3.265806E0,3.8325167E0,4.343635E0,3.243745E0,2.1473162E0,8.052979E-2,1.2774658E-2,-8.8818364E-2,-2.713684E-1,-4.2211916E-2,5.5411786E-2,1.1723023E-1,4.4314453E-1,-1.100824E0,-2.4931641E-1,3.8899842E-1,-2.5204468E-1,1.6778158E-1,-1.0130005E-1,1.7756836E-1,7.332129E-1],"split_indices":[18,29,20,21,3,16,2,7,27,19,0,0,0,0,0,4,2,18,0,0,10,0,0,0,0,0,0,0,0,0,0,0,0,0,0,0,0],"split_type":[0,0,0,0,0,0,0,0,0,0,0,0,0,0,0,0,0,0,0,0,0,0,0,0,0,0,0,0,0,0,0,0,0,0,0,0,0],"sum_hessian":[5.3E1,4.3E1,1E1,2E1,2.3E1,5E0,5E0,9E0,1.1E1,2.2E1,1E0,2E0,3E0,2E0,3E0,4E0,5E0,7E0,4E0,4E0,1.8E1,1E0,1E0,2E0,1E0,2E0,2E0,1E0,4E0,5E0,2E0,3E0,1E0,2E0,2E0,4E0,1.4E1],"tree_param":{"num_deleted":"0","num_feature":"30","num_nodes":"37","size_leaf_vector":"1"}},{"base_weights":[-1.876639E-1,1.3996193E0,-6.519737E0,-2.4794635E-1,6.364857E0,-9.512024E-1,-1.1001648E1,5.5018425E-1,-8.678691E-1,8.333426E0,2.3358886E0,5.909017E-1,-1.8699799E0,-4.3759155E-1,-1.3220536E0,-5.4942727E0,1.8730197E0,1.8421021E-1,9.1082966E-1,2.680603E-1,4.7851562E-2,7.650147E-2,1.2133789E-2,-8.289388E-2,-2.4965516E-1,-7.171631E-3,-1.0892924E0,2.5424293E-1,-4.3297324E-1],"categories":[],"categories_nodes":[],"categories_segments":[],"categories_sizes":[],"default_left":[0,0,0,0,0,0,0,0,0,0,0,0,0,0,0,0,0,0,0,0,0,0,0,0,0,0,0,0,0],"id":47,"left_children":[1,3,5,7,9,11,13,15,-1,17,19,21,23,-1,-1,25,27,-1,-1,-1,-1,-1,-1,-1,-1,-1,-1,-1,-1],"loss_changes":[5.51868E2,3.6152258E2,2.640696E2,2.3355527E2,6.777841E1,9.606077E0,3.0358582E1,2.661572E2,0E0,1.8431091E1,1.9186058E0,1.5244615E-1,5.3965855E-1,0E0,0E0,1.7486574E2,1.2311691E2,0E0,0E0,0E0,0E0,0E0,0E0,0E0,0E0,0E0,0E0,0E0,0E0],"parents":[2147483647,0,0,1,1,2,2,3,3,4,4,5,5,6,6,7,7,9,9,10,10,11,11,12,12,15,15,16,16],"right_children":[2,4,6,8,10,12,14,16,-1,18,20,22,24,-1,-1,26,28,-1,-1,-1,-1,-1,-1,-1,-1,-1,-1,-1,-1],"split_conditions":[5.238869E0,1.398248E3,3.6447313E0,1.3713759E3,1.5382363E3,2.150573E0,6.211548E0,9.5203094E2,-8.678691E-1,2.0751622E0,1.0442579E3,2.369439E0,4.403967E0,-4.3759155E-1,-1.3220536E0,8.434185E2,1.3320004E3,1.8421021E-1,9.1082966E-1,2.680603E-1,4.7851562E-2,7.650147E-2,1.2133789E-2,-8.289388E-2,-2.4965516E-1,-7.171631E-3,-1.0892924E0,2.5424293E-1,-4.3297324E-1],"split_indices":[18,25,12,5,27,2,18,7,0,4,1,0,0,0,0,5,1,0,0,0,0,0,0,0,0,0,0,0,0],"split_type":[0,0,0,0,0,0,0,0,0,0,0,0,0,0,0,0,0,0,0,0,0,0,0,0,0,0,0,0,0],"sum_hessian":[5.3E1,4.3E1,1E1,3.3E1,1E1,5E0,5E0,3.1E1,2E0,6E0,4E0,2E0,3E0,2E0,3E0,5E0,2.6E1,1E0,5E0,3E0,1E0,1E0,1E0,2E0,1E0,3E0,2E0,2.4E1,2E0],"tree_param":{"num_deleted":"0","num_feature":"30","num_nodes":"29","size_leaf_vector":"1"}},{"base_weights":[-2.1957397E-1,5.015881E-1,-1.2646525E1,4.8765173E0,-1.0817605E0,-3.7670594E-1,-1.5202729E0,8.107715E0,2.7732666E0,-1.6663241E0,6.488444E-1,9.2596436E-1,1.75E-1,4.5458984E-2,2.9803875E-1,-2.1940877E-1,-6.14346E0,8.712955E-2,-3.771807E-1,-7.6330656E-1,-6.1989337E-2],"categories":[],"categories_nodes":[],"categories_segments":[],"categories_sizes":[],"default_left":[0,0,0,0,0,0,0,0,0,0,0,0,0,0,0,0,0,0,0,0,0],"id":48,"left_children":[1,3,5,7,9,-1,-1,11,13,15,-1,-1,-1,-1,-1,17,19,-1,-1,-1,-1],"loss_changes":[4.9028302E2,3.654812E2,1.0823547E1,7.265939E1,1.8339722E2,0E0,0E0,2.0413788E1,3.4476013E0,2.3833939E2,0E0,0E0,0E0,0E0,0E0,1.15650215E2,6.931973E1,0E0,0E0,0E0,0E0],"parents":[2147483647,0,0,1,1,2,2,3,3,4,4,7,7,8,8,9,9,15,15,16,16],"right_children":[2,4,6,8,10,-1,-1,12,14,16,-1,-1,-1,-1,-1,18,20,-1,-1,-1,-1],"split_conditions":[6.472662E0,3.07505E0,4.429314E0,3.236957E0,6.472662E0,-3.7670594E-1,-1.5202729E0,3.6326745E0,9.587683E2,4.1068277E0,6.488444E-1,9.2596436E-1,1.75E-1,4.5458984E-2,2.9803875E-1,1.3713759E3,6.211548E0,8.712955E-2,-3.771807E-1,-7.6330656E-1,-6.1989337E-2],"split_indices":[2,24,0,2,10,0,0,0,3,10,0,0,0,0,0,5,10,0,0,0,0],"split_type":[0,0,0,0,0,0,0,0,0,0,0,0,0,0,0,0,0,0,0,0,0],"sum_hessian":[5.3E1,5.1E1,2E0,1.3E1,3.8E1,1E0,1E0,4E0,9E0,3.6E1,2E0,3E0,1E0,1E0,8E0,2.8E1,8E0,2.2E1,6E0,6E0,2E0],"tree_param":{"num_deleted":"0","num_feature":"30","num_nodes":"21","size_leaf_vector":"1"}},{"base_weights":[-2.1464822E-1,4.7022307E-1,-1.2014201E1,5.264127E0,-7.96519E-1,-3.578705E-1,-1.4442596E0,9.2414963E-1,3.3534343E0,-1.2905381E0,6.055908E-1,4.091675E-1,1.4077148E0,-2.8918108E-1,-6.916697E0,1.5890299E-1,4.318848E-2,8.4949434E-2,-3.220819E-1,-9.9411315E-1,-5.7855226E-2],"categories":[],"categories_nodes":[],"categories_segments":[],"categories_sizes":[],"default_left":[0,0,0,0,0,0,0,0,0,0,0,0,0,0,0,0,0,0,0,0,0],"id":49,"left_children":[1,3,5,7,9,-1,-1,-1,11,13,-1,-1,15,17,19,-1,-1,-1,-1,-1,-1],"loss_changes":[4.420328E2,3.199702E2,9.768372E0,5.2604065E1,1.4999503E2,0E0,0E0,0E0,7.1677704E0,2.233516E2,0E0,0E0,2.1452904E-2,1.1957251E2,1.0926434E2,0E0,0E0,0E0,0E0,0E0,0E0],"parents":[2147483647,0,0,1,1,2,2,3,3,4,4,8,8,9,9,12,12,13,13,14,14],"right_children":[2,4,6,8,10,-1,-1,-1,12,14,-1,-1,16,18,20,-1,-1,-1,-1,-1,-1],"split_conditions":[6.472662E0,2.4743733E0,4.429314E0,3.1320226E0,6.472662E0,-3.578705E-1,-1.4442596E0,9.2414963E-1,1.5382363E3,5.238869E0,6.055908E-1,4.091675E-1,1.0442579E3,1.2702676E3,6.211548E0,1.5890299E-1,4.318848E-2,8.4949434E-2,-3.220819E-1,-9.9411315E-1,-5.7855226E-2],"split_indices":[2,20,0,0,10,0,0,0,29,10,0,0,1,7,10,0,0,0,0,0,0],"split_type":[0,0,0,0,0,0,0,0,0,0,0,0,0,0,0,0,0,0,0,0,0],"sum_hessian":[5.3E1,5.1E1,2E0,1E1,4.1E1,1E0,1E0,2E0,8E0,3.9E1,2E0,5E0,3E0,3.4E1,5E0,2E0,1E0,2.5E1,9E0,3E0,2E0],"tree_param":{"num_deleted":"0","num_feature":"30","num_nodes":"21","size_leaf_vector":"1"}},{"base_weights":[-2.1079396E-1,4.3956932E-1,-1.1413493E1,4.229806E0,-9.322995E-1,-3.3997804E-1,-1.3720459E0,7.15166E0,2.3458984E0,-1.5461036E0,4.825012E0,8.210632E-1,1.4578858E-1,4.1027833E-2,2.515381E-1,-2.3483143E0,3.8972657E0,6.6674806E-2,5.988851E-1,-2.3959512E-2,-5.042411E-1,8.886719E-2,5.606771E-1],"categories":[],"categories_nodes":[],"categories_segments":[],"categories_sizes":[],"default_left":[0,0,0,0,0,0,0,0,0,0,0,0,0,0,0,0,0,0,0,0,0,0,0],"id":50,"left_children":[1,3,5,7,9,-1,-1,11,13,15,17,-1,-1,-1,-1,19,21,-1,-1,-1,-1,-1,-1],"loss_changes":[3.9845154E2,2.7432822E2,8.815521E0,6.028601E1,1.4528056E2,0E0,0E0,1.8177551E1,2.2485275E0,1.6635425E2,1.5365143E1,0E0,0E0,0E0,0E0,1.8058682E2,2.0733452E1,0E0,0E0,0E0,0E0,0E0,0E0],"parents":[2147483647,0,0,1,1,2,2,3,3,4,4,7,7,8,8,9,9,10,10,15,15,16,16],"right_children":[2,4,6,8,10,-1,-1,12,14,16,18,-1,-1,-1,-1,20,22,-1,-1,-1,-1,-1,-1],"split_conditions":[6.472662E0,3.07505E0,4.429314E0,3.236957E0,6.362461E0,-3.3997804E-1,-1.3720459E0,3.6326745E0,9.587683E2,1.4186819E3,3.6447313E0,8.210632E-1,1.4578858E-1,4.1027833E-2,2.515381E-1,1.0873809E3,2.369439E0,6.6674806E-2,5.988851E-1,-2.3959512E-2,-5.042411E-1,8.886719E-2,5.606771E-1],"split_indices":[2,24,0,2,8,0,0,0,3,23,0,0,0,0,0,25,0,0,0,0,0,0,0],"split_type":[0,0,0,0,0,0,0,0,0,0,0,0,0,0,0,0,0,0,0,0,0,0,0],"sum_hessian":[5.3E1,5.1E1,2E0,1.3E1,3.8E1,1E0,1E0,4E0,9E0,3.5E1,3E0,3E0,1E0,1E0,8E0,3.1E1,4E0,1E0,2E0,1.8E1,1.3E1,2E0,2E0],"tree_param":{"num_deleted":"0","num_feature":"30","num_nodes":"23","size_leaf_vector":"1"}},{"base_weights":[-1.8353385E-1,4.3495414E-1,-1.0842814E1,4.5456877E0,-6.520226E-1,-3.2297975E-1,-1.3034424E0,8.164795E-1,2.834242E0,-4.443184E0,2.3315778E-1,3.4637654E-1,1.1813965E-1,4.8754883E-1,-7.499133E0,3.725232E0,-1.1189153E0,1.0542399E-1,-6.062622E-2,-9.302144E-1,-3.196411E-1,8.492737E-2,4.8364606E-1,3.9160497E-2,-4.0156317E-1],"categories":[],"categories_nodes":[],"categories_segments":[],"categories_sizes":[],"default_left":[0,0,0,0,0,0,0,0,0,0,0,0,0,0,0,0,0,0,0,0,0,0,0,0,0],"id":51,"left_children":[1,3,5,7,9,-1,-1,-1,11,13,15,-1,-1,17,19,21,23,-1,-1,-1,-1,-1,-1,-1,-1],"loss_changes":[3.607185E2,2.3531401E2,7.9557495E0,4.499196E1,1.4198215E2,0E0,0E0,0E0,5.272461E0,1.24200745E2,1.6942209E2,0E0,0E0,3.1185577E0,9.055786E0,2.7851013E1,1.1533681E2,0E0,0E0,0E0,0E0,0E0,0E0,0E0,0E0],"parents":[2147483647,0,0,1,1,2,2,3,3,4,4,8,8,9,9,10,10,13,13,14,14,15,15,16,16],"right_children":[2,4,6,8,10,-1,-1,-1,12,14,16,-1,-1,18,20,22,24,-1,-1,-1,-1,-1,-1,-1,-1],"split_conditions":[6.472662E0,2.4743733E0,4.429314E0,3.1320226E0,9.885024E2,-3.2297975E-1,-1.3034424E0,8.164795E-1,1.5382363E3,3.243745E0,1.02055524E3,3.4637654E-1,1.1813965E-1,4.7669396E0,3.8325167E0,9.587683E2,1.286287E3,1.0542399E-1,-6.062622E-2,-9.302144E-1,-3.196411E-1,8.492737E-2,4.8364606E-1,3.9160497E-2,-4.0156317E-1],"split_indices":[2,20,0,0,5,0,0,0,29,18,9,0,0,0,0,15,3,0,0,0,0,0,0,0,0],"split_type":[0,0,0,0,0,0,0,0,0,0,0,0,0,0,0,0,0,0,0,0,0,0,0,0,0],"sum_hessian":[5.3E1,5.1E1,2E0,1E1,4.1E1,1E0,1E0,2E0,8E0,7E0,3.4E1,5E0,3E0,3E0,4E0,9E0,2.5E1,2E0,1E0,2E0,2E0,3E0,6E0,1.7E1,8E0],"tree_param":{"num_deleted":"0","num_feature":"30","num_nodes":"25","size_leaf_vector":"1"}},{"base_weights":[-1.9008835E-1,3.9686936E-1,-1.0300659E1,-6.734381E-1,4.020681E0,-3.0682984E-1,-1.2382691E0,3.085993E-1,-4.199415E0,1.073877E0,5.359848E0,-3.3717515E0,1.6211816E0,-3.9363608E-2,-5.2305474E0,3.4887698E-2,1.440918E-1,1.686727E-1,6.3031006E0,9.300293E-2,-6.999182E-1,3.0318102E-1,-1.2234701E-1,-6.4734346E-1,-2.6800233E-1,1.2327271E-1,7.07063E-1],"categories":[],"categories_nodes":[],"categories_segments":[],"categories_sizes":[],"default_left":[0,0,0,0,0,0,0,0,0,0,0,0,0,0,0,0,0,0,0,0,0,0,0,0,0,0,0],"id":52,"left_children":[1,3,5,7,9,-1,-1,11,13,15,17,19,21,-1,23,-1,-1,-1,25,-1,-1,-1,-1,-1,-1,-1,-1],"loss_changes":[3.245498E2,2.0439447E2,7.180237E0,1.4326424E2,4.1599335E1,0E0,0E0,1.6488144E2,3.3259415E1,8.278198E-1,1.7085846E1,1.4694913E2,1.04028E2,0E0,4.8411407E0,0E0,0E0,0E0,1.4633804E1,0E0,0E0,0E0,0E0,0E0,0E0,0E0,0E0],"parents":[2147483647,0,0,1,1,2,2,3,3,4,4,7,7,8,8,9,9,10,10,11,11,12,12,14,14,18,18],"right_children":[2,4,6,8,10,-1,-1,12,14,16,18,20,22,-1,24,-1,-1,-1,26,-1,-1,-1,-1,-1,-1,-1,-1],"split_conditions":[6.472662E0,1.4186819E3,4.429314E0,4.403967E0,2.1473162E0,-3.0682984E-1,-1.2382691E0,9.885024E2,1.0859291E3,3.6774235E0,2.0929976E0,3.243745E0,1.241063E3,-3.9363608E-2,4.823447E0,3.4887698E-2,1.440918E-1,1.686727E-1,2.369439E0,9.300293E-2,-6.999182E-1,3.0318102E-1,-1.2234701E-1,-6.4734346E-1,-2.6800233E-1,1.2327271E-1,7.07063E-1],"split_indices":[2,23,0,14,10,0,0,5,9,0,22,18,3,0,0,0,0,0,0,0,0,0,0,0,0,0,0],"split_type":[0,0,0,0,0,0,0,0,0,0,0,0,0,0,0,0,0,0,0,0,0,0,0,0,0,0,0],"sum_hessian":[5.3E1,5.1E1,2E0,4E1,1.1E1,1E0,1E0,3.2E1,8E0,4E0,7E0,8E0,2.4E1,2E0,6E0,2E0,2E0,2E0,5E0,4E0,4E0,1.6E1,8E0,3E0,3E0,1E0,4E0],"tree_param":{"num_deleted":"0","num_feature":"30","num_nodes":"27","size_leaf_vector":"1"}},{"base_weights":[-2.0346521E-1,3.5326445E-1,-9.7856245E0,3.9186456E0,-5.889369E-1,-2.9148865E-1,-1.176355E0,7.1490884E-1,2.4064264E0,-1.0223389E0,5.386068E-1,2.9390666E-1,1.0058594E-1,-2.0853795E-1,-5.599121E0,-3.527539E-1,3.3351187E-2,-8.1366885E-1,-3.4932457E-2],"categories":[],"categories_nodes":[],"categories_segments":[],"categories_sizes":[],"default_left":[0,0,0,0,0,0,0,0,0,0,0,0,0,0,0,0,0,0,0],"id":53,"left_children":[1,3,5,7,9,-1,-1,-1,11,13,-1,-1,-1,15,17,-1,-1,-1,-1],"loss_changes":[2.915292E2,1.769918E2,6.480011E0,3.653276E1,1.1426868E2,0E0,0E0,0E0,3.757698E0,1.4781596E2,0E0,0E0,0E0,6.4143715E1,7.708792E1,0E0,0E0,0E0,0E0],"parents":[2147483647,0,0,1,1,2,2,3,3,4,4,8,8,9,9,13,13,14,14],"right_children":[2,4,6,8,10,-1,-1,-1,12,14,-1,-1,-1,16,18,-1,-1,-1,-1],"split_conditions":[6.472662E0,2.4743733E0,4.429314E0,3.1320226E0,6.472662E0,-2.9148865E-1,-1.176355E0,7.1490884E-1,1.5382363E3,5.238869E0,5.386068E-1,2.9390666E-1,1.0058594E-1,3.028185E0,6.211548E0,-3.527539E-1,3.3351187E-2,-8.1366885E-1,-3.4932457E-2],"split_indices":[2,20,0,0,10,0,0,0,29,10,0,0,0,14,10,0,0,0,0],"split_type":[0,0,0,0,0,0,0,0,0,0,0,0,0,0,0,0,0,0,0],"sum_hessian":[5.3E1,5.1E1,2E0,1E1,4.1E1,1E0,1E0,2E0,8E0,3.9E1,2E0,5E0,3E0,3.4E1,5E0,4E0,3E1,3E0,2E0],"tree_param":{"num_deleted":"0","num_feature":"30","num_nodes":"19","size_leaf_vector":"1"}},{"base_weights":[-2.0140132E-1,3.2718012E-1,-9.296346E0,-6.161142E-1,3.5228374E0,-2.7691346E-1,-1.1175385E0,2.7456573E-1,-3.8134832E0,9.7382814E-1,4.6756134E0,-3.0236003E0,1.4509228E0,-3.6686197E-2,-4.7458234E0,4.0966798E-2,1.2133789E-1,1.442749E-1,5.512777E0,7.7683106E-2,-6.219312E-1,-5.137817E-1,1.9395295E-1,-5.801178E-1,-2.5040132E-1,1.15441896E-1,6.1535645E-1],"categories":[],"categories_nodes":[],"categories_segments":[],"categories_sizes":[],"default_left":[0,0,0,0,0,0,0,0,0,0,0,0,0,0,0,0,0,0,0,0,0,0,0,0,0,0,0],"id":54,"left_children":[1,3,5,7,9,-1,-1,11,13,15,17,19,21,-1,23,-1,-1,-1,25,-1,-1,-1,-1,-1,-1,-1,-1],"loss_changes":[2.626422E2,1.5892162E2,5.8485107E0,1.1780818E2,3.0707993E1,0E0,0E0,1.3242111E2,2.7179749E1,1.7864227E-1,1.3697922E1,1.1413709E2,9.0447495E1,0E0,2.0351105E0,0E0,0E0,0E0,9.652893E0,0E0,0E0,0E0,0E0,0E0,0E0,0E0,0E0],"parents":[2147483647,0,0,1,1,2,2,3,3,4,4,7,7,8,8,9,9,10,10,11,11,12,12,14,14,18,18],"right_children":[2,4,6,8,10,-1,-1,12,14,16,18,20,22,-1,24,-1,-1,-1,26,-1,-1,-1,-1,-1,-1,-1,-1],"split_conditions":[6.472662E0,1.4186819E3,4.429314E0,4.403967E0,2.1473162E0,-2.7691346E-1,-1.1175385E0,9.885024E2,1.0859291E3,3.6774235E0,2.0929976E0,3.243745E0,2.1302378E0,-3.6686197E-2,4.823447E0,4.0966798E-2,1.2133789E-1,1.442749E-1,2.369439E0,7.7683106E-2,-6.219312E-1,-5.137817E-1,1.9395295E-1,-5.801178E-1,-2.5040132E-1,1.15441896E-1,6.1535645E-1],"split_indices":[2,23,0,14,10,0,0,5,9,0,22,18,0,0,0,0,0,0,0,0,0,0,0,0,0,0,0],"split_type":[0,0,0,0,0,0,0,0,0,0,0,0,0,0,0,0,0,0,0,0,0,0,0,0,0,0,0],"sum_hessian":[5.3E1,5.1E1,2E0,4E1,1.1E1,1E0,1E0,3.2E1,8E0,4E0,7E0,8E0,2.4E1,2E0,6E0,2E0,2E0,2E0,5E0,4E0,4E0,1E0,2.3E1,3E0,3E0,1E0,4E0],"tree_param":{"num_deleted":"0","num_feature":"30","num_nodes":"27","size_leaf_vector":"1"}},{"base_weights":[-2.1993792E-1,2.8111383E-1,-8.831523E0,2.9860666E0,-6.9710284E-1,-2.6306763E-1,-1.0616608E0,6.6413575E-1,1.8234049E0,-1.1318953E0,4.897705E-1,2.0516236E0,4.5487467E-2,1.3706149E-1,-3.786977E0,2.5020143E-1,1.1008301E-1,-4.8809204E-1,5.330176E-2,-6.2713015E-1,-2.5743613E-2],"categories":[],"categories_nodes":[],"categories_segments":[],"categories_sizes":[],"default_left":[0,0,0,0,0,0,0,0,0,0,0,0,0,0,0,0,0,0,0,0,0],"id":55,"left_children":[1,3,5,7,9,-1,-1,-1,11,13,-1,15,-1,17,19,-1,-1,-1,-1,-1,-1],"loss_changes":[2.3548454E2,1.3967516E2,5.2782593E0,4.7388237E1,1.0041432E2,0E0,0E0,0E0,2.8146553E0,1.2517886E2,0E0,1.5279961E0,0E0,5.4261024E1,1.03607834E2,0E0,0E0,0E0,0E0,0E0,0E0],"parents":[2147483647,0,0,1,1,2,2,3,3,4,4,8,8,9,9,11,11,13,13,14,14],"right_children":[2,4,6,8,10,-1,-1,-1,12,14,-1,16,-1,18,20,-1,-1,-1,-1,-1,-1],"split_conditions":[6.472662E0,3.07505E0,4.429314E0,2.0764894E0,6.472662E0,-2.6306763E-1,-1.0616608E0,6.6413575E-1,3.6774235E0,3.8971343E0,4.897705E-1,3.2871296E0,4.5487467E-2,2.0764894E0,4.823447E0,2.5020143E-1,1.1008301E-1,-4.8809204E-1,5.330176E-2,-6.2713015E-1,-2.5743613E-2],"split_indices":[2,24,0,24,10,0,0,0,6,12,0,4,0,8,0,0,0,0,0,0,0],"split_type":[0,0,0,0,0,0,0,0,0,0,0,0,0,0,0,0,0,0,0,0,0],"sum_hessian":[5.3E1,5.1E1,2E0,1.3E1,3.8E1,1E0,1E0,2E0,1.1E1,3.6E1,2E0,9E0,2E0,2.5E1,1.1E1,5E0,4E0,1E0,2.4E1,6E0,5E0],"tree_param":{"num_deleted":"0","num_feature":"30","num_nodes":"21","size_leaf_vector":"1"}},{"base_weights":[-2.1375754E-1,2.620568E-1,-8.389954E0,-5.7663333E-1,3.1057434E0,-2.4991456E-1,-1.0085785E0,-9.578357E-1,4.5712075E-1,8.1704104E-1,4.1479645E0,2.6817757E-1,-3.7387135E0,3.4936525E-2,1.0123698E-1,1.22644044E-1,4.917399E0,-3.9016268E-1,9.2461914E-2,3.2421876E-2,-5.129049E-1,1.0700073E-1,5.4728764E-1],"categories":[],"categories_nodes":[],"categories_segments":[],"categories_sizes":[],"default_left":[0,0,0,0,0,0,0,0,0,0,0,0,0,0,0,0,0,0,0,0,0,0,0],"id":56,"left_children":[1,3,5,7,9,-1,-1,11,-1,13,15,17,19,-1,-1,-1,21,-1,-1,-1,-1,-1,-1],"loss_changes":[2.1227762E2,1.2580941E2,4.763611E0,8.4835594E1,2.5234947E1,0E0,0E0,1.3396896E2,0E0,1.0306597E-1,1.1952484E1,8.025003E1,6.944899E1,0E0,0E0,0E0,6.966797E0,0E0,0E0,0E0,0E0,0E0,0E0],"parents":[2147483647,0,0,1,1,2,2,3,3,4,4,7,7,9,9,10,10,11,11,12,12,16,16],"right_children":[2,4,6,8,10,-1,-1,12,-1,14,16,18,20,-1,-1,-1,22,-1,-1,-1,-1,-1,-1],"split_conditions":[6.472662E0,1.4186819E3,4.429314E0,6.472662E0,2.1473162E0,-2.4991456E-1,-1.0085785E0,3.8971343E0,4.5712075E-1,3.6774235E0,2.0929976E0,3.028185E0,9.5203094E2,3.4936525E-2,1.0123698E-1,1.22644044E-1,2.369439E0,-3.9016268E-1,9.2461914E-2,3.2421876E-2,-5.129049E-1,1.0700073E-1,5.4728764E-1],"split_indices":[2,23,0,10,10,0,0,12,0,0,22,14,17,0,0,0,0,0,0,0,0,0,0],"split_type":[0,0,0,0,0,0,0,0,0,0,0,0,0,0,0,0,0,0,0,0,0,0,0],"sum_hessian":[5.3E1,5.1E1,2E0,4E1,1.1E1,1E0,1E0,3.8E1,2E0,4E0,7E0,2.7E1,1.1E1,2E0,2E0,2E0,5E0,3E0,2.4E1,3E0,8E0,1E0,4E0],"tree_param":{"num_deleted":"0","num_feature":"30","num_nodes":"23","size_leaf_vector":"1"}},{"base_weights":[-2.047074E-1,2.4725224E-1,-7.9704385E0,-5.267855E-1,2.8712769E0,-2.3741761E-1,-9.581482E-1,-8.8198775E-1,4.266439E-1,7.625977E-1,3.8302917E0,2.3076303E-1,-3.4049072E0,3.260905E-2,9.449056E-2,1.1446533E-1,4.534729E0,-3.609024E-1,8.3589844E-2,-6.33311E-2,-5.294146E-1,1.0164795E-1,5.0350827E-1],"categories":[],"categories_nodes":[],"categories_segments":[],"categories_sizes":[],"default_left":[0,0,0,0,0,0,0,0,0,0,0,0,0,0,0,0,0,0,0,0,0,0,0],"id":57,"left_children":[1,3,5,7,9,-1,-1,11,-1,13,15,17,19,-1,-1,-1,21,-1,-1,-1,-1,-1,-1],"loss_changes":[1.9149976E2,1.0712944E2,4.2993317E0,7.356807E1,2.1346092E1,0E0,0E0,1.1027356E2,0E0,8.9769125E-2,9.944214E0,6.807733E1,5.948166E1,0E0,0E0,0E0,5.444168E0,0E0,0E0,0E0,0E0,0E0,0E0],"parents":[2147483647,0,0,1,1,2,2,3,3,4,4,7,7,9,9,10,10,11,11,12,12,16,16],"right_children":[2,4,6,8,10,-1,-1,12,-1,14,16,18,20,-1,-1,-1,22,-1,-1,-1,-1,-1,-1],"split_conditions":[6.472662E0,1.4186819E3,4.429314E0,6.472662E0,2.1473162E0,-2.3741761E-1,-9.581482E-1,3.8971343E0,4.266439E-1,3.6774235E0,2.0929976E0,3.028185E0,3.8325167E0,3.260905E-2,9.449056E-2,1.1446533E-1,2.369439E0,-3.609024E-1,8.3589844E-2,-6.33311E-2,-5.294146E-1,1.0164795E-1,5.0350827E-1],"split_indices":[2,23,0,10,10,0,0,12,0,0,22,14,6,0,0,0,0,0,0,0,0,0,0],"split_type":[0,0,0,0,0,0,0,0,0,0,0,0,0,0,0,0,0,0,0,0,0,0,0],"sum_hessian":[5.3E1,5.1E1,2E0,4E1,1.1E1,1E0,1E0,3.8E1,2E0,4E0,7E0,2.7E1,1.1E1,2E0,2E0,2E0,5E0,3E0,2.4E1,5E0,6E0,1E0,4E0],"tree_param":{"num_deleted":"0","num_feature":"30","num_nodes":"23","size_leaf_vector":"1"}},{"base_weights":[-1.9891922E-1,3.017973E-1,-6.533325E0,5.789632E-1,-4.035171E-2,-2.6428223E-1,-9.102417E-1,-3.1232212E0,4.624492E-1,-3.987793E-1,-6.622884E-1,1.0270267E0,-2.1359558E0,6.950276E-2,-1.3596599E-1,1.8771897E-1,-6.2150694E-2,1.182312E-1,-4.3633792E-1],"categories":[],"categories_nodes":[],"categories_segments":[],"categories_sizes":[],"default_left":[0,0,0,0,0,0,0,0,0,0,0,0,0,0,0,0,0,0,0],"id":58,"left_children":[1,3,5,-1,7,-1,-1,9,11,13,-1,15,17,-1,-1,-1,-1,-1,-1],"loss_changes":[1.7324579E2,9.599414E1,1.5924164E1,0E0,7.7397736E1,0E0,0E0,6.4101326E1,6.527473E1,6.2000904E0,0E0,5.1621487E1,6.428837E1,0E0,0E0,0E0,0E0,0E0,0E0],"parents":[2147483647,0,0,1,1,2,2,4,4,7,7,8,8,9,9,11,11,12,12],"right_children":[2,4,6,-1,8,-1,-1,10,12,14,-1,16,18,-1,-1,-1,-1,-1,-1],"split_conditions":[6.362461E0,2.0764894E0,6.211548E0,5.789632E-1,9.546025E2,-2.6428223E-1,-9.102417E-1,1.0571843E3,1.3713759E3,8.434185E2,-6.622884E-1,3.7749982E0,2.369439E0,6.950276E-2,-1.3596599E-1,1.8771897E-1,-6.2150694E-2,1.182312E-1,-4.3633792E-1],"split_indices":[2,24,0,0,5,0,0,25,5,3,0,18,2,0,0,0,0,0,0],"split_type":[0,0,0,0,0,0,0,0,0,0,0,0,0,0,0,0,0,0,0],"sum_hessian":[5.3E1,5E1,3E0,2E0,4.8E1,2E0,1E0,6E0,4.2E1,4E0,2E0,3.5E1,7E0,2E0,2E0,2.3E1,1.2E1,3E0,4E0],"tree_param":{"num_deleted":"0","num_feature":"30","num_nodes":"19","size_leaf_vector":"1"}},{"base_weights":[-2.0713411E-1,1.991542E-1,-7.18042E0,5.403646E-1,-1.1709839E-1,-2.1233216E-1,-8.6473083E-1,-5.780609E-1,1.1645508E-1,-3.7891236E-1,3.6326957E-1,-7.6261394E-2,1.2255023E-1],"categories":[],"categories_nodes":[],"categories_segments":[],"categories_sizes":[],"default_left":[0,0,0,0,0,0,0,0,0,0,0,0,0],"id":59,"left_children":[1,3,5,-1,7,-1,-1,-1,9,-1,11,-1,-1],"loss_changes":[1.5442088E2,8.622132E1,3.89357E0,0E0,6.6809814E1,0E0,0E0,0E0,4.8610188E1,0E0,4.6560944E1,0E0,0E0],"parents":[2147483647,0,0,1,1,2,2,4,4,8,8,10,10],"right_children":[2,4,6,-1,8,-1,-1,-1,10,-1,12,-1,-1],"split_conditions":[6.472662E0,2.0764894E0,4.429314E0,5.403646E-1,7.874405E2,-2.1233216E-1,-8.6473083E-1,-5.780609E-1,8.225591E2,-3.7891236E-1,1.0873809E3,-7.6261394E-2,1.2255023E-1],"split_indices":[2,24,0,0,7,0,0,0,29,0,19,0,0],"split_type":[0,0,0,0,0,0,0,0,0,0,0,0,0],"sum_hessian":[5.3E1,5.1E1,2E0,2E0,4.9E1,1E0,1E0,1E0,4.8E1,2E0,4.6E1,2E1,2.6E1],"tree_param":{"num_deleted":"0","num_feature":"30","num_nodes":"13","size_leaf_vector":"1"}},{"base_weights":[-2.1322405E-1,2.3582548E-1,-5.8852997E0,-2.8631418E0,7.126465E-1,-2.3704426E-1,-8.2149357E-1,-4.3044433E-1,-5.963257E-1,1.7342665E0,-7.76637E-1,5.670166E-1,-1.2844239E-1,2.4300165E0,-1.8130372E0,-2.0358102E0,2.2908733E0,8.88916E-2,-3.8391114E-3,1.02094725E-1,3.2629222E-1,-2.140503E-2,-4.1044924E-1,-3.606209E-1,4.976109E-3,-1.2872315E-2,2.800537E-1],"categories":[],"categories_nodes":[],"categories_segments":[],"categories_sizes":[],"default_left":[0,0,0,0,0,0,0,0,0,0,0,0,0,0,0,0,0,0,0,0,0,0,0,0,0,0,0],"id":60,"left_children":[1,3,5,7,9,-1,-1,11,-1,13,15,17,-1,19,21,23,25,-1,-1,-1,-1,-1,-1,-1,-1,-1,-1],"loss_changes":[1.3892824E2,7.7400696E1,1.3280304E1,5.0224648E1,6.9813576E1,0E0,0E0,4.987345E0,0E0,7.1042694E1,7.805179E1,6.187677E-1,0E0,2.3662033E1,1.7441462E1,4.6031944E1,7.759577E0,0E0,0E0,0E0,0E0,0E0,0E0,0E0,0E0,0E0,0E0],"parents":[2147483647,0,0,1,1,2,2,3,3,4,4,7,7,9,9,10,10,11,11,13,13,14,14,15,15,16,16],"right_children":[2,4,6,8,10,-1,-1,12,-1,14,16,18,-1,20,22,24,26,-1,-1,-1,-1,-1,-1,-1,-1,-1,-1],"split_conditions":[6.362461E0,9.546025E2,6.211548E0,1.0571843E3,3.7749982E0,-2.3704426E-1,-8.2149357E-1,8.434185E2,-5.963257E-1,3.8709738E0,1.3123113E3,3.377875E0,-1.2844239E-1,1.0442579E3,1.2585918E3,3.8971343E0,2.150573E0,8.88916E-2,-3.8391114E-3,1.02094725E-1,3.2629222E-1,-2.140503E-2,-4.1044924E-1,-3.606209E-1,4.976109E-3,-1.2872315E-2,2.800537E-1],"split_indices":[2,5,0,25,18,0,0,3,0,22,21,0,0,15,1,22,0,0,0,0,0,0,0,0,0,0,0],"split_type":[0,0,0,0,0,0,0,0,0,0,0,0,0,0,0,0,0,0,0,0,0,0,0,0,0,0,0],"sum_hessian":[5.3E1,5E1,3E0,6E0,4.4E1,2E0,1E0,4E0,2E0,2.6E1,1.8E1,2E0,2E0,2.2E1,4E0,1.3E1,5E0,1E0,1E0,9E0,1.3E1,3E0,1E0,7E0,6E0,1E0,4E0],"tree_param":{"num_deleted":"0","num_feature":"30","num_nodes":"27","size_leaf_vector":"1"}},{"base_weights":[-2.2505696E-1,1.3947238E-1,-6.4685464E0,4.8258463E-1,-1.4449951E-1,-1.8986206E-1,-7.8041995E-1,-5.1934206E-1,6.452786E-2,-2.0654827E-1,3.1657715E0,7.907563E-2,-1.23823345E-1,1.9171143E-2,4.093221E-1],"categories":[],"categories_nodes":[],"categories_segments":[],"categories_sizes":[],"default_left":[0,0,0,0,0,0,0,0,0,0,0,0,0,0,0],"id":61,"left_children":[1,3,5,-1,7,-1,-1,-1,9,11,13,-1,-1,-1,-1],"loss_changes":[1.2380268E2,6.989885E1,3.4942856E0,0E0,5.3103252E1,0E0,0E0,0E0,4.1846867E1,4.8308743E1,1.0248447E1,0E0,0E0,0E0,0E0],"parents":[2147483647,0,0,1,1,2,2,4,4,8,8,9,9,10,10],"right_children":[2,4,6,-1,8,-1,-1,-1,10,12,14,-1,-1,-1,-1],"split_conditions":[6.472662E0,2.0764894E0,4.429314E0,4.8258463E-1,7.874405E2,-1.8986206E-1,-7.8041995E-1,-5.1934206E-1,6.362461E0,3.6977112E0,3.6447313E0,7.907563E-2,-1.23823345E-1,1.9171143E-2,4.093221E-1],"split_indices":[2,24,0,0,7,0,0,0,8,4,0,0,0,0,0],"split_type":[0,0,0,0,0,0,0,0,0,0,0,0,0,0,0],"sum_hessian":[5.3E1,5.1E1,2E0,2E0,4.9E1,1E0,1E0,1E0,4.8E1,4.5E1,3E0,2.3E1,2.2E1,1E0,2E0],"tree_param":{"num_deleted":"0","num_feature":"30","num_nodes":"15","size_leaf_vector":"1"}},{"base_weights":[-2.141102E-1,1.3218102E-1,-6.145121E0,4.5041505E-1,-1.3278076E-1,-1.8036805E-1,-7.414002E-1,-4.9337465E-1,6.5886825E-2,-1.5430076E-1,3.4935305E-1,8.550554E-2,-1.0024368E-1],"categories":[],"categories_nodes":[],"categories_segments":[],"categories_sizes":[],"default_left":[0,0,0,0,0,0,0,0,0,0,0,0,0],"id":62,"left_children":[1,3,5,-1,7,-1,-1,-1,9,11,-1,-1,-1],"loss_changes":[1.1172054E2,6.0835114E1,3.1538162E0,0E0,4.8014877E1,0E0,0E0,0E0,3.752056E1,4.1092484E1,0E0,0E0,0E0],"parents":[2147483647,0,0,1,1,2,2,4,4,8,8,9,9],"right_children":[2,4,6,-1,8,-1,-1,-1,10,12,-1,-1,-1],"split_conditions":[6.472662E0,2.0764894E0,4.429314E0,4.5041505E-1,7.874405E2,-1.8036805E-1,-7.414002E-1,-4.9337465E-1,6.472662E0,3.4718058E0,3.4935305E-1,8.550554E-2,-1.0024368E-1],"split_indices":[2,24,0,0,7,0,0,0,10,18,0,0,0],"split_type":[0,0,0,0,0,0,0,0,0,0,0,0,0],"sum_hessian":[5.3E1,5.1E1,2E0,2E0,4.9E1,1E0,1E0,1E0,4.8E1,4.6E1,2E0,2.1E1,2.5E1],"tree_param":{"num_deleted":"0","num_feature":"30","num_nodes":"13","size_leaf_vector":"1"}},{"base_weights":[-2.043604E-1,1.24579795E-1,-5.83787E0,-2.4696481E0,5.166454E-1,-1.713501E-1,-7.0433044E-1,-3.654297E-1,-5.153463E-1,1.8440009E0,-3.2504588E-1,5.64209E-1,-1.1732584E-1,1.0181396E0,4.4799805E-1,2.6574707E-1,-3.2140014E-1,8.6364746E-2,-1.7333984E-3,1.4864402E-1,-6.412964E-2,6.0861714E-2,-3.9815673E-1],"categories":[],"categories_nodes":[],"categories_segments":[],"categories_sizes":[],"default_left":[0,0,0,0,0,0,0,0,0,0,0,0,0,0,0,0,0,0,0,0,0,0,0],"id":63,"left_children":[1,3,5,7,9,-1,-1,11,-1,13,15,17,-1,19,-1,21,-1,-1,-1,-1,-1,-1,-1],"loss_changes":[1.0079402E2,5.4165516E1,