{"learner":{"attributes":{"scikit_learn":"{\"_estimator_type\": \"regressor\"}"},"feature_names":[],"feature_types":[],"gradient_booster":{"model":{"cats":{"enc":[],"feature_segments":[],"sorted_idx":[]},"gbtree_model_param":{"num_parallel_tree":"1","num_trees":"100"},"iteration_indptr":[0,1,2,3,4,5,6,7,8,9,10,11,12,13,14,15,16,17,18,19,20,21,22,23,24,25,26,27,28,29,30,31,32,33,34,35,36,37,38,39,40,41,42,43,44,45,46,47,48,49,50,51,52,53,54,55,56,57,58,59,60,61,62,63,64,65,66,67,68,69,70,71,72,73,74,75,76,77,78,79,80,81,82,83,84,85,86,87,88,89,90,91,92,93,94,95,96,97,98,99,100],"tree_info":[0,0,0,0,0,0,0,0,0,0,0,0,0,0,0,0,0,0,0,0,0,0,0,0,0,0,0,0,0,0,0,0,0,0,0,0,0,0,0,0,0,0,0,0,0,0,0,0,0,0,0,0,0,0,0,0,0,0,0,0,0,0,0,0,0,0,0,0,0,0,0,0,0,0,0,0,0,0,0,0,0,0,0,0,0,0,0,0,0,0,0,0,0,0,0,0,0,0,0,0],"trees":[{"base_weights":[1.4142306E-9,-1.1310435E-2,3.654141E-2,-1.9522468E-2,8.510446E-3,-7.4149393E-3,5.6901447E-2,-2.202398E-2,2.6510677E-3,4.3631466E-3,-1.84169E-3,-1.6960999E-3,-7.8817457E-4,7.155885E-2,3.7337046E-3,-2.7185025E-2,-9.499491E-3,-1.6568204E-3,1.2877819E-3,1.7999113E-5,-1.1708936E-4,8.248529E-3,3.0000825E-4,5.3698866E-4,2.3066998E-5,-3.6724658E-5,-2.8577158E-3,-2.2668806E-3,-6.1709834E-5,-4.0030853E-5,3.9199946E-4],"categories":[],"categories_nodes":[],"categories_segments":[],"categories_sizes":[],"default_left":[0,0,0,0,0,0,0,0,0,0,0,0,0,0,0,0,0,0,0,0,0,0,0,0,0,0,0,0,0,0,0],"id":0,"left_children":[1,3,5,7,9,11,13,15,-1,-1,17,-1,19,21,23,25,27,-1,29,-1,-1,-1,-1,-1,-1,-1,-1,-1,-1,-1,-1],"loss_changes":[2.2731459E-2,7.0024743E-3,1.205631E-2,4.038444E-3,4.8068636E-3,3.0292923E-4,6.746527E-3,1.6163001E-3,0E0,0E0,5.282846E-4,0E0,1.6928918E-6,4.9962625E-3,1.5956139E-5,7.361844E-4,1.1557613E-3,0E0,4.6003333E-5,0E0,0E0,0E0,0E0,0E0,0E0,0E0,0E0,0E0,0E0,0E0,0E0],"parents":[2147483647,0,0,1,1,2,2,3,3,4,4,5,5,6,6,7,7,10,10,12,12,13,13,14,14,15,15,16,16,18,18],"right_children":[2,4,6,8,10,12,14,16,-1,-1,18,-1,20,22,24,26,28,-1,30,-1,-1,-1,-1,-1,-1,-1,-1,-1,-1,-1,-1],"split_conditions":[5.093459E-2,9.51115E1,9.3081474E1,1.0440015E-1,1.4428336E-2,1.858556E-2,9.552853E1,4.5797188E-2,2.6510677E-3,4.3631466E-3,1.4362125E-2,-1.6960999E-3,2.1209491E-2,1.03628296E2,1.0638742E-1,5.1095394E1,2.1760657E-2,-1.6568204E-3,5.093459E-2,1.7999113E-5,-1.1708936E-4,8.248529E-3,3.0000825E-4,5.3698866E-4,2.3066998E-5,-3.6724658E-5,-2.8577158E-3,-2.2668806E-3,-6.1709834E-5,-4.0030853E-5,3.9199946E-4],"split_indices":[18,1,19,0,2,0,3,26,0,0,6,0,0,19,0,15,24,0,4,0,0,0,0,0,0,0,0,0,0,0,0],"split_type":[0,0,0,0,0,0,0,0,0,0,0,0,0,0,0,0,0,0,0,0,0,0,0,0,0,0,0,0,0,0,0],"sum_hessian":[5.3E1,4.1E1,1.2E1,2.9E1,1.2E1,4E0,8E0,2.8E1,1E0,2E0,1E1,1E0,3E0,6E0,2E0,1.9E1,9E0,1E0,9E0,1E0,2E0,5E0,1E0,1E0,1E0,1E0,1.8E1,3E0,6E0,6E0,3E0],"tree_param":{"num_deleted":"0","num_feature":"30","num_nodes":"31","size_leaf_vector":"1"}},{"base_weights":[1.4443972E-4,-1.0167812E-2,3.3449836E-2,-1.7655954E-2,7.894656E-3,-7.032484E-3,5.2223366E-2,-2.0001687E-2,2.5185142E-3,4.0722704E-3,-1.7761439E-3,-1.611295E-3,-7.341299E-4,6.562418E-2,3.547019E-3,-2.4611246E-2,-8.782402E-3,-1.5739795E-3,1.1942007E-3,1.7099082E-5,-1.09283385E-4,7.561151E-3,2.8500782E-4,5.101392E-4,2.1913647E-5,-3.488846E-5,-2.586985E-3,-2.0968646E-3,-5.6420453E-5,-3.659954E-5,3.6259936E-4],"categories":[],"categories_nodes":[],"categories_segments":[],"categories_sizes":[],"default_left":[0,0,0,0,0,0,0,0,0,0,0,0,0,0,0,0,0,0,0,0,0,0,0,0,0,0,0,0,0,0,0],"id":1,"left_children":[1,3,5,7,9,11,13,15,-1,-1,17,-1,19,21,23,25,27,-1,29,-1,-1,-1,-1,-1,-1,-1,-1,-1,-1,-1,-1],"loss_changes":[1.8886609E-2,5.8200695E-3,1.0247208E-2,3.5185572E-3,4.199484E-3,2.7413096E-4,5.637951E-3,1.2836168E-3,0E0,0E0,4.7504192E-4,0E0,1.4855459E-6,4.173124E-3,1.4400412E-5,6.0170796E-4,9.89659E-4,0E0,3.9267834E-5,0E0,0E0,0E0,0E0,0E0,0E0,0E0,0E0,0E0,0E0,0E0,0E0],"parents":[2147483647,0,0,1,1,2,2,3,3,4,4,5,5,6,6,7,7,10,10,12,12,13,13,14,14,15,15,16,16,18,18],"right_children":[2,4,6,8,10,12,14,16,-1,-1,18,-1,20,22,24,26,28,-1,30,-1,-1,-1,-1,-1,-1,-1,-1,-1,-1,-1,-1],"split_conditions":[5.093459E-2,9.51115E1,9.3081474E1,1.0440015E-1,1.4428336E-2,1.858556E-2,9.552853E1,4.5797188E-2,2.5185142E-3,4.0722704E-3,1.4362125E-2,-1.611295E-3,2.1209491E-2,1.03628296E2,1.0638742E-1,5.1095394E1,2.1760657E-2,-1.5739795E-3,5.093459E-2,1.7099082E-5,-1.09283385E-4,7.561151E-3,2.8500782E-4,5.101392E-4,2.1913647E-5,-3.488846E-5,-2.586985E-3,-2.0968646E-3,-5.6420453E-5,-3.659954E-5,3.6259936E-4],"split_indices":[18,1,19,0,2,0,3,26,0,0,6,0,0,19,0,15,24,0,4,0,0,0,0,0,0,0,0,0,0,0,0],"split_type":[0,0,0,0,0,0,0,0,0,0,0,0,0,0,0,0,0,0,0,0,0,0,0,0,0,0,0,0,0,0,0],"sum_hessian":[5.3E1,4.1E1,1.2E1,2.9E1,1.2E1,4E0,8E0,2.8E1,1E0,2E0,1E1,1E0,3E0,6E0,2E0,1.9E1,9E0,1E0,9E0,1E0,2E0,5E0,1E0,1E0,1E0,1E0,1.8E1,3E0,6E0,6E0,3E0],"tree_param":{"num_deleted":"0","num_feature":"30","num_nodes":"31","size_leaf_vector":"1"}},{"base_weights":[2.6411502E-4,-9.137515E-3,3.0618295E-2,-1.596558E-2,7.3224427E-3,-6.66993E-3,4.7931943E-2,-1.8166177E-2,2.3925886E-3,3.8007852E-3,-1.7119818E-3,-1.5307302E-3,-6.8376213E-4,6.018264E-2,3.3696692E-3,-1.981848E-2,2.759925E-4,-1.4952805E-3,1.107381E-3,-6.870677E-6,-1.2644641E-4,1.5327692E-2,7.505908E-3,4.8463233E-4,2.081804E-5,4.938172E-4,-2.0960588E-3,-3.3462315E-5,3.3540427E-4,2.0283964E-3,2.7075745E-4],"categories":[],"categories_nodes":[],"categories_segments":[],"categories_sizes":[],"default_left":[0,0,0,0,0,0,0,0,0,0,0,0,0,0,0,0,0,0,0,0,0,0,0,0,0,0,0,0,0,0,0],"id":2,"left_children":[1,3,5,7,9,11,13,15,-1,-1,17,-1,19,21,23,25,-1,-1,27,-1,-1,29,-1,-1,-1,-1,-1,-1,-1,-1,-1],"loss_changes":[1.569023E-2,4.8372727E-3,8.712439E-3,3.0681947E-3,3.6689942E-3,2.4805724E-4,4.710475E-3,1.0574078E-3,0E0,0E0,4.2719598E-4,0E0,1.3417783E-6,3.5204906E-3,1.2996366E-5,8.669272E-4,0E0,0E0,3.3519296E-5,0E0,0E0,1.327258E-4,0E0,0E0,0E0,0E0,0E0,0E0,0E0,0E0,0E0],"parents":[2147483647,0,0,1,1,2,2,3,3,4,4,5,5,6,6,7,7,10,10,12,12,13,13,14,14,15,15,18,18,21,21],"right_children":[2,4,6,8,10,12,14,16,-1,-1,18,-1,20,22,24,26,-1,-1,28,-1,-1,30,-1,-1,-1,-1,-1,-1,-1,-1,-1],"split_conditions":[5.093459E-2,9.51115E1,9.3081474E1,1.0440015E-1,1.4428336E-2,1.858556E-2,9.552853E1,1.0638742E-1,2.3925886E-3,3.8007852E-3,1.4362125E-2,-1.5307302E-3,2.1760657E-2,8.5918945E1,1.0638742E-1,1.3580991E-2,2.759925E-4,-1.4952805E-3,5.093459E-2,-6.870677E-6,-1.2644641E-4,1.4100544E-2,7.505908E-3,4.8463233E-4,2.081804E-5,4.938172E-4,-2.0960588E-3,-3.3462315E-5,3.3540427E-4,2.0283964E-3,2.7075745E-4],"split_indices":[18,1,19,0,2,0,3,10,0,0,6,0,0,1,0,20,0,0,4,0,0,0,0,0,0,0,0,0,0,0,0],"split_type":[0,0,0,0,0,0,0,0,0,0,0,0,0,0,0,0,0,0,0,0,0,0,0,0,0,0,0,0,0,0,0],"sum_hessian":[5.3E1,4.1E1,1.2E1,2.9E1,1.2E1,4E0,8E0,2.8E1,1E0,2E0,1E1,1E0,3E0,6E0,2E0,2.6E1,2E0,1E0,9E0,2E0,1E0,2E0,4E0,1E0,1E0,1E0,2.5E1,6E0,3E0,1E0,1E0],"tree_param":{"num_deleted":"0","num_feature":"30","num_nodes":"31","size_leaf_vector":"1"}},{"base_weights":[4.6585556E-4,-8.136293E-3,2.8221577E-2,-1.4333477E-2,6.7907707E-3,-6.3357474E-3,4.428436E-2,-1.6395293E-2,2.272959E-3,3.5473995E-3,-1.6492697E-3,-1.4541937E-3,-6.4871553E-4,2.0224512E-2,6.930304E-3,-2.0289958E-2,-6.9664335E-3,-1.4205165E-3,1.0268365E-3,1.65876E-5,-9.7553806E-5,3.5533041E-3,3.6869869E-3,7.165875E-5,-2.143328E-3,-1.7823952E-3,2.3306666E-5,-3.0594267E-5,3.1024907E-4,4.7841348E-4,1.9777193E-5],"categories":[],"categories_nodes":[],"categories_segments":[],"categories_sizes":[],"default_left":[0,0,0,0,0,0,0,0,0,0,0,0,0,0,0,0,0,0,0,0,0,0,0,0,0,0,0,0,0,0,0],"id":3,"left_children":[1,3,5,7,9,11,13,15,-1,-1,17,-1,19,21,-1,23,25,-1,27,-1,-1,-1,29,-1,-1,-1,-1,-1,-1,-1,-1],"loss_changes":[1.3122598E-2,3.9825775E-3,7.4967034E-3,2.6651751E-3,3.2056447E-3,2.2391074E-4,4.0158927E-3,9.2359725E-4,0E0,0E0,3.8419638E-4,0E0,1.2267255E-6,1.3879815E-3,0E0,4.957039E-4,7.8584114E-4,0E0,2.8613069E-5,0E0,0E0,0E0,1.4366575E-5,0E0,0E0,0E0,0E0,0E0,0E0,0E0,0E0],"parents":[2147483647,0,0,1,1,2,2,3,3,4,4,5,5,6,6,7,7,10,10,12,12,13,13,15,15,16,16,18,18,22,22],"right_children":[2,4,6,8,10,12,14,16,-1,-1,18,-1,20,22,-1,24,26,-1,28,-1,-1,-1,30,-1,-1,-1,-1,-1,-1,-1,-1],"split_conditions":[5.093459E-2,9.51115E1,9.3081474E1,1.0440015E-1,1.4428336E-2,1.858556E-2,5.315401E-2,4.5797188E-2,2.272959E-3,3.5473995E-3,1.4362125E-2,-1.4541937E-3,2.1209491E-2,1.4100544E-2,6.930304E-3,5.1095394E1,2.1760657E-2,-1.4205165E-3,5.093459E-2,1.65876E-5,-9.7553806E-5,3.5533041E-3,1.0638742E-1,7.165875E-5,-2.143328E-3,-1.7823952E-3,2.3306666E-5,-3.0594267E-5,3.1024907E-4,4.7841348E-4,1.9777193E-5],"split_indices":[18,1,19,0,2,0,6,26,0,0,6,0,0,0,0,15,24,0,4,0,0,0,0,0,0,0,0,0,0,0,0],"split_type":[0,0,0,0,0,0,0,0,0,0,0,0,0,0,0,0,0,0,0,0,0,0,0,0,0,0,0,0,0,0,0],"sum_hessian":[5.3E1,4.1E1,1.2E1,2.9E1,1.2E1,4E0,8E0,2.8E1,1E0,2E0,1E1,1E0,3E0,5E0,3E0,1.9E1,9E0,1E0,9E0,1E0,2E0,2E0,3E0,1E0,1.8E1,3E0,6E0,6E0,3E0,2E0,1E0],"tree_param":{"num_deleted":"0","num_feature":"30","num_nodes":"31","size_leaf_vector":"1"}},{"base_weights":[6.09925E-4,-7.3024556E-3,2.6126085E-2,-1.2952057E-2,6.2968126E-3,-6.009205E-3,4.1076124E-2,-1.4887859E-2,2.1593112E-3,3.3109062E-3,-1.5880567E-3,-1.3814841E-3,-6.040856E-4,5.1511392E-2,3.0351218E-3,-1.6275153E-2,2.5603932E-4,-1.3494907E-3,9.52119E-4,-3.713866E-6,-1.1524633E-4,5.9318963E-2,2.3329891E-4,4.3647998E-4,1.8788316E-5,-1.6425019E-4,-1.8035796E-3,2.2687999E-4,-8.1832186E-5,1.7493115E-3,6.418551E-3],"categories":[],"categories_nodes":[],"categories_segments":[],"categories_sizes":[],"default_left":[0,0,0,0,0,0,0,0,0,0,0,0,0,0,0,0,0,0,0,0,0,0,0,0,0,0,0,0,0,0,0],"id":4,"left_children":[1,3,5,7,9,11,13,15,-1,-1,17,-1,19,21,23,25,-1,-1,27,-1,-1,29,-1,-1,-1,-1,-1,-1,-1,-1,-1],"loss_changes":[1.1093037E-2,3.3084352E-3,6.4923456E-3,2.327654E-3,2.8009228E-3,2.0260662E-4,3.4163697E-3,7.4363966E-4,0E0,0E0,3.455492E-4,0E0,1.2008032E-6,2.549354E-3,1.0537658E-5,6.6597434E-4,0E0,0E0,2.5167667E-5,0E0,0E0,9.8481774E-5,0E0,0E0,0E0,0E0,0E0,0E0,0E0,0E0,0E0],"parents":[2147483647,0,0,1,1,2,2,3,3,4,4,5,5,6,6,7,7,10,10,12,12,13,13,14,14,15,15,18,18,21,21],"right_children":[2,4,6,8,10,12,14,16,-1,-1,18,-1,20,22,24,26,-1,-1,28,-1,-1,30,-1,-1,-1,-1,-1,-1,-1,-1,-1],"split_conditions":[5.093459E-2,9.51115E1,9.3081474E1,1.0440015E-1,1.4428336E-2,1.858556E-2,9.552853E1,1.0638742E-1,2.1593112E-3,3.3109062E-3,1.4362125E-2,-1.3814841E-3,2.1760657E-2,1.03628296E2,1.0638742E-1,5.2767822E1,2.5603932E-4,-1.3494907E-3,5.093459E-2,-3.713866E-6,-1.1524633E-4,5.2767822E1,2.3329891E-4,4.3647998E-4,1.8788316E-5,-1.6425019E-4,-1.8035796E-3,2.2687999E-4,-8.1832186E-5,1.7493115E-3,6.418551E-3],"split_indices":[18,1,19,0,2,0,3,10,0,0,6,0,0,19,0,17,0,0,24,0,0,1,0,0,0,0,0,0,0,0,0],"split_type":[0,0,0,0,0,0,0,0,0,0,0,0,0,0,0,0,0,0,0,0,0,0,0,0,0,0,0,0,0,0,0],"sum_hessian":[5.3E1,4.1E1,1.2E1,2.9E1,1.2E1,4E0,8E0,2.8E1,1E0,2E0,1E1,1E0,3E0,6E0,2E0,2.6E1,2E0,1E0,9E0,2E0,1E0,5E0,1E0,1E0,1E0,3E0,2.3E1,5E0,4E0,1E0,4E0],"tree_param":{"num_deleted":"0","num_feature":"30","num_nodes":"31","size_leaf_vector":"1"}},{"base_weights":[7.3245115E-4,-6.5114005E-3,2.4079321E-2,-1.1641933E-2,5.829167E-3,-5.708373E-3,3.795256E-2,-1.34581E-2,2.0513455E-3,3.0901793E-3,-1.5387461E-3,-1.3124099E-3,-5.734172E-4,1.7401239E-2,5.92914E-3,-1.6815078E-2,-5.3983326E-3,-1.2820162E-3,8.714117E-4,-3.4662587E-6,-1.0948405E-4,3.0441552E-3,3.270694E-3,7.628836E-5,-1.7780386E-3,-1.5134469E-3,9.363642E-5,-3.0469895E-5,2.7117526E-4,4.2419322E-4,1.7848984E-5],"categories":[],"categories_nodes":[],"categories_segments":[],"categories_sizes":[],"default_left":[0,0,0,0,0,0,0,0,0,0,0,0,0,0,0,0,0,0,0,0,0,0,0,0,0,0,0,0,0,0,0],"id":5,"left_children":[1,3,5,7,9,11,13,15,-1,-1,17,-1,19,21,-1,23,25,-1,27,-1,-1,-1,29,-1,-1,-1,-1,-1,-1,-1,-1],"loss_changes":[9.289338E-3,2.7270373E-3,5.588921E-3,2.0280583E-3,2.449078E-3,1.8287153E-4,2.9151281E-3,6.9386465E-4,0E0,0E0,3.1026156E-4,0E0,1.0857269E-6,1.0060355E-3,0E0,3.5292748E-4,6.309261E-4,0E0,2.2470711E-5,0E0,0E0,0E0,1.1255921E-5,0E0,0E0,0E0,0E0,0E0,0E0,0E0,0E0],"parents":[2147483647,0,0,1,1,2,2,3,3,4,4,5,5,6,6,7,7,10,10,12,12,13,13,15,15,16,16,18,18,22,22],"right_children":[2,4,6,8,10,12,14,16,-1,-1,18,-1,20,22,-1,24,26,-1,28,-1,-1,-1,30,-1,-1,-1,-1,-1,-1,-1,-1],"split_conditions":[5.093459E-2,9.51115E1,9.3081474E1,1.0440015E-1,1.4428336E-2,1.858556E-2,5.315401E-2,4.5797188E-2,2.0513455E-3,3.0901793E-3,1.4362125E-2,-1.3124099E-3,2.1760657E-2,1.4100544E-2,5.92914E-3,5.1095394E1,2.1760657E-2,-1.2820162E-3,5.093459E-2,-3.4662587E-6,-1.0948405E-4,3.0441552E-3,1.0638742E-1,7.628836E-5,-1.7780386E-3,-1.5134469E-3,9.363642E-5,-3.0469895E-5,2.7117526E-4,4.2419322E-4,1.7848984E-5],"split_indices":[18,1,19,0,2,0,6,26,0,0,6,0,0,0,0,15,24,0,20,0,0,0,0,0,0,0,0,0,0,0,0],"split_type":[0,0,0,0,0,0,0,0,0,0,0,0,0,0,0,0,0,0,0,0,0,0,0,0,0,0,0,0,0,0,0],"sum_hessian":[5.3E1,4.1E1,1.2E1,2.9E1,1.2E1,4E0,8E0,2.8E1,1E0,2E0,1E1,1E0,3E0,5E0,3E0,1.9E1,9E0,1E0,9E0,2E0,1E0,2E0,3E0,1E0,1.8E1,3E0,6E0,6E0,3E0,2E0,1E0],"tree_param":{"num_deleted":"0","num_feature":"30","num_nodes":"31","size_leaf_vector":"1"}},{"base_weights":[8.25292E-4,-4.1621705E-3,3.0023474E-2,-1.0520911E-2,6.666961E-3,-3.5850266E-3,5.090558E-3,-1.2619729E-2,2.5172413E-3,1.5274333E-2,-1.7463695E-3,-1.0389647E-3,2.1463957E-4,-1.3726612E-2,1.5487881E-4,2.6622262E-2,8.715376E-4,-1.2467895E-3,8.302327E-4,-6.7376954E-5,-1.5330144E-3,3.1310597E-3,3.9344636E-4,2.0025697E-4,-5.500068E-5,-5.247661E-5,2.6551727E-4],"categories":[],"categories_nodes":[],"categories_segments":[],"categories_sizes":[],"default_left":[0,0,0,0,0,0,0,0,0,0,0,0,0,0,0,0,0,0,0,0,0,0,0,0,0,0,0],"id":6,"left_children":[1,3,5,7,9,11,-1,13,-1,15,17,-1,-1,19,-1,21,23,-1,25,-1,-1,-1,-1,-1,-1,-1,-1],"loss_changes":[7.988704E-3,3.306545E-3,5.7970285E-3,2.5650838E-3,1.3301745E-3,1.7830089E-4,0E0,4.7606323E-4,0E0,1.4477747E-3,2.866023E-4,0E0,0E0,5.547982E-4,0E0,4.0864944E-4,9.140488E-6,0E0,2.364847E-5,0E0,0E0,0E0,0E0,0E0,0E0,0E0,0E0],"parents":[2147483647,0,0,1,1,2,2,3,3,4,4,5,5,7,7,9,9,10,10,13,13,15,15,16,16,18,18],"right_children":[2,4,6,8,10,12,-1,14,-1,16,18,-1,-1,20,-1,22,24,-1,26,-1,-1,-1,-1,-1,-1,-1,-1],"split_conditions":[1.019563E2,2.7351765E-2,8.5918945E1,1.3939773E-1,3.8548693E-2,5.2749138E1,5.090558E-3,1.0638742E-1,2.5172413E-3,2.7351765E-2,5.1549114E1,-1.0389647E-3,2.1463957E-4,1.4100544E-2,1.5487881E-4,9.317419E1,1.577593E-2,-1.2467895E-3,9.297631E1,-6.7376954E-5,-1.5330144E-3,3.1310597E-3,3.9344636E-4,2.0025697E-4,-5.500068E-5,-5.247661E-5,2.6551727E-4],"split_indices":[21,18,1,22,2,1,0,22,0,8,1,0,0,20,0,1,0,0,29,0,0,0,0,0,0,0,0],"split_type":[0,0,0,0,0,0,0,0,0,0,0,0,0,0,0,0,0,0,0,0,0,0,0,0,0,0,0],"sum_hessian":[5.3E1,4.6E1,7E0,2.9E1,1.7E1,3E0,4E0,2.8E1,1E0,8E0,9E0,1E0,2E0,2.6E1,2E0,4E0,4E0,1E0,8E0,3E0,2.3E1,3E0,1E0,2E0,2E0,5E0,3E0],"tree_param":{"num_deleted":"0","num_feature":"30","num_nodes":"27","size_leaf_vector":"1"}},{"base_weights":[8.9042855E-4,-5.2531958E-3,2.0670567E-2,-9.582246E-3,5.141011E-3,-5.1412606E-3,3.271374E-2,-1.1148686E-2,1.7922253E-3,2.6305742E-3,-1.0985526E-3,-1.1844501E-3,-5.0432514E-4,1.4726277E-2,5.1516504E-3,-1.3933561E-2,-4.464066E-3,-1.1412647E-3,1.0741216E-3,3.4732122E-7,-1.0138601E-4,2.5671574E-3,2.8357357E-3,7.5842625E-5,-1.4746741E-3,-1.3131186E-3,1.12629765E-4,1.7690724E-4,-1.1371212E-4,3.7564425E-4,3.680773E-6],"categories":[],"categories_nodes":[],"categories_segments":[],"categories_sizes":[],"default_left":[0,0,0,0,0,0,0,0,0,0,0,0,0,0,0,0,0,0,0,0,0,0,0,0,0,0,0,0,0,0,0],"id":7,"left_children":[1,3,5,7,9,11,13,15,-1,-1,17,-1,19,21,-1,23,25,-1,27,-1,-1,-1,29,-1,-1,-1,-1,-1,-1,-1,-1],"loss_changes":[6.67076E-3,1.939138E-3,4.209323E-3,1.4923336E-3,1.7456611E-3,1.49439E-4,2.2852793E-3,4.7765928E-4,0E0,0E0,2.587594E-4,0E0,1.0384853E-6,7.080751E-4,0E0,2.501288E-4,4.993131E-4,0E0,1.7378701E-5,0E0,0E0,0E0,1.0169704E-5,0E0,0E0,0E0,0E0,0E0,0E0,0E0,0E0],"parents":[2147483647,0,0,1,1,2,2,3,3,4,4,5,5,6,6,7,7,10,10,12,12,13,13,15,15,16,16,18,18,22,22],"right_children":[2,4,6,8,10,12,14,16,-1,-1,18,-1,20,22,-1,24,26,-1,28,-1,-1,-1,30,-1,-1,-1,-1,-1,-1,-1,-1],"split_conditions":[5.093459E-2,9.51115E1,9.3081474E1,1.0440015E-1,1.4428336E-2,1.858556E-2,5.315401E-2,4.5797188E-2,1.7922253E-3,2.6305742E-3,1.4362125E-2,-1.1844501E-3,2.1760657E-2,1.4100544E-2,5.1516504E-3,5.1095394E1,1.6949743E-2,-1.1412647E-3,5.7780758E-2,3.4732122E-7,-1.0138601E-4,2.5671574E-3,1.0638742E-1,7.5842625E-5,-1.4746741E-3,-1.3131186E-3,1.12629765E-4,1.7690724E-4,-1.1371212E-4,3.7564425E-4,3.680773E-6],"split_indices":[18,1,19,0,2,0,6,26,0,0,6,0,0,0,0,15,22,0,0,0,0,0,0,0,0,0,0,0,0,0,0],"split_type":[0,0,0,0,0,0,0,0,0,0,0,0,0,0,0,0,0,0,0,0,0,0,0,0,0,0,0,0,0,0,0],"sum_hessian":[5.3E1,4.1E1,1.2E1,2.9E1,1.2E1,4E0,8E0,2.8E1,1E0,2E0,1E1,1E0,3E0,5E0,3E0,1.9E1,9E0,1E0,9E0,2E0,1E0,2E0,3E0,1E0,1.8E1,3E0,6E0,7E0,2E0,2E0,1E0],"tree_param":{"num_deleted":"0","num_feature":"30","num_nodes":"31","size_leaf_vector":"1"}},{"base_weights":[9.413499E-4,-3.2997387E-3,2.5740076E-2,-8.54726E-3,5.6294505E-3,-3.1860052E-3,4.373293E-3,-1.0400511E-2,2.2598505E-3,1.3036557E-2,-1.5998896E-3,-9.132827E-4,1.8405443E-4,4.6922918E-4,-1.11071225E-2,2.26876E-2,7.7820045E-4,-1.1252277E-3,7.228508E-4,-1.2119557E-3,1.3696837E-4,2.6584542E-3,3.5499185E-4,1.7725528E-4,-4.7555193E-5,2.1259159E-4,-8.247845E-5],"categories":[],"categories_nodes":[],"categories_segments":[],"categories_sizes":[],"default_left":[0,0,0,0,0,0,0,0,0,0,0,0,0,0,0,0,0,0,0,0,0,0,0,0,0,0,0],"id":8,"left_children":[1,3,5,7,9,11,-1,13,-1,15,17,-1,-1,-1,19,21,23,-1,25,-1,-1,-1,-1,-1,-1,-1,-1],"loss_changes":[5.7643102E-3,2.250354E-3,4.303035E-3,1.9666634E-3,9.847297E-4,1.3637733E-4,0E0,3.613953E-4,0E0,1.047098E-3,2.3233361E-4,0E0,0E0,0E0,3.702948E-4,2.7851923E-4,7.076299E-6,0E0,2.129632E-5,0E0,0E0,0E0,0E0,0E0,0E0,0E0,0E0],"parents":[2147483647,0,0,1,1,2,2,3,3,4,4,5,5,7,7,9,9,10,10,14,14,15,15,16,16,18,18],"right_children":[2,4,6,8,10,12,-1,14,-1,16,18,-1,-1,-1,20,22,24,-1,26,-1,-1,-1,-1,-1,-1,-1,-1],"split_conditions":[1.019563E2,2.7351765E-2,8.5918945E1,1.3939773E-1,3.8548693E-2,5.2749138E1,4.373293E-3,1.3580991E-2,2.2598505E-3,2.7351765E-2,5.1549114E1,-9.132827E-4,1.8405443E-4,4.6922918E-4,1.0638742E-1,9.317419E1,1.577593E-2,-1.1252277E-3,5.093459E-2,-1.2119557E-3,1.3696837E-4,2.6584542E-3,3.5499185E-4,1.7725528E-4,-4.7555193E-5,2.1259159E-4,-8.247845E-5],"split_indices":[21,18,1,22,2,1,0,20,0,8,1,0,0,0,12,1,0,0,24,0,0,0,0,0,0,0,0],"split_type":[0,0,0,0,0,0,0,0,0,0,0,0,0,0,0,0,0,0,0,0,0,0,0,0,0,0,0],"sum_hessian":[5.3E1,4.6E1,7E0,2.9E1,1.7E1,3E0,4E0,2.8E1,1E0,8E0,9E0,1E0,2E0,1E0,2.7E1,4E0,4E0,1E0,8E0,2.5E1,2E0,3E0,1E0,2E0,2E0,4E0,4E0],"tree_param":{"num_deleted":"0","num_feature":"30","num_nodes":"27","size_leaf_vector":"1"}},{"base_weights":[9.851075E-4,-2.9249294E-3,2.3833437E-2,-8.674785E-3,4.003305E-3,-7.868921E-3,4.4428636E-3,4.4576768E-4,-9.37839E-3,1.8070463E-2,-2.401283E-3,-1.0633413E-3,2.1227635E-5,-1.04166E-2,1.7073528E-4,2.4065652E-3,2.0549956E-3,-1.3336542E-3,1.1481256E-3,-1.1620967E-3,1.4861612E-4,-2.8993003E-5,3.3724235E-4,2.5594677E-4,-9.250182E-5],"categories":[],"categories_nodes":[],"categories_segments":[],"categories_sizes":[],"default_left":[0,0,0,0,0,0,0,0,0,0,0,0,0,0,0,0,0,0,0,0,0,0,0,0,0],"id":9,"left_children":[1,3,5,7,9,11,-1,-1,13,15,17,-1,-1,19,-1,-1,21,-1,23,-1,-1,-1,-1,-1,-1],"loss_changes":[4.8939525E-3,1.9070359E-3,5.572936E-3,2.8204778E-4,2.0254683E-3,9.161883E-5,0E0,0E0,3.0551828E-4,6.2265527E-4,6.363312E-4,0E0,0E0,3.4698215E-4,0E0,0E0,1.0245577E-5,0E0,4.0404448E-5,0E0,0E0,0E0,0E0,0E0,0E0],"parents":[2147483647,0,0,1,1,2,2,3,3,4,4,5,5,8,8,9,9,10,10,13,13,16,16,18,18],"right_children":[2,4,6,8,10,12,-1,-1,14,16,18,-1,-1,20,-1,-1,22,-1,24,-1,-1,-1,-1,-1,-1],"split_conditions":[5.8762316E-2,2.1760657E-2,4.728805E-2,1.3580991E-2,2.1047711E-2,1.5892705E-2,4.4428636E-3,4.4576768E-4,1.0638742E-1,9.705083E1,6.436134E1,-1.0633413E-3,2.1227635E-5,9.705083E1,1.7073528E-4,2.4065652E-3,2.1760657E-2,-1.3336542E-3,5.093459E-2,-1.1620967E-3,1.4861612E-4,-2.8993003E-5,3.3724235E-4,2.5594677E-4,-9.250182E-5],"split_indices":[6,18,22,20,22,0,0,0,22,3,1,0,0,1,0,0,0,0,24,0,0,0,0,0,0],"split_type":[0,0,0,0,0,0,0,0,0,0,0,0,0,0,0,0,0,0,0,0,0,0,0,0,0],"sum_hessian":[5.3E1,4.6E1,7E0,2.5E1,2.1E1,3E0,4E0,1E0,2.4E1,6E0,1.5E1,2E0,1E0,2.2E1,2E0,4E0,2E0,3E0,1.2E1,2E1,2E0,1E0,1E0,7E0,5E0],"tree_param":{"num_deleted":"0","num_feature":"30","num_nodes":"25","size_leaf_vector":"1"}},{"base_weights":[9.708261E-4,-2.631296E-3,2.201194E-2,-6.9315666E-3,4.6820045E-3,-2.8442722E-3,3.749452E-2,-8.497976E-3,1.9247149E-3,1.0967265E-2,-1.4429301E-3,-8.0093596E-4,1.54721E-4,1.08396E-3,4.1448358E-3,6.565894E-4,-9.579525E-3,1.910288E-2,6.381966E-4,-1.0022837E-3,6.240412E-4,4.0948825E-4,-4.829145E-4,-1.0577011E-3,1.5935302E-4,2.22767E-3,3.2038018E-4,1.9272677E-4,-1.658881E-5,-5.2541E-5,2.1922076E-4],"categories":[],"categories_nodes":[],"categories_segments":[],"categories_sizes":[],"default_left":[0,0,0,0,0,0,0,0,0,0,0,0,0,0,0,0,0,0,0,0,0,0,0,0,0,0,0,0,0,0,0],"id":10,"left_children":[1,3,5,7,9,11,13,15,-1,17,19,-1,-1,-1,-1,21,23,25,27,-1,29,-1,-1,-1,-1,-1,-1,-1,-1,-1,-1],"loss_changes":[4.1507236E-3,1.5105647E-3,3.1853514E-3,1.3937588E-3,7.0876756E-4,1.031217E-4,7.766159E-5,2.9342226E-4,0E0,7.441087E-4,1.8359885E-4,0E0,0E0,0E0,0E0,9.522103E-5,3.0662352E-4,1.8093374E-4,5.502323E-6,0E0,1.7374583E-5,0E0,0E0,0E0,0E0,0E0,0E0,0E0,0E0,0E0,0E0],"parents":[2147483647,0,0,1,1,2,2,3,3,4,4,5,5,6,6,7,7,9,9,10,10,15,15,16,16,17,17,18,18,20,20],"right_children":[2,4,6,8,10,12,14,16,-1,18,20,-1,-1,-1,-1,22,24,26,28,-1,30,-1,-1,-1,-1,-1,-1,-1,-1,-1,-1],"split_conditions":[1.019563E2,2.7351765E-2,8.5918945E1,1.3939773E-1,3.8548693E-2,5.2749138E1,1.4428336E-2,1.4100544E-2,1.9247149E-3,2.7351765E-2,5.1549114E1,-8.0093596E-4,1.54721E-4,1.08396E-3,4.1448358E-3,2.8465046E-2,1.0638742E-1,9.317419E1,9.305976E1,-1.0022837E-3,9.297631E1,4.0948825E-4,-4.829145E-4,-1.0577011E-3,1.5935302E-4,2.22767E-3,3.2038018E-4,1.9272677E-4,-1.658881E-5,-5.2541E-5,2.1922076E-4],"split_indices":[21,18,1,22,2,1,2,20,0,8,1,0,0,0,0,0,22,1,1,0,29,0,0,0,0,0,0,0,0,0,0],"split_type":[0,0,0,0,0,0,0,0,0,0,0,0,0,0,0,0,0,0,0,0,0,0,0,0,0,0,0,0,0,0,0],"sum_hessian":[5.3E1,4.6E1,7E0,2.9E1,1.7E1,3E0,4E0,2.8E1,1E0,8E0,9E0,1E0,2E0,1E0,3E0,3E0,2.5E1,4E0,4E0,1E0,8E0,2E0,1E0,2.3E1,2E0,3E0,1E0,1E0,3E0,5E0,3E0],"tree_param":{"num_deleted":"0","num_feature":"30","num_nodes":"31","size_leaf_vector":"1"}},{"base_weights":[1.0112267E-3,-2.342238E-3,2.058643E-2,-7.0341416E-3,3.3092042E-3,-6.8095597E-3,3.8385936E-3,-7.881847E-3,2.0922162E-4,1.5229535E-2,-2.112766E-3,-9.219384E-4,2.0995736E-5,6.391653E-4,-9.129571E-3,2.020357E-3,1.8629668E-3,-1.1621071E-3,9.7538676E-4,3.821891E-4,-4.4545057E-4,-1.0325414E-3,1.4872948E-4,-2.4916231E-5,3.0436125E-4,2.2265791E-4,-8.5543405E-5],"categories":[],"categories_nodes":[],"categories_segments":[],"categories_sizes":[],"default_left":[0,0,0,0,0,0,0,0,0,0,0,0,0,0,0,0,0,0,0,0,0,0,0,0,0,0,0],"id":11,"left_children":[1,3,5,7,9,11,-1,13,-1,15,17,-1,-1,19,21,-1,23,-1,25,-1,-1,-1,-1,-1,-1,-1,-1],"loss_changes":[3.5930348E-3,1.2695303E-3,4.1624717E-3,2.1763856E-4,1.4540732E-3,6.95989E-5,0E0,2.6100024E-4,0E0,4.2776205E-4,4.8114455E-4,0E0,0E0,8.187166E-5,2.8197526E-4,0E0,8.239382E-6,0E0,3.1683907E-5,0E0,0E0,0E0,0E0,0E0,0E0,0E0,0E0],"parents":[2147483647,0,0,1,1,2,2,3,3,4,4,5,5,7,7,9,9,10,10,13,13,14,14,16,16,18,18],"right_children":[2,4,6,8,10,12,-1,14,-1,16,18,-1,-1,20,22,-1,24,-1,26,-1,-1,-1,-1,-1,-1,-1,-1],"split_conditions":[5.8762316E-2,2.1760657E-2,4.728805E-2,9.705083E1,2.1047711E-2,1.5892705E-2,3.8385936E-3,5.2767822E1,2.0922162E-4,9.705083E1,6.436134E1,-9.219384E-4,2.0995736E-5,2.8465046E-2,1.0638742E-1,2.020357E-3,2.1760657E-2,-1.1621071E-3,5.093459E-2,3.821891E-4,-4.4545057E-4,-1.0325414E-3,1.4872948E-4,-2.4916231E-5,3.0436125E-4,2.2265791E-4,-8.5543405E-5],"split_indices":[6,18,22,1,22,0,0,17,0,3,1,0,0,0,22,0,0,0,24,0,0,0,0,0,0,0,0],"split_type":[0,0,0,0,0,0,0,0,0,0,0,0,0,0,0,0,0,0,0,0,0,0,0,0,0,0,0],"sum_hessian":[5.3E1,4.6E1,7E0,2.5E1,2.1E1,3E0,4E0,2.3E1,2E0,6E0,1.5E1,2E0,1E0,3E0,2E1,4E0,2E0,3E0,1.2E1,2E0,1E0,1.8E1,2E0,1E0,1E0,7E0,5E0],"tree_param":{"num_deleted":"0","num_feature":"30","num_nodes":"27","size_leaf_vector":"1"}},{"base_weights":[9.7444863E-4,-2.1158983E-3,1.900843E-2,-5.6493687E-3,3.890769E-3,-2.5422017E-3,3.244725E-2,-6.9728293E-3,1.6365495E-3,9.221622E-3,-1.2960751E-3,-7.027839E-4,1.2956238E-4,9.287439E-4,3.5915344E-3,-7.706306E-3,1.9527352E-4,1.6065467E-2,5.3345115E-4,-8.940641E-4,5.467257E-4,6.396151E-5,-8.7761966E-4,1.8636119E-3,2.8914327E-4,1.7195754E-4,-1.9297377E-5,-4.718105E-5,1.9378486E-4],"categories":[],"categories_nodes":[],"categories_segments":[],"categories_sizes":[],"default_left":[0,0,0,0,0,0,0,0,0,0,0,0,0,0,0,0,0,0,0,0,0,0,0,0,0,0,0,0,0],"id":12,"left_children":[1,3,5,7,9,11,13,15,-1,17,19,-1,-1,-1,-1,21,-1,23,25,-1,27,-1,-1,-1,-1,-1,-1,-1,-1],"loss_changes":[3.049708E-3,1.0195263E-3,2.399408E-3,9.88188E-4,5.096573E-4,7.79658E-5,6.8040565E-5,2.0490249E-4,0E0,5.2657427E-4,1.457622E-4,0E0,0E0,0E0,0E0,2.4670234E-4,0E0,1.15444185E-4,4.6399837E-6,0E0,1.3666478E-5,0E0,0E0,0E0,0E0,0E0,0E0,0E0,0E0],"parents":[2147483647,0,0,1,1,2,2,3,3,4,4,5,5,6,6,7,7,9,9,10,10,15,15,17,17,18,18,20,20],"right_children":[2,4,6,8,10,12,14,16,-1,18,20,-1,-1,-1,-1,22,-1,24,26,-1,28,-1,-1,-1,-1,-1,-1,-1,-1],"split_conditions":[1.019563E2,2.7351765E-2,8.5918945E1,1.3939773E-1,3.8548693E-2,5.2749138E1,1.4428336E-2,9.705083E1,1.6365495E-3,2.7351765E-2,5.1549114E1,-7.027839E-4,1.2956238E-4,9.287439E-4,3.5915344E-3,1.4100544E-2,1.9527352E-4,9.317419E1,9.305976E1,-8.940641E-4,9.297631E1,6.396151E-5,-8.7761966E-4,1.8636119E-3,2.8914327E-4,1.7195754E-4,-1.9297377E-5,-4.718105E-5,1.9378486E-4],"split_indices":[21,18,1,22,2,1,2,1,0,8,1,0,0,0,0,20,0,1,1,0,29,0,0,0,0,0,0,0,0],"split_type":[0,0,0,0,0,0,0,0,0,0,0,0,0,0,0,0,0,0,0,0,0,0,0,0,0,0,0,0,0],"sum_hessian":[5.3E1,4.6E1,7E0,2.9E1,1.7E1,3E0,4E0,2.8E1,1E0,8E0,9E0,1E0,2E0,1E0,3E0,2.6E1,2E0,4E0,4E0,1E0,8E0,3E0,2.3E1,3E0,1E0,1E0,3E0,5E0,3E0],"tree_param":{"num_deleted":"0","num_feature":"30","num_nodes":"29","size_leaf_vector":"1"}},{"base_weights":[9.978026E-4,-1.8802107E-3,1.7781405E-2,-5.7064164E-3,2.727133E-3,-5.9102057E-3,3.317841E-3,-6.428604E-3,1.9732218E-4,1.2822342E-2,-1.8599667E-3,-8.019679E-4,2.09108E-5,7.4685644E-4,-7.489234E-3,1.6937781E-3,1.6891646E-3,-1.0130875E-3,8.2800223E-4,3.524456E-4,-3.7929715E-4,-8.565347E-4,1.8225536E-4,-2.1311454E-5,2.7468614E-4,1.9377326E-4,-7.8963865E-5],"categories":[],"categories_nodes":[],"categories_segments":[],"categories_sizes":[],"default_left":[0,0,0,0,0,0,0,0,0,0,0,0,0,0,0,0,0,0,0,0,0,0,0,0,0,0,0],"id":13,"left_children":[1,3,5,7,9,11,-1,13,-1,15,17,-1,-1,19,21,-1,23,-1,25,-1,-1,-1,-1,-1,-1,-1,-1],"loss_changes":[2.641818E-3,8.441085E-4,3.1143306E-3,1.568846E-4,1.0426192E-3,5.3311116E-5,0E0,1.8824567E-4,0E0,2.9211456E-4,3.6409945E-4,0E0,0E0,6.3807456E-5,2.26042E-4,0E0,6.6215E-6,0E0,2.4866993E-5,0E0,0E0,0E0,0E0,0E0,0E0,0E0,0E0],"parents":[2147483647,0,0,1,1,2,2,3,3,4,4,5,5,7,7,9,9,10,10,13,13,14,14,16,16,18,18],"right_children":[2,4,6,8,10,12,-1,14,-1,16,18,-1,-1,20,22,-1,24,-1,26,-1,-1,-1,-1,-1,-1,-1,-1],"split_conditions":[5.8762316E-2,2.1760657E-2,4.728805E-2,1.0638742E-1,2.1047711E-2,1.5892705E-2,3.317841E-3,5.2767822E1,1.9732218E-4,9.705083E1,6.436134E1,-8.019679E-4,2.09108E-5,2.8465046E-2,9.705083E1,1.6937781E-3,2.1760657E-2,-1.0130875E-3,5.093459E-2,3.524456E-4,-3.7929715E-4,-8.565347E-4,1.8225536E-4,-2.1311454E-5,2.7468614E-4,1.9377326E-4,-7.8963865E-5],"split_indices":[6,18,22,22,22,0,0,17,0,3,1,0,0,0,1,0,0,0,24,0,0,0,0,0,0,0,0],"split_type":[0,0,0,0,0,0,0,0,0,0,0,0,0,0,0,0,0,0,0,0,0,0,0,0,0,0,0],"sum_hessian":[5.3E1,4.6E1,7E0,2.5E1,2.1E1,3E0,4E0,2.3E1,2E0,6E0,1.5E1,2E0,1E0,3E0,2E1,4E0,2E0,3E0,1.2E1,2E0,1E0,1.8E1,2E0,1E0,1E0,7E0,5E0],"tree_param":{"num_deleted":"0","num_feature":"30","num_nodes":"27","size_leaf_vector":"1"}},{"base_weights":[9.5509394E-4,-1.6986164E-3,1.6426256E-2,-4.5960913E-3,3.224876E-3,-2.2749023E-3,2.8101932E-2,-6.3401614E-3,8.325405E-3,7.7434415E-3,-1.1643205E-3,-6.169904E-4,1.080066E-4,7.9761783E-4,3.1139327E-3,6.654579E-4,-7.2435914E-3,1.8416742E-4,1.38883E-3,1.3493455E-2,4.447393E-4,-7.9870655E-4,4.8121397E-4,3.2894922E-4,-3.6033225E-4,-8.1340614E-4,1.7010495E-4,1.5562059E-3,2.6095193E-4,1.5367102E-4,-2.1243095E-5,-4.217544E-5,1.715363E-4],"categories":[],"categories_nodes":[],"categories_segments":[],"categories_sizes":[],"default_left":[0,0,0,0,0,0,0,0,0,0,0,0,0,0,0,0,0,0,0,0,0,0,0,0,0,0,0,0,0,0,0,0,0],"id":14,"left_children":[1,3,5,7,9,11,13,15,17,19,21,-1,-1,-1,-1,23,25,-1,-1,27,29,-1,31,-1,-1,-1,-1,-1,-1,-1,-1,-1,-1],"loss_changes":[2.244925E-3,6.8530947E-4,1.8107181E-3,7.288644E-4,3.6600762E-4,5.893432E-5,5.727634E-5,1.7570565E-4,1.1869552E-4,3.7170766E-4,1.161141E-4,0E0,0E0,0E0,0E0,5.665881E-5,2.0499481E-4,0E0,0E0,7.196324E-5,3.914499E-6,0E0,1.07530395E-5,0E0,0E0,0E0,0E0,0E0,0E0,0E0,0E0,0E0,0E0],"parents":[2147483647,0,0,1,1,2,2,3,3,4,4,5,5,6,6,7,7,8,8,9,9,10,10,15,15,16,16,19,19,20,20,22,22],"right_children":[2,4,6,8,10,12,14,16,18,20,22,-1,-1,-1,-1,24,26,-1,-1,28,30,-1,32,-1,-1,-1,-1,-1,-1,-1,-1,-1,-1],"split_conditions":[1.019563E2,2.7351765E-2,8.5918945E1,1.0638742E-1,3.8548693E-2,5.2749138E1,1.4428336E-2,5.2767822E1,1.9700862E-2,2.7351765E-2,5.1549114E1,-6.169904E-4,1.080066E-4,7.9761783E-4,3.1139327E-3,2.8465046E-2,9.705083E1,1.8416742E-4,1.38883E-3,9.317419E1,9.305976E1,-7.9870655E-4,9.297631E1,3.2894922E-4,-3.6033225E-4,-8.1340614E-4,1.7010495E-4,1.5562059E-3,2.6095193E-4,1.5367102E-4,-2.1243095E-5,-4.217544E-5,1.715363E-4],"split_indices":[21,18,1,22,2,1,2,17,0,8,1,0,0,0,0,0,1,0,0,1,1,0,29,0,0,0,0,0,0,0,0,0,0],"split_type":[0,0,0,0,0,0,0,0,0,0,0,0,0,0,0,0,0,0,0,0,0,0,0,0,0,0,0,0,0,0,0,0,0],"sum_hessian":[5.3E1,4.6E1,7E0,2.9E1,1.7E1,3E0,4E0,2.6E1,3E0,8E0,9E0,1E0,2E0,1E0,3E0,3E0,2.3E1,2E0,1E0,4E0,4E0,1E0,8E0,2E0,1E0,2.1E1,2E0,3E0,1E0,1E0,3E0,5E0,3E0],"tree_param":{"num_deleted":"0","num_feature":"30","num_nodes":"33","size_leaf_vector":"1"}},{"base_weights":[9.6293853E-4,-1.5114761E-3,1.5379758E-2,-4.630721E-3,2.2436075E-3,-5.102436E-3,2.868956E-3,3.4662746E-4,-5.093252E-3,1.0783597E-2,-1.6328634E-3,-6.9427636E-4,2.0927377E-5,-5.760347E-3,1.7188961E-4,1.4177968E-3,1.531781E-3,-8.8137836E-4,7.0225535E-4,-6.535758E-4,1.5876467E-4,-1.8137134E-5,2.479043E-4,1.6870121E-4,-7.277963E-5],"categories":[],"categories_nodes":[],"categories_segments":[],"categories_sizes":[],"default_left":[0,0,0,0,0,0,0,0,0,0,0,0,0,0,0,0,0,0,0,0,0,0,0,0,0],"id":15,"left_children":[1,3,5,7,9,11,-1,-1,13,15,17,-1,-1,19,-1,-1,21,-1,23,-1,-1,-1,-1,-1,-1],"loss_changes":[1.9495982E-3,5.609017E-4,2.3272985E-3,1.1502748E-4,7.4591866E-4,4.0554085E-5,0E0,0E0,1.235102E-4,1.98111E-4,2.744823E-4,0E0,0E0,1.4142395E-4,0E0,0E0,5.318039E-6,0E0,1.953509E-5,0E0,0E0,0E0,0E0,0E0,0E0],"parents":[2147483647,0,0,1,1,2,2,3,3,4,4,5,5,8,8,9,9,10,10,13,13,16,16,18,18],"right_children":[2,4,6,8,10,12,-1,-1,14,16,18,-1,-1,20,-1,-1,22,-1,24,-1,-1,-1,-1,-1,-1],"split_conditions":[5.8762316E-2,2.1760657E-2,4.728805E-2,1.3580991E-2,2.1047711E-2,1.5892705E-2,2.868956E-3,3.4662746E-4,1.0638742E-1,9.705083E1,6.436134E1,-6.9427636E-4,2.0927377E-5,9.705083E1,1.7188961E-4,1.4177968E-3,2.1760657E-2,-8.8137836E-4,5.093459E-2,-6.535758E-4,1.5876467E-4,-1.8137134E-5,2.479043E-4,1.6870121E-4,-7.277963E-5],"split_indices":[6,18,22,20,22,0,0,0,22,3,1,0,0,1,0,0,0,0,24,0,0,0,0,0,0],"split_type":[0,0,0,0,0,0,0,0,0,0,0,0,0,0,0,0,0,0,0,0,0,0,0,0,0],"sum_hessian":[5.3E1,4.6E1,7E0,2.5E1,2.1E1,3E0,4E0,1E0,2.4E1,6E0,1.5E1,2E0,1E0,2.2E1,2E0,4E0,2E0,3E0,1.2E1,2E1,2E0,1E0,1E0,7E0,5E0],"tree_param":{"num_deleted":"0","num_feature":"30","num_nodes":"25","size_leaf_vector":"1"}},{"base_weights":[9.237089E-4,-1.3566345E-3,1.4205263E-2,-3.7243867E-3,2.6649877E-3,-2.038664E-3,2.4359351E-2,-5.1875305E-3,7.08293E-3,6.4926078E-3,-1.0463692E-3,-5.42072E-4,8.955946E-5,6.8684743E-4,2.7014953E-3,9.085615E-4,-5.9873983E-3,1.6043037E-4,1.1759404E-3,2.1726398E-3,1.4408331E-3,-7.1470236E-4,4.2559498E-4,3.1725081E-4,-2.941639E-4,-6.7337713E-4,1.4818038E-4,4.0278313E-4,-2.2571161E-5,-3.7531245E-5,1.5205574E-4],"categories":[],"categories_nodes":[],"categories_segments":[],"categories_sizes":[],"default_left":[0,0,0,0,0,0,0,0,0,0,0,0,0,0,0,0,0,0,0,0,0,0,0,0,0,0,0,0,0,0,0],"id":16,"left_children":[1,3,5,7,9,11,13,15,17,19,21,-1,-1,-1,-1,23,25,-1,-1,27,-1,-1,29,-1,-1,-1,-1,-1,-1,-1,-1],"loss_changes":[1.6547425E-3,4.5746902E-4,1.3691986E-3,5.1112263E-4,2.624956E-4,4.455007E-5,4.6692556E-5,1.3709383E-4,8.3616964E-5,2.764569E-4,9.284118E-5,0E0,0E0,0E0,0E0,4.4198972E-5,1.4377356E-4,0E0,0E0,3.2054944E-5,0E0,0E0,8.463356E-6,0E0,0E0,0E0,0E0,0E0,0E0,0E0,0E0],"parents":[2147483647,0,0,1,1,2,2,3,3,4,4,5,5,6,6,7,7,8,8,9,9,10,10,15,15,16,16,19,19,22,22],"right_children":[2,4,6,8,10,12,14,16,18,20,22,-1,-1,-1,-1,24,26,-1,-1,28,-1,-1,30,-1,-1,-1,-1,-1,-1,-1,-1],"split_conditions":[1.019563E2,2.7351765E-2,8.5918945E1,1.0638742E-1,3.8548693E-2,5.2749138E1,1.4428336E-2,1.4100544E-2,1.9700862E-2,1.893809E-2,5.1549114E1,-5.42072E-4,8.955946E-5,6.8684743E-4,2.7014953E-3,2.8465046E-2,9.705083E1,1.6043037E-4,1.1759404E-3,1.6753728E-2,1.4408331E-3,-7.1470236E-4,9.297631E1,3.1725081E-4,-2.941639E-4,-6.7337713E-4,1.4818038E-4,4.0278313E-4,-2.2571161E-5,-3.7531245E-5,1.5205574E-4],"split_indices":[21,18,1,22,2,1,2,20,0,4,1,0,0,0,0,0,1,0,0,4,0,0,29,0,0,0,0,0,0,0,0],"split_type":[0,0,0,0,0,0,0,0,0,0,0,0,0,0,0,0,0,0,0,0,0,0,0,0,0,0,0,0,0,0,0],"sum_hessian":[5.3E1,4.6E1,7E0,2.9E1,1.7E1,3E0,4E0,2.6E1,3E0,8E0,9E0,1E0,2E0,1E0,3E0,3E0,2.3E1,2E0,1E0,6E0,2E0,1E0,8E0,2E0,1E0,2.1E1,2E0,3E0,3E0,5E0,3E0],"tree_param":{"num_deleted":"0","num_feature":"30","num_nodes":"31","size_leaf_vector":"1"}},{"base_weights":[9.237638E-4,-1.199919E-3,1.328493E-2,8.2499795E-3,-2.0317298E-3,-4.418198E-3,2.4790447E-3,1.0056531E-3,1.4151633E-4,-3.4999254E-3,2.6910314E-3,-6.030994E-4,2.100952E-5,-5.645207E-3,-4.0622143E-4,7.650613E-3,-1.23596E-3,-2.418831E-5,-6.584506E-4,-4.747836E-4,1.0748352E-4,9.939037E-4,2.8119845E-4,-2.7945574E-4,-5.1043433E-5],"categories":[],"categories_nodes":[],"categories_segments":[],"categories_sizes":[],"default_left":[0,0,0,0,0,0,0,0,0,0,0,0,0,0,0,0,0,0,0,0,0,0,0,0,0],"id":17,"left_children":[1,3,5,7,9,11,-1,-1,-1,13,15,-1,-1,17,19,21,23,-1,-1,-1,-1,-1,-1,-1,-1],"loss_changes":[1.4335054E-3,3.862065E-4,1.7389982E-3,3.5158155E-5,3.145116E-4,3.1125055E-5,0E0,0E0,0E0,2.2336026E-4,2.2369443E-4,0E0,0E0,9.991409E-5,1.01555794E-4,2.741578E-5,6.4891783E-6,0E0,0E0,0E0,0E0,0E0,0E0,0E0,0E0],"parents":[2147483647,0,0,1,1,2,2,3,3,4,4,5,5,9,9,10,10,13,13,14,14,15,15,16,16],"right_children":[2,4,6,8,10,12,-1,-1,-1,14,16,-1,-1,18,20,22,24,-1,-1,-1,-1,-1,-1,-1,-1],"split_conditions":[5.8762316E-2,1.4100544E-2,4.728805E-2,9.552853E1,4.81103E-2,1.5892705E-2,2.4790447E-3,1.0056531E-3,1.4151633E-4,2.2920525E-2,4.7265165E-2,-6.030994E-4,2.100952E-5,5.2767822E1,5.2767822E1,9.552853E1,8.083354E1,-2.418831E-5,-6.584506E-4,-4.747836E-4,1.0748352E-4,9.939037E-4,2.8119845E-4,-2.7945574E-4,-5.1043433E-5],"split_indices":[6,0,22,3,0,0,0,0,0,24,24,0,0,21,7,1,1,0,0,0,0,0,0,0,0],"split_type":[0,0,0,0,0,0,0,0,0,0,0,0,0,0,0,0,0,0,0,0,0,0,0,0,0],"sum_hessian":[5.3E1,4.6E1,7E0,3E0,4.3E1,3E0,4E0,2E0,1E0,3.3E1,1E1,2E0,1E0,1.9E1,1.4E1,4E0,6E0,3E0,1.6E1,3E0,1.1E1,2E0,2E0,1E0,5E0],"tree_param":{"num_deleted":"0","num_feature":"30","num_nodes":"25","size_leaf_vector":"1"}},{"base_weights":[8.858097E-4,-1.082252E-3,1.2337446E-2,-3.0446567E-3,2.2485475E-3,-1.837054E-3,2.1209557E-2,-4.2757993E-3,6.0267188E-3,5.496271E-3,-8.9925824E-4,-4.820458E-4,7.6423334E-5,6.028101E-4,2.3497897E-3,9.84706E-4,-4.974392E-3,1.4143511E-4,9.931911E-4,1.7994376E-3,1.2290125E-3,-6.460447E-4,4.3647902E-4,2.933244E-4,-2.4304539E-4,-5.6054315E-4,1.3113618E-4,3.377161E-4,-2.2814516E-5,1.3111629E-4,-5.255006E-5],"categories":[],"categories_nodes":[],"categories_segments":[],"categories_sizes":[],"default_left":[0,0,0,0,0,0,0,0,0,0,0,0,0,0,0,0,0,0,0,0,0,0,0,0,0,0,0,0,0,0,0],"id":18,"left_children":[1,3,5,7,9,11,13,15,17,19,21,-1,-1,-1,-1,23,25,-1,-1,27,-1,-1,29,-1,-1,-1,-1,-1,-1,-1,-1],"loss_changes":[1.2303788E-3,3.1405577E-4,1.0450248E-3,3.608137E-4,1.889602E-4,3.472672E-5,3.2054028E-5,1.0412204E-4,5.8001504E-5,2.039264E-4,7.710272E-5,0E0,0E0,0E0,0E0,3.3747387E-5,1.025481E-4,0E0,0E0,2.3163237E-5,0E0,0E0,8.261869E-6,0E0,0E0,0E0,0E0,0E0,0E0,0E0,0E0],"parents":[2147483647,0,0,1,1,2,2,3,3,4,4,5,5,6,6,7,7,8,8,9,9,10,10,15,15,16,16,19,19,22,22],"right_children":[2,4,6,8,10,12,14,16,18,20,22,-1,-1,-1,-1,24,26,-1,-1,28,-1,-1,30,-1,-1,-1,-1,-1,-1,-1,-1],"split_conditions":[1.019563E2,2.7351765E-2,8.5918945E1,1.0638742E-1,3.8548693E-2,5.2749138E1,1.4428336E-2,5.2767822E1,1.9700862E-2,1.893809E-2,5.1549114E1,-4.820458E-4,7.6423334E-5,6.028101E-4,2.3497897E-3,2.8465046E-2,9.705083E1,1.4143511E-4,9.931911E-4,1.6753728E-2,1.2290125E-3,-6.460447E-4,5.093459E-2,2.933244E-4,-2.4304539E-4,-5.6054315E-4,1.3113618E-4,3.377161E-4,-2.2814516E-5,1.3111629E-4,-5.255006E-5],"split_indices":[21,18,1,22,2,1,2,17,0,4,1,0,0,0,0,0,1,0,0,4,0,0,24,0,0,0,0,0,0,0,0],"split_type":[0,0,0,0,0,0,0,0,0,0,0,0,0,0,0,0,0,0,0,0,0,0,0,0,0,0,0,0,0,0,0],"sum_hessian":[5.3E1,4.6E1,7E0,2.9E1,1.7E1,3E0,4E0,2.6E1,3E0,8E0,9E0,1E0,2E0,1E0,3E0,3E0,2.3E1,2E0,1E0,6E0,2E0,1E0,8E0,2E0,1E0,2.1E1,2E0,3E0,3E0,4E0,4E0],"tree_param":{"num_deleted":"0","num_feature":"30","num_nodes":"31","size_leaf_vector":"1"}},{"base_weights":[8.764674E-4,-9.4555976E-4,1.1471318E-2,7.0045423E-3,-1.6468063E-3,-3.8359256E-3,2.142285E-3,8.4902643E-4,1.273688E-4,-2.8927801E-3,2.3540952E-3,-5.255232E-4,2.1099671E-5,-4.675104E-3,-3.2349676E-4,6.680441E-3,-1.0724509E-3,-1.680199E-6,-5.496169E-4,-3.9713408E-4,9.194093E-5,8.6658273E-4,2.468241E-4,-1.8132264E-4,-6.3562766E-6],"categories":[],"categories_nodes":[],"categories_segments":[],"categories_sizes":[],"default_left":[0,0,0,0,0,0,0,0,0,0,0,0,0,0,0,0,0,0,0,0,0,0,0,0,0],"id":19,"left_children":[1,3,5,7,9,11,-1,-1,-1,13,15,-1,-1,17,19,21,23,-1,-1,-1,-1,-1,-1,-1,-1],"loss_changes":[1.0532686E-3,2.7355924E-4,1.3008206E-3,2.3243876E-5,2.261507E-4,2.4084118E-5,0E0,0E0,0E0,1.5418365E-4,1.7023308E-4,0E0,0E0,7.640297E-5,7.166019E-5,2.0424879E-5,5.1162633E-6,0E0,0E0,0E0,0E0,0E0,0E0,0E0,0E0],"parents":[2147483647,0,0,1,1,2,2,3,3,4,4,5,5,9,9,10,10,13,13,14,14,15,15,16,16],"right_children":[2,4,6,8,10,12,-1,-1,-1,14,16,-1,-1,18,20,22,24,-1,-1,-1,-1,-1,-1,-1,-1],"split_conditions":[5.8762316E-2,1.4100544E-2,4.728805E-2,9.552853E1,4.81103E-2,1.5892705E-2,2.142285E-3,8.4902643E-4,1.273688E-4,2.2920525E-2,4.7265165E-2,-5.255232E-4,2.1099671E-5,5.2767822E1,5.2767822E1,9.552853E1,5.315401E-2,-1.680199E-6,-5.496169E-4,-3.9713408E-4,9.194093E-5,8.6658273E-4,2.468241E-4,-1.8132264E-4,-6.3562766E-6],"split_indices":[6,0,22,3,0,0,0,0,0,24,24,0,0,21,7,1,12,0,0,0,0,0,0,0,0],"split_type":[0,0,0,0,0,0,0,0,0,0,0,0,0,0,0,0,0,0,0,0,0,0,0,0,0],"sum_hessian":[5.3E1,4.6E1,7E0,3E0,4.3E1,3E0,4E0,2E0,1E0,3.3E1,1E1,2E0,1E0,1.9E1,1.4E1,4E0,6E0,3E0,1.6E1,3E0,1.1E1,2E0,2E0,3E0,3E0],"tree_param":{"num_deleted":"0","num_feature":"30","num_nodes":"25","size_leaf_vector":"1"}},{"base_weights":[8.3851523E-4,-8.6090056E-4,1.0717768E-2,-3.848812E-3,6.5995834E-4,-1.6633209E-3,1.8479086E-2,-5.18229E-3,1.21296944E-4,-4.7367386E-4,8.713802E-3,-4.3046274E-4,6.5199034E-5,5.293403E-4,2.0452158E-3,1.1734478E-4,-5.8667613E-3,-3.7708414E-5,1.0574106E-4,4.3743965E-3,-1.6659551E-3,1.1484772E-3,2.004467E-5,-6.530426E-4,3.8493985E-5,5.790004E-4,-1.3518194E-4,-4.602782E-4,4.029932E-5],"categories":[],"categories_nodes":[],"categories_segments":[],"categories_sizes":[],"default_left":[0,0,0,0,0,0,0,0,0,0,0,0,0,0,0,0,0,0,0,0,0,0,0,0,0,0,0,0,0],"id":20,"left_children":[1,3,5,7,9,11,13,15,17,19,21,-1,-1,-1,-1,-1,23,-1,-1,25,27,-1,-1,-1,-1,-1,-1,-1,-1],"loss_changes":[9.158307E-4,2.1611709E-4,7.9948525E-4,8.533345E-5,2.962906E-4,2.7268365E-5,2.181984E-5,5.908817E-5,2.7314395E-6,1.7491517E-4,9.205891E-5,0E0,0E0,0E0,0E0,0E0,4.815316E-5,0E0,0E0,5.646346E-5,1.4768231E-4,0E0,0E0,0E0,0E0,0E0,0E0,0E0,0E0],"parents":[2147483647,0,0,1,1,2,2,3,3,4,4,5,5,6,6,7,7,8,8,9,9,10,10,16,16,19,19,20,20],"right_children":[2,4,6,8,10,12,14,16,18,20,22,-1,-1,-1,-1,-1,24,-1,-1,26,28,-1,-1,-1,-1,-1,-1,-1,-1],"split_conditions":[1.019563E2,1.858556E-2,8.5918945E1,4.5797188E-2,5.8762316E-2,5.2749138E1,1.4428336E-2,5.1095394E1,5.288417E1,2.1047711E-2,2.0318268E-2,-4.3046274E-4,6.5199034E-5,5.293403E-4,2.0452158E-3,1.1734478E-4,9.705083E1,-3.7708414E-5,1.0574106E-4,2.8465046E-2,9.297631E1,1.1484772E-3,2.004467E-5,-6.530426E-4,3.8493985E-5,5.790004E-4,-1.3518194E-4,-4.602782E-4,4.029932E-5],"split_indices":[21,22,1,16,6,1,2,15,1,22,0,0,0,0,0,0,1,0,0,4,1,0,0,0,0,0,0,0,0],"split_type":[0,0,0,0,0,0,0,0,0,0,0,0,0,0,0,0,0,0,0,0,0,0,0,0,0,0,0,0,0],"sum_hessian":[5.3E1,4.6E1,7E0,1.5E1,3.1E1,3E0,4E0,1.1E1,4E0,2.8E1,3E0,1E0,2E0,1E0,3E0,1E0,1E1,3E0,1E0,5E0,2.3E1,2E0,1E0,9E0,1E0,4E0,1E0,9E0,1.4E1],"tree_param":{"num_deleted":"0","num_feature":"30","num_nodes":"29","size_leaf_vector":"1"}},{"base_weights":[8.097097E-4,-7.585724E-4,9.922153E-3,-1.8187613E-3,2.876479E-3,-1.5883052E-3,1.714609E-2,3.4219567E-3,-2.5576956E-3,-5.734381E-5,1.0719121E-3,-4.089396E-4,6.0852366E-5,5.028732E-4,1.8918246E-3,-3.9521666E-4,6.098478E-4,-4.157181E-3,2.228344E-4,-2.8439154E-4,1.145093E-3,1.1147764E-4,-1.7076013E-4,2.7379618E-4,-4.6388363E-4,1.0108604E-4,-5.9702517E-5,1.7720439E-4,-2.8152266E-5],"categories":[],"categories_nodes":[],"categories_segments":[],"categories_sizes":[],"default_left":[0,0,0,0,0,0,0,0,0,0,0,0,0,0,0,0,0,0,0,0,0,0,0,0,0,0,0,0,0],"id":21,"left_children":[1,3,5,7,9,11,13,15,17,19,-1,-1,-1,-1,-1,21,-1,23,25,-1,27,-1,-1,-1,-1,-1,-1,-1,-1],"loss_changes":[7.7923434E-4,1.8636217E-4,6.924399E-4,1.520365E-4,2.5371282E-4,2.4466368E-5,1.2234319E-5,5.3493946E-5,1.4769114E-4,3.341263E-5,0E0,0E0,0E0,0E0,0E0,7.848668E-6,0E0,8.244367E-5,9.002428E-6,0E0,6.7597975E-6,0E0,0E0,0E0,0E0,0E0,0E0,0E0,0E0],"parents":[2147483647,0,0,1,1,2,2,3,3,4,4,5,5,6,6,7,7,8,8,9,9,15,15,17,17,18,18,20,20],"right_children":[2,4,6,8,10,12,14,16,18,20,-1,-1,-1,-1,-1,22,-1,24,26,-1,28,-1,-1,-1,-1,-1,-1,-1,-1],"split_conditions":[1.019563E2,5.2186012E-2,8.5918945E1,5.2767822E1,5.8762316E-2,5.2749138E1,1.4428336E-2,5.274301E1,2.7351765E-2,9.092327E1,1.0719121E-3,-4.089396E-4,6.0852366E-5,5.028732E-4,1.8918246E-3,2.8465046E-2,6.098478E-4,1.3580991E-2,5.093459E-2,-2.8439154E-4,4.7265165E-2,1.1147764E-4,-1.7076013E-4,2.7379618E-4,-4.6388363E-4,1.0108604E-4,-5.9702517E-5,1.7720439E-4,-2.8152266E-5],"split_indices":[21,22,1,17,6,1,2,1,16,1,0,0,0,0,0,0,0,4,24,0,16,0,0,0,0,0,0,0,0],"split_type":[0,0,0,0,0,0,0,0,0,0,0,0,0,0,0,0,0,0,0,0,0,0,0,0,0,0,0,0,0],"sum_hessian":[5.3E1,4.6E1,7E0,3.6E1,1E1,3E0,4E0,4E0,3.2E1,8E0,2E0,1E0,2E0,1E0,3E0,2E0,2E0,2E1,1.2E1,2E0,6E0,1E0,1E0,1E0,1.9E1,6E0,6E0,4E0,2E0],"tree_param":{"num_deleted":"0","num_feature":"30","num_nodes":"29","size_leaf_vector":"1"}},{"base_weights":[7.914251E-4,-6.6921406E-4,9.273753E-3,-4.314357E-3,3.07645E-4,-3.0100613E-3,1.7246053E-3,2.2935383E-4,-5.303405E-3,-1.9064874E-3,2.622119E-3,-4.160265E-4,2.2027456E-5,-5.7649415E-4,-8.055596E-5,9.907375E-5,-3.921956E-3,8.2052354E-4,5.862723E-4,-1.7326283E-4,1.0025406E-4,1.1012517E-4,-4.6024515E-4,1.7186167E-4,-1.5176162E-5],"categories":[],"categories_nodes":[],"categories_segments":[],"categories_sizes":[],"default_left":[0,0,0,0,0,0,0,0,0,0,0,0,0,0,0,0,0,0,0,0,0,0,0,0,0],"id":22,"left_children":[1,3,5,7,9,11,-1,-1,13,15,17,-1,-1,-1,-1,19,21,-1,23,-1,-1,-1,-1,-1,-1],"loss_changes":[6.752456E-4,1.6868446E-4,8.353537E-4,7.751884E-5,1.99732E-4,1.577858E-5,0E0,0E0,1.4039222E-5,8.123147E-5,2.1115047E-4,0E0,0E0,0E0,0E0,1.9940733E-5,3.9251172E-5,0E0,1.279645E-5,0E0,0E0,0E0,0E0,0E0,0E0],"parents":[2147483647,0,0,1,1,2,2,3,3,4,4,5,5,8,8,9,9,10,10,15,15,16,16,18,18],"right_children":[2,4,6,8,10,12,-1,-1,14,16,18,-1,-1,-1,-1,20,22,-1,24,-1,-1,-1,-1,-1,-1],"split_conditions":[5.8762316E-2,5.3050125E1,4.728805E-2,1.4569011E-2,2.1760657E-2,1.5892705E-2,1.7246053E-3,2.2935383E-4,2.1722997E-2,9.338426E1,2.1209491E-2,-4.160265E-4,2.2027456E-5,-5.7649415E-4,-8.055596E-5,1.6213816E-2,1.4027022E-2,8.2052354E-4,4.81103E-2,-1.7326283E-4,1.0025406E-4,1.1012517E-4,-4.6024515E-4,1.7186167E-4,-1.5176162E-5],"split_indices":[6,11,22,2,18,0,0,0,0,9,28,0,0,0,0,10,0,0,24,0,0,0,0,0,0],"split_type":[0,0,0,0,0,0,0,0,0,0,0,0,0,0,0,0,0,0,0,0,0,0,0,0,0],"sum_hessian":[5.3E1,4.6E1,7E0,9E0,3.7E1,3E0,4E0,1E0,8E0,1.9E1,1.8E1,2E0,1E0,7E0,1E0,1E1,9E0,4E0,1.4E1,3E0,7E0,1E0,8E0,5E0,9E0],"tree_param":{"num_deleted":"0","num_feature":"30","num_nodes":"25","size_leaf_vector":"1"}},{"base_weights":[7.3926407E-4,-6.147964E-4,8.601962E-3,-3.1720572E-3,5.662251E-4,-1.4115444E-3,1.4892374E-2,-7.227923E-4,-4.72459E-3,-2.7658054E-4,6.745711E-3,-3.596679E-4,5.1572668E-5,4.367035E-4,1.643195E-3,-2.7856608E-3,1.5207743E-3,-5.5973954E-4,-1.11318135E-4,-4.197774E-4,6.755691E-4,8.854774E-4,2.0926074E-5,-2.2350812E-6,-3.699314E-4,-4.1181224E-6,2.0551533E-4,2.1754538E-5,5.8340695E-4],"categories":[],"categories_nodes":[],"categories_segments":[],"categories_sizes":[],"default_left":[0,0,0,0,0,0,0,0,0,0,0,0,0,0,0,0,0,0,0,0,0,0,0,0,0,0,0,0,0],"id":23,"left_children":[1,3,5,7,9,11,13,15,17,19,21,-1,-1,-1,-1,23,25,-1,-1,-1,27,-1,-1,-1,-1,-1,-1,-1,-1],"loss_changes":[5.8020314E-4,1.4374456E-4,5.2493386E-4,5.3623575E-5,1.7373322E-4,1.8700288E-5,9.263866E-6,3.6633643E-5,2.2137596E-5,1.1484278E-4,5.3290176E-5,0E0,0E0,0E0,0E0,1.0016145E-5,3.423338E-6,0E0,0E0,0E0,5.7798705E-5,0E0,0E0,0E0,0E0,0E0,0E0,0E0,0E0],"parents":[2147483647,0,0,1,1,2,2,3,3,4,4,5,5,6,6,7,7,8,8,9,9,10,10,15,15,16,16,20,20],"right_children":[2,4,6,8,10,12,14,16,18,20,22,-1,-1,-1,-1,24,26,-1,-1,-1,28,-1,-1,-1,-1,-1,-1,-1,-1],"split_conditions":[1.019563E2,1.6305327E-2,8.5918945E1,1.5623049E-2,1.0440015E-1,5.2749138E1,1.4428336E-2,1.6109051E-2,2.1182442E-2,1.4469396E-2,2.0318268E-2,-3.596679E-4,5.1572668E-5,4.367035E-4,1.643195E-3,1.4469396E-2,1.8774798E-2,-5.5973954E-4,-1.11318135E-4,-4.197774E-4,1.469479E-1,8.854774E-4,2.0926074E-5,-2.2350812E-6,-3.699314E-4,-4.1181224E-6,2.0551533E-4,2.1754538E-5,5.8340695E-4],"split_indices":[21,18,1,2,6,1,2,0,4,12,0,0,0,0,0,0,0,0,0,0,0,0,0,0,0,0,0,0,0],"split_type":[0,0,0,0,0,0,0,0,0,0,0,0,0,0,0,0,0,0,0,0,0,0,0,0,0,0,0,0,0],"sum_hessian":[5.3E1,4.6E1,7E0,1.4E1,3.2E1,3E0,4E0,6E0,8E0,2.9E1,3E0,1E0,2E0,1E0,3E0,3E0,3E0,6E0,2E0,5E0,2.4E1,2E0,1E0,1E0,2E0,1E0,2E0,2.3E1,1E0],"tree_param":{"num_deleted":"0","num_feature":"30","num_nodes":"29","size_leaf_vector":"1"}},{"base_weights":[7.0277735E-4,-5.5431714E-4,8.000361E-3,-3.6375774E-3,2.716544E-4,-2.5679066E-3,1.4854902E-3,2.0761024E-4,-4.5031086E-3,-1.6221651E-3,2.250851E-3,-3.5564078E-4,1.9879826E-5,-5.5252435E-4,-1.8441291E-4,-1.4941796E-4,-3.8126085E-3,7.0118037E-4,5.138099E-4,-1.03178005E-4,1.4687174E-4,-4.4460033E-4,-1.2749496E-4,1.5522986E-4,-1.6066433E-5],"categories":[],"categories_nodes":[],"categories_segments":[],"categories_sizes":[],"default_left":[0,0,0,0,0,0,0,0,0,0,0,0,0,0,0,0,0,0,0,0,0,0,0,0,0],"id":24,"left_children":[1,3,5,7,9,11,-1,-1,13,15,17,-1,-1,-1,-1,19,21,-1,23,-1,-1,-1,-1,-1,-1],"loss_changes":[4.998173E-4,1.2068237E-4,6.1767094E-4,5.8802616E-5,1.4608442E-4,1.1646573E-5,0E0,0E0,1.4271252E-5,6.3949716E-5,1.535267E-4,0E0,0E0,0E0,0E0,2.0076548E-5,7.190283E-6,0E0,1.0755908E-5,0E0,0E0,0E0,0E0,0E0,0E0],"parents":[2147483647,0,0,1,1,2,2,3,3,4,4,5,5,8,8,9,9,10,10,15,15,16,16,18,18],"right_children":[2,4,6,8,10,12,-1,-1,14,16,18,-1,-1,-1,-1,20,22,-1,24,-1,-1,-1,-1,-1,-1],"split_conditions":[5.8762316E-2,5.3050125E1,4.728805E-2,1.4569011E-2,2.1760657E-2,1.5892705E-2,1.4854902E-3,2.0761024E-4,2.1182442E-2,9.4018875E1,2.1209491E-2,-3.5564078E-4,1.9879826E-5,-5.5252435E-4,-1.8441291E-4,2.1182442E-2,2.2920525E-2,7.0118037E-4,4.81103E-2,-1.03178005E-4,1.4687174E-4,-4.4460033E-4,-1.2749496E-4,1.5522986E-4,-1.6066433E-5],"split_indices":[6,11,22,2,18,0,0,0,20,11,28,0,0,0,0,14,12,0,24,0,0,0,0,0,0],"split_type":[0,0,0,0,0,0,0,0,0,0,0,0,0,0,0,0,0,0,0,0,0,0,0,0,0],"sum_hessian":[5.3E1,4.6E1,7E0,9E0,3.7E1,3E0,4E0,1E0,8E0,1.9E1,1.8E1,2E0,1E0,5E0,3E0,1.2E1,7E0,4E0,1.4E1,8E0,4E0,5E0,2E0,5E0,9E0],"tree_param":{"num_deleted":"0","num_feature":"30","num_nodes":"25","size_leaf_vector":"1"}},{"base_weights":[6.4976496E-4,-5.246517E-4,7.468242E-3,-2.5896397E-3,5.242377E-4,-1.2440735E-3,1.2944447E-2,-3.4672772E-3,3.461763E-5,-1.8705164E-4,5.550026E-3,-3.1405833E-4,4.3495744E-5,3.7980938E-4,1.4281512E-3,-4.8671445E-4,-1.2562192E-3,3.852481E-5,-6.839522E-5,4.776047E-4,-7.315792E-4,7.274129E-4,1.8885918E-5,8.9853755E-5,-2.5582322E-4,-3.980058E-4,6.419566E-7],"categories":[],"categories_nodes":[],"categories_segments":[],"categories_sizes":[],"default_left":[0,0,0,0,0,0,0,0,0,0,0,0,0,0,0,0,0,0,0,0,0,0,0,0,0,0,0],"id":25,"left_children":[1,3,5,7,9,11,13,15,17,19,21,-1,-1,-1,-1,-1,23,-1,-1,-1,25,-1,-1,-1,-1,-1,-1],"loss_changes":[4.3633583E-4,1.0315696E-4,3.9778717E-4,3.697037E-5,1.1543141E-4,1.4103214E-5,6.903836E-6,3.1028045E-5,1.5232536E-6,8.186783E-5,3.559902E-5,0E0,0E0,0E0,0E0,0E0,1.9131792E-5,0E0,0E0,0E0,6.475462E-5,0E0,0E0,0E0,0E0,0E0,0E0],"parents":[2147483647,0,0,1,1,2,2,3,3,4,4,5,5,6,6,7,7,8,8,9,9,10,10,16,16,20,20],"right_children":[2,4,6,8,10,12,14,16,18,20,22,-1,-1,-1,-1,-1,24,-1,-1,-1,26,-1,-1,-1,-1,-1,-1],"split_conditions":[1.019563E2,1.858556E-2,8.5918945E1,4.5797188E-2,5.8762316E-2,5.2749138E1,1.4428336E-2,1.5922727E-2,2.2920525E-2,5.2767822E1,2.0318268E-2,-3.1405833E-4,4.3495744E-5,3.7980938E-4,1.4281512E-3,-4.8671445E-4,1.5623049E-2,3.852481E-5,-6.839522E-5,4.776047E-4,5.288417E1,7.274129E-4,1.8885918E-5,8.9853755E-5,-2.5582322E-4,-3.980058E-4,6.419566E-7],"split_indices":[21,22,1,16,6,1,2,18,0,17,0,0,0,0,0,0,6,0,0,0,11,0,0,0,0,0,0],"split_type":[0,0,0,0,0,0,0,0,0,0,0,0,0,0,0,0,0,0,0,0,0,0,0,0,0,0,0],"sum_hessian":[5.3E1,4.6E1,7E0,1.5E1,3.1E1,3E0,4E0,1.1E1,4E0,2.8E1,3E0,1E0,2E0,1E0,3E0,6E0,5E0,3E0,1E0,2E0,2.6E1,2E0,1E0,2E0,3E0,4E0,2.2E1],"tree_param":{"num_deleted":"0","num_feature":"30","num_nodes":"27","size_leaf_vector":"1"}},{"base_weights":[6.1592506E-4,-4.6912278E-4,6.9135907E-3,-2.4939121E-3,4.6545186E-4,-1.1873071E-3,1.201159E-2,-5.1197514E-4,-3.7583173E-3,-3.3763987E-3,1.2720822E-3,-2.983554E-4,4.059598E-5,1.4551277E-3,5.468041E-4,-2.1135123E-3,1.2175557E-3,-4.419619E-4,-9.625076E-5,-8.962695E-5,-3.6931707E-4,4.995623E-4,4.7257617E-3,1.1092983E-6,-2.8254118E-4,-6.795861E-7,1.6279383E-4,9.0589265E-6,4.952971E-4,6.789185E-4,1.08708446E-4],"categories":[],"categories_nodes":[],"categories_segments":[],"categories_sizes":[],"default_left":[0,0,0,0,0,0,0,0,0,0,0,0,0,0,0,0,0,0,0,0,0,0,0,0,0,0,0,0,0,0,0],"id":26,"left_children":[1,3,5,7,9,11,13,15,17,19,21,-1,-1,-1,-1,23,25,-1,-1,-1,-1,27,29,-1,-1,-1,-1,-1,-1,-1,-1],"loss_changes":[3.7223983E-4,9.009968E-5,3.4464846E-4,3.5665413E-5,1.0656053E-4,1.2658804E-5,3.5258709E-6,2.1962675E-5,1.2385935E-5,1.4037287E-6,7.2344206E-5,0E0,0E0,0E0,0E0,6.081362E-6,2.020874E-6,0E0,0E0,0E0,0E0,4.326309E-5,3.0160227E-5,0E0,0E0,0E0,0E0,0E0,0E0,0E0,0E0],"parents":[2147483647,0,0,1,1,2,2,3,3,4,4,5,5,6,6,7,7,8,8,9,9,10,10,15,15,16,16,21,21,22,22],"right_children":[2,4,6,8,10,12,14,16,18,20,22,-1,-1,-1,-1,24,26,-1,-1,-1,-1,28,30,-1,-1,-1,-1,-1,-1,-1,-1],"split_conditions":[1.019563E2,1.6305327E-2,8.5918945E1,1.5623049E-2,1.4469396E-2,5.2749138E1,8.9965256E1,1.6109051E-2,2.1182442E-2,1.858556E-2,5.2186012E-2,-2.983554E-4,4.059598E-5,1.4551277E-3,5.468041E-4,1.4469396E-2,1.8774798E-2,-4.419619E-4,-9.625076E-5,-8.962695E-5,-3.6931707E-4,1.469479E-1,2.0318268E-2,1.1092983E-6,-2.8254118E-4,-6.795861E-7,1.6279383E-4,9.0589265E-6,4.952971E-4,6.789185E-4,1.08708446E-4],"split_indices":[21,18,1,2,12,1,1,0,4,4,6,0,0,0,0,0,0,0,0,0,0,0,0,0,0,0,0,0,0,0,0],"split_type":[0,0,0,0,0,0,0,0,0,0,0,0,0,0,0,0,0,0,0,0,0,0,0,0,0,0,0,0,0,0,0],"sum_hessian":[5.3E1,4.6E1,7E0,1.4E1,3.2E1,3E0,4E0,6E0,8E0,5E0,2.7E1,1E0,2E0,2E0,2E0,3E0,3E0,6E0,2E0,1E0,4E0,2.3E1,4E0,1E0,2E0,1E0,2E0,2.2E1,1E0,2E0,2E0],"tree_param":{"num_deleted":"0","num_feature":"30","num_nodes":"31","size_leaf_vector":"1"}},{"base_weights":[5.898821E-4,-4.2012052E-4,6.449912E-3,9.316498E-4,-1.6469444E-3,-2.0385005E-3,1.195066E-3,6.0171954E-4,1.60779E-4,-3.7317341E-3,-4.4635317E-4,-2.8013752E-4,1.2506172E-5,-1.5072349E-3,1.3031902E-3,-1.8942471E-3,-5.555031E-4,-1.35077E-3,1.0386381E-3,1.6520974E-4,-2.1086636E-4,2.1915222E-4,-9.845073E-6,1.0537915E-6,-2.2773117E-4,-1.9075976E-4,7.699691E-5,1.4986812E-4,-7.4313334E-6],"categories":[],"categories_nodes":[],"categories_segments":[],"categories_sizes":[],"default_left":[0,0,0,0,0,0,0,0,0,0,0,0,0,0,0,0,0,0,0,0,0,0,0,0,0,0,0,0,0],"id":27,"left_children":[1,3,5,7,9,11,-1,-1,13,15,17,-1,-1,19,21,23,-1,25,27,-1,-1,-1,-1,-1,-1,-1,-1,-1,-1],"loss_changes":[3.2231657E-4,7.947843E-5,3.979024E-4,8.919943E-5,6.0908846E-5,6.9524503E-6,0E0,0E0,4.1980926E-5,1.9629952E-5,2.423483E-5,0E0,0E0,2.0584735E-5,1.6402351E-5,4.4019307E-6,0E0,1.4458532E-5,3.695412E-6,0E0,0E0,0E0,0E0,0E0,0E0,0E0,0E0,0E0,0E0],"parents":[2147483647,0,0,1,1,2,2,3,3,4,4,5,5,8,8,9,9,10,10,13,13,14,14,15,15,17,17,18,18],"right_children":[2,4,6,8,10,12,-1,-1,14,16,18,-1,-1,20,22,24,-1,26,28,-1,-1,-1,-1,-1,-1,-1,-1,-1,-1],"split_conditions":[5.8762316E-2,9.307296E1,4.728805E-2,1.4569011E-2,2.0269345E-2,1.5892705E-2,1.195066E-3,6.0171954E-4,5.3235924E1,2.0318268E-2,4.728805E-2,-2.8013752E-4,1.2506172E-5,1.4569011E-2,4.81103E-2,5.288417E1,-5.555031E-4,5.2186012E-2,5.315401E-2,1.6520974E-4,-2.1086636E-4,2.1915222E-4,-9.845073E-6,1.0537915E-6,-2.2773117E-4,-1.9075976E-4,7.699691E-5,1.4986812E-4,-7.4313334E-6],"split_indices":[6,27,22,10,28,0,0,0,11,14,14,0,0,2,12,1,0,22,26,0,0,0,0,0,0,0,0,0,0],"split_type":[0,0,0,0,0,0,0,0,0,0,0,0,0,0,0,0,0,0,0,0,0,0,0,0,0,0,0,0,0],"sum_hessian":[5.3E1,4.6E1,7E0,2.2E1,2.4E1,3E0,4E0,2E0,2E1,8E0,1.6E1,2E0,1E0,8E0,1.2E1,5E0,3E0,1E1,6E0,1E0,7E0,7E0,5E0,1E0,4E0,8E0,2E0,4E0,2E0],"tree_param":{"num_deleted":"0","num_feature":"30","num_nodes":"29","size_leaf_vector":"1"}},{"base_weights":[5.4828794E-4,-4.0678596E-4,6.090811E-3,-2.0887812E-3,4.4692372E-4,-1.0291457E-3,1.0568614E-2,-2.7795436E-3,-1.3194979E-6,-8.812566E-5,4.214301E-3,-2.5566254E-4,3.3222266E-5,1.2784477E-3,4.8298814E-4,7.655621E-5,-3.1714225E-3,2.7041258E-3,-7.825166E-4,5.5398623E-4,1.1880882E-5,-3.5414007E-4,2.6417896E-5,3.5261773E-4,-7.030657E-5,-3.0953292E-4,-1.0969705E-6],"categories":[],"categories_nodes":[],"categories_segments":[],"categories_sizes":[],"default_left":[0,0,0,0,0,0,0,0,0,0,0,0,0,0,0,0,0,0,0,0,0,0,0,0,0,0,0],"id":28,"left_children":[1,3,5,7,9,11,13,15,-1,17,19,-1,-1,-1,-1,-1,21,23,25,-1,-1,-1,-1,-1,-1,-1,-1],"loss_changes":[2.883277E-4,6.8422494E-5,2.659308E-4,2.2903114E-5,6.487484E-5,9.167219E-6,1.8336577E-6,1.909896E-5,0E0,5.8344536E-5,2.1057116E-5,0E0,0E0,0E0,0E0,0E0,1.4917634E-5,1.928446E-5,4.2792686E-5,0E0,0E0,0E0,0E0,0E0,0E0,0E0,0E0],"parents":[2147483647,0,0,1,1,2,2,3,3,4,4,5,5,6,6,7,7,9,9,10,10,16,16,17,17,18,18],"right_children":[2,4,6,8,10,12,14,16,-1,18,20,-1,-1,-1,-1,-1,22,24,26,-1,-1,-1,-1,-1,-1,-1,-1],"split_conditions":[1.019563E2,1.858556E-2,8.5918945E1,4.5797188E-2,5.8762316E-2,5.2749138E1,8.9965256E1,5.1095394E1,-1.3194979E-6,2.1047711E-2,2.0318268E-2,-2.5566254E-4,3.3222266E-5,1.2784477E-3,4.8298814E-4,7.655621E-5,9.705083E1,2.8465046E-2,8.083354E1,5.5398623E-4,1.1880882E-5,-3.5414007E-4,2.6417896E-5,3.5261773E-4,-7.030657E-5,-3.0953292E-4,-1.0969705E-6],"split_indices":[21,22,1,16,6,1,1,15,0,22,0,0,0,0,0,0,1,4,1,0,0,0,0,0,0,0,0],"split_type":[0,0,0,0,0,0,0,0,0,0,0,0,0,0,0,0,0,0,0,0,0,0,0,0,0,0,0],"sum_hessian":[5.3E1,4.6E1,7E0,1.5E1,3.1E1,3E0,4E0,1.1E1,4E0,2.8E1,3E0,1E0,2E0,2E0,2E0,1E0,1E1,5E0,2.3E1,2E0,1E0,9E0,1E0,4E0,1E0,5E0,1.8E1],"tree_param":{"num_deleted":"0","num_feature":"30","num_nodes":"27","size_leaf_vector":"1"}},{"base_weights":[5.272375E-4,-3.600428E-4,5.674104E-3,-3.0655994E-3,1.1066302E-4,-9.81841E-4,9.86404E-3,-4.925564E-4,-1.3365004E-4,-1.575548E-3,9.4981625E-4,-2.4287938E-4,3.1007454E-5,1.1932179E-3,4.5078868E-4,-2.487783E-3,5.5395998E-5,4.012792E-3,2.7212067E-4,-2.8614982E-4,2.5096908E-5,5.0207193E-5,-1.0889918E-4,4.7149416E-4,6.0209633E-5,-1.4369485E-4,9.216408E-5],"categories":[],"categories_nodes":[],"categories_segments":[],"categories_sizes":[],"default_left":[0,0,0,0,0,0,0,0,0,0,0,0,0,0,0,0,0,0,0,0,0,0,0,0,0,0,0],"id":29,"left_children":[1,3,5,7,9,11,13,-1,-1,15,17,-1,-1,-1,-1,19,21,23,25,-1,-1,-1,-1,-1,-1,-1,-1],"loss_changes":[2.4864546E-4,6.0194747E-5,2.3278876E-4,1.5929421E-5,5.951104E-5,8.2304705E-6,1.5974219E-6,0E0,0E0,2.0967076E-5,5.7029458E-5,0E0,0E0,0E0,0E0,9.929761E-6,3.6137749E-6,9.135241E-6,2.7966147E-5,0E0,0E0,0E0,0E0,0E0,0E0,0E0,0E0],"parents":[2147483647,0,0,1,1,2,2,3,3,4,4,5,5,6,6,9,9,10,10,15,15,16,16,17,17,18,18],"right_children":[2,4,6,8,10,12,14,-1,-1,16,18,-1,-1,-1,-1,20,22,24,26,-1,-1,-1,-1,-1,-1,-1,-1],"split_conditions":[1.019563E2,1.4469396E-2,8.5918945E1,9.552853E1,1.858556E-2,5.2749138E1,8.9965256E1,-4.925564E-4,-1.3365004E-4,2.0269345E-2,1.56167215E-2,-2.4287938E-4,3.1007454E-5,1.1932179E-3,4.5078868E-4,9.51115E1,2.8465046E-2,3.8548693E-2,2.1182442E-2,-2.8614982E-4,2.5096908E-5,5.0207193E-5,-1.0889918E-4,4.7149416E-4,6.0209633E-5,-1.4369485E-4,9.216408E-5],"split_indices":[21,10,1,27,22,1,1,0,0,16,26,0,0,0,0,1,0,2,26,0,0,0,0,0,0,0,0],"split_type":[0,0,0,0,0,0,0,0,0,0,0,0,0,0,0,0,0,0,0,0,0,0,0,0,0,0,0],"sum_hessian":[5.3E1,4.6E1,7E0,6E0,4E1,3E0,4E0,2E0,4E0,1.3E1,2.7E1,1E0,2E0,2E0,2E0,8E0,5E0,4E0,2.3E1,7E0,1E0,4E0,1E0,3E0,1E0,6E0,1.7E1],"tree_param":{"num_deleted":"0","num_feature":"30","num_nodes":"27","size_leaf_vector":"1"}},{"base_weights":[4.924092E-4,-3.3394832E-4,5.2857087E-3,-2.8484974E-3,1.0351001E-4,-9.366248E-4,9.206434E-3,-4.5971936E-4,-1.2295802E-4,-1.5347645E-3,8.3433965E-4,-2.307354E-4,2.894029E-5,2.7583205E-4,1.0128882E-3,1.3471022E-4,-1.8871786E-3,1.9442901E-3,-4.9377093E-4,-2.6168124E-4,2.262923E-5,4.0850377E-5,3.4290136E-4,-1.4395479E-4,3.9550523E-5],"categories":[],"categories_nodes":[],"categories_segments":[],"categories_sizes":[],"default_left":[0,0,0,0,0,0,0,0,0,0,0,0,0,0,0,0,0,0,0,0,0,0,0,0,0],"id":30,"left_children":[1,3,5,7,9,11,13,-1,-1,15,17,-1,-1,-1,-1,-1,19,21,23,-1,-1,-1,-1,-1,-1],"loss_changes":[2.1565802E-4,5.1995336E-5,2.0379147E-4,1.41643395E-5,5.03698E-5,7.389963E-6,1.8015562E-6,0E0,0E0,1.5745154E-5,4.3710006E-5,0E0,0E0,0E0,0E0,0E0,1.9096886E-5,3.508273E-5,1.2344145E-5,0E0,0E0,0E0,0E0,0E0,0E0],"parents":[2147483647,0,0,1,1,2,2,3,3,4,4,5,5,6,6,9,9,10,10,16,16,17,17,18,18],"right_children":[2,4,6,8,10,12,14,-1,-1,16,18,-1,-1,-1,-1,-1,20,22,24,-1,-1,-1,-1,-1,-1],"split_conditions":[1.019563E2,1.4469396E-2,8.5918945E1,9.552853E1,1.6305327E-2,5.2749138E1,1.4428336E-2,-4.5971936E-4,-1.2295802E-4,1.4100544E-2,9.4018875E1,-2.307354E-4,2.894029E-5,2.7583205E-4,1.0128882E-3,1.3471022E-4,2.0318268E-2,2.0269345E-2,4.84088E-2,-2.6168124E-4,2.262923E-5,4.0850377E-5,3.4290136E-4,-1.4395479E-4,3.9550523E-5],"split_indices":[21,10,1,27,18,1,2,0,0,16,13,0,0,0,0,0,16,4,10,0,0,0,0,0,0],"split_type":[0,0,0,0,0,0,0,0,0,0,0,0,0,0,0,0,0,0,0,0,0,0,0,0,0],"sum_hessian":[5.3E1,4.6E1,7E0,6E0,4E1,3E0,4E0,2E0,4E0,1.2E1,2.8E1,1E0,2E0,1E0,3E0,1E0,1.1E1,1.5E1,1.3E1,8E0,3E0,8E0,7E0,6E0,7E0],"tree_param":{"num_deleted":"0","num_feature":"30","num_nodes":"25","size_leaf_vector":"1"}},{"base_weights":[4.5574666E-4,-3.185368E-4,4.9476936E-3,7.1516546E-4,-1.2568014E-3,-1.5162274E-3,9.129291E-4,4.5781533E-4,1.2925453E-4,-2.8597377E-3,-3.342585E-4,-2.052544E-4,4.636124E-6,-1.0790811E-3,9.5585187E-4,-1.4135875E-3,-4.3140288E-4,-9.619713E-4,6.998985E-4,1.2797471E-4,-1.533903E-4,1.6675741E-4,-1.52419625E-5,-2.5748275E-6,-1.6860057E-4,-1.3862619E-4,6.315571E-5,1.07398104E-4,-1.5687197E-5],"categories":[],"categories_nodes":[],"categories_segments":[],"categories_sizes":[],"default_left":[0,0,0,0,0,0,0,0,0,0,0,0,0,0,0,0,0,0,0,0,0,0,0,0,0,0,0,0,0],"id":31,"left_children":[1,3,5,7,9,11,-1,-1,13,15,17,-1,-1,19,21,23,-1,25,27,-1,-1,-1,-1,-1,-1,-1,-1,-1,-1],"loss_changes":[1.8939018E-4,4.648347E-5,2.3007824E-4,5.1465686E-5,3.601355E-5,3.4473278E-6,0E0,0E0,2.2006388E-5,1.2829842E-5,1.1708893E-5,0E0,0E0,1.1618628E-5,1.050833E-5,2.2250242E-6,0E0,8.312812E-6,2.411998E-6,0E0,0E0,0E0,0E0,0E0,0E0,0E0,0E0,0E0,0E0],"parents":[2147483647,0,0,1,1,2,2,3,3,4,4,5,5,8,8,9,9,10,10,13,13,14,14,15,15,17,17,18,18],"right_children":[2,4,6,8,10,12,-1,-1,14,16,18,-1,-1,20,22,24,-1,26,28,-1,-1,-1,-1,-1,-1,-1,-1,-1,-1],"split_conditions":[5.8762316E-2,9.307296E1,4.728805E-2,1.4569011E-2,2.0269345E-2,1.5892705E-2,9.129291E-4,4.5781533E-4,5.3235924E1,2.0318268E-2,4.728805E-2,-2.052544E-4,4.636124E-6,1.4569011E-2,4.81103E-2,5.288417E1,-4.3140288E-4,5.2186012E-2,5.315401E-2,1.2797471E-4,-1.533903E-4,1.6675741E-4,-1.52419625E-5,-2.5748275E-6,-1.6860057E-4,-1.3862619E-4,6.315571E-5,1.07398104E-4,-1.5687197E-5],"split_indices":[6,27,22,10,28,0,0,0,11,14,14,0,0,2,12,1,0,22,26,0,0,0,0,0,0,0,0,0,0],"split_type":[0,0,0,0,0,0,0,0,0,0,0,0,0,0,0,0,0,0,0,0,0,0,0,0,0,0,0,0,0],"sum_hessian":[5.3E1,4.6E1,7E0,2.2E1,2.4E1,3E0,4E0,2E0,2E1,8E0,1.6E1,2E0,1E0,8E0,1.2E1,5E0,3E0,1E1,6E0,1E0,7E0,7E0,5E0,1E0,4E0,8E0,2E0,4E0,2E0],"tree_param":{"num_deleted":"0","num_feature":"30","num_nodes":"29","size_leaf_vector":"1"}},{"base_weights":[4.2331766E-4,-3.0156737E-4,4.6291025E-3,-2.4401317E-3,7.0908674E-5,-8.086001E-4,8.053444E-3,-4.0031117E-4,-1.0143176E-4,-1.3024101E-3,7.5503567E-4,-1.9762847E-4,2.3938965E-5,1.1329338E-3,4.4021365E-4,-2.0180326E-3,-1.1908201E-5,3.2389923E-3,2.0608485E-4,-2.2661842E-4,-1.6409904E-6,3.7701877E-5,-9.782715E-5,3.8101227E-4,4.7723577E-5,-1.8251661E-5,2.1947213E-4],"categories":[],"categories_nodes":[],"categories_segments":[],"categories_sizes":[],"default_left":[0,0,0,0,0,0,0,0,0,0,0,0,0,0,0,0,0,0,0,0,0,0,0,0,0,0,0],"id":32,"left_children":[1,3,5,7,9,11,13,-1,-1,15,17,-1,-1,-1,-1,19,21,23,25,-1,-1,-1,-1,-1,-1,-1,-1],"loss_changes":[1.6602637E-4,3.761154E-5,1.5547643E-4,1.1539203E-5,3.950387E-5,5.367987E-6,9.9331955E-6,0E0,0E0,1.2905139E-5,3.751245E-5,0E0,0E0,0E0,0E0,4.433168E-6,2.623895E-6,6.068287E-6,1.894746E-5,0E0,0E0,0E0,0E0,0E0,0E0,0E0,0E0],"parents":[2147483647,0,0,1,1,2,2,3,3,4,4,5,5,6,6,9,9,10,10,15,15,16,16,17,17,18,18],"right_children":[2,4,6,8,10,12,14,-1,-1,16,18,-1,-1,-1,-1,20,22,24,26,-1,-1,-1,-1,-1,-1,-1,-1],"split_conditions":[1.019563E2,1.4469396E-2,8.5918945E1,9.552853E1,1.858556E-2,5.2749138E1,8.5918945E1,-4.0031117E-4,-1.0143176E-4,2.0269345E-2,1.56167215E-2,-1.9762847E-4,2.3938965E-5,1.1329338E-3,4.4021365E-4,9.51115E1,2.8465046E-2,3.8548693E-2,1.01043895E-1,-2.2661842E-4,-1.6409904E-6,3.7701877E-5,-9.782715E-5,3.8101227E-4,4.7723577E-5,-1.8251661E-5,2.1947213E-4],"split_indices":[21,10,1,27,22,1,3,0,0,16,26,0,0,0,0,1,0,2,16,0,0,0,0,0,0,0,0],"split_type":[0,0,0,0,0,0,0,0,0,0,0,0,0,0,0,0,0,0,0,0,0,0,0,0,0,0,0],"sum_hessian":[5.3E1,4.6E1,7E0,6E0,4E1,3E0,4E0,2E0,4E0,1.3E1,2.7E1,1E0,2E0,1E0,3E0,8E0,5E0,4E0,2.3E1,7E0,1E0,4E0,1E0,3E0,1E0,2E1,3E0],"tree_param":{"num_deleted":"0","num_feature":"30","num_nodes":"27","size_leaf_vector":"1"}},{"base_weights":[4.039352E-4,-2.748193E-4,4.341126E-3,-1.5630813E-3,2.6372445E-4,-7.7116233E-4,7.5627314E-3,6.500333E-5,-2.2208155E-3,-2.0478161E-4,7.3288026E-4,-1.8774705E-4,2.234305E-5,1.076287E-3,4.071979E-4,-5.3118823E-5,1.2248848E-4,-2.551895E-3,3.794506E-5,2.806384E-4,2.8475136E-3,-4.1957854E-5,-2.7659873E-4,8.869994E-7,3.4015402E-4,5.3167346E-6,3.5328083E-4],"categories":[],"categories_nodes":[],"categories_segments":[],"categories_sizes":[],"default_left":[0,0,0,0,0,0,0,0,0,0,0,0,0,0,0,0,0,0,0,0,0,0,0,0,0,0,0],"id":33,"left_children":[1,3,5,7,9,11,13,15,17,-1,19,-1,-1,-1,-1,-1,-1,21,-1,23,25,-1,-1,-1,-1,-1,-1],"loss_changes":[1.4550186E-4,3.3020136E-5,1.3759031E-4,1.5136215E-5,3.837288E-5,4.8207885E-6,1.2028264E-5,4.108202E-6,9.577263E-6,0E0,2.6934324E-5,0E0,0E0,0E0,0E0,0E0,0E0,2.9480652E-6,0E0,2.1173892E-5,9.38692E-6,0E0,0E0,0E0,0E0,0E0,0E0],"parents":[2147483647,0,0,1,1,2,2,3,3,4,4,5,5,6,6,7,7,8,8,10,10,17,17,19,19,20,20],"right_children":[2,4,6,8,10,12,14,16,18,-1,20,-1,-1,-1,-1,-1,-1,22,-1,24,26,-1,-1,-1,-1,-1,-1],"split_conditions":[1.019563E2,1.6213816E-2,8.5918945E1,1.4569011E-2,1.4469396E-2,5.2749138E1,8.5918945E1,1.8774798E-2,9.705083E1,-2.0478161E-4,5.2186012E-2,-1.8774705E-4,2.234305E-5,1.076287E-3,4.071979E-4,-5.3118823E-5,1.2248848E-4,5.3050125E1,3.794506E-5,1.469479E-1,9.307589E1,-4.1957854E-5,-2.7659873E-4,8.869994E-7,3.4015402E-4,5.3167346E-6,3.5328083E-4],"split_indices":[21,18,1,2,12,1,3,0,1,0,6,0,0,0,0,0,0,1,0,0,1,0,0,0,0,0,0],"split_type":[0,0,0,0,0,0,0,0,0,0,0,0,0,0,0,0,0,0,0,0,0,0,0,0,0,0,0],"sum_hessian":[5.3E1,4.6E1,7E0,1.3E1,3.3E1,3E0,4E0,4E0,9E0,5E0,2.8E1,1E0,2E0,1E0,3E0,3E0,1E0,8E0,1E0,2.4E1,4E0,1E0,7E0,2.3E1,1E0,1E0,3E0],"tree_param":{"num_deleted":"0","num_feature":"30","num_nodes":"27","size_leaf_vector":"1"}},{"base_weights":[3.9320273E-4,-2.4865122E-4,4.1149445E-3,-2.6183706E-3,3.268013E-5,-1.1778718E-3,7.5262086E-4,-2.960072E-4,-6.257826E-5,-7.2820537E-4,9.441087E-4,-1.6041686E-4,5.0509348E-6,6.723353E-5,-1.3011784E-3,3.5243438E-4,7.877848E-5,-1.2593107E-4,7.221015E-5,-1.7145475E-4,1.6088132E-5,8.40576E-5,-2.45202E-5],"categories":[],"categories_nodes":[],"categories_segments":[],"categories_sizes":[],"default_left":[0,0,0,0,0,0,0,0,0,0,0,0,0,0,0,0,0,0,0,0,0,0,0],"id":34,"left_children":[1,3,5,7,9,11,-1,-1,-1,13,15,-1,-1,17,19,-1,21,-1,-1,-1,-1,-1,-1],"loss_changes":[1.3001917E-4,3.1419353E-5,1.5330645E-4,1.5519909E-6,3.0507692E-5,2.175645E-6,0E0,0E0,0E0,1.1025844E-5,4.4377462E-5,0E0,0E0,1.0465174E-5,8.737021E-6,0E0,4.1550315E-6,0E0,0E0,0E0,0E0,0E0,0E0],"parents":[2147483647,0,0,1,1,2,2,3,3,4,4,5,5,9,9,10,10,13,13,14,14,16,16],"right_children":[2,4,6,8,10,12,-1,-1,-1,14,16,-1,-1,18,20,-1,22,-1,-1,-1,-1,-1,-1],"split_conditions":[5.8762316E-2,1.4100544E-2,4.728805E-2,6.846765E1,2.1760657E-2,1.5892705E-2,7.5262086E-4,-2.960072E-4,-6.257826E-5,1.858556E-2,2.1209491E-2,-1.6041686E-4,5.0509348E-6,1.4100544E-2,2.2920525E-2,3.5243438E-4,4.728805E-2,-1.2593107E-4,7.221015E-5,-1.7145475E-4,1.6088132E-5,8.40576E-5,-2.45202E-5],"split_indices":[6,8,22,1,18,0,0,0,0,8,28,0,0,22,16,0,24,0,0,0,0,0,0],"split_type":[0,0,0,0,0,0,0,0,0,0,0,0,0,0,0,0,0,0,0,0,0,0,0],"sum_hessian":[5.3E1,4.6E1,7E0,4E0,4.2E1,3E0,4E0,3E0,1E0,2.3E1,1.9E1,2E0,1E0,1E1,1.3E1,4E0,1.5E1,3E0,7E0,1E1,3E0,4E0,1.1E1],"tree_param":{"num_deleted":"0","num_feature":"30","num_nodes":"23","size_leaf_vector":"1"}},{"base_weights":[3.6205893E-4,-2.3740271E-4,3.8386388E-3,-2.026772E-3,7.388968E-5,-6.491358E-4,6.6611306E-3,-3.419957E-4,-7.855065E-5,-1.0065128E-3,6.11452E-4,-1.6355929E-4,2.2488088E-5,9.848416E-4,3.4022052E-4,-1.5598579E-3,-8.742946E-6,2.5558558E-3,1.8089071E-4,-1.7403245E-4,-5.8062374E-6,3.362425E-5,-8.66835E-5,8.753483E-5,3.3844114E-4,-5.1164243E-5,9.1606074E-5],"categories":[],"categories_nodes":[],"categories_segments":[],"categories_sizes":[],"default_left":[0,0,0,0,0,0,0,0,0,0,0,0,0,0,0,0,0,0,0,0,0,0,0,0,0,0,0],"id":35,"left_children":[1,3,5,7,9,11,13,-1,-1,15,17,-1,-1,-1,-1,19,21,23,25,-1,-1,-1,-1,-1,-1,-1,-1],"loss_changes":[1.1345142E-4,2.6329557E-5,1.0565764E-4,9.418789E-6,2.4427563E-5,3.816533E-6,1.8429288E-5,0E0,0E0,7.715917E-6,2.297885E-5,0E0,0E0,0E0,0E0,2.338169E-6,2.0676423E-6,3.999434E-6,1.2687805E-5,0E0,0E0,0E0,0E0,0E0,0E0,0E0,0E0],"parents":[2147483647,0,0,1,1,2,2,3,3,4,4,5,5,6,6,9,9,10,10,15,15,16,16,17,17,18,18],"right_children":[2,4,6,8,10,12,14,-1,-1,16,18,-1,-1,-1,-1,20,22,24,26,-1,-1,-1,-1,-1,-1,-1,-1],"split_conditions":[1.019563E2,1.4469396E-2,8.5918945E1,9.552853E1,1.858556E-2,5.2749138E1,8.5918945E1,-3.419957E-4,-7.855065E-5,2.0269345E-2,1.56167215E-2,-1.6355929E-4,2.2488088E-5,9.848416E-4,3.4022052E-4,9.51115E1,2.8465046E-2,1.8137906E-2,4.84088E-2,-1.7403245E-4,-5.8062374E-6,3.362425E-5,-8.66835E-5,8.753483E-5,3.3844114E-4,-5.1164243E-5,9.1606074E-5],"split_indices":[21,10,1,27,22,1,3,0,0,16,26,0,0,0,0,1,0,0,26,0,0,0,0,0,0,0,0],"split_type":[0,0,0,0,0,0,0,0,0,0,0,0,0,0,0,0,0,0,0,0,0,0,0,0,0,0,0],"sum_hessian":[5.3E1,4.6E1,7E0,6E0,4E1,3E0,4E0,2E0,4E0,1.3E1,2.7E1,1E0,2E0,1E0,3E0,8E0,5E0,4E0,2.3E1,7E0,1E0,4E0,1E0,2E0,2E0,1.2E1,1.1E1],"tree_param":{"num_deleted":"0","num_feature":"30","num_nodes":"27","size_leaf_vector":"1"}},{"base_weights":[3.443151E-4,-1.362266E-4,4.211353E-3,7.1273785E-4,-9.146466E-4,-8.792666E-4,6.9764797E-3,2.897349E-4,3.5771803E-4,-2.097902E-3,-2.7220522E-4,-1.392465E-4,7.356517E-6,9.355992E-4,3.0646447E-4,-6.272448E-5,2.5428858E-4,-1.0329355E-3,-3.1708763E-4,-1.0060808E-4,8.7445456E-5,-1.1534166E-4,2.8203707E-5,-4.16087E-6,-1.2228791E-4,4.485328E-5,-5.800009E-5],"categories":[],"categories_nodes":[],"categories_segments":[],"categories_sizes":[],"default_left":[0,0,0,0,0,0,0,0,0,0,0,0,0,0,0,0,0,0,0,0,0,0,0,0,0,0,0],"id":36,"left_children":[1,3,5,7,9,11,13,15,-1,17,19,-1,-1,-1,-1,21,-1,23,-1,-1,25,-1,-1,-1,-1,-1,-1],"loss_changes":[1.0092045E-4,3.3033597E-5,9.059142E-5,2.8043589E-5,1.919342E-5,1.5694122E-6,8.560251E-6,1.7630671E-5,0E0,7.0088245E-6,4.838876E-6,0E0,0E0,0E0,0E0,7.84588E-6,0E0,1.0788949E-6,0E0,0E0,3.393233E-6,0E0,0E0,0E0,0E0,0E0,0E0],"parents":[2147483647,0,0,1,1,2,2,3,3,4,4,5,5,6,6,7,7,9,9,10,10,15,15,17,17,20,20],"right_children":[2,4,6,8,10,12,14,16,-1,18,20,-1,-1,-1,-1,22,-1,24,-1,-1,26,-1,-1,-1,-1,-1,-1],"split_conditions":[1.0440015E-1,9.307296E1,1.8137906E-2,1.0638742E-1,2.0269345E-2,1.5892705E-2,8.9965256E1,9.301041E1,3.5771803E-4,2.0318268E-2,2.0318268E-2,-1.392465E-4,7.356517E-6,9.355992E-4,3.0646447E-4,5.2767822E1,2.5428858E-4,5.288417E1,-3.1708763E-4,-1.0060808E-4,1.9700862E-2,-1.1534166E-4,2.8203707E-5,-4.16087E-6,-1.2228791E-4,4.485328E-5,-5.800009E-5],"split_indices":[6,27,4,0,28,0,1,27,0,14,22,0,0,0,0,15,0,1,0,0,0,0,0,0,0,0,0],"split_type":[0,0,0,0,0,0,0,0,0,0,0,0,0,0,0,0,0,0,0,0,0,0,0,0,0,0,0],"sum_hessian":[5.3E1,4.8E1,5E0,2.3E1,2.5E1,2E0,3E0,2.1E1,2E0,8E0,1.7E1,1E0,1E0,1E0,2E0,1.9E1,2E0,5E0,3E0,5E0,1.2E1,4E0,1.5E1,1E0,4E0,8E0,4E0],"tree_param":{"num_deleted":"0","num_feature":"30","num_nodes":"27","size_leaf_vector":"1"}},{"base_weights":[3.2984218E-4,-1.2326549E-4,3.9752475E-3,-3.4413775E-4,2.4475818E-3,2.2298144E-4,7.653187E-4,-2.1235428E-4,-1.2411004E-4,3.338702E-4,-1.1288934E-5,-8.3530386E-4,1.6989186E-4,-3.3919234E-4,1.5353374E-3,-1.3228423E-4,6.9886446E-6,-1.18104814E-4,-7.532919E-6,1.855356E-5,2.3733602E-4],"categories":[],"categories_nodes":[],"categories_segments":[],"categories_sizes":[],"default_left":[0,0,0,0,0,0,0,0,0,0,0,0,0,0,0,0,0,0,0,0,0],"id":37,"left_children":[1,3,5,7,9,11,-1,-1,13,-1,-1,15,-1,17,19,-1,-1,-1,-1,-1,-1],"loss_changes":[8.968511E-5,2.866592E-5,8.109711E-5,1.7746292E-5,9.503652E-6,7.666964E-6,0E0,0E0,1.5511321E-5,0E0,0E0,1.4163936E-6,0E0,8.352153E-6,5.21548E-6,0E0,0E0,0E0,0E0,0E0,0E0],"parents":[2147483647,0,0,1,1,2,2,3,3,4,4,5,5,8,8,11,11,13,13,14,14],"right_children":[2,4,6,8,10,12,-1,-1,14,-1,-1,16,-1,18,20,-1,-1,-1,-1,-1,-1],"split_conditions":[1.0440015E-1,1.20552056E-1,1.6753728E-2,1.4100544E-2,8.921496E1,9.307589E1,7.653187E-4,-2.1235428E-4,1.019563E2,3.338702E-4,-1.1288934E-5,1.5892705E-2,1.6989186E-4,1.6109051E-2,8.5918945E1,-1.3228423E-4,6.9886446E-6,-1.18104814E-4,-7.532919E-6,1.855356E-5,2.3733602E-4],"split_indices":[6,0,2,8,1,1,0,0,21,0,0,0,0,10,1,0,0,0,0,0,0],"split_type":[0,0,0,0,0,0,0,0,0,0,0,0,0,0,0,0,0,0,0,0,0],"sum_hessian":[5.3E1,4.8E1,5E0,4.5E1,3E0,3E0,2E0,4E0,4.1E1,2E0,1E0,2E0,1E0,3.7E1,4E0,1E0,1E0,8E0,2.9E1,2E0,2E0],"tree_param":{"num_deleted":"0","num_feature":"30","num_nodes":"21","size_leaf_vector":"1"}},{"base_weights":[3.1630934E-4,-1.8691464E-4,3.2332116E-3,-1.1906892E-3,1.9125633E-4,-5.146705E-4,5.5848747E-3,1.0452494E-4,-1.7779538E-3,-1.4686117E-4,5.1685475E-4,-1.2890925E-4,1.7316763E-5,8.505531E-4,2.728328E-4,-4.0504245E-5,1.0713972E-4,-2.0815192E-4,3.252849E-5,1.0796436E-3,-2.0344995E-4,-6.196299E-5,1.4880329E-4,-4.4690027E-5,8.38168E-5],"categories":[],"categories_nodes":[],"categories_segments":[],"categories_sizes":[],"default_left":[0,0,0,0,0,0,0,0,0,0,0,0,0,0,0,0,0,0,0,0,0,0,0,0,0],"id":38,"left_children":[1,3,5,7,9,11,13,15,17,-1,19,-1,-1,-1,-1,-1,-1,-1,-1,21,23,-1,-1,-1,-1],"loss_changes":[7.9868514E-5,1.8068851E-5,7.338441E-5,1.0074076E-5,1.9674822E-5,2.353937E-6,1.8509076E-5,2.8973943E-6,6.423321E-6,0E0,1.2381036E-5,0E0,0E0,0E0,0E0,0E0,0E0,0E0,0E0,1.2719436E-5,3.9247284E-6,0E0,0E0,0E0,0E0],"parents":[2147483647,0,0,1,1,2,2,3,3,4,4,5,5,6,6,7,7,8,8,10,10,19,19,20,20],"right_children":[2,4,6,8,10,12,14,16,18,-1,20,-1,-1,-1,-1,-1,-1,-1,-1,22,24,-1,-1,-1,-1],"split_conditions":[1.019563E2,1.5922727E-2,8.5918945E1,1.4569011E-2,1.4469396E-2,5.2749138E1,8.5918945E1,1.8774798E-2,9.705083E1,-1.4686117E-4,2.7351765E-2,-1.2890925E-4,1.7316763E-5,8.505531E-4,2.728328E-4,-4.0504245E-5,1.0713972E-4,-2.0815192E-4,3.252849E-5,1.4569011E-2,5.7780758E-2,-6.196299E-5,1.4880329E-4,-4.4690027E-5,8.38168E-5],"split_indices":[21,18,1,2,12,1,3,0,1,0,8,0,0,0,0,0,0,0,0,8,20,0,0,0,0],"split_type":[0,0,0,0,0,0,0,0,0,0,0,0,0,0,0,0,0,0,0,0,0,0,0,0,0],"sum_hessian":[5.3E1,4.6E1,7E0,1.2E1,3.4E1,3E0,4E0,4E0,8E0,5E0,2.9E1,1E0,2E0,1E0,3E0,3E0,1E0,7E0,1E0,1.6E1,1.3E1,3E0,1.3E1,1.1E1,2E0],"tree_param":{"num_deleted":"0","num_feature":"30","num_nodes":"25","size_leaf_vector":"1"}},{"base_weights":[3.0101E-4,2.0511878E-5,5.062641E-3,-1.3448539E-3,3.375618E-4,-4.862901E-5,8.080252E-4,1.0178275E-4,-1.7204661E-3,-3.5266683E-4,1.0124467E-3,-2.1083358E-4,-2.419483E-5,1.3658276E-4,-1.4205706E-4,2.0559856E-3,-2.1799993E-5,-3.708474E-5,1.0441076E-4,2.7403768E-4,5.497627E-5],"categories":[],"categories_nodes":[],"categories_segments":[],"categories_sizes":[],"default_left":[0,0,0,0,0,0,0,0,0,0,0,0,0,0,0,0,0,0,0,0,0],"id":39,"left_children":[1,3,5,7,9,-1,-1,-1,11,13,15,-1,-1,17,-1,19,-1,-1,-1,-1,-1],"loss_changes":[7.2020106E-5,2.2964205E-5,5.4162876E-5,1.0625654E-5,2.0387526E-5,0E0,0E0,0E0,4.6511395E-6,1.1688399E-5,2.869662E-5,0E0,0E0,7.755292E-6,0E0,1.0863587E-5,0E0,0E0,0E0,0E0,0E0],"parents":[2147483647,0,0,1,1,2,2,3,3,4,4,8,8,9,9,10,10,13,13,15,15],"right_children":[2,4,6,8,10,-1,-1,-1,12,14,16,-1,-1,18,-1,20,-1,-1,-1,-1,-1],"split_conditions":[1.0434414E2,5.3050125E1,1.6305327E-2,1.4569011E-2,2.1760657E-2,-4.862901E-5,8.080252E-4,1.0178275E-4,2.1182442E-2,9.583864E1,4.8382524E-2,-2.1083358E-4,-2.419483E-5,9.297631E1,-1.4205706E-4,4.81103E-2,-2.1799993E-5,-3.708474E-5,1.0441076E-4,2.7403768E-4,5.497627E-5],"split_indices":[27,11,0,2,18,0,0,0,20,13,24,0,0,1,0,20,0,0,0,0,0],"split_type":[0,0,0,0,0,0,0,0,0,0,0,0,0,0,0,0,0,0,0,0,0],"sum_hessian":[5.3E1,5.1E1,2E0,9E0,4.2E1,1E0,1E0,1E0,8E0,2.1E1,2.1E1,6E0,2E0,1.5E1,6E0,1.1E1,1E1,1E1,5E0,7E0,4E0],"tree_param":{"num_deleted":"0","num_feature":"30","num_nodes":"21","size_leaf_vector":"1"}},{"base_weights":[2.868095E-4,-1.00803314E-4,3.4045123E-3,5.5644894E-4,-7.0362067E-4,-6.317136E-4,5.580554E-3,2.2618692E-4,2.7928874E-4,-1.6457755E-3,-1.9345319E-4,-1.04720704E-4,9.963662E-6,7.6762366E-4,2.3232475E-4,-2.8777682E-5,1.8505553E-4,-2.3434733E-4,-6.189227E-5,-7.6669756E-5,2.509502E-5,-1.0313555E-4,2.0881578E-5,3.130376E-5,-4.1100135E-5],"categories":[],"categories_nodes":[],"categories_segments":[],"categories_sizes":[],"default_left":[0,0,0,0,0,0,0,0,0,0,0,0,0,0,0,0,0,0,0,0,0,0,0,0,0],"id":40,"left_children":[1,3,5,7,9,11,13,15,-1,17,19,-1,-1,-1,-1,21,-1,-1,-1,-1,23,-1,-1,-1,-1],"loss_changes":[6.560011E-5,1.9805479E-5,5.6223274E-5,1.7094942E-5,1.2178694E-5,1.0159538E-6,9.471332E-6,9.164697E-6,0E0,4.997466E-6,2.2743075E-6,0E0,0E0,0E0,0E0,4.9794817E-6,0E0,0E0,0E0,0E0,1.8866488E-6,0E0,0E0,0E0,0E0],"parents":[2147483647,0,0,1,1,2,2,3,3,4,4,5,5,6,6,7,7,9,9,10,10,15,15,20,20],"right_children":[2,4,6,8,10,12,14,16,-1,18,20,-1,-1,-1,-1,22,-1,-1,-1,-1,24,-1,-1,-1,-1],"split_conditions":[1.0440015E-1,9.307296E1,1.8137906E-2,1.0638742E-1,2.0269345E-2,1.5892705E-2,8.9965256E1,9.301041E1,2.7928874E-4,2.0318268E-2,1.6753728E-2,-1.04720704E-4,9.963662E-6,7.6762366E-4,2.3232475E-4,1.4100544E-2,1.8505553E-4,-2.3434733E-4,-6.189227E-5,-7.6669756E-5,1.9700862E-2,-1.0313555E-4,2.0881578E-5,3.130376E-5,-4.1100135E-5],"split_indices":[6,27,4,0,28,0,1,27,0,8,22,0,0,0,0,18,0,0,0,0,0,0,0,0,0],"split_type":[0,0,0,0,0,0,0,0,0,0,0,0,0,0,0,0,0,0,0,0,0,0,0,0,0],"sum_hessian":[5.3E1,4.8E1,5E0,2.3E1,2.5E1,2E0,3E0,2.1E1,2E0,8E0,1.7E1,1E0,1E0,1E0,2E0,1.9E1,2E0,4E0,4E0,4E0,1.3E1,3E0,1.6E1,8E0,5E0],"tree_param":{"num_deleted":"0","num_feature":"30","num_nodes":"25","size_leaf_vector":"1"}},{"base_weights":[2.7488012E-4,-9.073545E-5,3.2149272E-3,5.167248E-4,-6.4797816E-4,2.3550424E-4,6.1158487E-3,2.0824136E-4,2.6066948E-4,-1.5141139E-3,-1.7891152E-4,-9.948467E-5,9.772368E-5,1.8813461E-4,7.2924275E-4,-3.0012056E-5,1.7271837E-4,-6.980468E-5,-2.359686E-4,-8.180677E-5,3.4575662E-6,-2.9189954E-5,8.140303E-5,2.420206E-5,-5.2207262E-5],"categories":[],"categories_nodes":[],"categories_segments":[],"categories_sizes":[],"default_left":[0,0,0,0,0,0,0,0,0,0,0,0,0,0,0,0,0,0,0,0,0,0,0,0,0],"id":41,"left_children":[1,3,5,7,9,11,13,15,-1,17,19,-1,-1,-1,-1,21,-1,-1,-1,-1,23,-1,-1,-1,-1],"loss_changes":[5.833777E-5,1.6921462E-5,5.0418123E-5,1.4930485E-5,1.0292267E-5,4.622566E-6,1.2270975E-6,8.013487E-6,0E0,4.5632223E-6,2.1009505E-6,0E0,0E0,0E0,0E0,4.658498E-6,0E0,0E0,0E0,0E0,2.0069333E-6,0E0,0E0,0E0,0E0],"parents":[2147483647,0,0,1,1,2,2,3,3,4,4,5,5,6,6,7,7,9,9,10,10,15,15,20,20],"right_children":[2,4,6,8,10,12,14,16,-1,18,20,-1,-1,-1,-1,22,-1,-1,-1,-1,24,-1,-1,-1,-1],"split_conditions":[1.0440015E-1,9.307296E1,1.6753728E-2,1.0638742E-1,2.0269345E-2,1.5892705E-2,1.6753728E-2,9.301041E1,2.6066948E-4,2.0318268E-2,1.4469396E-2,-9.948467E-5,9.772368E-5,1.8813461E-4,7.2924275E-4,5.7780758E-2,1.7271837E-4,-6.980468E-5,-2.359686E-4,-8.180677E-5,1.01043895E-1,-2.9189954E-5,8.140303E-5,2.420206E-5,-5.2207262E-5],"split_indices":[6,27,2,0,28,0,0,27,0,14,12,0,0,0,0,26,0,0,0,0,28,0,0,0,0],"split_type":[0,0,0,0,0,0,0,0,0,0,0,0,0,0,0,0,0,0,0,0,0,0,0,0,0],"sum_hessian":[5.3E1,4.8E1,5E0,2.3E1,2.5E1,3E0,2E0,2.1E1,2E0,8E0,1.7E1,1E0,2E0,1E0,1E0,1.9E1,2E0,5E0,3E0,3E0,1.4E1,1.5E1,4E0,1E1,4E0],"tree_param":{"num_deleted":"0","num_feature":"30","num_nodes":"25","size_leaf_vector":"1"}},{"base_weights":[2.656447E-4,2.620491E-5,4.327386E-3,-1.0860645E-3,2.8426282E-4,-4.367242E-5,6.927803E-4,9.157956E-5,-1.4102485E-3,-2.49696E-4,8.053006E-4,-1.7250793E-4,-2.0556028E-5,1.535744E-4,-1.1357861E-4,1.6721295E-3,-2.1354008E-5,-2.5003303E-5,8.679256E-5,2.2177045E-4,4.6478362E-5],"categories":[],"categories_nodes":[],"categories_segments":[],"categories_sizes":[],"default_left":[0,0,0,0,0,0,0,0,0,0,0,0,0,0,0,0,0,0,0,0,0],"id":42,"left_children":[1,3,5,7,9,-1,-1,-1,11,13,15,-1,-1,17,-1,19,-1,-1,-1,-1,-1],"loss_changes":[5.240389E-5,1.5234282E-5,4.0191564E-5,7.781208E-6,1.2164226E-5,0E0,0E0,0E0,3.058849E-6,8.035772E-6,1.9786597E-5,0E0,0E0,4.830089E-6,0E0,6.8736226E-6,0E0,0E0,0E0,0E0,0E0],"parents":[2147483647,0,0,1,1,2,2,3,3,4,4,8,8,9,9,10,10,13,13,15,15],"right_children":[2,4,6,8,10,-1,-1,-1,12,14,16,-1,-1,18,-1,20,-1,-1,-1,-1,-1],"split_conditions":[1.0434414E2,5.3050125E1,1.6305327E-2,1.4569011E-2,2.1760657E-2,-4.367242E-5,6.927803E-4,9.157956E-5,2.1182442E-2,9.583864E1,4.8382524E-2,-1.7250793E-4,-2.0556028E-5,9.297631E1,-1.1357861E-4,4.81103E-2,-2.1354008E-5,-2.5003303E-5,8.679256E-5,2.2177045E-4,4.6478362E-5],"split_indices":[27,11,0,2,18,0,0,0,20,13,24,0,0,1,0,20,0,0,0,0,0],"split_type":[0,0,0,0,0,0,0,0,0,0,0,0,0,0,0,0,0,0,0,0,0],"sum_hessian":[5.3E1,5.1E1,2E0,9E0,4.2E1,1E0,1E0,1E0,8E0,2.1E1,2.1E1,6E0,2E0,1.5E1,6E0,1.1E1,1E1,1E1,5E0,7E0,4E0],"tree_param":{"num_deleted":"0","num_feature":"30","num_nodes":"21","size_leaf_vector":"1"}},{"base_weights":[2.5283417E-4,-7.787102E-5,2.9114543E-3,4.5535024E-4,-5.670802E-4,-5.3492033E-5,4.7683716E-3,1.8514549E-4,2.2850682E-4,-1.3219896E-3,-1.5812108E-4,6.581411E-4,1.9702215E-4,-1.5968177E-5,1.4641881E-4,-6.042772E-5,-2.0680607E-4,-4.831639E-6,-6.934263E-5,-2.41276E-5,7.082105E-5,1.6856186E-5,-3.85331E-5],"categories":[],"categories_nodes":[],"categories_segments":[],"categories_sizes":[],"default_left":[0,0,0,0,0,0,0,0,0,0,0,0,0,0,0,0,0,0,0,0,0,0,0],"id":43,"left_children":[1,3,5,7,9,-1,11,13,-1,15,17,-1,-1,19,-1,-1,-1,21,-1,-1,-1,-1,-1],"loss_changes":[4.770457E-5,1.30401995E-5,4.0948493E-5,1.1442495E-5,7.81787E-6,0E0,7.3257834E-6,5.682505E-6,0E0,3.5694993E-6,1.4736689E-6,0E0,0E0,3.4341363E-6,0E0,0E0,0E0,1.0545938E-6,0E0,0E0,0E0,0E0,0E0],"parents":[2147483647,0,0,1,1,2,2,3,3,4,4,6,6,7,7,9,9,10,10,13,13,17,17],"right_children":[2,4,6,8,10,-1,12,14,-1,16,18,-1,-1,20,-1,-1,-1,22,-1,-1,-1,-1,-1],"split_conditions":[1.0440015E-1,9.307296E1,1.8137906E-2,1.0638742E-1,2.0269345E-2,-5.3492033E-5,8.9965256E1,9.301041E1,2.2850682E-4,2.0318268E-2,9.8199234E1,6.581411E-4,1.9702215E-4,5.7780758E-2,1.4641881E-4,-6.042772E-5,-2.0680607E-4,1.019563E2,-6.934263E-5,-2.41276E-5,7.082105E-5,1.6856186E-5,-3.85331E-5],"split_indices":[6,27,4,0,28,0,1,27,0,14,9,0,0,26,0,0,0,27,0,0,0,0,0],"split_type":[0,0,0,0,0,0,0,0,0,0,0,0,0,0,0,0,0,0,0,0,0,0,0],"sum_hessian":[5.3E1,4.8E1,5E0,2.3E1,2.5E1,2E0,3E0,2.1E1,2E0,8E0,1.7E1,1E0,2E0,1.9E1,2E0,5E0,3E0,1.4E1,3E0,1.5E1,4E0,1E1,4E0],"tree_param":{"num_deleted":"0","num_feature":"30","num_nodes":"23","size_leaf_vector":"1"}},{"base_weights":[2.4356988E-4,2.7679534E-5,3.9044793E-3,-9.400131E-4,2.5208062E-4,-3.9562212E-5,6.252341E-4,8.345954E-5,-1.2299246E-3,-9.2659314E-4,4.3155332E-4,-1.5001463E-4,-1.8943289E-5,7.236842E-6,-1.14085924E-4,9.2593767E-4,2.991298E-5,-1.3869023E-5,1.16397874E-4,-3.153589E-5,6.735586E-5],"categories":[],"categories_nodes":[],"categories_segments":[],"categories_sizes":[],"default_left":[0,0,0,0,0,0,0,0,0,0,0,0,0,0,0,0,0,0,0,0,0],"id":44,"left_children":[1,3,5,7,9,-1,-1,-1,11,13,15,-1,-1,-1,-1,17,19,-1,-1,-1,-1],"loss_changes":[4.2571097E-5,1.1528826E-5,3.276169E-5,6.1712853E-6,9.496083E-6,0E0,0E0,0E0,2.2462928E-6,1.3668232E-6,7.517762E-6,0E0,0E0,0E0,0E0,4.469658E-6,5.101532E-6,0E0,0E0,0E0,0E0],"parents":[2147483647,0,0,1,1,2,2,3,3,4,4,8,8,9,9,10,10,15,15,16,16],"right_children":[2,4,6,8,10,-1,-1,-1,12,14,16,-1,-1,-1,-1,18,20,-1,-1,-1,-1],"split_conditions":[1.0434414E2,5.3050125E1,1.6305327E-2,1.4569011E-2,1.4428336E-2,-3.9562212E-5,6.252341E-4,8.345954E-5,2.1182442E-2,5.278038E1,2.0318268E-2,-1.5001463E-4,-1.8943289E-5,7.236842E-6,-1.14085924E-4,5.2767822E1,4.9786992E-2,-1.3869023E-5,1.16397874E-4,-3.153589E-5,6.735586E-5],"split_indices":[27,11,0,2,6,0,0,0,20,1,10,0,0,0,0,23,18,0,0,0,0],"split_type":[0,0,0,0,0,0,0,0,0,0,0,0,0,0,0,0,0,0,0,0,0],"sum_hessian":[5.3E1,5.1E1,2E0,9E0,4.2E1,1E0,1E0,1E0,8E0,5E0,3.7E1,6E0,2E0,1E0,4E0,1.6E1,2.1E1,3E0,1.3E1,1.4E1,7E0],"tree_param":{"num_deleted":"0","num_feature":"30","num_nodes":"21","size_leaf_vector":"1"}},{"base_weights":[2.2905857E-4,2.3873075E-5,3.709254E-3,-8.5456204E-4,2.2760512E-4,-3.7584083E-5,5.939722E-4,7.9286474E-5,-1.1257055E-3,-6.378649E-4,4.4365154E-4,-1.3715625E-4,-1.7680415E-5,5.3584204E-6,-1.201741E-4,7.144982E-4,-2.1224098E-5,3.856693E-5,1.6915116E-4],"categories":[],"categories_nodes":[],"categories_segments":[],"categories_sizes":[],"default_left":[0,0,0,0,0,0,0,0,0,0,0,0,0,0,0,0,0,0,0],"id":45,"left_children":[1,3,5,7,9,-1,-1,-1,11,13,15,-1,-1,-1,-1,17,-1,-1,-1],"loss_changes":[3.847207E-5,9.500703E-6,2.9567414E-5,5.359422E-6,8.323203E-6,0E0,0E0,0E0,1.8571482E-6,3.5734192E-6,6.3692655E-6,0E0,0E0,0E0,0E0,7.379391E-6,0E0,0E0,0E0],"parents":[2147483647,0,0,1,1,2,2,3,3,4,4,8,8,9,9,10,10,15,15],"right_children":[2,4,6,8,10,-1,-1,-1,12,14,16,-1,-1,-1,-1,18,-1,-1,-1],"split_conditions":[1.0434414E2,5.3050125E1,1.6305327E-2,1.4569011E-2,1.6213816E-2,-3.7584083E-5,5.939722E-4,7.9286474E-5,2.1182442E-2,9.307589E1,4.84088E-2,-1.3715625E-4,-1.7680415E-5,5.3584204E-6,-1.201741E-4,9.8199234E1,-2.1224098E-5,3.856693E-5,1.6915116E-4],"split_indices":[27,11,0,2,18,0,0,0,20,9,8,0,0,0,0,9,0,0,0],"split_type":[0,0,0,0,0,0,0,0,0,0,0,0,0,0,0,0,0,0,0],"sum_hessian":[5.3E1,5.1E1,2E0,9E0,4.2E1,1E0,1E0,1E0,8E0,8E0,3.4E1,6E0,2E0,4E0,4E0,2.4E1,1E1,1.9E1,5E0],"tree_param":{"num_deleted":"0","num_feature":"30","num_nodes":"19","size_leaf_vector":"1"}},{"base_weights":[2.163842E-4,-6.613181E-5,2.4875342E-3,3.8982718E-4,-4.844735E-4,1.9238354E-4,4.718557E-3,1.5223374E-4,2.0022367E-4,-1.0805856E-3,-1.5950223E-4,-4.352601E-5,1.0376573E-4,1.435101E-4,5.6427345E-4,-2.2033137E-5,1.2632684E-4,-1.5755028E-4,-3.695514E-5,-6.107935E-5,-2.8524424E-5,8.24136E-5,-1.6183727E-5,1.5047497E-5,-4.1661824E-5],"categories":[],"categories_nodes":[],"categories_segments":[],"categories_sizes":[],"default_left":[0,0,0,0,0,0,0,0,0,0,0,0,0,0,0,0,0,0,0,0,0,0,0,0,0],"id":46,"left_children":[1,3,5,7,9,11,13,15,-1,17,19,-1,-1,-1,-1,21,-1,-1,-1,-1,23,-1,-1,-1,-1],"loss_changes":[3.4812863E-5,9.535448E-6,2.9815423E-5,8.889543E-6,4.8643465E-6,2.5737736E-6,1.0055955E-6,4.2873976E-6,0E0,2.5848976E-6,1.0465419E-6,0E0,0E0,0E0,0E0,2.499335E-6,0E0,0E0,0E0,0E0,1.104719E-6,0E0,0E0,0E0,0E0],"parents":[2147483647,0,0,1,1,2,2,3,3,4,4,5,5,6,6,7,7,9,9,10,10,15,15,20,20],"right_children":[2,4,6,8,10,12,14,16,-1,18,20,-1,-1,-1,-1,22,-1,-1,-1,-1,24,-1,-1,-1,-1],"split_conditions":[1.0440015E-1,9.307296E1,1.6753728E-2,1.0638742E-1,2.0269345E-2,9.307589E1,1.6753728E-2,9.301041E1,2.0022367E-4,2.0318268E-2,1.4469396E-2,-4.352601E-5,1.0376573E-4,1.435101E-4,5.6427345E-4,1.4100544E-2,1.2632684E-4,-1.5755028E-4,-3.695514E-5,-6.107935E-5,9.4018875E1,8.24136E-5,-1.6183727E-5,1.5047497E-5,-4.1661824E-5],"split_indices":[6,27,2,0,28,1,0,27,0,8,12,0,0,0,0,20,0,0,0,0,3,0,0,0,0],"split_type":[0,0,0,0,0,0,0,0,0,0,0,0,0,0,0,0,0,0,0,0,0,0,0,0,0],"sum_hessian":[5.3E1,4.8E1,5E0,2.3E1,2.5E1,3E0,2E0,2.1E1,2E0,8E0,1.7E1,2E0,1E0,1E0,1E0,1.9E1,2E0,4E0,4E0,3E0,1.4E1,2E0,1.7E1,1E1,4E0],"tree_param":{"num_deleted":"0","num_feature":"30","num_nodes":"25","size_leaf_vector":"1"}},{"base_weights":[2.1101594E-4,2.5513205E-5,3.3560582E-3,-7.4407103E-4,2.0389295E-4,-3.2650867E-5,5.360596E-4,7.120147E-5,-9.849711E-4,-1.9311934E-4,5.916374E-4,-1.1962343E-4,-1.6370013E-5,1.02874474E-4,-8.420882E-5,1.2392144E-3,-1.6859547E-5,3.372693E-5,-6.846274E-5,1.656917E-4,3.230475E-5],"categories":[],"categories_nodes":[],"categories_segments":[],"categories_sizes":[],"default_left":[0,0,0,0,0,0,0,0,0,0,0,0,0,0,0,0,0,0,0,0,0],"id":47,"left_children":[1,3,5,7,9,-1,-1,-1,11,13,15,-1,-1,17,-1,19,-1,-1,-1,-1,-1],"loss_changes":[3.141873E-5,7.2901794E-6,2.3895813E-5,4.209026E-6,6.7336464E-6,0E0,0E0,0E0,1.3657136E-6,4.3126256E-6,1.10397295E-5,0E0,0E0,3.184285E-6,0E0,4.056961E-6,0E0,0E0,0E0,0E0,0E0],"parents":[2147483647,0,0,1,1,2,2,3,3,4,4,8,8,9,9,10,10,13,13,15,15],"right_children":[2,4,6,8,10,-1,-1,-1,12,14,16,-1,-1,18,-1,20,-1,-1,-1,-1,-1],"split_conditions":[1.0434414E2,5.3050125E1,1.6305327E-2,1.4569011E-2,2.1760657E-2,-3.2650867E-5,5.360596E-4,7.120147E-5,2.146502E-2,9.583864E1,4.8382524E-2,-1.1962343E-4,-1.6370013E-5,2.8465046E-2,-8.420882E-5,4.81103E-2,-1.6859547E-5,3.372693E-5,-6.846274E-5,1.656917E-4,3.230475E-5],"split_indices":[27,11,0,2,18,0,0,0,0,13,24,0,0,0,0,20,0,0,0,0,0],"split_type":[0,0,0,0,0,0,0,0,0,0,0,0,0,0,0,0,0,0,0,0,0],"sum_hessian":[5.3E1,5.1E1,2E0,9E0,4.2E1,1E0,1E0,1E0,8E0,2.1E1,2.1E1,6E0,2E0,1.5E1,6E0,1.1E1,1E1,1.2E1,3E0,7E0,4E0],"tree_param":{"num_deleted":"0","num_feature":"30","num_nodes":"21","size_leaf_vector":"1"}},{"base_weights":[1.9918877E-4,-5.8071935E-5,2.266953E-3,-1.697455E-4,1.2406921E-3,2.1389453E-4,4.2487137E-4,-2.6832908E-4,6.923058E-5,1.7582923E-4,-1.5605428E-5,-3.607478E-5,9.6891075E-5,-9.118483E-4,-6.519207E-5,-1.4080244E-4,-3.4639364E-5,-7.085057E-5,7.4989125E-6],"categories":[],"categories_nodes":[],"categories_segments":[],"categories_sizes":[],"default_left":[0,0,0,0,0,0,0,0,0,0,0,0,0,0,0,0,0,0,0],"id":48,"left_children":[1,3,5,7,9,11,-1,13,-1,-1,-1,-1,-1,15,17,-1,-1,-1,-1],"loss_changes":[2.8857188E-5,7.317445E-6,2.350325E-5,4.0950345E-6,3.1662134E-6,2.0849895E-6,0E0,5.430904E-6,0E0,0E0,0E0,0E0,0E0,2.317919E-6,3.029086E-6,0E0,0E0,0E0,0E0],"parents":[2147483647,0,0,1,1,2,2,3,3,4,4,5,5,7,7,13,13,14,14],"right_children":[2,4,6,8,10,12,-1,14,-1,-1,-1,-1,-1,16,18,-1,-1,-1,-1],"split_conditions":[1.0440015E-1,1.20552056E-1,1.6753728E-2,9.91282E1,8.921496E1,9.307589E1,4.2487137E-4,1.6109051E-2,6.923058E-5,1.7582923E-4,-1.5605428E-5,-3.607478E-5,9.6891075E-5,9.305976E1,1.4362125E-2,-1.4080244E-4,-3.4639364E-5,-7.085057E-5,7.4989125E-6],"split_indices":[6,0,2,1,1,1,0,10,0,0,0,0,0,23,18,0,0,0,0],"split_type":[0,0,0,0,0,0,0,0,0,0,0,0,0,0,0,0,0,0,0],"sum_hessian":[5.3E1,4.8E1,5E0,4.5E1,3E0,3E0,2E0,4.1E1,4E0,2E0,1E0,2E0,1E0,9E0,3.2E1,4E0,5E0,5E0,2.7E1],"tree_param":{"num_deleted":"0","num_feature":"30","num_nodes":"19","size_leaf_vector":"1"}},{"base_weights":[1.8809103E-4,1.6850365E-5,3.0935656E-3,-7.654071E-5,1.1566784E-3,-2.3978204E-5,4.8801303E-4,-4.0160035E-4,2.5158055E-4,1.6410723E-4,-1.4825166E-5,4.8645696E-5,-5.939187E-4,6.191912E-4,-8.148434E-5,3.6128426E-5,-7.731906E-5,-1.58168E-5,1.02764185E-4,-2.7297268E-5,4.6547968E-5],"categories":[],"categories_nodes":[],"categories_segments":[],"categories_sizes":[],"default_left":[0,0,0,0,0,0,0,0,0,0,0,0,0,0,0,0,0,0,0,0,0],"id":49,"left_children":[1,3,5,7,9,-1,-1,11,13,-1,-1,-1,15,17,19,-1,-1,-1,-1,-1,-1],"loss_changes":[2.6814783E-5,5.623921E-6,1.903589E-5,5.3273247E-6,2.771692E-6,0E0,0E0,4.5586594E-6,3.1114096E-6,0E0,0E0,0E0,3.875403E-6,3.9726942E-6,1.5933845E-6,0E0,0E0,0E0,0E0,0E0,0E0],"parents":[2147483647,0,0,1,1,2,2,3,3,4,4,7,7,8,8,12,12,13,13,14,14],"right_children":[2,4,6,8,10,-1,-1,12,14,-1,-1,-1,16,18,20,-1,-1,-1,-1,-1,-1],"split_conditions":[1.0434414E2,1.20552056E-1,1.6305327E-2,9.301041E1,8.921496E1,-2.3978204E-5,4.8801303E-4,1.4569011E-2,2.0318268E-2,1.6410723E-4,-1.4825166E-5,4.8645696E-5,5.2767822E1,1.5922727E-2,1.0638742E-1,3.6128426E-5,-7.731906E-5,-1.58168E-5,1.02764185E-4,-2.7297268E-5,4.6547968E-5],"split_indices":[27,0,0,5,1,0,0,2,10,0,0,0,21,6,10,0,0,0,0,0,0],"split_type":[0,0,0,0,0,0,0,0,0,0,0,0,0,0,0,0,0,0,0,0,0],"sum_hessian":[5.3E1,5.1E1,2E0,4.8E1,3E0,1E0,1E0,2.4E1,2.4E1,2E0,1E0,4E0,2E1,1.1E1,1.3E1,3E0,1.7E1,4E0,7E0,1E1,3E0],"tree_param":{"num_deleted":"0","num_feature":"30","num_nodes":"21","size_leaf_vector":"1"}},{"base_weights":[1.8274465E-4,2.022211E-5,2.938887E-3,-6.656689E-5,1.0783318E-3,-2.2779312E-5,4.6361238E-4,-3.6114219E-4,2.306711E-4,1.5316681E-4,-1.4083833E-5,4.475411E-5,-5.364886E-4,-1.541256E-5,4.9747725E-4,3.3418833E-5,-7.0016744E-5,9.292786E-5,-1.2876412E-5],"categories":[],"categories_nodes":[],"categories_segments":[],"categories_sizes":[],"default_left":[0,0,0,0,0,0,0,0,0,0,0,0,0,0,0,0,0,0,0],"id":50,"left_children":[1,3,5,7,9,-1,-1,11,13,-1,-1,-1,15,-1,17,-1,-1,-1,-1],"loss_changes":[2.4129073E-5,4.84706E-6,1.7179898E-5,4.3736945E-6,2.4264932E-6,0E0,0E0,3.7850932E-6,2.6433272E-6,0E0,0E0,0E0,3.2267267E-6,0E0,4.175836E-6,0E0,0E0,0E0,0E0],"parents":[2147483647,0,0,1,1,2,2,3,3,4,4,7,7,8,8,12,12,14,14],"right_children":[2,4,6,8,10,-1,-1,12,14,-1,-1,-1,16,-1,18,-1,-1,-1,-1],"split_conditions":[1.0434414E2,1.20552056E-1,1.6305327E-2,9.301041E1,8.921496E1,-2.2779312E-5,4.6361238E-4,1.4569011E-2,2.0318268E-2,1.5316681E-4,-1.4083833E-5,4.475411E-5,5.2767822E1,-1.541256E-5,4.84088E-2,3.3418833E-5,-7.0016744E-5,9.292786E-5,-1.2876412E-5],"split_indices":[27,0,0,5,1,0,0,2,16,0,0,0,21,0,8,0,0,0,0],"split_type":[0,0,0,0,0,0,0,0,0,0,0,0,0,0,0,0,0,0,0],"sum_hessian":[5.3E1,5.1E1,2E0,4.8E1,3E0,1E0,1E0,2.4E1,2.4E1,2E0,1E0,4E0,2E1,1E1,1.4E1,3E0,1.7E1,8E0,6E0],"tree_param":{"num_deleted":"0","num_feature":"30","num_nodes":"19","size_leaf_vector":"1"}},{"base_weights":[1.7655733E-4,2.227421E-5,2.7919456E-3,-4.8096987E-4,1.8527168E-4,-2.1640304E-5,4.4043214E-4,1.902096E-5,-8.004063E-5,-8.661512E-5,2.9393166E-4,1.6383598E-4,8.280795E-4,8.08506E-6,1.3266988E-4,-1.1683224E-5,1.2294107E-4],"categories":[],"categories_nodes":[],"categories_segments":[],"categories_sizes":[],"default_left":[0,0,0,0,0,0,0,0,0,0,0,0,0,0,0,0,0],"id":51,"left_children":[1,3,5,7,9,-1,-1,-1,-1,-1,11,13,15,-1,-1,-1,-1],"loss_changes":[2.1727363E-5,4.3545406E-6,1.5504875E-5,2.9394341E-6,4.8244933E-6,0E0,0E0,0E0,0E0,0E0,2.435473E-6,2.8842549E-6,2.7981923E-6,0E0,0E0,0E0,0E0],"parents":[2147483647,0,0,1,1,2,2,3,3,4,4,10,10,11,11,12,12],"right_children":[2,4,6,8,10,-1,-1,-1,-1,-1,12,14,16,-1,-1,-1,-1],"split_conditions":[1.0434414E2,1.5922727E-2,1.6305327E-2,1.4569011E-2,1.4100544E-2,-2.1640304E-5,4.4043214E-4,1.902096E-5,-8.004063E-5,-8.661512E-5,5.315401E-2,1.469479E-1,9.317419E1,8.08506E-6,1.3266988E-4,-1.1683224E-5,1.2294107E-4],"split_indices":[27,18,0,2,8,0,0,0,0,0,6,0,3,0,0,0,0],"split_type":[0,0,0,0,0,0,0,0,0,0,0,0,0,0,0,0,0],"sum_hessian":[5.3E1,5.1E1,2E0,1.2E1,3.9E1,1E0,1E0,4E0,8E0,3E0,3.6E1,3E1,6E0,2.9E1,1E0,2E0,4E0],"tree_param":{"num_deleted":"0","num_feature":"30","num_nodes":"17","size_leaf_vector":"1"}},{"base_weights":[1.6859012E-4,2.2054292E-5,2.6523478E-3,-4.164474E-4,1.7889966E-4,-2.0558295E-5,4.1841046E-4,1.0529766E-5,-7.180055E-4,-8.0119E-5,2.8282907E-4,-1.0306351E-4,-2.6177484E-5,5.196775E-4,-1.2453098E-5,-3.7706043E-6,8.9440866E-5,7.611439E-5,-1.083744E-5],"categories":[],"categories_nodes":[],"categories_segments":[],"categories_sizes":[],"default_left":[0,0,0,0,0,0,0,0,0,0,0,0,0,0,0,0,0,0,0],"id":52,"left_children":[1,3,5,7,9,-1,-1,-1,11,-1,13,-1,-1,15,17,-1,-1,-1,-1],"loss_changes":[1.9595316E-5,3.6509043E-6,1.3993145E-5,2.2783145E-6,4.199146E-6,0E0,0E0,0E0,1.0138865E-6,0E0,2.524207E-6,0E0,0E0,4.211105E-6,1.3439637E-6,0E0,0E0,0E0,0E0],"parents":[2147483647,0,0,1,1,2,2,3,3,4,4,8,8,10,10,13,13,14,14],"right_children":[2,4,6,8,10,-1,-1,-1,12,-1,14,-1,-1,16,18,-1,-1,-1,-1],"split_conditions":[1.0434414E2,1.6213816E-2,1.6305327E-2,5.3107014E1,1.4100544E-2,-2.0558295E-5,4.1841046E-4,1.0529766E-5,2.1722997E-2,-8.0119E-5,4.8382524E-2,-1.0306351E-4,-2.6177484E-5,2.1760657E-2,1.4027022E-2,-3.7706043E-6,8.9440866E-5,7.611439E-5,-1.083744E-5],"split_indices":[27,18,0,1,8,0,0,0,26,0,24,0,0,18,2,0,0,0,0],"split_type":[0,0,0,0,0,0,0,0,0,0,0,0,0,0,0,0,0,0,0],"sum_hessian":[5.3E1,5.1E1,2E0,1.3E1,3.8E1,1E0,1E0,5E0,8E0,3E0,3.5E1,4E0,4E0,1.9E1,1.6E1,8E0,1.1E1,1E0,1.5E1],"tree_param":{"num_deleted":"0","num_feature":"30","num_nodes":"19","size_leaf_vector":"1"}},{"base_weights":[1.5821189E-4,1.8927896E-5,2.5197305E-3,-5.316508E-5,8.973349E-4,-1.9530393E-5,3.9748996E-4,-1.0501469E-4,1.1603229E-5,1.284726E-4,-1.3241917E-5,-3.8328193E-4,1.7386174E-4,6.111879E-5,-5.067941E-5,5.310994E-5,2.8835686E-7],"categories":[],"categories_nodes":[],"categories_segments":[],"categories_sizes":[],"default_left":[0,0,0,0,0,0,0,0,0,0,0,0,0,0,0,0,0],"id":53,"left_children":[1,3,5,7,9,-1,-1,-1,11,-1,-1,13,15,-1,-1,-1,-1],"loss_changes":[1.7714081E-5,3.3407093E-6,1.2628818E-5,3.1762536E-6,1.7657926E-6,0E0,0E0,0E0,3.0780916E-6,0E0,0E0,2.0293537E-6,2.0751831E-6,0E0,0E0,0E0,0E0],"parents":[2147483647,0,0,1,1,2,2,3,3,4,4,8,8,11,11,12,12],"right_children":[2,4,6,8,10,-1,-1,-1,12,-1,-1,14,16,-1,-1,-1,-1],"split_conditions":[1.0434414E2,1.20552056E-1,1.6305327E-2,5.274301E1,8.921496E1,-1.9530393E-5,3.9748996E-4,-1.0501469E-4,1.6213816E-2,1.284726E-4,-1.3241917E-5,1.4100544E-2,1.6213816E-2,6.111879E-5,-5.067941E-5,5.310994E-5,2.8835686E-7],"split_indices":[27,0,0,3,1,0,0,0,18,0,0,16,8,0,0,0,0],"split_type":[0,0,0,0,0,0,0,0,0,0,0,0,0,0,0,0,0],"sum_hessian":[5.3E1,5.1E1,2E0,4.8E1,3E0,1E0,1E0,2E0,4.6E1,2E0,1E0,1.3E1,3.3E1,1E0,1.2E1,1E1,2.3E1],"tree_param":{"num_deleted":"0","num_feature":"30","num_nodes":"17","size_leaf_vector":"1"}},{"base_weights":[1.5076163E-4,1.8459512E-5,2.3937442E-3,-4.8688576E-5,8.364087E-4,-1.8553901E-5,3.7761554E-4,-9.801375E-5,1.1801541E-5,1.1990766E-4,-1.2579747E-5,-3.274452E-4,1.6564698E-4,1.9209385E-5,-5.3383155E-5,7.4848067E-6,8.052271E-5],"categories":[],"categories_nodes":[],"categories_segments":[],"categories_sizes":[],"default_left":[0,0,0,0,0,0,0,0,0,0,0,0,0,0,0,0,0],"id":54,"left_children":[1,3,5,7,9,-1,-1,-1,11,-1,-1,13,15,-1,-1,-1,-1],"loss_changes":[1.5980382E-5,2.8967572E-6,1.1397515E-5,2.7723963E-6,1.5466856E-6,0E0,0E0,0E0,2.5072436E-6,0E0,0E0,1.7109325E-6,1.856145E-6,0E0,0E0,0E0,0E0],"parents":[2147483647,0,0,1,1,2,2,3,3,4,4,8,8,11,11,12,12],"right_children":[2,4,6,8,10,-1,-1,-1,12,-1,-1,14,16,-1,-1,-1,-1],"split_conditions":[1.0434414E2,1.20552056E-1,1.6305327E-2,5.274301E1,8.921496E1,-1.8553901E-5,3.7761554E-4,-9.801375E-5,1.6305327E-2,1.1990766E-4,-1.2579747E-5,1.4569011E-2,1.0440015E-1,1.9209385E-5,-5.3383155E-5,7.4848067E-6,8.052271E-5],"split_indices":[27,0,0,3,1,0,0,0,18,0,0,2,6,0,0,0,0],"split_type":[0,0,0,0,0,0,0,0,0,0,0,0,0,0,0,0,0],"sum_hessian":[5.3E1,5.1E1,2E0,4.8E1,3E0,1E0,1E0,2E0,4.6E1,2E0,1E0,1.4E1,3.2E1,4E0,1E1,2.9E1,3E0],"tree_param":{"num_deleted":"0","num_feature":"30","num_nodes":"17","size_leaf_vector":"1"}},{"base_weights":[1.4350445E-4,1.7828164E-5,2.2740588E-3,-6.648868E-5,8.857289E-5,-1.7626211E-5,3.5873504E-4,3.871945E-4,-1.0350657E-4,-1.5260868E-5,5.90882E-4,-3.2768512E-4,2.1485655E-4,8.1276354E-5,-1.6701268E-5,1.763222E-5,-4.402414E-5,-9.3853805E-6,5.906609E-5],"categories":[],"categories_nodes":[],"categories_segments":[],"categories_sizes":[],"default_left":[0,0,0,0,0,0,0,0,0,0,0,0,0,0,0,0,0,0,0],"id":55,"left_children":[1,3,5,-1,7,-1,-1,9,11,-1,13,15,17,-1,-1,-1,-1,-1,-1],"loss_changes":[1.4418506E-5,2.570412E-6,1.02862705E-5,0E0,2.7933133E-6,0E0,0E0,2.1792457E-6,2.2115107E-6,0E0,2.4900214E-6,1.0987499E-6,1.5636268E-6,0E0,0E0,0E0,0E0,0E0,0E0],"parents":[2147483647,0,0,1,1,2,2,4,4,7,7,8,8,10,10,11,11,12,12],"right_children":[2,4,6,-1,8,-1,-1,10,12,-1,14,16,18,-1,-1,-1,-1,-1,-1],"split_conditions":[1.0434414E2,1.4100544E-2,1.6305327E-2,-6.648868E-5,2.0269345E-2,-1.7626211E-5,3.5873504E-4,1.56167215E-2,4.7265165E-2,-1.5260868E-5,9.91282E1,5.288417E1,5.2186012E-2,8.1276354E-5,-1.6701268E-5,1.763222E-5,-4.402414E-5,-9.3853805E-6,5.906609E-5],"split_indices":[27,8,0,0,8,0,0,22,22,0,27,1,6,0,0,0,0,0,0],"split_type":[0,0,0,0,0,0,0,0,0,0,0,0,0,0,0,0,0,0,0],"sum_hessian":[5.3E1,5.1E1,2E0,4E0,4.7E1,1E0,1E0,1.8E1,2.9E1,5E0,1.3E1,1.7E1,1.2E1,1E1,3E0,3E0,1.4E1,7E0,5E0],"tree_param":{"num_deleted":"0","num_feature":"30","num_nodes":"19","size_leaf_vector":"1"}},{"base_weights":[1.355843E-4,1.6163085E-5,2.1603573E-3,-4.396468E-5,7.486874E-4,-1.6744902E-5,3.407985E-4,-8.875448E-5,1.0816281E-5,1.07235464E-4,-1.1115708E-5,-4.630033E-5,1.0530979E-4,-4.9937018E-5,1.8636783E-5],"categories":[],"categories_nodes":[],"categories_segments":[],"categories_sizes":[],"default_left":[0,0,0,0,0,0,0,0,0,0,0,0,0,0,0],"id":56,"left_children":[1,3,5,7,9,-1,-1,-1,11,-1,-1,-1,13,-1,-1],"loss_changes":[1.3022329E-5,2.3232585E-6,9.283371E-6,2.2739941E-6,1.2324138E-6,0E0,0E0,0E0,2.1530839E-6,0E0,0E0,0E0,2.0536336E-6,0E0,0E0],"parents":[2147483647,0,0,1,1,2,2,3,3,4,4,8,8,12,12],"right_children":[2,4,6,8,10,-1,-1,-1,12,-1,-1,-1,14,-1,-1],"split_conditions":[1.0434414E2,1.20552056E-1,1.6305327E-2,5.274301E1,8.921496E1,-1.6744902E-5,3.407985E-4,-8.875448E-5,1.4469396E-2,1.07235464E-4,-1.1115708E-5,-4.630033E-5,1.4362125E-2,-4.9937018E-5,1.8636783E-5],"split_indices":[27,0,0,3,1,0,0,0,6,0,0,0,18,0,0],"split_type":[0,0,0,0,0,0,0,0,0,0,0,0,0,0,0],"sum_hessian":[5.3E1,5.1E1,2E0,4.8E1,3E0,1E0,1E0,2E0,4.6E1,2E0,1E0,7E0,3.9E1,4E0,3.5E1],"tree_param":{"num_deleted":"0","num_feature":"30","num_nodes":"15","size_leaf_vector":"1"}},{"base_weights":[1.2672575E-4,1.319573E-5,2.0523376E-3,6.2695594E-4,-5.1012536E-5,-1.5907643E-5,3.237583E-4,-3.0311756E-5,9.352537E-5,-6.3045176E-5,4.6775254E-5,-3.7532867E-4,1.7326811E-4,-5.890199E-5,9.246311E-6,5.0019382E-5,-1.2930822E-6],"categories":[],"categories_nodes":[],"categories_segments":[],"categories_sizes":[],"default_left":[0,0,0,0,0,0,0,0,0,0,0,0,0,0,0,0,0],"id":57,"left_children":[1,3,5,7,9,-1,-1,-1,-1,-1,11,13,15,-1,-1,-1,-1],"loss_changes":[1.1778115E-5,2.0812233E-6,8.378225E-6,1.7171897E-6,2.7492695E-6,0E0,0E0,0E0,0E0,0E0,2.3075438E-6,1.0540925E-6,2.0152838E-6,0E0,0E0,0E0,0E0],"parents":[2147483647,0,0,1,1,2,2,3,3,4,4,10,10,11,11,12,12],"right_children":[2,4,6,8,10,-1,-1,-1,-1,-1,12,14,16,-1,-1,-1,-1],"split_conditions":[1.0434414E2,5.2767822E1,1.6305327E-2,5.0787384E1,5.288417E1,-1.5907643E-5,3.237583E-4,-3.0311756E-5,9.352537E-5,-6.3045176E-5,1.5623049E-2,2.2920525E-2,2.0318268E-2,-5.890199E-5,9.246311E-6,5.0019382E-5,-1.2930822E-6],"split_indices":[27,17,0,1,11,0,0,0,0,0,6,16,10,0,0,0,0],"split_type":[0,0,0,0,0,0,0,0,0,0,0,0,0,0,0,0,0],"sum_hessian":[5.3E1,5.1E1,2E0,4E0,4.7E1,1E0,1E0,1E0,3E0,6E0,4.1E1,9E0,3.2E1,6E0,3E0,1.1E1,2.1E1],"tree_param":{"num_deleted":"0","num_feature":"30","num_nodes":"17","size_leaf_vector":"1"}},{"base_weights":[1.197399E-4,1.1861396E-5,1.9497207E-3,-4.2523883E-5,6.7511573E-4,-1.5112292E-5,3.0757042E-4,-7.972556E-5,6.5552426E-6,9.701227E-5,-1.04952605E-5,2.483439E-4,-1.3873646E-4,-3.0228124E-5,3.78621E-5,-2.6443891E-5,2.400002E-5],"categories":[],"categories_nodes":[],"categories_segments":[],"categories_sizes":[],"default_left":[0,0,0,0,0,0,0,0,0,0,0,0,0,0,0,0,0],"id":58,"left_children":[1,3,5,7,9,